{"learner":{"attributes":{},"feature_names":[],"feature_types":[],"gradient_booster":{"model":{"gbtree_model_param":{"num_parallel_tree":"1","num_trees":"100"},"iteration_indptr":[0,1,2,3,4,5,6,7,8,9,10,11,12,13,14,15,16,17,18,19,20,21,22,23,24,25,26,27,28,29,30,31,32,33,34,35,36,37,38,39,40,41,42,43,44,45,46,47,48,49,50,51,52,53,54,55,56,57,58,59,60,61,62,63,64,65,66,67,68,69,70,71,72,73,74,75,76,77,78,79,80,81,82,83,84,85,86,87,88,89,90,91,92,93,94,95,96,97,98,99,100],"tree_info":[0,0,0,0,0,0,0,0,0,0,0,0,0,0,0,0,0,0,0,0,0,0,0,0,0,0,0,0,0,0,0,0,0,0,0,0,0,0,0,0,0,0,0,0,0,0,0,0,0,0,0,0,0,0,0,0,0,0,0,0,0,0,0,0,0,0,0,0,0,0,0,0,0,0,0,0,0,0,0,0,0,0,0,0,0,0,0,0,0,0,0,0,0,0,0,0,0,0,0,0],"trees":[{"base_weights":[-1.2058117E-8,-1.1074325E-1,4.4398072E-1,-2.8251597E-1,4.0110983E-3,2.8464788E-1,5.544515E-1,-3.5663348E-1,-2.2704487E-1,-3.8251266E-2,7.223022E-2,2.0669854E-1,3.5398212E-1,1.4412317E-1,1.8281092E-1,-1.1198632E-1,-9.6967205E-2,-2.52889E-1,-1.9171444E-1,-8.718894E-2,-1.7104588E-2,4.9003568E-2,1.1290433E-1,1.8499511E-1,6.794844E-2,9.606925E-2,1.1376809E-1,-8.064962E-2,-7.186692E-2,-6.1540343E-2,-5.110664E-2,-1.207452E-1,-6.870989E-2,-3.371165E-2,-4.196687E-3,3.0576115E-2,6.5014094E-2,1.0032274E-1,4.225163E-2,1.3114215E-2,5.5800293E-2,-3.844456E-2,-3.2029223E-2,-2.4976937E-2,-1.836972E-2,-1.3540089E-2,-8.612849E-3,-4.21521E-3,1.2667621E-3,6.83716E-3,1.13585E-2,1.744652E-2,2.1942487E-2,2.7301164E-2,3.2679386E-2],"categories":[],"categories_nodes":[],"categories_segments":[],"categories_sizes":[],"default_left":[0,0,0,0,0,0,0,0,0,0,0,0,0,0,0,0,0,0,0,0,0,0,0,0,0,0,0,0,0,0,0,0,0,0,0,0,0,0,0,0,0,0,0,0,0,0,0,0,0,0,0,0,0,0,0],"id":0,"left_children":[1,3,5,7,9,11,13,15,17,19,21,23,25,-1,-1,-1,-1,27,29,31,33,35,37,39,-1,-1,-1,-1,-1,-1,-1,41,43,45,47,49,51,53,-1,-1,-1,-1,-1,-1,-1,-1,-1,-1,-1,-1,-1,-1,-1,-1,-1],"loss_changes":[2.4357759E2,7.81579E1,1.7250183E1,6.447899E0,6.8587785E0,2.1264877E0,2.0778503E0,2.5658417E-1,7.8333664E-1,1.5187314E0,8.5416555E-1,4.1451454E-2,6.0897827E-2,0E0,0E0,0E0,0E0,4.676819E-2,7.655716E-2,2.6640272E-1,2.2000864E-1,1.6942656E-1,1.0185242E-1,5.7957172E-3,0E0,0E0,0E0,0E0,0E0,0E0,0E0,2.465248E-3,2.6228309E-2,2.4357617E-2,4.809501E-2,1.4565587E-2,1.3027906E-2,8.618355E-3,0E0,0E0,0E0,0E0,0E0,0E0,0E0,0E0,0E0,0E0,0E0,0E0,0E0,0E0,0E0,0E0,0E0],"parents":[2147483647,0,0,1,1,2,2,3,3,4,4,5,5,6,6,7,7,8,8,9,9,10,10,11,11,12,12,17,17,18,18,19,19,20,20,21,21,22,22,23,23,31,31,32,32,33,33,34,34,35,35,36,36,37,37],"right_children":[2,4,6,8,10,12,14,16,18,20,22,24,26,-1,-1,-1,-1,28,30,32,34,36,38,40,-1,-1,-1,-1,-1,-1,-1,42,44,46,48,50,52,54,-1,-1,-1,-1,-1,-1,-1,-1,-1,-1,-1,-1,-1,-1,-1,-1,-1],"split_conditions":[1.4963E0,1.1874E0,1.7507E0,1.0373E0,1.3481E0,1.6221E0,1.872E0,9.805E-1,1.1078E0,1.278E0,1.4128E0,1.5344E0,1.6832E0,1.4412317E-1,1.8281092E-1,-1.1198632E-1,-9.6967205E-2,1.0746E0,1.1425E0,1.2308E0,1.3092E0,1.377E0,1.4552E0,1.4267E0,6.794844E-2,9.606925E-2,1.1376809E-1,-8.064962E-2,-7.186692E-2,-6.1540343E-2,-5.110664E-2,1.2129E0,1.2566E0,1.2897E0,1.3247E0,1.3602E0,1.3966E0,1.429E0,4.225163E-2,1.3114215E-2,5.5800293E-2,-3.844456E-2,-3.2029223E-2,-2.4976937E-2,-1.836972E-2,-1.3540089E-2,-8.612849E-3,-4.21521E-3,1.2667621E-3,6.83716E-3,1.13585E-2,1.744652E-2,2.1942487E-2,2.7301164E-2,3.2679386E-2],"split_indices":[0,0,0,0,0,0,0,0,0,0,0,0,0,0,0,0,0,0,0,0,0,0,0,1,0,0,0,0,0,0,0,0,0,0,0,0,0,0,0,0,0,0,0,0,0,0,0,0,0,0,0,0,0,0,0],"split_type":[0,0,0,0,0,0,0,0,0,0,0,0,0,0,0,0,0,0,0,0,0,0,0,0,0,0,0,0,0,0,0,0,0,0,0,0,0,0,0,0,0,0,0,0,0,0,0,0,0,0,0,0,0,0,0],"sum_hessian":[4.952E3,3.964E3,9.88E2,1.587E3,2.377E3,4.06E2,5.82E2,6.77E2,9.1E2,1.468E3,9.09E2,1.93E2,2.13E2,2.52E2,3.3E2,4.45E2,2.32E2,5.22E2,3.88E2,4.42E2,1.026E3,5.8E2,3.29E2,9.7E1,9.6E1,9.7E1,1.16E2,2.29E2,2.93E2,2.33E2,1.55E2,1.55E2,2.87E2,4.48E2,5.78E2,2.71E2,3.09E2,2.3E2,9.9E1,1E0,9.6E1,9.6E1,5.9E1,9.4E1,1.93E2,1.34E2,3.14E2,2.66E2,3.12E2,1.33E2,1.38E2,1.72E2,1.37E2,1.16E2,1.14E2],"tree_param":{"num_deleted":"0","num_feature":"7","num_nodes":"55","size_leaf_vector":"1"}},{"base_weights":[4.4494114E-5,-7.763457E-2,3.1146762E-1,-1.9946039E-1,1.973042E-3,1.9498484E-1,3.860255E-1,-2.476124E-1,-1.5865609E-1,-3.055333E-2,4.696536E-2,1.3995935E-1,2.3861021E-1,3.4218812E-1,4.3760172E-1,-2.5905475E-1,-6.4628966E-2,-1.7232275E-1,-1.3162392E-1,-6.903714E-2,-1.6720392E-2,2.8144691E-2,7.45277E-2,3.771668E-2,1.4996484E-1,2.0011143E-1,7.556636E-2,9.156205E-2,1.0986763E-1,1.2361232E-1,1.4002736E-1,-8.2140535E-2,-7.4471615E-2,-5.4249257E-2,-4.7325004E-2,-4.0733464E-2,-3.3799756E-2,-8.599051E-2,-5.304869E-2,-3.0091338E-2,-7.916043E-3,1.6724495E-2,4.0133376E-2,6.387522E-2,9.490665E-2,1.1147082E-2,4.5225862E-2,1.4726938E-2,6.055173E-2,-2.7700854E-2,-2.3084955E-2,-1.8169668E-2,-1.4246699E-2,-1.1325698E-2,-7.819282E-3,-3.9310753E-3,-6.0181867E-4,4.0940773E-3,7.0540435E-3,9.626729E-3,1.3621283E-2,1.685284E-2,2.1298703E-2,2.4403425E-2,3.1288803E-2],"categories":[],"categories_nodes":[],"categories_segments":[],"categories_sizes":[],"default_left":[0,0,0,0,0,0,0,0,0,0,0,0,0,0,0,0,0,0,0,0,0,0,0,0,0,0,0,0,0,0,0,0,0,0,0,0,0,0,0,0,0,0,0,0,0,0,0,0,0,0,0,0,0,0,0,0,0,0,0,0,0,0,0,0,0],"id":1,"left_children":[1,3,5,7,9,11,13,15,17,19,21,23,25,27,29,31,-1,33,35,37,39,41,43,-1,45,47,-1,-1,-1,-1,-1,-1,-1,-1,-1,-1,-1,49,51,53,55,57,59,61,63,-1,-1,-1,-1,-1,-1,-1,-1,-1,-1,-1,-1,-1,-1,-1,-1,-1,-1,-1,-1],"loss_changes":[1.1984249E2,3.8454002E1,8.513908E0,3.039566E0,3.5122201E0,8.980017E-1,1.2113571E0,2.0822525E-1,2.917099E-1,7.4040115E-1,5.2027535E-1,5.932331E-3,5.949688E-2,1.8157196E-1,1.1131287E-2,1.5613556E-2,0E0,4.115486E-2,7.5421333E-3,9.518778E-2,1.2054506E-1,8.147669E-2,8.25088E-2,0E0,3.0214787E-3,5.746603E-3,0E0,0E0,0E0,0E0,0E0,0E0,0E0,0E0,0E0,0E0,0E0,3.0491352E-3,5.147755E-3,1.157251E-2,1.8981837E-2,6.1352253E-3,1.0923982E-2,1.0868311E-2,9.088635E-3,0E0,0E0,0E0,0E0,0E0,0E0,0E0,0E0,0E0,0E0,0E0,0E0,0E0,0E0,0E0,0E0,0E0,0E0,0E0,0E0],"parents":[2147483647,0,0,1,1,2,2,3,3,4,4,5,5,6,6,7,7,8,8,9,9,10,10,11,11,12,12,13,13,14,14,15,15,17,17,18,18,19,19,20,20,21,21,22,22,24,24,25,25,37,37,38,38,39,39,40,40,41,41,42,42,43,43,44,44],"right_children":[2,4,6,8,10,12,14,16,18,20,22,24,26,28,30,32,-1,34,36,38,40,42,44,-1,46,48,-1,-1,-1,-1,-1,-1,-1,-1,-1,-1,-1,50,52,54,56,58,60,62,64,-1,-1,-1,-1,-1,-1,-1,-1,-1,-1,-1,-1,-1,-1,-1,-1,-1,-1,-1,-1],"split_conditions":[1.4963E0,1.1792E0,1.7397E0,1.0477E0,1.3396E0,1.587E0,1.9051E0,9.97E-1,1.1183E0,1.2695E0,1.4035E0,1.5249E0,1.6499E0,1.8096E0,1.9486E0,9.572E-1,-6.4628966E-2,1.0906E0,1.1573E0,1.2308E0,1.3021E0,1.3689E0,1.4457E0,3.771668E-2,1.4267E0,1.4351E0,7.556636E-2,9.156205E-2,1.0986763E-1,1.2361232E-1,1.4002736E-1,-8.2140535E-2,-7.4471615E-2,-5.4249257E-2,-4.7325004E-2,-4.0733464E-2,-3.3799756E-2,1.2079E0,1.2525E0,1.2816E0,1.32E0,1.3587E0,1.3845E0,1.4209E0,1.462E0,1.1147082E-2,4.5225862E-2,1.4726938E-2,6.055173E-2,-2.7700854E-2,-2.3084955E-2,-1.8169668E-2,-1.4246699E-2,-1.1325698E-2,-7.819282E-3,-3.9310753E-3,-6.0181867E-4,4.0940773E-3,7.0540435E-3,9.626729E-3,1.3621283E-2,1.685284E-2,2.1298703E-2,2.4403425E-2,3.1288803E-2],"split_indices":[0,0,1,0,0,0,0,0,0,0,0,0,0,0,0,0,0,0,0,0,0,0,0,0,1,6,0,0,0,0,0,0,0,0,0,0,0,0,0,0,0,0,0,0,0,0,0,0,0,0,0,0,0,0,0,0,0,0,0,0,0,0,0,0,0],"split_type":[0,0,0,0,0,0,0,0,0,0,0,0,0,0,0,0,0,0,0,0,0,0,0,0,0,0,0,0,0,0,0,0,0,0,0,0,0,0,0,0,0,0,0,0,0,0,0,0,0,0,0,0,0,0,0,0,0,0,0,0,0,0,0,0,0],"sum_hessian":[4.952E3,3.964E3,9.88E2,1.566E3,2.398E3,3.87E2,6.01E2,7.16E2,8.5E2,1.392E3,1.006E3,1.73E2,2.14E2,3.29E2,2.72E2,5.23E2,1.93E2,5.61E2,2.89E2,3.67E2,1.025E3,5.99E2,4.07E2,7.7E1,9.6E1,5.9E1,1.55E2,1.35E2,1.94E2,1.53E2,1.19E2,2.11E2,3.12E2,3.47E2,2.14E2,2.32E2,5.7E1,1.76E2,1.91E2,4.06E2,6.19E2,3.08E2,2.91E2,2.7E2,1.37E2,1E0,9.5E1,1E0,5.8E1,9.8E1,7.8E1,7.7E1,1.14E2,1.37E2,2.69E2,3.29E2,2.9E2,2.14E2,9.4E1,1.18E2,1.73E2,1.34E2,1.36E2,6E1,7.7E1],"tree_param":{"num_deleted":"0","num_feature":"7","num_nodes":"65","size_leaf_vector":"1"}},{"base_weights":[9.8580786E-5,-5.510034E-2,2.1618474E-1,-1.3987583E-1,7.392797E-4,1.4334095E-1,2.7805272E-1,-1.7751779E-1,-1.13765135E-1,-2.11021E-2,3.2565173E-2,1.0041216E-1,1.78916E-1,2.5108752E-1,3.124406E-1,-5.6466345E-2,-4.967692E-2,-1.2791476E-1,-9.805267E-2,-4.669786E-2,-1.06899915E-2,1.7393773E-2,4.760713E-2,9.212839E-2,1.20961405E-1,1.6087058E-1,5.945937E-2,6.765832E-2,7.950141E-2,9.0395E-2,1.0731798E-1,-4.177383E-2,-3.666663E-2,-3.2065414E-2,-2.6391739E-2,-6.0480237E-2,-3.598157E-2,-1.9910399E-2,-4.9564224E-3,1.156465E-2,2.463317E-2,3.9346E-2,6.1680637E-2,2.7869279E-2,6.579888E-3,9.848053E-3,3.6579516E-2,1.2517888E-2,4.843322E-2,-1.8945552E-2,-1.4925369E-2,-1.2788658E-2,-9.721302E-3,-7.1060704E-3,-4.8327777E-3,-2.2130078E-3,6.730388E-4,2.8483474E-3,4.5653735E-3,2.0034028E-2,7.2372495E-3,1.0723969E-2,1.3484171E-2,1.6738905E-2,2.1460846E-2],"categories":[],"categories_nodes":[],"categories_segments":[],"categories_sizes":[],"default_left":[0,0,0,0,0,0,0,0,0,0,0,0,0,0,0,0,0,0,0,0,0,0,0,0,0,0,0,0,0,0,0,0,0,0,0,0,0,0,0,0,0,0,0,0,0,0,0,0,0,0,0,0,0,0,0,0,0,0,0,0,0,0,0,0,0],"id":2,"left_children":[1,3,5,7,9,11,13,15,17,19,21,23,25,27,29,-1,-1,31,33,35,37,39,41,43,45,47,-1,-1,-1,-1,-1,-1,-1,-1,-1,49,51,53,55,57,59,61,63,-1,-1,-1,-1,-1,-1,-1,-1,-1,-1,-1,-1,-1,-1,-1,-1,-1,-1,-1,-1,-1,-1],"loss_changes":[5.9089916E1,1.8679802E1,4.502899E0,1.5199451E0,1.6550764E0,6.9218063E-1,4.2598724E-1,5.0540924E-2,1.9377518E-1,3.7580705E-1,2.2030509E-1,2.511406E-2,5.614662E-2,5.050659E-2,1.0591507E-2,0E0,0E0,1.4266968E-2,3.0125618E-2,5.8083832E-2,5.3031474E-2,2.0139605E-2,5.407691E-2,6.385684E-3,9.574294E-4,2.5558472E-3,0E0,0E0,0E0,0E0,0E0,0E0,0E0,0E0,0E0,1.9314885E-3,4.1353405E-3,5.1451027E-3,1.0837888E-2,1.8974803E-3,3.001377E-3,4.623145E-3,6.331265E-3,0E0,0E0,0E0,0E0,0E0,0E0,0E0,0E0,0E0,0E0,0E0,0E0,0E0,0E0,0E0,0E0,0E0,0E0,0E0,0E0,0E0,0E0],"parents":[2147483647,0,0,1,1,2,2,3,3,4,4,5,5,6,6,7,7,8,8,9,9,10,10,11,11,12,12,13,13,14,14,17,17,18,18,19,19,20,20,21,21,22,22,23,23,24,24,25,25,35,35,36,36,37,37,38,38,39,39,40,40,41,41,42,42],"right_children":[2,4,6,8,10,12,14,16,18,20,22,24,26,28,30,-1,-1,32,34,36,38,40,42,44,46,48,-1,-1,-1,-1,-1,-1,-1,-1,-1,50,52,54,56,58,60,62,64,-1,-1,-1,-1,-1,-1,-1,-1,-1,-1,-1,-1,-1,-1,-1,-1,-1,-1,-1,-1,-1,-1],"split_conditions":[1.4832E0,1.1792E0,1.7768E0,1.0248E0,1.3412E0,1.6221E0,1.9186E0,9.672E-1,1.0971E0,1.2734E0,1.3924E0,1.5506E0,1.6978E0,1.8282E0,1.9916E0,-5.6466345E-2,-4.967692E-2,1.0628E0,1.1302E0,1.2308E0,1.3029E0,1.3671E0,1.432E0,1.6221E0,1.485E0,1.4351E0,5.945937E-2,6.765832E-2,7.950141E-2,9.0395E-2,1.0731798E-1,-4.177383E-2,-3.666663E-2,-3.2065414E-2,-2.6391739E-2,1.2194E0,1.2525E0,1.2897E0,1.3287E0,1.3561E0,1.2915E0,1.4144E0,1.462E0,2.7869279E-2,6.579888E-3,9.848053E-3,3.6579516E-2,1.2517888E-2,4.843322E-2,-1.8945552E-2,-1.4925369E-2,-1.2788658E-2,-9.721302E-3,-7.1060704E-3,-4.8327777E-3,-2.2130078E-3,6.730388E-4,2.8483474E-3,4.5653735E-3,2.0034028E-2,7.2372495E-3,1.0723969E-2,1.3484171E-2,1.6738905E-2,2.1460846E-2],"split_indices":[1,0,0,0,0,1,0,0,0,0,0,0,0,0,0,0,0,0,0,0,0,0,0,5,2,6,0,0,0,0,0,0,0,0,0,0,0,0,0,0,2,0,0,0,0,0,0,0,0,0,0,0,0,0,0,0,0,0,0,0,0,0,0,0,0],"split_type":[0,0,0,0,0,0,0,0,0,0,0,0,0,0,0,0,0,0,0,0,0,0,0,0,0,0,0,0,0,0,0,0,0,0,0,0,0,0,0,0,0,0,0,0,0,0,0,0,0,0,0,0,0,0,0,0,0,0,0,0,0,0,0,0,0],"sum_hessian":[4.952E3,3.945E3,1.007E3,1.566E3,2.379E3,4.64E2,5.43E2,6.39E2,9.27E2,1.411E3,9.68E2,2.12E2,2.52E2,3.09E2,2.34E2,3.29E2,3.1E2,4.84E2,4.43E2,4.07E2,1.004E3,4.83E2,4.85E2,1.55E2,5.7E1,1.35E2,1.17E2,1.15E2,1.94E2,1.94E2,4E1,1.54E2,3.3E2,2.31E2,2.12E2,1.76E2,2.31E2,3.84E2,6.2E2,2.69E2,2.14E2,3.08E2,1.77E2,1.53E2,2E0,1E0,5.6E1,1E0,1.34E2,1.37E2,3.9E1,7.7E1,1.54E2,1.9E2,1.94E2,4.64E2,1.56E2,1.74E2,9.5E1,1E0,2.13E2,1.92E2,1.16E2,1.15E2,6.2E1],"tree_param":{"num_deleted":"0","num_feature":"7","num_nodes":"65","size_leaf_vector":"1"}},{"base_weights":[1.357071E-4,-3.7242167E-2,1.5767346E-1,-9.627517E-2,3.16319E-3,1.1052911E-1,1.9882281E-1,-1.2129639E-1,-7.547055E-2,-1.2026898E-2,2.686875E-2,8.3155535E-2,1.3507865E-1,1.8339339E-1,6.793988E-2,-1.2722687E-1,-3.0501027E-2,-8.313134E-2,-5.9470747E-2,-2.743772E-2,-5.1980275E-3,1.7727427E-2,4.1802883E-2,7.036221E-2,9.7729385E-2,3.7165485E-2,4.353535E-2,5.0524417E-2,5.7907738E-2,-4.2781312E-2,-3.6859006E-2,-2.6771782E-2,-2.3150565E-2,-1.922166E-2,-1.4912387E-2,-3.6666546E-2,-2.13769E-2,-9.955956E-3,7.983748E-4,1.1160403E-2,2.3408232E-2,3.572077E-2,5.3561307E-2,7.0664205E-2,5.2996874E-3,7.051434E-2,3.0330535E-2,-1.1915789E-2,-9.736231E-3,-8.312025E-3,-6.048265E-3,-4.3102456E-3,-2.400346E-3,-4.7843918E-4,1.3540458E-3,2.7769152E-3,4.166352E-3,6.2570483E-3,7.913583E-3,9.446443E-3,1.18543925E-2,1.616135E-2,2.5961818E-3,8.413851E-3,2.1349762E-2,2.3152635E-2,1.0370323E-2],"categories":[],"categories_nodes":[],"categories_segments":[],"categories_sizes":[],"default_left":[0,0,0,0,0,0,0,0,0,0,0,0,0,0,0,0,0,0,0,0,0,0,0,0,0,0,0,0,0,0,0,0,0,0,0,0,0,0,0,0,0,0,0,0,0,0,0,0,0,0,0,0,0,0,0,0,0,0,0,0,0,0,0,0,0,0,0],"id":3,"left_children":[1,3,5,7,9,11,13,15,17,19,21,23,25,27,-1,29,-1,31,33,35,37,39,41,43,45,-1,-1,-1,-1,-1,-1,-1,-1,-1,-1,47,49,51,53,55,57,59,61,63,-1,65,-1,-1,-1,-1,-1,-1,-1,-1,-1,-1,-1,-1,-1,-1,-1,-1,-1,-1,-1,-1,-1],"loss_changes":[2.917125E1,9.550845E0,1.8209858E0,8.3779144E-1,8.5661614E-1,2.8781128E-1,1.742897E-1,7.284641E-2,1.0426712E-1,1.5245321E-1,1.2608385E-1,3.2836914E-2,8.205414E-3,1.510334E-2,0E0,2.0190239E-2,0E0,1.4966011E-2,9.932637E-3,2.410689E-2,2.8709581E-2,2.1301612E-2,2.3260415E-2,6.135106E-4,1.7734766E-3,0E0,0E0,0E0,0E0,0E0,0E0,0E0,0E0,0E0,0E0,9.613633E-4,1.5273616E-3,4.7229156E-3,3.972539E-3,1.2735873E-3,1.7916262E-3,2.5294125E-3,1.1757612E-3,4.8416853E-4,0E0,6.844327E-4,0E0,0E0,0E0,0E0,0E0,0E0,0E0,0E0,0E0,0E0,0E0,0E0,0E0,0E0,0E0,0E0,0E0,0E0,0E0,0E0,0E0],"parents":[2147483647,0,0,1,1,2,2,3,3,4,4,5,5,6,6,7,7,8,8,9,9,10,10,11,11,12,12,13,13,15,15,17,17,18,18,19,19,20,20,21,21,22,22,23,23,24,24,35,35,36,36,37,37,38,38,39,39,40,40,41,41,42,42,43,43,45,45],"right_children":[2,4,6,8,10,12,14,16,18,20,22,24,26,28,-1,30,-1,32,34,36,38,40,42,44,46,-1,-1,-1,-1,-1,-1,-1,-1,-1,-1,48,50,52,54,56,58,60,62,64,-1,66,-1,-1,-1,-1,-1,-1,-1,-1,-1,-1,-1,-1,-1,-1,-1,-1,-1,-1,-1,-1,-1],"split_conditions":[1.5154E0,1.1979E0,1.7889E0,1.0517E0,1.3501E0,1.66E0,1.9312E0,1.0064E0,1.1264E0,1.2816E0,1.4144E0,1.5662E0,1.7206E0,1.8501E0,6.793988E-2,9.469E-1,-3.0501027E-2,1.0859E0,1.1624E0,1.2489E0,1.3179E0,1.3808E0,1.462E0,1.6221E0,1.5506E0,3.7165485E-2,4.353535E-2,5.0524417E-2,5.7907738E-2,-4.2781312E-2,-3.6859006E-2,-2.6771782E-2,-2.3150565E-2,-1.922166E-2,-1.4912387E-2,1.2243E0,1.2525E0,1.2958E0,1.3349E0,1.3671E0,1.3994E0,1.432E0,1.6221E0,1.4188E0,5.2996874E-3,1.5344E0,3.0330535E-2,-1.1915789E-2,-9.736231E-3,-8.312025E-3,-6.048265E-3,-4.3102456E-3,-2.400346E-3,-4.7843918E-4,1.3540458E-3,2.7769152E-3,4.166352E-3,6.2570483E-3,7.913583E-3,9.446443E-3,1.18543925E-2,1.616135E-2,2.5961818E-3,8.413851E-3,2.1349762E-2,2.3152635E-2,1.0370323E-2],"split_indices":[0,0,0,0,0,0,0,0,0,0,0,0,0,0,0,0,0,0,0,0,0,0,1,4,5,0,0,0,0,0,0,0,0,0,0,0,3,0,0,2,1,0,5,4,0,6,0,0,0,0,0,0,0,0,0,0,0,0,0,0,0,0,0,0,0,0,0],"split_type":[0,0,0,0,0,0,0,0,0,0,0,0,0,0,0,0,0,0,0,0,0,0,0,0,0,0,0,0,0,0,0,0,0,0,0,0,0,0,0,0,0,0,0,0,0,0,0,0,0,0,0,0,0,0,0,0,0,0,0,0,0,0,0,0,0,0,0],"sum_hessian":[4.952E3,4.003E3,9.49E2,1.626E3,2.377E3,4.44E2,5.05E2,7.36E2,8.9E2,1.449E3,9.28E2,2.12E2,2.32E2,3.29E2,1.76E2,5.61E2,1.75E2,5.99E2,2.91E2,4.44E2,1.005E3,5.77E2,3.51E2,1.16E2,9.6E1,1.16E2,1.16E2,1.36E2,1.93E2,1.17E2,4.44E2,2.89E2,3.1E2,1.94E2,9.7E1,1.74E2,2.7E2,5.6E2,4.45E2,2.69E2,3.08E2,2.34E2,1.17E2,1.15E2,1E0,1.3E1,8.3E1,9.6E1,7.8E1,4E1,2.3E2,1.7E2,3.9E2,2.71E2,1.74E2,1.61E2,1.08E2,1.7E2,1.38E2,1.15E2,1.19E2,1.16E2,1E0,2E0,1.13E2,1E1,3E0],"tree_param":{"num_deleted":"0","num_feature":"7","num_nodes":"67","size_leaf_vector":"1"}},{"base_weights":[1.3156424E-4,-2.678304E-2,1.0803477E-1,-6.751197E-2,1.5593102E-3,7.348253E-2,1.3830893E-1,-8.848718E-2,-5.5171553E-2,-9.022611E-3,1.7068155E-2,5.2706793E-2,9.090295E-2,1.3156933E-1,5.211324E-2,-3.1185387E-2,-2.5804922E-2,-6.2904194E-2,-4.572752E-2,-2.091173E-2,-4.7569247E-3,1.145884E-2,2.7555147E-2,4.7662023E-2,1.9545654E-2,8.248701E-2,2.9995883E-2,3.457186E-2,4.1530937E-2,-2.0506298E-2,-1.7659638E-2,-4.936289E-2,-1.0991105E-2,-2.718064E-2,-1.7189778E-2,-8.9427065E-3,-1.2789468E-3,7.047573E-3,1.5819076E-2,2.4823112E-2,3.620945E-2,4.1481648E-2,1.5268956E-2,6.168187E-3,2.4838028E-2,-1.5700623E-2,-1.3700753E-2,-4.509538E-3,-8.409688E-3,-5.811753E-3,-4.4580386E-3,8.9107035E-3,-2.7521376E-3,-8.093445E-4,4.1312937E-4,-6.610849E-4,2.2089875E-3,1.5841879E-2,4.6588266E-3,1.5081973E-2,7.295591E-3,1.0081282E-2,1.4635677E-2,1.8401077E-2,1.128878E-2],"categories":[],"categories_nodes":[],"categories_segments":[],"categories_sizes":[],"default_left":[0,0,0,0,0,0,0,0,0,0,0,0,0,0,0,0,0,0,0,0,0,0,0,0,0,0,0,0,0,0,0,0,0,0,0,0,0,0,0,0,0,0,0,0,0,0,0,0,0,0,0,0,0,0,0,0,0,0,0,0,0,0,0,0,0],"id":4,"left_children":[1,3,5,7,9,11,13,15,17,19,21,23,25,27,-1,-1,-1,29,31,33,35,37,39,41,-1,43,-1,-1,-1,-1,-1,45,-1,47,49,51,53,55,57,59,61,63,-1,-1,-1,-1,-1,-1,-1,-1,-1,-1,-1,-1,-1,-1,-1,-1,-1,-1,-1,-1,-1,-1,-1],"loss_changes":[1.4387258E1,4.5771174E0,1.0243702E0,4.16255E-1,3.840152E-1,1.6314054E-1,1.02645874E-1,1.4021397E-2,7.2122574E-2,7.0445456E-2,5.550906E-2,1.0330498E-2,1.0940313E-2,3.406048E-2,0E0,0E0,0E0,8.346558E-3,1.3591588E-2,8.095831E-3,1.4910569E-2,1.1813693E-2,6.9036186E-3,1.0072291E-3,0E0,8.7833405E-4,0E0,0E0,0E0,0E0,0E0,1.2331605E-3,0E0,9.754151E-4,8.969307E-4,4.425071E-3,2.1178871E-3,9.216666E-4,2.5118738E-3,2.0385385E-3,8.8335574E-4,2.2048503E-3,0E0,0E0,0E0,0E0,0E0,0E0,0E0,0E0,0E0,0E0,0E0,0E0,0E0,0E0,0E0,0E0,0E0,0E0,0E0,0E0,0E0,0E0,0E0],"parents":[2147483647,0,0,1,1,2,2,3,3,4,4,5,5,6,6,7,7,8,8,9,9,10,10,11,11,12,12,13,13,17,17,18,18,19,19,20,20,21,21,22,22,23,23,25,25,31,31,33,33,34,34,35,35,36,36,37,37,38,38,39,39,40,40,41,41],"right_children":[2,4,6,8,10,12,14,16,18,20,22,24,26,28,-1,-1,-1,30,32,34,36,38,40,42,-1,44,-1,-1,-1,-1,-1,46,-1,48,50,52,54,56,58,60,62,64,-1,-1,-1,-1,-1,-1,-1,-1,-1,-1,-1,-1,-1,-1,-1,-1,-1,-1,-1,-1,-1,-1,-1],"split_conditions":[1.4963E0,1.1979E0,1.7825E0,1.0136E0,1.3448E0,1.6329E0,1.9685E0,9.397E-1,1.1025E0,1.2753E0,1.4128E0,1.5662E0,1.7079E0,1.8409E0,5.211324E-2,-3.1185387E-2,-2.5804922E-2,1.067E0,1.1515E0,1.2362E0,1.308E0,1.377E0,1.462E0,1.5209E0,1.9545654E-2,1.5056E0,2.9995883E-2,3.457186E-2,4.1530937E-2,-2.0506298E-2,-1.7659638E-2,1.1264E0,-1.0991105E-2,1.1874E0,1.2626E0,1.2362E0,1.3287E0,1.321E0,1.2604E0,1.3881E0,1.5211E0,1.4697E0,1.5268956E-2,6.168187E-3,2.4838028E-2,-1.5700623E-2,-1.3700753E-2,-4.509538E-3,-8.409688E-3,-5.811753E-3,-4.4580386E-3,8.9107035E-3,-2.7521376E-3,-8.093445E-4,4.1312937E-4,-6.610849E-4,2.2089875E-3,1.5841879E-2,4.6588266E-3,1.5081973E-2,7.295591E-3,1.0081282E-2,1.4635677E-2,1.8401077E-2,1.128878E-2],"split_indices":[0,0,0,0,0,0,0,0,0,0,1,0,0,0,0,0,0,0,0,0,0,0,0,0,0,2,0,0,0,0,0,1,0,4,0,4,0,3,4,2,6,4,0,0,0,0,0,0,0,0,0,0,0,0,0,0,0,0,0,0,0,0,0,0,0],"split_type":[0,0,0,0,0,0,0,0,0,0,0,0,0,0,0,0,0,0,0,0,0,0,0,0,0,0,0,0,0,0,0,0,0,0,0,0,0,0,0,0,0,0,0,0,0,0,0,0,0,0,0,0,0,0,0,0,0,0,0,0,0,0,0,0,0],"sum_hessian":[4.952E3,3.964E3,9.88E2,1.626E3,2.338E3,4.63E2,5.25E2,6E2,1.026E3,1.39E3,9.48E2,2.13E2,2.5E2,4.45E2,8E1,7.7E1,5.23E2,5.61E2,4.65E2,3.66E2,1.024E3,6.19E2,3.29E2,1.55E2,5.8E1,1.35E2,1.15E2,1.37E2,3.08E2,2.32E2,3.29E2,3.29E2,1.36E2,1.34E2,2.32E2,4.64E2,5.6E2,3.09E2,3.1E2,2.53E2,7.6E1,5.8E1,9.7E1,1E0,1.34E2,1.75E2,1.54E2,1E1,1.24E2,1.16E2,1.16E2,2E0,4.62E2,3.65E2,1.95E2,1E1,2.99E2,1E0,3.09E2,3E0,2.5E2,6.6E1,1E1,7E0,5.1E1],"tree_param":{"num_deleted":"0","num_feature":"7","num_nodes":"65","size_leaf_vector":"1"}},{"base_weights":[1.2639165E-4,-1.8997792E-2,7.4991375E-2,-4.7074374E-2,1.0947979E-3,5.257471E-2,9.896036E-2,-5.9751242E-2,-3.6755774E-2,-5.3766267E-3,1.294579E-2,3.9478954E-2,2.0573946E-2,9.4490744E-2,3.8565636E-2,-6.53563E-2,-5.3401075E-2,-4.0773004E-2,-2.8887302E-2,-1.1765618E-2,-1.2986143E-3,9.998818E-3,2.0943264E-2,3.37791E-2,5.0301332E-2,2.5940226E-2,3.022967E-2,-2.2589045E-2,-1.90016E-2,-1.6912518E-2,-1.4796666E-2,-1.3261487E-2,-1.1349328E-2,-3.1268172E-2,-2.3393486E-2,-1.7221713E-2,-9.384873E-3,-3.430175E-3,1.1312108E-3,6.4842682E-3,1.255458E-2,1.7430516E-2,2.3937894E-2,6.1677933E-2,3.2397542E-2,4.946232E-3,1.5358412E-2,-2.3826063E-3,-9.40212E-3,-1.2032987E-3,-7.126652E-3,-5.982934E-3,-4.49437E-3,2.4299026E-3,-2.8869254E-3,-1.3592823E-3,-6.2509713E-4,-4.103595E-5,7.902005E-4,-7.044554E-4,2.0124987E-3,1.3465602E-2,3.6988384E-3,-2.4279535E-3,5.3270683E-3,6.7130965E-3,8.598623E-3,2.1841282E-2,5.6597833E-3,1.3432861E-3,9.943222E-3,1.140833E-5,2.2143961E-3],"categories":[],"categories_nodes":[],"categories_segments":[],"categories_sizes":[],"default_left":[0,0,0,0,0,0,0,0,0,0,0,0,0,0,0,0,0,0,0,0,0,0,0,0,0,0,0,0,0,0,0,0,0,0,0,0,0,0,0,0,0,0,0,0,0,0,0,0,0,0,0,0,0,0,0,0,0,0,0,0,0,0,0,0,0,0,0,0,0,0,0,0,0],"id":5,"left_children":[1,3,5,7,9,11,13,15,17,19,21,23,-1,25,-1,27,29,31,33,35,37,39,41,43,45,-1,-1,-1,-1,-1,-1,-1,-1,47,49,51,53,55,57,59,61,63,65,67,69,71,-1,-1,-1,-1,-1,-1,-1,-1,-1,-1,-1,-1,-1,-1,-1,-1,-1,-1,-1,-1,-1,-1,-1,-1,-1,-1,-1],"loss_changes":[7.0927925E0,2.2261136E0,5.364003E-1,2.1311283E-1,1.7653973E-1,1.0691285E-1,5.2132607E-2,2.2742033E-2,2.7586818E-2,3.8779702E-2,1.8951654E-2,1.6189754E-2,0E0,1.2734175E-2,0E0,2.9927492E-3,1.4772415E-3,4.3855906E-3,3.3363998E-3,7.3723346E-3,4.717061E-3,5.2720867E-3,1.8759668E-3,5.4407567E-3,3.717661E-3,0E0,0E0,0E0,0E0,0E0,0E0,0E0,0E0,1.116246E-4,5.923696E-4,7.68248E-4,1.7689317E-3,7.0942705E-4,8.12118E-4,5.164398E-4,1.9503124E-3,1.0100678E-3,2.066344E-4,2.437206E-3,3.7284046E-3,3.557503E-5,0E0,0E0,0E0,0E0,0E0,0E0,0E0,0E0,0E0,0E0,0E0,0E0,0E0,0E0,0E0,0E0,0E0,0E0,0E0,0E0,0E0,0E0,0E0,0E0,0E0,0E0,0E0],"parents":[2147483647,0,0,1,1,2,2,3,3,4,4,5,5,6,6,7,7,8,8,9,9,10,10,11,11,13,13,15,15,16,16,17,17,18,18,19,19,20,20,21,21,22,22,23,23,24,24,33,33,34,34,35,35,36,36,37,37,38,38,39,39,40,40,41,41,42,42,43,43,44,44,45,45],"right_children":[2,4,6,8,10,12,14,16,18,20,22,24,-1,26,-1,28,30,32,34,36,38,40,42,44,46,-1,-1,-1,-1,-1,-1,-1,-1,48,50,52,54,56,58,60,62,64,66,68,70,72,-1,-1,-1,-1,-1,-1,-1,-1,-1,-1,-1,-1,-1,-1,-1,-1,-1,-1,-1,-1,-1,-1,-1,-1,-1,-1,-1],"split_conditions":[1.4832E0,1.2029E0,1.7992E0,1.0517E0,1.3545E0,1.6745E0,1.9743E0,9.732E-1,1.1264E0,1.2945E0,1.4267E0,1.587E0,2.0573946E-2,1.895E0,3.8565636E-2,9.353E-1,1.0097E0,1.0835E0,1.1689E0,1.2525E0,1.3221E0,1.3845E0,1.4457E0,1.4493E0,1.4981E0,2.5940226E-2,3.022967E-2,-2.2589045E-2,-1.90016E-2,-1.6912518E-2,-1.4796666E-2,-1.3261487E-2,-1.1349328E-2,1.1025E0,1.1264E0,1.2243E0,1.2079E0,1.3103E0,1.3378E0,1.3189E0,1.2915E0,1.386E0,1.476E0,1.5056E0,1.476E0,1.4697E0,1.5358412E-2,-2.3826063E-3,-9.40212E-3,-1.2032987E-3,-7.126652E-3,-5.982934E-3,-4.49437E-3,2.4299026E-3,-2.8869254E-3,-1.3592823E-3,-6.2509713E-4,-4.103595E-5,7.902005E-4,-7.044554E-4,2.0124987E-3,1.3465602E-2,3.6988384E-3,-2.4279535E-3,5.3270683E-3,6.7130965E-3,8.598623E-3,2.1841282E-2,5.6597833E-3,1.3432861E-3,9.943222E-3,1.140833E-5,2.2143961E-3],"split_indices":[1,0,0,1,1,0,0,0,1,0,0,4,0,0,0,0,0,0,0,1,0,0,2,4,2,0,0,0,0,0,0,0,0,3,6,5,5,1,0,6,2,1,0,1,3,0,0,0,0,0,0,0,0,0,0,0,0,0,0,0,0,0,0,0,0,0,0,0,0,0,0,0,0],"split_type":[0,0,0,0,0,0,0,0,0,0,0,0,0,0,0,0,0,0,0,0,0,0,0,0,0,0,0,0,0,0,0,0,0,0,0,0,0,0,0,0,0,0,0,0,0,0,0,0,0,0,0,0,0,0,0,0,0,0,0,0,0,0,0,0,0,0,0,0,0,0,0,0,0],"sum_hessian":[4.952E3,3.945E3,1.007E3,1.645E3,2.3E3,5.22E2,4.85E2,7.36E2,9.09E2,1.488E3,8.12E2,2.89E2,2.33E2,4.25E2,6E1,3.86E2,3.5E2,5.99E2,3.1E2,5.79E2,9.09E2,5.95E2,2.17E2,1.92E2,9.7E1,1.93E2,2.32E2,5.9E1,3.27E2,1.95E2,1.55E2,2.7E2,3.29E2,2.13E2,9.7E1,1.74E2,4.05E2,4.84E2,4.25E2,2.52E2,3.43E2,1.03E2,1.14E2,7E0,1.85E2,2E0,9.5E1,1E0,2.12E2,2E0,9.5E1,7.5E1,9.9E1,5E0,4E2,2.65E2,2.19E2,2.31E2,1.94E2,6E0,2.46E2,1E0,3.42E2,1E0,1.02E2,9E1,2.4E1,5E0,2E0,5E0,1.8E2,1E0,1E0],"tree_param":{"num_deleted":"0","num_feature":"7","num_nodes":"73","size_leaf_vector":"1"}},{"base_weights":[1.0424275E-4,-1.2854007E-2,5.4719742E-2,-3.302378E-2,1.2249677E-3,3.8490415E-2,6.888443E-2,-4.1578192E-2,-2.5401628E-2,-3.5448587E-3,1.0248726E-2,2.9960861E-2,4.7557548E-2,6.68761E-2,3.300837E-2,-4.7714185E-2,-3.817746E-2,-2.785996E-2,-1.9267134E-2,-8.8331485E-3,-9.886645E-4,6.5994365E-3,1.4237536E-2,2.5200704E-2,3.4750756E-2,1.2897064E-2,1.5293012E-2,1.8243626E-2,2.1952085E-2,-1.7812282E-2,-1.3965951E-2,-1.2077108E-2,-1.0388592E-2,-2.9866269E-2,-2.5482131E-2,3.3943653E-3,-1.9461228E-2,-1.2402339E-2,-6.8910425E-3,1.2729407E-2,-1.0711345E-3,1.1445755E-2,6.4361915E-3,1.1547613E-2,1.736128E-2,2.7318047E-2,2.0283068E-2,4.45565E-3,3.534472E-2,-8.97271E-3,-2.36308E-3,-5.4347003E-3,-7.7202115E-3,-2.025211E-3,3.5526755E-3,-6.4992323E-3,-5.0259335E-3,5.798936E-5,-3.831529E-3,-3.0539068E-3,-1.7729E-3,-1.0121894E-3,1.9415234E-4,1.5356329E-3,2.4804084E-3,3.2854758E-3,7.132352E-3,7.286219E-3,4.9437294E-3,8.571674E-3,2.0635666E-3,2.5118142E-3,7.353622E-3,1.0707164E-2,5.2032354E-3],"categories":[],"categories_nodes":[],"categories_segments":[],"categories_sizes":[],"default_left":[0,0,0,0,0,0,0,0,0,0,0,0,0,0,0,0,0,0,0,0,0,0,0,0,0,0,0,0,0,0,0,0,0,0,0,0,0,0,0,0,0,0,0,0,0,0,0,0,0,0,0,0,0,0,0,0,0,0,0,0,0,0,0,0,0,0,0,0,0,0,0,0,0,0,0],"id":6,"left_children":[1,3,5,7,9,11,13,15,17,19,21,23,25,27,-1,29,31,33,35,37,39,41,43,45,47,-1,-1,-1,-1,-1,-1,-1,-1,49,51,53,55,57,59,-1,61,-1,63,65,67,69,71,-1,73,-1,-1,-1,-1,-1,-1,-1,-1,-1,-1,-1,-1,-1,-1,-1,-1,-1,-1,-1,-1,-1,-1,-1,-1,-1,-1],"loss_changes":[3.506047E0,1.1370552E0,2.1573782E-1,1.0626805E-1,1.0157184E-1,3.2990754E-2,3.445244E-2,1.4329433E-2,1.2628615E-2,2.0862894E-2,1.1784002E-2,4.413992E-3,1.1503994E-3,1.4071465E-2,0E0,9.1826916E-4,2.3180842E-3,2.2014976E-3,1.1788607E-3,3.401205E-3,3.7766988E-3,1.9590203E-3,3.0681416E-3,6.9538504E-4,8.1062317E-4,0E0,0E0,0E0,0E0,0E0,0E0,0E0,0E0,7.56979E-5,7.380545E-5,3.3705664E-4,1.1344403E-3,8.214172E-4,9.984281E-4,0E0,4.121393E-3,0E0,9.881519E-4,1.2845974E-3,6.8736076E-4,1.8799081E-3,1.8095262E-3,0E0,5.9500337E-5,0E0,0E0,0E0,0E0,0E0,0E0,0E0,0E0,0E0,0E0,0E0,0E0,0E0,0E0,0E0,0E0,0E0,0E0,0E0,0E0,0E0,0E0,0E0,0E0,0E0,0E0],"parents":[2147483647,0,0,1,1,2,2,3,3,4,4,5,5,6,6,7,7,8,8,9,9,10,10,11,11,12,12,13,13,15,15,16,16,17,17,18,18,19,19,20,20,21,21,22,22,23,23,24,24,33,33,34,34,35,35,36,36,37,37,38,38,40,40,42,42,43,43,44,44,45,45,46,46,48,48],"right_children":[2,4,6,8,10,12,14,16,18,20,22,24,26,28,-1,30,32,34,36,38,40,42,44,46,48,-1,-1,-1,-1,-1,-1,-1,-1,50,52,54,56,58,60,-1,62,-1,64,66,68,70,72,-1,74,-1,-1,-1,-1,-1,-1,-1,-1,-1,-1,-1,-1,-1,-1,-1,-1,-1,-1,-1,-1,-1,-1,-1,-1,-1,-1],"split_conditions":[1.5154E0,1.2029E0,1.7889E0,1.0604E0,1.3602E0,1.6745E0,2.0218E0,9.626E-1,1.1369E0,1.2887E0,1.4108E0,1.5662E0,1.7206E0,1.912E0,3.300837E-2,9.283E-1,1.0097E0,1.0941E0,1.1135E0,1.2525E0,1.2362E0,1.2604E0,1.4457E0,1.5427E0,1.5172E0,1.2897064E-2,1.5293012E-2,1.8243626E-2,2.1952085E-2,-1.7812282E-2,-1.3965951E-2,-1.2077108E-2,-1.0388592E-2,1.1078E0,1.0782E0,1.1425E0,1.1624E0,1.1874E0,1.2626E0,1.2729407E-2,1.3156E0,1.1445755E-2,1.3904E0,1.4767E0,1.4351E0,1.5662E0,1.5427E0,4.45565E-3,1.6832E0,-8.97271E-3,-2.36308E-3,-5.4347003E-3,-7.7202115E-3,-2.025211E-3,3.5526755E-3,-6.4992323E-3,-5.0259335E-3,5.798936E-5,-3.831529E-3,-3.0539068E-3,-1.7729E-3,-1.0121894E-3,1.9415234E-4,1.5356329E-3,2.4804084E-3,3.2854758E-3,7.132352E-3,7.286219E-3,4.9437294E-3,8.571674E-3,2.0635666E-3,2.5118142E-3,7.353622E-3,1.0707164E-2,5.2032354E-3],"split_indices":[0,0,1,0,0,1,0,0,0,0,0,2,0,0,0,0,0,0,3,3,4,4,1,6,6,0,0,0,0,0,0,0,0,1,4,0,0,3,0,0,0,0,0,6,3,3,5,0,3,0,0,0,0,0,0,0,0,0,0,0,0,0,0,0,0,0,0,0,0,0,0,0,0,0,0],"split_type":[0,0,0,0,0,0,0,0,0,0,0,0,0,0,0,0,0,0,0,0,0,0,0,0,0,0,0,0,0,0,0,0,0,0,0,0,0,0,0,0,0,0,0,0,0,0,0,0,0,0,0,0,0,0,0,0,0,0,0,0,0,0,0,0,0,0,0,0,0,0,0,0,0,0,0],"sum_hessian":[4.952E3,4.003E3,9.49E2,1.645E3,2.358E3,4.44E2,5.05E2,7.73E2,8.72E2,1.543E3,8.15E2,2.31E2,2.13E2,4.84E2,2.1E1,2.71E2,5.02E2,6.2E2,2.52E2,5.02E2,1.041E3,4.27E2,3.88E2,1.19E2,1.12E2,9.7E1,1.16E2,2.52E2,2.32E2,2E1,2.51E2,3.1E2,1.92E2,3.3E2,2.9E2,2E0,2.5E2,1.75E2,3.27E2,1E0,1.04E3,1E0,4.26E2,2.11E2,1.77E2,8E1,3.9E1,4E0,1.08E2,3.29E2,1E0,1.2E1,2.78E2,1E0,1E0,1.34E2,1.16E2,5E0,1.7E2,7.3E1,2.54E2,4.44E2,5.96E2,2.5E2,1.76E2,2.03E2,8E0,1.7E1,1.6E2,7.5E1,5E0,1.1E1,2.8E1,1.05E2,3E0],"tree_param":{"num_deleted":"0","num_feature":"7","num_nodes":"75","size_leaf_vector":"1"}},{"base_weights":[9.214306E-5,-8.902721E-3,3.896029E-2,-2.303808E-2,1.0778963E-3,2.8813427E-2,4.988259E-2,-2.9174814E-2,-1.768733E-2,-2.4435667E-3,7.3209163E-3,2.2275107E-2,3.4720995E-2,4.7612928E-2,2.1358954E-2,-3.455022E-2,-2.709886E-2,-1.9837873E-2,-1.3964774E-2,-5.508309E-3,-4.145745E-4,5.7667606E-3,1.24852285E-2,1.7378582E-2,2.4627045E-2,9.306054E-3,3.616385E-2,1.3612861E-2,1.5775291E-2,-1.272305E-2,-1.0053176E-2,-2.9272784E-2,-7.485431E-3,-2.2159949E-2,-1.8742241E-2,-1.5443908E-2,-1.1741273E-2,-1.0007289E-2,-4.7681113E-3,-1.3171684E-3,1.4971294E-3,1.1721889E-2,5.5539096E-3,1.8217086E-3,1.2988704E-2,2.9980123E-2,1.5737042E-2,3.8753361E-3,2.509358E-2,2.8553903E-3,1.0878518E-2,-1.0987401E-3,-8.805954E-3,-6.698379E-3,-2.8190734E-3,-5.629E-3,-1.5838624E-3,-3.473026E-3,-5.009271E-3,-3.650809E-3,-6.341151E-4,-2.0349987E-3,-4.015219E-3,3.8844468E-3,-1.4585617E-3,-5.554121E-4,-7.8871155E-5,5.798179E-4,-5.5953825E-4,1.1751247E-3,2.219175E-3,-2.4077797E-3,2.9173375E-3,4.9314494E-3,3.5995962E-3,1.279235E-4,1.02423495E-2,2.1118182E-3,5.2602487E-3,1.2020115E-2,7.352238E-3],"categories":[],"categories_nodes":[],"categories_segments":[],"categories_sizes":[],"default_left":[0,0,0,0,0,0,0,0,0,0,0,0,0,0,0,0,0,0,0,0,0,0,0,0,0,0,0,0,0,0,0,0,0,0,0,0,0,0,0,0,0,0,0,0,0,0,0,0,0,0,0,0,0,0,0,0,0,0,0,0,0,0,0,0,0,0,0,0,0,0,0,0,0,0,0,0,0,0,0,0,0],"id":7,"left_children":[1,3,5,7,9,11,13,15,17,19,21,23,25,27,-1,29,31,33,35,37,39,41,43,45,47,-1,49,-1,-1,-1,-1,51,-1,53,55,57,59,61,63,65,67,-1,69,71,73,75,77,-1,79,-1,-1,-1,-1,-1,-1,-1,-1,-1,-1,-1,-1,-1,-1,-1,-1,-1,-1,-1,-1,-1,-1,-1,-1,-1,-1,-1,-1,-1,-1,-1,-1],"loss_changes":[1.7319834E0,5.675881E-1,1.01742744E-1,5.4156184E-2,5.1879473E-2,1.7959982E-2,1.8234015E-2,7.7008605E-3,6.863892E-3,9.38119E-3,6.758254E-3,2.2553205E-3,2.2915006E-4,2.1395683E-3,0E0,3.1116605E-4,1.8978715E-3,1.017034E-3,9.0399384E-4,1.953695E-3,1.5704443E-3,4.4335406E-3,1.0286272E-3,1.1623912E-3,5.225688E-4,0E0,1.1385977E-4,0E0,0E0,0E0,0E0,4.5663118E-4,0E0,1.6536564E-4,1.1384487E-5,7.520728E-4,5.3479336E-4,8.2368497E-4,9.233998E-4,3.475668E-4,4.312647E-4,0E0,1.9412749E-3,8.5628225E-4,4.4139475E-4,9.692358E-4,1.0019802E-3,0E0,3.169477E-4,0E0,0E0,0E0,0E0,0E0,0E0,0E0,0E0,0E0,0E0,0E0,0E0,0E0,0E0,0E0,0E0,0E0,0E0,0E0,0E0,0E0,0E0,0E0,0E0,0E0,0E0,0E0,0E0,0E0,0E0,0E0,0E0],"parents":[2147483647,0,0,1,1,2,2,3,3,4,4,5,5,6,6,7,7,8,8,9,9,10,10,11,11,12,12,13,13,15,15,16,16,17,17,18,18,19,19,20,20,21,21,22,22,23,23,24,24,26,26,31,31,33,33,34,34,35,35,36,36,37,37,38,38,39,39,40,40,42,42,43,43,44,44,45,45,46,46,48,48],"right_children":[2,4,6,8,10,12,14,16,18,20,22,24,26,28,-1,30,32,34,36,38,40,42,44,46,48,-1,50,-1,-1,-1,-1,52,-1,54,56,58,60,62,64,66,68,-1,70,72,74,76,78,-1,80,-1,-1,-1,-1,-1,-1,-1,-1,-1,-1,-1,-1,-1,-1,-1,-1,-1,-1,-1,-1,-1,-1,-1,-1,-1,-1,-1,-1,-1,-1,-1,-1],"split_conditions":[1.5209E0,1.2079E0,1.8198E0,1.0604E0,1.3587E0,1.6832E0,1.9916E0,9.572E-1,1.1264E0,1.297E0,1.4457E0,1.5427E0,1.7206E0,1.9354E0,2.1358954E-2,9.283E-1,9.871E-1,1.0782E0,1.1624E0,1.2308E0,1.3326E0,1.2915E0,1.4267E0,1.5056E0,1.5249E0,9.306054E-3,1.6832E0,1.3612861E-2,1.5775291E-2,-1.272305E-2,-1.0053176E-2,9.353E-1,-7.485431E-3,1.0859E0,1.1425E0,1.1333E0,1.2308E0,1.2129E0,1.2079E0,1.3221E0,1.3671E0,1.1721889E-2,1.3994E0,1.3943E0,1.4493E0,1.4267E0,1.506E0,3.8753361E-3,1.5344E0,2.8553903E-3,1.0878518E-2,-1.0987401E-3,-8.805954E-3,-6.698379E-3,-2.8190734E-3,-5.629E-3,-1.5838624E-3,-3.473026E-3,-5.009271E-3,-3.650809E-3,-6.341151E-4,-2.0349987E-3,-4.015219E-3,3.8844468E-3,-1.4585617E-3,-5.554121E-4,-7.8871155E-5,5.798179E-4,-5.5953825E-4,1.1751247E-3,2.219175E-3,-2.4077797E-3,2.9173375E-3,4.9314494E-3,3.5995962E-3,1.279235E-4,1.02423495E-2,2.1118182E-3,5.2602487E-3,1.2020115E-2,7.352238E-3],"split_indices":[0,0,0,0,1,2,0,3,0,0,0,5,0,0,0,0,0,0,0,4,1,6,2,1,0,0,4,0,0,0,0,1,0,1,1,2,5,6,5,5,6,0,0,6,3,1,4,0,1,0,0,0,0,0,0,0,0,0,0,0,0,0,0,0,0,0,0,0,0,0,0,0,0,0,0,0,0,0,0,0,0],"split_type":[0,0,0,0,0,0,0,0,0,0,0,0,0,0,0,0,0,0,0,0,0,0,0,0,0,0,0,0,0,0,0,0,0,0,0,0,0,0,0,0,0,0,0,0,0,0,0,0,0,0,0,0,0,0,0,0,0,0,0,0,0,0,0,0,0,0,0,0,0,0,0,0,0,0,0,0,0,0,0,0,0],"sum_hessian":[4.952E3,4.022E3,9.3E2,1.664E3,2.358E3,4.84E2,4.46E2,7.73E2,8.91E2,1.508E3,8.5E2,2.32E2,2.52E2,4.06E2,4E1,2.11E2,5.62E2,5.62E2,3.29E2,6E2,9.08E2,6.55E2,1.95E2,7.8E1,1.54E2,7.7E1,1.75E2,2.87E2,1.19E2,2E1,1.91E2,2.73E2,2.89E2,1.74E2,3.88E2,1.94E2,1.35E2,8.3E1,5.17E2,6.17E2,2.91E2,3E0,6.52E2,9E0,1.86E2,7E0,7.1E1,7E0,1.47E2,1E0,1.74E2,1E0,2.72E2,1.71E2,3E0,3.87E2,1E0,5E1,1.44E2,1.29E2,6E0,4.4E1,3.9E1,2E0,5.15E2,4.09E2,2.08E2,2.58E2,3.3E1,3.47E2,3.05E2,4E0,5E0,3.8E1,1.48E2,1E0,6E0,1.3E1,5.8E1,3E0,1.44E2],"tree_param":{"num_deleted":"0","num_feature":"7","num_nodes":"81","size_leaf_vector":"1"}},{"base_weights":[7.7609184E-5,-6.5747956E-3,2.6119584E-2,-1.6076265E-2,4.985801E-4,1.8984942E-2,3.503133E-2,-2.0925408E-2,-1.2630695E-2,-2.0828326E-3,3.9479416E-3,1.2010902E-2,2.260006E-2,3.375611E-2,1.7439552E-2,-2.525486E-2,-1.964305E-2,-1.4050837E-2,-9.185782E-3,-5.0015002E-3,-1.1630865E-3,2.3386276E-3,5.99376E-3,-4.5966627E-3,1.23847285E-2,1.9200064E-2,2.4946105E-2,9.266716E-3,3.6452033E-2,-7.636764E-3,-1.1252224E-2,-2.1001864E-2,-1.8212019E-2,-1.5747352E-2,-1.2934633E-2,5.200585E-3,-9.303337E-3,6.0859863E-3,-5.1489915E-3,1.8559536E-2,-1.2220345E-3,7.970613E-3,2.2450755E-3,5.7049417E-3,1.7438114E-2,-2.6114942E-3,3.1316283E-4,3.1739037E-2,1.1690076E-2,2.2421647E-2,1.7923657E-2,3.5731317E-3,7.522317E-3,3.5238244E-2,1.3377876E-2,-9.339273E-4,-3.878272E-3,-1.960397E-3,-6.3254484E-3,4.5933276E-3,-5.5176658E-3,-3.0300354E-3,-4.8043933E-3,-2.046287E-3,-3.937747E-3,-1.2004673E-3,3.5407306E-3,-3.2891037E-3,-2.447728E-3,-2.407007E-3,-1.3808213E-3,-1.8855394E-3,1.0237331E-2,-6.6286966E-4,-1.5910753E-4,4.9591315E-4,1.1715897E-3,6.1999685E-3,1.6419621E-3,6.916586E-3,-1.0061145E-3,1.5477896E-3,1.3121725E-2,5.086647E-3,3.3063053E-3,6.857171E-3,8.1505184E-4,4.049813E-3,6.0756938E-3,1.0620257E-2,6.51294E-4],"categories":[],"categories_nodes":[],"categories_segments":[],"categories_sizes":[],"default_left":[0,0,0,0,0,0,0,0,0,0,0,0,0,0,0,0,0,0,0,0,0,0,0,0,0,0,0,0,0,0,0,0,0,0,0,0,0,0,0,0,0,0,0,0,0,0,0,0,0,0,0,0,0,0,0,0,0,0,0,0,0,0,0,0,0,0,0,0,0,0,0,0,0,0,0,0,0,0,0,0,0,0,0,0,0,0,0,0,0,0,0],"id":8,"left_children":[1,3,5,7,9,11,13,15,17,19,21,23,25,27,-1,29,31,33,35,37,39,41,43,45,47,49,51,-1,53,-1,55,57,59,61,63,65,67,-1,69,71,73,-1,75,77,79,-1,-1,81,83,85,87,-1,-1,89,-1,-1,-1,-1,-1,-1,-1,-1,-1,-1,-1,-1,-1,-1,-1,-1,-1,-1,-1,-1,-1,-1,-1,-1,-1,-1,-1,-1,-1,-1,-1,-1,-1,-1,-1,-1,-1],"loss_changes":[8.5823816E-1,2.6520866E-1,6.342566E-2,2.7872056E-2,2.0158485E-2,1.3897672E-2,1.1205494E-2,3.3791363E-3,4.6996027E-3,3.4705247E-3,3.176284E-3,1.2613479E-3,2.4643838E-3,2.166748E-3,0E0,1.5266985E-4,6.733835E-4,1.1162013E-3,5.4051727E-4,1.2606848E-3,1.1690118E-3,1.1734769E-3,1.3085911E-3,1.2495252E-4,2.1834243E-3,2.3548678E-4,6.0901046E-5,0E0,5.4320693E-4,0E0,1.429877E-5,1.8867105E-4,1.9247159E-3,2.488196E-4,4.0841103E-4,2.2948161E-4,4.5960024E-4,0E0,4.482409E-4,1.3745906E-3,6.709506E-4,0E0,5.27262E-4,1.3326798E-3,1.2452337E-3,0E0,0E0,1.688085E-3,4.6486408E-4,2.8122962E-4,9.217113E-4,0E0,0E0,9.5017254E-4,0E0,0E0,0E0,0E0,0E0,0E0,0E0,0E0,0E0,0E0,0E0,0E0,0E0,0E0,0E0,0E0,0E0,0E0,0E0,0E0,0E0,0E0,0E0,0E0,0E0,0E0,0E0,0E0,0E0,0E0,0E0,0E0,0E0,0E0,0E0,0E0,0E0],"parents":[2147483647,0,0,1,1,2,2,3,3,4,4,5,5,6,6,7,7,8,8,9,9,10,10,11,11,12,12,13,13,15,15,16,16,17,17,18,18,19,19,20,20,21,21,22,22,23,23,24,24,25,25,26,26,28,28,30,30,31,31,32,32,33,33,34,34,35,35,36,36,38,38,39,39,40,40,42,42,43,43,44,44,47,47,48,48,49,49,50,50,53,53],"right_children":[2,4,6,8,10,12,14,16,18,20,22,24,26,28,-1,30,32,34,36,38,40,42,44,46,48,50,52,-1,54,-1,56,58,60,62,64,66,68,-1,70,72,74,-1,76,78,80,-1,-1,82,84,86,88,-1,-1,90,-1,-1,-1,-1,-1,-1,-1,-1,-1,-1,-1,-1,-1,-1,-1,-1,-1,-1,-1,-1,-1,-1,-1,-1,-1,-1,-1,-1,-1,-1,-1,-1,-1,-1,-1,-1,-1],"split_conditions":[1.4832E0,1.2129E0,1.8198E0,1.0418E0,1.3412E0,1.587E0,2.0218E0,9.517E-1,1.1369E0,1.2753E0,1.3994E0,1.3881E0,1.6978E0,1.9186E0,1.7439552E-2,9.641E-1,9.778E-1,1.08E0,1.1135E0,1.1979E0,1.2362E0,1.2915E0,1.5211E0,1.4963E0,1.4493E0,1.6329E0,1.6832E0,9.266716E-3,1.9916E0,-7.636764E-3,9.442E-1,9.283E-1,9.641E-1,1.0373E0,1.0765E0,1.1425E0,1.1573E0,6.0859863E-3,1.2243E0,1.2872E0,1.3045E0,7.970613E-3,1.3881E0,1.3652E0,1.5158E0,-2.6114942E-3,3.1316283E-4,1.4188E0,1.4865E0,1.6832E0,1.66E0,3.5731317E-3,7.522317E-3,2.0218E0,1.3377876E-2,-9.339273E-4,-3.878272E-3,-1.960397E-3,-6.3254484E-3,4.5933276E-3,-5.5176658E-3,-3.0300354E-3,-4.8043933E-3,-2.046287E-3,-3.937747E-3,-1.2004673E-3,3.5407306E-3,-3.2891037E-3,-2.447728E-3,-2.407007E-3,-1.3808213E-3,-1.8855394E-3,1.0237331E-2,-6.6286966E-4,-1.5910753E-4,4.9591315E-4,1.1715897E-3,6.1999685E-3,1.6419621E-3,6.916586E-3,-1.0061145E-3,1.5477896E-3,1.3121725E-2,5.086647E-3,3.3063053E-3,6.857171E-3,8.1505184E-4,4.049813E-3,6.0756938E-3,1.0620257E-2,6.51294E-4],"split_indices":[0,0,0,6,1,4,0,0,0,0,0,6,0,3,0,3,2,2,3,1,4,2,6,0,4,4,5,0,4,0,0,4,3,0,3,0,2,0,5,0,0,0,5,5,1,0,0,3,5,0,0,0,0,6,0,0,0,0,0,0,0,0,0,0,0,0,0,0,0,0,0,0,0,0,0,0,0,0,0,0,0,0,0,0,0,0,0,0,0,0,0],"split_type":[0,0,0,0,0,0,0,0,0,0,0,0,0,0,0,0,0,0,0,0,0,0,0,0,0,0,0,0,0,0,0,0,0,0,0,0,0,0,0,0,0,0,0,0,0,0,0,0,0,0,0,0,0,0,0,0,0,0,0,0,0,0,0,0,0,0,0,0,0,0,0,0,0,0,0,0,0,0,0,0,0,0,0,0,0,0,0,0,0,0,0],"sum_hessian":[4.952E3,3.945E3,1.007E3,1.683E3,2.262E3,5.61E2,4.46E2,6.97E2,9.86E2,1.294E3,9.68E2,1.93E2,3.68E2,4.25E2,2.1E1,1.55E2,5.42E2,6.96E2,2.9E2,3.09E2,9.85E2,5.43E2,4.25E2,4E0,1.89E2,1.54E2,2.14E2,2.12E2,2.13E2,1.52E2,3E0,2.71E2,2.71E2,2.71E2,4.25E2,2E0,2.88E2,1E0,3.08E2,2E0,9.83E2,1E0,5.42E2,4.16E2,9E0,2E0,2E0,5E0,1.84E2,3.9E1,1.15E2,3E0,2.11E2,1.9E2,2.3E1,1E0,2E0,2E0,2.69E2,1E0,2.7E2,1.4E1,2.57E2,1.4E1,4.11E2,1E0,1E0,1.14E2,1.74E2,4.7E1,2.61E2,1E0,1E0,4.04E2,5.79E2,4.01E2,1.41E2,5E0,4.11E2,7E0,2E0,2E0,3E0,1.8E1,1.66E2,3.8E1,1E0,4.2E1,7.3E1,1.89E2,1E0],"tree_param":{"num_deleted":"0","num_feature":"7","num_nodes":"91","size_leaf_vector":"1"}},{"base_weights":[7.3582196E-5,-4.7185617E-3,1.7955944E-2,-1.1771562E-2,-8.532075E-5,1.0869872E-2,2.2780238E-2,-1.50826825E-2,-9.545537E-3,-2.0381326E-3,2.4537984E-3,7.703398E-3,1.3459684E-2,2.1752553E-2,3.6812738E-2,-1.9258568E-2,-1.4456209E-2,-1.0640514E-2,-7.847377E-3,-4.4855177E-3,-1.0405259E-3,1.6519227E-3,4.2920276E-3,8.1757475E-3,-6.0830456E-3,6.9980323E-3,1.3748333E-2,1.8389836E-2,2.426472E-2,8.796161E-3,1.2765585E-2,-1.9615134E-2,-3.8060348E-3,-1.5145746E-2,-1.332213E-2,-1.6770106E-2,-1.0510431E-2,-6.1446666E-3,-8.4173875E-3,-5.529735E-3,-3.6292807E-3,1.1902124E-2,-1.0941518E-3,6.7750276E-3,1.5910628E-3,6.101069E-3,4.069717E-3,8.887367E-3,9.6114475E-4,-1.1612316E-2,4.0638866E-3,1.3278604E-2,-1.4956394E-3,4.7385693E-5,1.3935801E-2,1.8441645E-2,8.000672E-4,2.4959942E-2,1.89032E-2,-7.026561E-3,-5.4089725E-3,-1.6689778E-3,-4.373789E-5,-4.5513147E-3,-1.0193288E-3,3.9043308E-3,-4.052063E-3,-7.8455213E-4,-5.994583E-3,7.0903305E-4,-3.1684346E-3,-2.0177553E-3,6.616524E-4,-3.653841E-3,-2.3761017E-3,-1.2107244E-3,-2.5189836E-3,-2.6510826E-3,-9.7511616E-4,-1.0403037E-3,8.7017305E-3,-4.0567745E-4,3.8632538E-4,-2.09924E-3,4.9476675E-4,1.1703678E-3,5.9697866E-3,2.1654824E-3,3.9412063E-3,-1.4422954E-3,2.1792373E-3,3.8393142E-4,-4.3340065E-3,4.315561E-3,9.958507E-4,1.6348423E-3,-1.1923672E-3,1.3185382E-3,-8.600712E-4,7.6416424E-3,4.080809E-3,2.7466805E-3,5.555027E-3,7.332119E-3,1.1522397E-2,6.2369243E-3,-1.2649298E-3],"categories":[],"categories_nodes":[],"categories_segments":[],"categories_sizes":[],"default_left":[0,0,0,0,0,0,0,0,0,0,0,0,0,0,0,0,0,0,0,0,0,0,0,0,0,0,0,0,0,0,0,0,0,0,0,0,0,0,0,0,0,0,0,0,0,0,0,0,0,0,0,0,0,0,0,0,0,0,0,0,0,0,0,0,0,0,0,0,0,0,0,0,0,0,0,0,0,0,0,0,0,0,0,0,0,0,0,0,0,0,0,0,0,0,0,0,0,0,0,0,0,0,0,0,0,0,0],"id":9,"left_children":[1,3,5,7,9,11,13,15,17,19,21,23,25,27,29,31,33,35,37,39,41,43,45,47,49,51,53,55,57,-1,-1,59,61,63,65,67,69,71,73,75,77,79,81,-1,83,-1,85,87,89,91,-1,93,95,97,99,101,-1,103,105,-1,-1,-1,-1,-1,-1,-1,-1,-1,-1,-1,-1,-1,-1,-1,-1,-1,-1,-1,-1,-1,-1,-1,-1,-1,-1,-1,-1,-1,-1,-1,-1,-1,-1,-1,-1,-1,-1,-1,-1,-1,-1,-1,-1,-1,-1,-1,-1],"loss_changes":[4.2453134E-1,1.2767293E-1,3.5544395E-2,1.1273131E-2,1.1701918E-2,3.3897609E-3,8.169085E-3,1.3461858E-3,1.6439185E-3,3.2523312E-3,1.505266E-3,1.3130652E-3,3.3836812E-4,4.4703484E-3,5.153306E-4,3.5511516E-4,2.2363663E-4,2.7185678E-4,3.0544586E-4,3.2505207E-4,6.716864E-4,8.76175E-4,1.0265517E-3,9.5666014E-4,9.1705506E-4,6.6000136E-4,5.6954473E-4,1.5690923E-4,7.582307E-4,0E0,0E0,3.632903E-5,1.8484523E-5,4.68418E-5,1.2170225E-3,4.0237722E-4,3.8817897E-4,4.80721E-4,4.140269E-4,7.02803E-4,3.9550383E-4,1.1521012E-3,5.833274E-4,0E0,3.6868756E-4,0E0,7.438506E-4,1.1181813E-3,6.894141E-4,2.3773417E-4,0E0,2.9393472E-5,1.2495741E-4,6.328272E-5,4.9508363E-4,6.236136E-6,0E0,1.080513E-3,1.9195406E-3,0E0,0E0,0E0,0E0,0E0,0E0,0E0,0E0,0E0,0E0,0E0,0E0,0E0,0E0,0E0,0E0,0E0,0E0,0E0,0E0,0E0,0E0,0E0,0E0,0E0,0E0,0E0,0E0,0E0,0E0,0E0,0E0,0E0,0E0,0E0,0E0,0E0,0E0,0E0,0E0,0E0,0E0,0E0,0E0,0E0,0E0,0E0,0E0],"parents":[2147483647,0,0,1,1,2,2,3,3,4,4,5,5,6,6,7,7,8,8,9,9,10,10,11,11,12,12,13,13,14,14,15,15,16,16,17,17,18,18,19,19,20,20,21,21,22,22,23,23,24,24,25,25,26,26,27,27,28,28,31,31,32,32,33,33,34,34,35,35,36,36,37,37,38,38,39,39,40,40,41,41,42,42,44,44,46,46,47,47,48,48,49,49,51,51,52,52,53,53,54,54,55,55,57,57,58,58],"right_children":[2,4,6,8,10,12,14,16,18,20,22,24,26,28,30,32,34,36,38,40,42,44,46,48,50,52,54,56,58,-1,-1,60,62,64,66,68,70,72,74,76,78,80,82,-1,84,-1,86,88,90,92,-1,94,96,98,100,102,-1,104,106,-1,-1,-1,-1,-1,-1,-1,-1,-1,-1,-1,-1,-1,-1,-1,-1,-1,-1,-1,-1,-1,-1,-1,-1,-1,-1,-1,-1,-1,-1,-1,-1,-1,-1,-1,-1,-1,-1,-1,-1,-1,-1,-1,-1,-1,-1,-1,-1],"split_conditions":[1.4697E0,1.1689E0,1.7206E0,1.0184E0,1.3326E0,1.5506E0,1.9916E0,9.397E-1,1.1056E0,1.2695E0,1.4086E0,1.5662E0,1.5427E0,1.8501E0,2.0218E0,9.517E-1,9.755E-1,1.0064E0,1.1156E0,1.2243E0,1.2079E0,1.2604E0,1.3652E0,1.5427E0,1.5427E0,1.5427E0,1.499E0,1.872E0,1.9685E0,8.796161E-3,1.2765585E-2,9.283E-1,9.654E-1,9.871E-1,9.641E-1,9.732E-1,1.0064E0,1.1225E0,1.1203E0,1.2079E0,1.2243E0,1.2872E0,1.3326E0,6.7750276E-3,1.3029E0,6.101069E-3,1.5209E0,1.5249E0,1.5506E0,1.4979E0,4.0638866E-3,1.587E0,1.5154E0,1.5158E0,1.5344E0,1.6926E0,8.000672E-4,1.9916E0,1.9916E0,-7.026561E-3,-5.4089725E-3,-1.6689778E-3,-4.373789E-5,-4.5513147E-3,-1.0193288E-3,3.9043308E-3,-4.052063E-3,-7.8455213E-4,-5.994583E-3,7.0903305E-4,-3.1684346E-3,-2.0177553E-3,6.616524E-4,-3.653841E-3,-2.3761017E-3,-1.2107244E-3,-2.5189836E-3,-2.6510826E-3,-9.7511616E-4,-1.0403037E-3,8.7017305E-3,-4.0567745E-4,3.8632538E-4,-2.09924E-3,4.9476675E-4,1.1703678E-3,5.9697866E-3,2.1654824E-3,3.9412063E-3,-1.4422954E-3,2.1792373E-3,3.8393142E-4,-4.3340065E-3,4.315561E-3,9.958507E-4,1.6348423E-3,-1.1923672E-3,1.3185382E-3,-8.600712E-4,7.6416424E-3,4.080809E-3,2.7466805E-3,5.555027E-3,7.332119E-3,1.1522397E-2,6.2369243E-3,-1.2649298E-3],"split_indices":[0,0,0,1,0,2,4,3,1,0,0,3,3,1,2,1,2,5,4,5,5,4,5,2,1,4,5,3,5,0,0,0,0,0,3,5,4,5,4,4,4,0,4,0,3,0,3,0,5,1,0,0,0,1,0,4,0,0,0,0,0,0,0,0,0,0,0,0,0,0,0,0,0,0,0,0,0,0,0,0,0,0,0,0,0,0,0,0,0,0,0,0,0,0,0,0,0,0,0,0,0,0,0,0,0,0,0],"split_type":[0,0,0,0,0,0,0,0,0,0,0,0,0,0,0,0,0,0,0,0,0,0,0,0,0,0,0,0,0,0,0,0,0,0,0,0,0,0,0,0,0,0,0,0,0,0,0,0,0,0,0,0,0,0,0,0,0,0,0,0,0,0,0,0,0,0,0,0,0,0,0,0,0,0,0,0,0,0,0,0,0,0,0,0,0,0,0,0,0,0,0,0,0,0,0,0,0,0,0,0,0,0,0,0,0,0,0],"sum_hessian":[4.952E3,3.906E3,1.046E3,1.548E3,2.358E3,4.25E2,6.21E2,6.2E2,9.28E2,1.333E3,1.025E3,1.93E2,2.32E2,5.81E2,4E1,7.7E1,5.43E2,5.61E2,3.67E2,3.85E2,9.48E2,7.15E2,3.1E2,1.87E2,6E0,1.1E1,2.21E2,2.52E2,3.29E2,2E1,2E1,7.5E1,2E0,3.3E2,2.13E2,9E0,5.52E2,9.5E1,2.72E2,1.71E2,2.14E2,3E0,9.45E2,1E0,7.14E2,3E0,3.07E2,1.7E2,1.7E1,5E0,1E0,6E0,5E0,3E0,2.18E2,2.51E2,1E0,2.88E2,4.1E1,1.8E1,5.7E1,1E0,1E0,3.29E2,1E0,1E0,2.12E2,2E0,7E0,2E0,5.5E2,8.9E1,6E0,2.9E1,2.43E2,1.14E2,5.7E1,1.3E1,2.01E2,2E0,1E0,8.53E2,9.2E1,4E0,7.1E2,3.05E2,2E0,1.24E2,4.6E1,9E0,8E0,1E0,4E0,5E0,1E0,1E0,4E0,1E0,2E0,4E0,2.14E2,3E0,2.48E2,2.8E2,8E0,3.8E1,3E0],"tree_param":{"num_deleted":"0","num_feature":"7","num_nodes":"107","size_leaf_vector":"1"}},{"base_weights":[6.394949E-5,-3.0810463E-3,1.3618037E-2,-7.881448E-3,4.491372E-4,1.0345449E-2,1.7785497E-2,-9.897967E-3,-5.6748707E-3,-7.8819675E-4,2.5909885E-3,7.6993005E-3,1.2141515E-2,1.702283E-2,3.042776E-2,-1.2421851E-2,-9.175586E-3,-6.421768E-3,-4.441414E-3,-2.0087888E-3,-2.3029464E-4,7.8557255E-3,2.504359E-3,1.4538374E-2,7.0386813E-3,1.2415533E-2,8.928559E-3,1.5486985E-2,1.8803673E-2,1.4092922E-2,3.2265212E-2,-4.9690953E-3,-1.1853853E-2,-1.0044719E-2,-8.453806E-3,-5.6392606E-3,-7.2792163E-3,-4.1946713E-3,-9.376271E-3,-1.8714184E-3,-8.699894E-3,-4.448522E-3,-1.4058448E-4,1.8439202E-3,4.449283E-3,1.6393036E-2,-1.9927819E-4,1.0437513E-2,6.7211953E-3,1.1883088E-2,1.9216312E-2,1.3663873E-2,6.69946E-3,1.7647386E-2,1.4118172E-2,4.3864848E-4,1.8894935E-2,5.2247765E-3,6.1858894E-4,1.2028552E-2,2.292568E-2,-2.0113029E-3,-3.6277971E-3,-2.8274981E-3,-3.772445E-3,-1.61239E-3,-2.6179305E-3,-1.9261077E-3,-9.4185426E-4,-2.9137167E-3,-1.993705E-3,-1.3010596E-3,1.0344745E-3,-4.6043037E-3,-2.1306188E-3,-3.5963655E-3,-5.3999264E-4,-1.5500564E-3,-4.213107E-3,-3.0331016E-3,-9.961254E-4,1.3041368E-3,-6.002799E-5,6.000181E-4,-1.9248009E-3,1.6088701E-3,4.9288676E-4,9.653807E-4,5.7557733E-3,-9.361446E-4,8.464694E-4,1.0993481E-4,2.2677253E-3,3.6367641E-3,2.2151673E-3,6.5827933E-3,3.4223811E-3,4.5962636E-3,1.7385721E-3,1.1647493E-3,2.8229607E-3,4.763361E-3,7.861209E-3,1.0149855E-3,4.749758E-3,6.804136E-3,5.413604E-3,2.2999765E-3,7.6394244E-3],"categories":[],"categories_nodes":[],"categories_segments":[],"categories_sizes":[],"default_left":[0,0,0,0,0,0,0,0,0,0,0,0,0,0,0,0,0,0,0,0,0,0,0,0,0,0,0,0,0,0,0,0,0,0,0,0,0,0,0,0,0,0,0,0,0,0,0,0,0,0,0,0,0,0,0,0,0,0,0,0,0,0,0,0,0,0,0,0,0,0,0,0,0,0,0,0,0,0,0,0,0,0,0,0,0,0,0,0,0,0,0,0,0,0,0,0,0,0,0,0,0,0,0,0,0,0,0,0,0],"id":10,"left_children":[1,3,5,7,9,11,13,15,17,19,21,23,25,27,29,31,33,35,37,39,41,-1,43,45,47,49,51,53,55,57,59,-1,61,63,65,67,69,71,73,75,77,79,81,83,85,87,89,-1,91,93,95,97,99,101,103,-1,105,-1,-1,-1,107,-1,-1,-1,-1,-1,-1,-1,-1,-1,-1,-1,-1,-1,-1,-1,-1,-1,-1,-1,-1,-1,-1,-1,-1,-1,-1,-1,-1,-1,-1,-1,-1,-1,-1,-1,-1,-1,-1,-1,-1,-1,-1,-1,-1,-1,-1,-1,-1],"loss_changes":[2.1117623E-1,6.8144605E-2,1.2540609E-2,7.525958E-3,6.1451723E-3,2.4016649E-3,3.4255534E-3,1.5068501E-3,7.232316E-4,1.0005645E-3,1.6697817E-3,8.690432E-4,1.629591E-4,7.700026E-4,2.0560808E-4,2.62402E-4,3.5107136E-4,2.9845536E-4,3.3935625E-4,4.0745107E-4,3.8157665E-4,0E0,1.0797698E-3,4.952671E-4,1.5107766E-3,8.000247E-4,2.0401296E-4,3.8368627E-4,2.4933368E-4,1.2400444E-4,4.7022663E-4,0E0,1.3412721E-4,3.6755204E-4,2.7713366E-4,5.050786E-4,3.0233152E-4,3.3881376E-4,8.112297E-5,3.058284E-4,9.735691E-5,1.0055886E-4,2.6525732E-4,8.305046E-4,5.3986534E-4,5.270033E-4,3.5278135E-5,0E0,1.0461705E-3,1.9707158E-4,1.5415577E-4,1.5518744E-5,1.2380374E-4,7.8008696E-4,2.4492964E-3,0E0,1.5033036E-4,0E0,0E0,0E0,2.309545E-4,0E0,0E0,0E0,0E0,0E0,0E0,0E0,0E0,0E0,0E0,0E0,0E0,0E0,0E0,0E0,0E0,0E0,0E0,0E0,0E0,0E0,0E0,0E0,0E0,0E0,0E0,0E0,0E0,0E0,0E0,0E0,0E0,0E0,0E0,0E0,0E0,0E0,0E0,0E0,0E0,0E0,0E0,0E0,0E0,0E0,0E0,0E0,0E0],"parents":[2147483647,0,0,1,1,2,2,3,3,4,4,5,5,6,6,7,7,8,8,9,9,10,10,11,11,12,12,13,13,14,14,15,15,16,16,17,17,18,18,19,19,20,20,22,22,23,23,24,24,25,25,26,26,27,27,28,28,29,29,30,30,32,32,33,33,34,34,35,35,36,36,37,37,38,38,39,39,40,40,41,41,42,42,43,43,44,44,45,45,46,46,48,48,49,49,50,50,51,51,52,52,53,53,54,54,56,56,60,60],"right_children":[2,4,6,8,10,12,14,16,18,20,22,24,26,28,30,32,34,36,38,40,42,-1,44,46,48,50,52,54,56,58,60,-1,62,64,66,68,70,72,74,76,78,80,82,84,86,88,90,-1,92,94,96,98,100,102,104,-1,106,-1,-1,-1,108,-1,-1,-1,-1,-1,-1,-1,-1,-1,-1,-1,-1,-1,-1,-1,-1,-1,-1,-1,-1,-1,-1,-1,-1,-1,-1,-1,-1,-1,-1,-1,-1,-1,-1,-1,-1,-1,-1,-1,-1,-1,-1,-1,-1,-1,-1,-1,-1],"split_conditions":[1.5209E0,1.2194E0,1.8352E0,1.0725E0,1.3587E0,1.6745E0,2.0218E0,9.554E-1,1.1369E0,1.2897E0,1.2604E0,1.506E0,1.8282E0,1.9279E0,1.9916E0,9.283E-1,9.909E-1,1.1025E0,1.2194E0,1.3134E0,1.2695E0,7.8557255E-3,1.4397E0,1.5662E0,1.4868E0,1.8198E0,1.8198E0,1.872E0,1.912E0,2.0218E0,2.0218E0,-4.9690953E-3,9.283E-1,9.805E-1,9.871E-1,1.0971E0,1.1025E0,1.2418E0,1.1979E0,1.1624E0,1.3103E0,1.2566E0,1.284E0,1.462E0,1.4981E0,1.5267E0,1.5056E0,1.0437513E-2,1.5211E0,1.8096E0,1.8198E0,1.8501E0,1.8352E0,1.872E0,1.8847E0,4.3864848E-4,1.9238E0,5.2247765E-3,6.1858894E-4,1.2028552E-2,2.0218E0,-2.0113029E-3,-3.6277971E-3,-2.8274981E-3,-3.772445E-3,-1.61239E-3,-2.6179305E-3,-1.9261077E-3,-9.4185426E-4,-2.9137167E-3,-1.993705E-3,-1.3010596E-3,1.0344745E-3,-4.6043037E-3,-2.1306188E-3,-3.5963655E-3,-5.3999264E-4,-1.5500564E-3,-4.213107E-3,-3.0331016E-3,-9.961254E-4,1.3041368E-3,-6.002799E-5,6.000181E-4,-1.9248009E-3,1.6088701E-3,4.9288676E-4,9.653807E-4,5.7557733E-3,-9.361446E-4,8.464694E-4,1.0993481E-4,2.2677253E-3,3.6367641E-3,2.2151673E-3,6.5827933E-3,3.4223811E-3,4.5962636E-3,1.7385721E-3,1.1647493E-3,2.8229607E-3,4.763361E-3,7.861209E-3,1.0149855E-3,4.749758E-3,6.804136E-3,5.413604E-3,2.2999765E-3,7.6394244E-3],"split_indices":[2,0,0,0,1,0,0,3,0,1,6,5,2,0,3,0,0,6,1,5,6,0,5,1,6,0,0,0,1,1,5,0,2,0,5,3,3,6,5,5,4,4,0,2,2,2,0,0,6,0,2,4,1,2,0,0,5,0,0,0,1,0,0,0,0,0,0,0,0,0,0,0,0,0,0,0,0,0,0,0,0,0,0,0,0,0,0,0,0,0,0,0,0,0,0,0,0,0,0,0,0,0,0,0,0,0,0,0,0],"split_type":[0,0,0,0,0,0,0,0,0,0,0,0,0,0,0,0,0,0,0,0,0,0,0,0,0,0,0,0,0,0,0,0,0,0,0,0,0,0,0,0,0,0,0,0,0,0,0,0,0,0,0,0,0,0,0,0,0,0,0,0,0,0,0,0,0,0,0,0,0,0,0,0,0,0,0,0,0,0,0,0,0,0,0,0,0,0,0,0,0,0,0,0,0,0,0,0,0,0,0,0,0,0,0,0,0,0,0,0,0],"sum_hessian":[4.952E3,4.02E3,9.32E2,1.703E3,2.317E3,5.24E2,4.08E2,8.88E2,8.15E2,1.469E3,8.48E2,2.14E2,3.1E2,3.87E2,2.1E1,1.94E2,6.94E2,5.05E2,3.1E2,4.6E2,1.009E3,2E0,8.46E2,1.7E1,1.97E2,2.83E2,2.7E1,2.13E2,1.74E2,3E0,1.8E1,2E1,1.74E2,3.09E2,3.85E2,2.68E2,2.37E2,2.97E2,1.3E1,4.52E2,8E0,2E1,9.89E2,6.33E2,2.13E2,1.5E1,2E0,1E0,1.96E2,2.65E2,1.8E1,7E0,2E1,7.8E1,1.35E2,1E0,1.73E2,2E0,1E0,8E0,1E1,9E0,1.65E2,2.52E2,5.7E1,3.3E1,3.52E2,2.03E2,6.5E1,4.6E1,1.91E2,2.92E2,5E0,2E0,1.1E1,2E0,4.5E2,6E0,2E0,2E0,1.8E1,1.2E1,9.77E2,6.22E2,1.1E1,1.6E2,5.3E1,3E0,1.2E1,1E0,1E0,2.3E1,1.73E2,2.5E2,1.5E1,1.2E1,6E0,5E0,2E0,1.1E1,9E0,6.7E1,1.1E1,1.9E1,1.16E2,2.7E1,1.46E2,2E0,8E0],"tree_param":{"num_deleted":"0","num_feature":"7","num_nodes":"109","size_leaf_vector":"1"}},{"base_weights":[5.7747224E-5,-2.287294E-3,9.237782E-3,-5.906225E-3,-4.401425E-5,6.3606487E-3,1.2079601E-2,-7.504701E-3,-4.784248E-3,-1.0747276E-3,1.2848247E-3,4.4124546E-3,7.559323E-3,1.139189E-2,1.9601401E-2,-3.3410157E-3,-7.242183E-3,-5.6153634E-3,-4.2915475E-3,-2.2993851E-3,-5.251447E-4,1.5452355E-2,1.2302531E-3,1.363574E-2,3.9942795E-3,7.660078E-3,-1.5913725E-3,4.288141E-3,1.1602431E-2,7.0113987E-3,1.4898073E-2,-7.3051634E-3,-1.8102005E-3,-2.1750568E-3,-5.819864E-3,-4.180388E-3,-9.04726E-3,-2.3906396E-4,-2.6178614E-3,1.0651886E-2,-5.7184976E-4,-1.5544296E-4,6.284571E-3,1.1511064E-3,9.441376E-3,-4.4327974E-4,1.11745605E-2,8.129177E-3,3.4504044E-3,7.7751507E-3,-3.029257E-3,-3.151113E-3,6.0949665E-3,1.1885154E-2,6.5129995E-3,8.447104E-3,5.4654367E-3,-2.173549E-3,-4.8990487E-3,3.330374E-3,-1.5721756E-3,-3.2508464E-3,-3.4466575E-4,-6.788373E-5,-1.7733359E-3,-1.7904895E-4,-1.2797136E-3,-7.903433E-4,-3.5773024E-3,-4.0127826E-4,1.2250304E-3,-4.757184E-3,-7.3967985E-4,-7.2423223E-4,7.4774805E-3,-3.5155716E-3,-1.5718842E-4,3.7024662E-4,-2.9554323E-3,8.093343E-4,7.2831516E-3,-2.2185089E-3,7.2782283E-4,9.5383526E-4,3.976779E-3,-1.84685E-3,1.1354714E-3,2.0363077E-3,2.621183E-3,6.4914825E-4,-1.6444684E-3,4.7064098E-3,6.157474E-4,3.3830826E-3,4.87366E-3,2.64955E-3,-4.2626024E-3,4.547036E-3,-1.1187583E-3],"categories":[],"categories_nodes":[],"categories_segments":[],"categories_sizes":[],"default_left":[0,0,0,0,0,0,0,0,0,0,0,0,0,0,0,0,0,0,0,0,0,0,0,0,0,0,0,0,0,0,0,0,0,0,0,0,0,0,0,0,0,0,0,0,0,0,0,0,0,0,0,0,0,0,0,0,0,0,0,0,0,0,0,0,0,0,0,0,0,0,0,0,0,0,0,0,0,0,0,0,0,0,0,0,0,0,0,0,0,0,0,0,0,0,0,0,0,0,0],"id":11,"left_children":[1,3,5,7,9,11,13,15,17,19,21,23,25,27,29,-1,31,33,35,37,39,41,43,45,47,49,-1,51,53,-1,55,57,59,61,63,65,67,69,71,73,75,-1,-1,77,79,81,-1,83,85,87,89,-1,91,93,95,97,-1,-1,-1,-1,-1,-1,-1,-1,-1,-1,-1,-1,-1,-1,-1,-1,-1,-1,-1,-1,-1,-1,-1,-1,-1,-1,-1,-1,-1,-1,-1,-1,-1,-1,-1,-1,-1,-1,-1,-1,-1,-1,-1],"loss_changes":[1.0664714E-1,3.2034453E-2,8.164868E-3,2.6722103E-3,3.3392224E-3,1.1412743E-3,2.3941547E-3,5.1144883E-4,3.403481E-4,9.228914E-4,8.0438773E-4,6.937834E-4,4.4242293E-4,6.472096E-4,3.7879124E-4,0E0,1.8588454E-4,2.1810457E-4,2.5980454E-4,2.7824333E-4,5.014918E-4,3.6196352E-4,6.7930797E-4,2.6760714E-3,3.9248914E-4,4.0240958E-4,0E0,4.649142E-4,5.72972E-4,0E0,2.958784E-4,1.9304827E-4,4.1250687E-4,1.6530586E-4,1.5639048E-4,1.6623642E-4,1.8998678E-4,2.8086893E-4,7.0273783E-4,8.061377E-4,4.9883313E-4,0E0,0E0,9.743377E-4,9.349715E-4,1.3762315E-4,0E0,4.9074984E-4,5.5993814E-4,2.3046136E-4,6.2801235E-5,0E0,5.107167E-4,9.4921887E-4,1.3747918E-3,7.918144E-4,0E0,0E0,0E0,0E0,0E0,0E0,0E0,0E0,0E0,0E0,0E0,0E0,0E0,0E0,0E0,0E0,0E0,0E0,0E0,0E0,0E0,0E0,0E0,0E0,0E0,0E0,0E0,0E0,0E0,0E0,0E0,0E0,0E0,0E0,0E0,0E0,0E0,0E0,0E0,0E0,0E0,0E0,0E0],"parents":[2147483647,0,0,1,1,2,2,3,3,4,4,5,5,6,6,7,7,8,8,9,9,10,10,11,11,12,12,13,13,14,14,16,16,17,17,18,18,19,19,20,20,21,21,22,22,23,23,24,24,25,25,27,27,28,28,30,30,31,31,32,32,33,33,34,34,35,35,36,36,37,37,38,38,39,39,40,40,43,43,44,44,45,45,47,47,48,48,49,49,50,50,52,52,53,53,54,54,55,55],"right_children":[2,4,6,8,10,12,14,16,18,20,22,24,26,28,30,-1,32,34,36,38,40,42,44,46,48,50,-1,52,54,-1,56,58,60,62,64,66,68,70,72,74,76,-1,-1,78,80,82,-1,84,86,88,90,-1,92,94,96,98,-1,-1,-1,-1,-1,-1,-1,-1,-1,-1,-1,-1,-1,-1,-1,-1,-1,-1,-1,-1,-1,-1,-1,-1,-1,-1,-1,-1,-1,-1,-1,-1,-1,-1,-1,-1,-1,-1,-1,-1,-1,-1,-1],"split_conditions":[1.4832E0,1.1573E0,1.7889E0,1.0184E0,1.3326E0,1.587E0,1.9916E0,9.314E-1,1.0782E0,1.2695E0,1.2604E0,1.4493E0,1.7992E0,1.7889E0,2.0218E0,-3.3410157E-3,1.0248E0,1.0248E0,1.1573E0,1.1792E0,1.2079E0,1.2915E0,1.5211E0,1.429E0,1.4865E0,1.8096E0,-1.5913725E-3,1.7668E0,1.9743E0,7.0113987E-3,2.0218E0,1.0304E0,1.0064E0,1.0013E0,1.0136E0,1.0704E0,1.1478E0,1.1927E0,1.1478E0,1.2872E0,1.2418E0,-1.5544296E-4,6.284571E-3,1.4832E0,1.4697E0,1.386E0,1.11745605E-2,1.476E0,1.4697E0,1.6978E0,1.7992E0,-3.151113E-3,1.7825E0,1.9623E0,1.9916E0,2.0218E0,5.4654367E-3,-2.173549E-3,-4.8990487E-3,3.330374E-3,-1.5721756E-3,-3.2508464E-3,-3.4466575E-4,-6.788373E-5,-1.7733359E-3,-1.7904895E-4,-1.2797136E-3,-7.903433E-4,-3.5773024E-3,-4.0127826E-4,1.2250304E-3,-4.757184E-3,-7.3967985E-4,-7.2423223E-4,7.4774805E-3,-3.5155716E-3,-1.5718842E-4,3.7024662E-4,-2.9554323E-3,8.093343E-4,7.2831516E-3,-2.2185089E-3,7.2782283E-4,9.5383526E-4,3.976779E-3,-1.84685E-3,1.1354714E-3,2.0363077E-3,2.621183E-3,6.4914825E-4,-1.6444684E-3,4.7064098E-3,6.157474E-4,3.3830826E-3,4.87366E-3,2.64955E-3,-4.2626024E-3,4.547036E-3,-1.1187583E-3],"split_indices":[0,2,3,4,0,4,4,0,0,0,6,3,4,0,6,0,5,4,3,4,5,1,6,3,5,0,0,5,6,0,2,3,4,1,6,2,2,0,6,0,3,0,0,1,0,1,0,4,6,0,1,0,5,1,1,3,0,0,0,0,0,0,0,0,0,0,0,0,0,0,0,0,0,0,0,0,0,0,0,0,0,0,0,0,0,0,0,0,0,0,0,0,0,0,0,0,0,0,0],"split_type":[0,0,0,0,0,0,0,0,0,0,0,0,0,0,0,0,0,0,0,0,0,0,0,0,0,0,0,0,0,0,0,0,0,0,0,0,0,0,0,0,0,0,0,0,0,0,0,0,0,0,0,0,0,0,0,0,0,0,0,0,0,0,0,0,0,0,0,0,0,0,0,0,0,0,0,0,0,0,0,0,0,0,0,0,0,0,0,0,0,0,0,0,0,0,0,0,0,0,0],"sum_hessian":[4.952E3,3.945E3,1.007E3,1.509E3,2.436E3,5.02E2,5.05E2,6.2E2,8.89E2,1.372E3,1.064E3,1.93E2,3.09E2,4.65E2,4E1,3.9E1,5.81E2,3.27E2,5.62E2,4.24E2,9.48E2,3E0,1.061E3,7E0,1.86E2,3.07E2,2E0,1.4E1,4.51E2,2E1,2E1,5.74E2,7E0,1.9E1,3.08E2,5.51E2,1.1E1,5.7E1,3.67E2,3E0,9.45E2,1E0,2E0,1.052E3,9E0,5E0,2E0,2E1,1.66E2,3.04E2,3E0,1E0,1.3E1,4.26E2,2.5E1,8E0,1.2E1,5.72E2,2E0,1E0,6E0,1E0,1.8E1,5E0,3.03E2,1.3E1,5.38E2,4E0,7E0,4.6E1,1.1E1,3E0,3.64E2,2E0,1E0,3E0,9.42E2,1.045E3,7E0,7E0,2E0,1E0,4E0,1.1E1,9E0,5E0,1.61E2,1.54E2,1.5E2,1E0,2E0,3E0,1E1,3.77E2,4.9E1,2.3E1,2E0,5E0,3E0],"tree_param":{"num_deleted":"0","num_feature":"7","num_nodes":"99","size_leaf_vector":"1"}},{"base_weights":[4.6655274E-5,-1.7339922E-3,6.100183E-3,-3.9608693E-3,-1.9812871E-5,3.8316534E-3,8.206495E-3,-4.993497E-3,-2.9234865E-3,-4.4259735E-4,1.0361557E-3,2.5398377E-3,4.66168E-3,7.844043E-3,1.7092478E-2,-6.2225834E-3,-4.449689E-3,-2.8441288E-3,-7.061521E-3,-1.0326705E-3,-1.06417145E-4,1.2892246E-2,9.3808E-4,3.7646675E-3,-1.063917E-4,4.8966575E-3,-1.4448258E-3,6.7140916E-3,9.0240855E-3,2.1997571E-2,1.2004523E-2,-7.5908047E-3,-5.6255227E-3,-4.50118E-3,4.103124E-3,-3.1430891E-3,-1.6027689E-3,-9.717207E-3,2.0400882E-3,-8.627238E-4,-4.9704365E-3,-2.1869117E-5,-4.4083158E-3,-1.3212563E-4,4.9006552E-3,1.1310992E-3,-3.4780502E-3,2.8904723E-3,9.171283E-3,-7.547551E-3,2.47144E-3,1.3391256E-2,4.7181775E-3,1.4446557E-3,-3.8044811E-3,7.270014E-3,3.5951578E-3,-6.5084696E-3,9.221506E-3,7.6705813E-3,8.112574E-3,1.8035978E-2,1.9618273E-3,-2.3297828E-3,-2.571702E-4,-3.913045E-5,-1.7059598E-3,-1.3580653E-3,9.574593E-5,1.983285E-4,2.1643818E-3,-8.901674E-4,-1.610982E-3,-3.4511377E-4,-1.205326E-3,-2.07083E-3,-4.297203E-3,-2.9083493E-3,-2.4353333E-4,-2.0460405E-3,-1.949206E-4,-3.7535196E-5,1.0346366E-3,6.059409E-4,-1.5850131E-3,3.017954E-4,2.4861433E-3,-2.474797E-3,8.327633E-4,7.5784494E-4,2.9632032E-3,5.0433865E-3,4.176216E-4,-3.6248344E-3,-1.2819112E-3,2.249048E-3,6.945134E-5,-3.4986736E-4,4.9607996E-3,-6.600559E-4,1.493237E-3,-2.1390235E-3,8.899302E-4,1.9658261E-3,3.464885E-3,-2.1044828E-3,1.4317998E-3,-6.715059E-4,-2.897823E-3,3.8896971E-3,2.439258E-3,3.205085E-3,-2.0527841E-4,2.3937465E-3,6.017518E-3,-1.6097189E-3,1.3501454E-3],"categories":[],"categories_nodes":[],"categories_segments":[],"categories_sizes":[],"default_left":[0,0,0,0,0,0,0,0,0,0,0,0,0,0,0,0,0,0,0,0,0,0,0,0,0,0,0,0,0,0,0,0,0,0,0,0,0,0,0,0,0,0,0,0,0,0,0,0,0,0,0,0,0,0,0,0,0,0,0,0,0,0,0,0,0,0,0,0,0,0,0,0,0,0,0,0,0,0,0,0,0,0,0,0,0,0,0,0,0,0,0,0,0,0,0,0,0,0,0,0,0,0,0,0,0,0,0,0,0,0,0,0,0,0,0,0,0],"id":12,"left_children":[1,3,5,7,9,11,13,15,17,19,21,23,25,27,29,31,33,35,37,39,41,43,45,47,49,51,53,55,57,59,61,63,65,67,69,71,73,75,-1,77,79,81,83,-1,-1,85,87,89,91,93,95,97,99,-1,101,103,105,107,109,111,-1,113,115,-1,-1,-1,-1,-1,-1,-1,-1,-1,-1,-1,-1,-1,-1,-1,-1,-1,-1,-1,-1,-1,-1,-1,-1,-1,-1,-1,-1,-1,-1,-1,-1,-1,-1,-1,-1,-1,-1,-1,-1,-1,-1,-1,-1,-1,-1,-1,-1,-1,-1,-1,-1,-1,-1],"loss_changes":[5.3399947E-2,1.4612419E-2,5.3488426E-3,1.7690007E-3,9.665702E-4,5.714586E-4,1.7436221E-3,5.290769E-4,2.5346084E-4,3.0657157E-4,7.076764E-4,6.972543E-4,4.80589E-4,6.887764E-4,2.8498145E-4,1.639761E-4,2.7433503E-4,2.9890751E-4,6.182695E-4,3.7113897E-4,3.5852857E-4,2.3673434E-4,5.2815856E-4,6.6827703E-4,1.3422152E-3,4.189429E-4,2.1035988E-4,4.7842413E-4,8.9409016E-4,5.152747E-4,7.5205346E-4,8.061109E-5,5.9603713E-5,7.3061325E-5,3.806971E-5,2.4214666E-4,1.7127284E-4,6.967713E-5,0E0,2.346501E-4,1.793846E-4,3.4730378E-4,1.17546326E-4,0E0,0E0,5.199051E-4,7.987182E-4,3.0086935E-4,1.1652617E-3,2.1568197E-4,5.836046E-4,2.9396173E-4,5.7240576E-4,0E0,2.4632423E-4,6.79438E-4,6.0818E-4,3.2198353E-5,9.930525E-4,1.0800408E-4,0E0,2.6635826E-6,1.3576132E-4,0E0,0E0,0E0,0E0,0E0,0E0,0E0,0E0,0E0,0E0,0E0,0E0,0E0,0E0,0E0,0E0,0E0,0E0,0E0,0E0,0E0,0E0,0E0,0E0,0E0,0E0,0E0,0E0,0E0,0E0,0E0,0E0,0E0,0E0,0E0,0E0,0E0,0E0,0E0,0E0,0E0,0E0,0E0,0E0,0E0,0E0,0E0,0E0,0E0,0E0,0E0,0E0,0E0,0E0],"parents":[2147483647,0,0,1,1,2,2,3,3,4,4,5,5,6,6,7,7,8,8,9,9,10,10,11,11,12,12,13,13,14,14,15,15,16,16,17,17,18,18,19,19,20,20,21,21,22,22,23,23,24,24,25,25,26,26,27,27,28,28,29,29,30,30,31,31,32,32,33,33,34,34,35,35,36,36,37,37,39,39,40,40,41,41,42,42,45,45,46,46,47,47,48,48,49,49,50,50,51,51,52,52,54,54,55,55,56,56,57,57,58,58,59,59,61,61,62,62],"right_children":[2,4,6,8,10,12,14,16,18,20,22,24,26,28,30,32,34,36,38,40,42,44,46,48,50,52,54,56,58,60,62,64,66,68,70,72,74,76,-1,78,80,82,84,-1,-1,86,88,90,92,94,96,98,100,-1,102,104,106,108,110,112,-1,114,116,-1,-1,-1,-1,-1,-1,-1,-1,-1,-1,-1,-1,-1,-1,-1,-1,-1,-1,-1,-1,-1,-1,-1,-1,-1,-1,-1,-1,-1,-1,-1,-1,-1,-1,-1,-1,-1,-1,-1,-1,-1,-1,-1,-1,-1,-1,-1,-1,-1,-1,-1,-1,-1,-1],"split_conditions":[1.4457E0,1.2079E0,1.7507E0,1.067E0,1.3626E0,1.5249E0,2.0218E0,9.607E-1,1.2079E0,1.2945E0,1.2915E0,1.506E0,1.7507E0,1.895E0,2.0218E0,9.397E-1,1.0927E0,1.1515E0,1.2308E0,1.3142E0,1.3689E0,1.2915E0,1.4552E0,1.5002E0,1.5211E0,1.5056E0,1.7206E0,1.872E0,1.872E0,1.9916E0,2.0218E0,9.493E-1,9.314E-1,1.0746E0,1.1002E0,1.1478E0,1.2079E0,1.2194E0,2.0400882E-3,1.1689E0,1.3165E0,1.3626E0,1.3532E0,-1.3212563E-4,4.9006552E-3,1.4552E0,1.4697E0,1.5168E0,1.4984E0,1.5172E0,1.5267E0,1.4267E0,1.506E0,1.4446557E-3,1.7668E0,1.8501E0,1.8587E0,1.8587E0,1.9186E0,2.0218E0,8.112574E-3,2.0218E0,2.0218E0,-2.3297828E-3,-2.571702E-4,-3.913045E-5,-1.7059598E-3,-1.3580653E-3,9.574593E-5,1.983285E-4,2.1643818E-3,-8.901674E-4,-1.610982E-3,-3.4511377E-4,-1.205326E-3,-2.07083E-3,-4.297203E-3,-2.9083493E-3,-2.4353333E-4,-2.0460405E-3,-1.949206E-4,-3.7535196E-5,1.0346366E-3,6.059409E-4,-1.5850131E-3,3.017954E-4,2.4861433E-3,-2.474797E-3,8.327633E-4,7.5784494E-4,2.9632032E-3,5.0433865E-3,4.176216E-4,-3.6248344E-3,-1.2819112E-3,2.249048E-3,6.945134E-5,-3.4986736E-4,4.9607996E-3,-6.600559E-4,1.493237E-3,-2.1390235E-3,8.899302E-4,1.9658261E-3,3.464885E-3,-2.1044828E-3,1.4317998E-3,-6.715059E-4,-2.897823E-3,3.8896971E-3,2.439258E-3,3.205085E-3,-2.0527841E-4,2.3937465E-3,6.017518E-3,-1.6097189E-3,1.3501454E-3],"split_indices":[0,0,4,5,0,0,0,0,1,0,6,5,6,4,4,3,1,0,5,5,2,1,6,6,5,1,0,0,2,3,6,2,2,6,1,3,4,2,0,4,4,2,4,0,0,3,6,4,4,5,4,1,4,0,0,1,3,0,6,1,0,3,1,0,0,0,0,0,0,0,0,0,0,0,0,0,0,0,0,0,0,0,0,0,0,0,0,0,0,0,0,0,0,0,0,0,0,0,0,0,0,0,0,0,0,0,0,0,0,0,0,0,0,0,0,0,0],"split_type":[0,0,0,0,0,0,0,0,0,0,0,0,0,0,0,0,0,0,0,0,0,0,0,0,0,0,0,0,0,0,0,0,0,0,0,0,0,0,0,0,0,0,0,0,0,0,0,0,0,0,0,0,0,0,0,0,0,0,0,0,0,0,0,0,0,0,0,0,0,0,0,0,0,0,0,0,0,0,0,0,0,0,0,0,0,0,0,0,0,0,0,0,0,0,0,0,0,0,0,0,0,0,0,0,0,0,0,0,0,0,0,0,0,0,0,0,0],"sum_hessian":[4.952E3,3.827E3,1.125E3,1.664E3,2.163E3,5.43E2,5.82E2,8.32E2,8.32E2,1.545E3,6.18E2,2.14E2,3.29E2,5.61E2,2.1E1,2.52E2,5.8E2,8.18E2,1.4E1,5.6E2,9.85E2,4E0,6.14E2,1.46E2,6.8E1,3.17E2,1.2E1,2.9E2,2.71E2,9E0,1.2E1,7.3E1,1.79E2,5.77E2,3E0,6.58E2,1.6E2,1.2E1,2E0,5.38E2,2.2E1,9.67E2,1.8E1,1E0,3E0,5.89E2,2.5E1,1.27E2,1.9E1,1.7E1,5.1E1,5E0,3.12E2,3E0,9E0,2.45E2,4.5E1,3E0,2.68E2,3E0,6E0,7E0,5E0,7.1E1,2E0,2E0,1.77E2,5.74E2,3E0,2E0,1E0,6.12E2,4.6E1,1.36E2,2.4E1,9E0,3E0,2E0,5.36E2,1.5E1,7E0,9.4E2,2.7E1,2E0,1.6E1,5.8E2,9E0,1.4E1,1.1E1,1.22E2,5E0,9E0,1E1,6E0,1.1E1,1.5E1,3.6E1,1E0,4E0,1.1E1,3.01E2,6E0,3E0,2.12E2,3.3E1,4E0,4.1E1,2E0,1E0,5.8E1,2.1E2,2E0,1E0,2E0,5E0,1E0,4E0],"tree_param":{"num_deleted":"0","num_feature":"7","num_nodes":"117","size_leaf_vector":"1"}},{"base_weights":[3.8293234E-5,-1.2166948E-3,4.3047727E-3,-2.8351352E-3,-4.6909794E-5,2.55094E-3,5.7217837E-3,-3.7950936E-3,-2.2873003E-3,-2.97728E-4,1.0729516E-3,-1.632137E-3,2.6647858E-3,5.451683E-3,1.2840363E-2,-3.7214232E-3,-1.1552369E-2,-2.1919848E-3,-1.0874391E-2,-7.7421837E-3,-2.6878878E-4,3.929113E-3,3.7305566E-4,3.1677315E-3,-5.6280047E-3,7.3311627E-3,2.4618423E-3,4.891106E-3,7.0194113E-3,1.6509484E-2,9.0302415E-3,-4.604522E-3,-3.326518E-3,-1.3119832E-2,-7.923782E-4,-2.265498E-3,8.717571E-3,-3.6397218E-3,-4.3465584E-3,1.3506175E-3,-3.15997E-3,-2.8796025E-4,8.463919E-3,2.0383962E-3,9.892024E-3,4.6628118E-3,1.2357441E-4,-1.6804816E-3,7.795787E-3,-8.558035E-3,2.232331E-3,4.008273E-3,2.4824778E-2,1.2777249E-3,3.0861706E-3,5.0109928E-3,-9.609103E-3,1.06415665E-2,5.5915858E-3,9.577478E-3,7.3539377E-3,4.1029933E-3,1.3299981E-3,-1.4872267E-3,-7.686426E-4,-9.1586914E-4,-1.5591675E-3,-9.934724E-4,-4.5856177E-3,-7.851662E-4,-4.6405365E-4,-1.6233982E-3,3.5922828E-3,-1.57713E-3,4.2446854E-4,-9.1847534E-5,2.398789E-3,6.769717E-4,2.9342533E-3,9.526701E-4,-3.4681393E-3,1.6595804E-3,4.9728565E-3,1.9412399E-3,-9.48906E-6,2.7391613E-3,1.8598972E-6,5.238122E-3,3.0435922E-4,-2.9589701E-3,-1.0590077E-3,1.5932848E-3,-2.7205825E-3,2.0731689E-4,1.0963834E-2,2.2053542E-3,2.3885154E-4,2.8676705E-3,8.7134656E-4,2.272474E-3,1.4234207E-3,5.4094795E-4,-4.204273E-3,6.400506E-4,3.757593E-3,-7.644955E-5,2.0071333E-3,4.909301E-3,1.18875505E-4,-1.3682664E-3,1.026106E-3],"categories":[],"categories_nodes":[],"categories_segments":[],"categories_sizes":[],"default_left":[0,0,0,0,0,0,0,0,0,0,0,0,0,0,0,0,0,0,0,0,0,0,0,0,0,0,0,0,0,0,0,0,0,0,0,0,0,0,0,0,0,0,0,0,0,0,0,0,0,0,0,0,0,0,0,0,0,0,0,0,0,0,0,0,0,0,0,0,0,0,0,0,0,0,0,0,0,0,0,0,0,0,0,0,0,0,0,0,0,0,0,0,0,0,0,0,0,0,0,0,0,0,0,0,0,0,0,0,0,0,0],"id":13,"left_children":[1,3,5,7,9,11,13,15,17,19,21,23,25,27,29,31,33,35,37,39,41,43,45,47,49,51,53,55,57,59,61,63,65,67,-1,69,71,73,-1,-1,-1,75,77,79,81,83,85,-1,87,89,-1,91,93,95,97,99,101,103,105,107,-1,-1,109,-1,-1,-1,-1,-1,-1,-1,-1,-1,-1,-1,-1,-1,-1,-1,-1,-1,-1,-1,-1,-1,-1,-1,-1,-1,-1,-1,-1,-1,-1,-1,-1,-1,-1,-1,-1,-1,-1,-1,-1,-1,-1,-1,-1,-1,-1,-1,-1],"loss_changes":[2.6525488E-2,7.247141E-3,2.78374E-3,8.3591323E-4,6.2471925E-4,2.4484308E-4,1.1259373E-3,2.8961152E-4,8.151084E-4,3.893675E-4,8.1213354E-4,2.8634295E-4,4.4788164E-4,4.93845E-4,1.5847082E-4,1.8625427E-4,3.518618E-5,8.3377725E-4,2.3488374E-4,2.8664118E-4,3.0563303E-4,8.817703E-4,3.5045386E-4,3.2776373E-4,3.7002427E-4,1.0630825E-3,3.4573535E-4,8.234689E-4,7.472988E-4,3.20039E-4,4.469297E-4,1.1415151E-4,1.9041449E-4,3.434281E-5,0E0,2.5099237E-4,3.8689224E-4,4.8314374E-5,0E0,0E0,0E0,2.750084E-4,1.0627264E-5,9.95493E-4,4.6202913E-4,1.5297957E-4,3.2872954E-4,0E0,3.0997716E-4,1.1120399E-5,0E0,3.5479185E-4,8.2338264E-4,4.7672127E-4,3.3561396E-4,2.664784E-4,2.2636043E-4,6.624386E-4,7.340845E-4,4.296974E-4,0E0,0E0,8.948409E-5,0E0,0E0,0E0,0E0,0E0,0E0,0E0,0E0,0E0,0E0,0E0,0E0,0E0,0E0,0E0,0E0,0E0,0E0,0E0,0E0,0E0,0E0,0E0,0E0,0E0,0E0,0E0,0E0,0E0,0E0,0E0,0E0,0E0,0E0,0E0,0E0,0E0,0E0,0E0,0E0,0E0,0E0,0E0,0E0,0E0,0E0,0E0,0E0],"parents":[2147483647,0,0,1,1,2,2,3,3,4,4,5,5,6,6,7,7,8,8,9,9,10,10,11,11,12,12,13,13,14,14,15,15,16,16,17,17,18,18,19,19,20,20,21,21,22,22,23,23,24,24,25,25,26,26,27,27,28,28,29,29,30,30,31,31,32,32,33,33,35,35,36,36,37,37,41,41,42,42,43,43,44,44,45,45,46,46,48,48,49,49,51,51,52,52,53,53,54,54,55,55,56,56,57,57,58,58,59,59,62,62],"right_children":[2,4,6,8,10,12,14,16,18,20,22,24,26,28,30,32,34,36,38,40,42,44,46,48,50,52,54,56,58,60,62,64,66,68,-1,70,72,74,-1,-1,-1,76,78,80,82,84,86,-1,88,90,-1,92,94,96,98,100,102,104,106,108,-1,-1,110,-1,-1,-1,-1,-1,-1,-1,-1,-1,-1,-1,-1,-1,-1,-1,-1,-1,-1,-1,-1,-1,-1,-1,-1,-1,-1,-1,-1,-1,-1,-1,-1,-1,-1,-1,-1,-1,-1,-1,-1,-1,-1,-1,-1,-1,-1,-1,-1],"split_conditions":[1.4457E0,1.1927E0,1.7206E0,1.0097E0,1.3881E0,1.432E0,2.0218E0,1.0304E0,1.1979E0,1.1874E0,1.3943E0,1.4144E0,1.4397E0,1.9312E0,2.0218E0,9.537E-1,1.0064E0,1.2029E0,1.1874E0,1.1478E0,1.4128E0,1.3994E0,1.3808E0,1.4017E0,1.4861E0,1.4865E0,1.5209E0,1.9417E0,1.9354E0,1.9685E0,2.0218E0,9.554E-1,1.0013E0,9.843E-1,-7.923782E-4,1.1156E0,1.1478E0,1.2079E0,-4.3465584E-3,1.3506175E-3,-3.15997E-3,1.4245E0,1.3671E0,1.4035E0,1.4128E0,1.3845E0,1.386E0,-1.6804816E-3,1.4188E0,1.432E0,2.232331E-3,1.4984E0,1.4963E0,1.4351E0,1.5056E0,1.7507E0,1.9417E0,1.9279E0,1.9417E0,1.9417E0,7.3539377E-3,4.1029933E-3,2.0218E0,-1.4872267E-3,-7.686426E-4,-9.1586914E-4,-1.5591675E-3,-9.934724E-4,-4.5856177E-3,-7.851662E-4,-4.6405365E-4,-1.6233982E-3,3.5922828E-3,-1.57713E-3,4.2446854E-4,-9.1847534E-5,2.398789E-3,6.769717E-4,2.9342533E-3,9.526701E-4,-3.4681393E-3,1.6595804E-3,4.9728565E-3,1.9412399E-3,-9.48906E-6,2.7391613E-3,1.8598972E-6,5.238122E-3,3.0435922E-4,-2.9589701E-3,-1.0590077E-3,1.5932848E-3,-2.7205825E-3,2.0731689E-4,1.0963834E-2,2.2053542E-3,2.3885154E-4,2.8676705E-3,8.7134656E-4,2.272474E-3,1.4234207E-3,5.4094795E-4,-4.204273E-3,6.400506E-4,3.757593E-3,-7.644955E-5,2.0071333E-3,4.909301E-3,1.18875505E-4,-1.3682664E-3,1.026106E-3],"split_indices":[0,3,0,0,0,2,0,3,1,4,2,3,3,2,4,0,0,0,5,4,2,1,6,2,4,5,0,1,5,6,6,4,3,0,0,0,2,0,0,0,0,4,0,3,0,5,1,0,1,4,0,4,0,6,1,0,0,0,6,5,0,0,1,0,0,0,0,0,0,0,0,0,0,0,0,0,0,0,0,0,0,0,0,0,0,0,0,0,0,0,0,0,0,0,0,0,0,0,0,0,0,0,0,0,0,0,0,0,0,0,0],"split_type":[0,0,0,0,0,0,0,0,0,0,0,0,0,0,0,0,0,0,0,0,0,0,0,0,0,0,0,0,0,0,0,0,0,0,0,0,0,0,0,0,0,0,0,0,0,0,0,0,0,0,0,0,0,0,0,0,0,0,0,0,0,0,0,0,0,0,0,0,0,0,0,0,0,0,0,0,0,0,0,0,0,0,0,0,0,0,0,0,0,0,0,0,0,0,0,0,0,0,0,0,0,0,0,0,0,0,0,0,0,0,0],"sum_hessian":[4.952E3,3.827E3,1.125E3,1.605E3,2.222E3,5.04E2,6.21E2,5.81E2,1.024E3,1.816E3,4.06E2,1.3E1,4.91E2,6E2,2.1E1,5.77E2,4E0,1.014E3,1E1,6E0,1.81E3,7.9E1,3.27E2,6E0,7E0,1.9E1,4.72E2,4.45E2,1.55E2,9E0,1.2E1,1.75E2,4.02E2,3E0,1E0,1.008E3,6E0,4E0,6E0,1E0,5E0,1.807E3,3E0,6.1E1,1.8E1,1.7E1,3.1E2,2E0,4E0,6E0,1E0,1.7E1,2E0,1.64E2,3.08E2,4.42E2,3E0,4.2E1,1.13E2,6E0,3E0,7E0,5E0,1.48E2,2.7E1,3.53E2,4.9E1,1E0,2E0,6.75E2,3.33E2,1E0,5E0,3E0,1E0,1.804E3,3E0,1E0,2E0,5.7E1,4E0,1.2E1,6E0,1.2E1,5E0,3E0,3.07E2,1E0,3E0,4E0,2E0,1.6E1,1E0,1E0,1E0,1.1E1,1.53E2,7E0,3.01E2,3.9E1,4.03E2,1E0,2E0,8E0,3.4E1,1.8E1,9.5E1,3E0,3E0,1E0,4E0],"tree_param":{"num_deleted":"0","num_feature":"7","num_nodes":"111","size_leaf_vector":"1"}},{"base_weights":[3.441086E-5,-7.586496E-4,3.4567872E-3,-1.8943363E-3,1.7993795E-4,1.881063E-2,3.3703367E-3,-1.8601199E-3,-1.3942862E-2,7.623589E-3,1.11690264E-4,1.3669431E-3,6.370515E-3,2.8866492E-3,6.095106E-3,-2.8328528E-3,-1.5045376E-3,-5.125916E-3,-1.8455148E-3,1.2107055E-2,-4.8556724E-3,-6.1718537E-3,1.6675751E-4,2.8383958E-3,6.143779E-3,1.3346538E-2,5.110283E-3,-2.542207E-3,-6.00273E-3,-1.5503889E-3,3.2668572E-3,3.1752586E-3,1.7708778E-2,-5.486512E-3,-2.5522115E-4,-9.058833E-3,-2.6676892E-3,5.0387084E-3,1.5131888E-4,-2.8301876E-3,2.9668882E-3,3.3949614E-3,1.5381904E-2,-2.770864E-3,5.9794313E-3,-8.352574E-4,8.253792E-4,-3.052102E-3,-1.2819881E-3,-4.5950097E-4,-3.936124E-3,2.164786E-3,-2.226779E-3,2.1005452E-3,4.111588E-4,7.5760963E-3,2.9182197E-3,-1.9051105E-3,-3.046632E-4,-3.0256629E-3,2.7233364E-5,-1.2739153E-4,-2.3279786E-3,-3.8436592E-5,2.641222E-4,-1.7712006E-3,1.9027592E-3,-2.8861463E-3,9.085513E-4,2.7494074E-3,-4.7495367E-4,2.5818408E-3,5.562298E-3,-2.993796E-3,4.6251217E-4,6.997544E-3,1.5864103E-3],"categories":[],"categories_nodes":[],"categories_segments":[],"categories_sizes":[],"default_left":[0,0,0,0,0,0,0,0,0,0,0,0,0,0,0,0,0,0,0,0,0,0,0,0,0,0,0,0,0,0,0,0,0,0,0,0,0,0,0,0,0,0,0,0,0,0,0,0,0,0,0,0,0,0,0,0,0,0,0,0,0,0,0,0,0,0,0,0,0,0,0,0,0,0,0,0,0],"id":14,"left_children":[1,3,5,7,9,11,13,15,17,19,21,-1,-1,23,25,27,29,-1,-1,31,33,35,37,39,-1,41,43,45,47,49,51,53,55,57,-1,59,61,-1,63,65,67,69,71,73,75,-1,-1,-1,-1,-1,-1,-1,-1,-1,-1,-1,-1,-1,-1,-1,-1,-1,-1,-1,-1,-1,-1,-1,-1,-1,-1,-1,-1,-1,-1,-1,-1],"loss_changes":[1.3445815E-2,4.287557E-3,1.1736881E-3,7.24372E-4,1.118299E-3,7.6033175E-5,1.2054518E-3,6.2386785E-4,1.7347804E-5,1.1777946E-3,7.5673126E-4,0E0,0E0,6.125043E-4,9.244466E-4,4.3157558E-4,2.964721E-4,0E0,0E0,6.942719E-4,1.04912615E-5,1.6804639E-4,5.5353134E-4,5.830806E-4,0E0,2.7186074E-4,8.659542E-4,5.789576E-4,2.450602E-4,2.6578945E-4,6.0233887E-4,3.8745122E-5,2.9631425E-4,1.2862278E-5,0E0,9.485555E-5,1.10926354E-4,0E0,4.4120362E-4,5.449605E-4,6.278856E-4,1.2939944E-4,1.1870172E-4,4.1951588E-4,1.2198468E-3,0E0,0E0,0E0,0E0,0E0,0E0,0E0,0E0,0E0,0E0,0E0,0E0,0E0,0E0,0E0,0E0,0E0,0E0,0E0,0E0,0E0,0E0,0E0,0E0,0E0,0E0,0E0,0E0,0E0,0E0,0E0,0E0],"parents":[2147483647,0,0,1,1,2,2,3,3,4,4,5,5,6,6,7,7,8,8,9,9,10,10,13,13,14,14,15,15,16,16,19,19,20,20,21,21,22,22,23,23,25,25,26,26,27,27,28,28,29,29,30,30,31,31,32,32,33,33,35,35,36,36,38,38,39,39,40,40,41,41,42,42,43,43,44,44],"right_children":[2,4,6,8,10,12,14,16,18,20,22,-1,-1,24,26,28,30,-1,-1,32,34,36,38,40,-1,42,44,46,48,50,52,54,56,58,-1,60,62,-1,64,66,68,70,72,74,76,-1,-1,-1,-1,-1,-1,-1,-1,-1,-1,-1,-1,-1,-1,-1,-1,-1,-1,-1,-1,-1,-1,-1,-1,-1,-1,-1,-1,-1,-1,-1,-1],"split_conditions":[1.5211E0,1.2525E0,1.499E0,1.2718E0,1.2418E0,1.4493E0,1.9417E0,9.871E-1,1.2243E0,1.2604E0,1.2566E0,1.3669431E-3,6.370515E-3,1.9916E0,1.9417E0,9.805E-1,1.2604E0,-5.125916E-3,-1.8455148E-3,1.2566E0,1.2887E0,1.2604E0,1.2243E0,1.5211E0,6.143779E-3,1.9312E0,1.9354E0,9.778E-1,9.805E-1,1.2695E0,1.2489E0,1.2243E0,1.2362E0,1.2695E0,-2.5522115E-4,1.2525E0,1.284E0,5.0387084E-3,1.3881E0,1.5267E0,1.506E0,1.9238E0,1.9312E0,1.9486E0,1.9238E0,-8.352574E-4,8.253792E-4,-3.052102E-3,-1.2819881E-3,-4.5950097E-4,-3.936124E-3,2.164786E-3,-2.226779E-3,2.1005452E-3,4.111588E-4,7.5760963E-3,2.9182197E-3,-1.9051105E-3,-3.046632E-4,-3.0256629E-3,2.7233364E-5,-1.2739153E-4,-2.3279786E-3,-3.8436592E-5,2.641222E-4,-1.7712006E-3,1.9027592E-3,-2.8861463E-3,9.085513E-4,2.7494074E-3,-4.7495367E-4,2.5818408E-3,5.562298E-3,-2.993796E-3,4.6251217E-4,6.997544E-3,1.5864103E-3],"split_indices":[6,3,5,1,6,2,0,0,4,4,4,0,0,2,1,0,1,0,0,1,0,0,1,5,0,1,3,0,1,2,4,2,4,3,0,4,1,0,0,3,4,3,2,1,6,0,0,0,0,0,0,0,0,0,0,0,0,0,0,0,0,0,0,0,0,0,0,0,0,0,0,0,0,0,0,0,0],"split_type":[0,0,0,0,0,0,0,0,0,0,0,0,0,0,0,0,0,0,0,0,0,0,0,0,0,0,0,0,0,0,0,0,0,0,0,0,0,0,0,0,0,0,0,0,0,0,0,0,0,0,0,0,0,0,0,0,0,0,0,0,0,0,0,0,0,0,0,0,0,0,0,0,0,0,0,0,0],"sum_hessian":[4.952E3,4.021E3,9.31E2,1.819E3,2.202E3,4E0,9.27E2,1.815E3,4E0,1.9E1,2.183E3,1E0,3E0,7.89E2,1.38E2,4.84E2,1.331E3,2E0,2E0,1.4E1,5E0,1.8E1,2.165E3,7.88E2,1E0,1.5E1,1.23E2,4.45E2,3.9E1,1.319E3,1.2E1,6E0,8E0,4E0,1E0,9E0,9E0,1E0,2.164E3,1.7E1,7.71E2,3E0,1.2E1,1.2E1,1.11E2,4.26E2,1.9E1,1E1,2.9E1,1.318E3,1E0,9E0,3E0,1E0,5E0,3E0,5E0,3E0,1E0,8E0,1E0,7E0,2E0,1.565E3,5.99E2,1.3E1,4E0,3E0,7.68E2,1E0,2E0,5E0,7E0,4E0,8E0,3E0,1.08E2],"tree_param":{"num_deleted":"0","num_feature":"7","num_nodes":"77","size_leaf_vector":"1"}},{"base_weights":[2.8746226E-5,-6.620925E-4,2.0116467E-3,-1.5785977E-3,-1.3831606E-4,1.2284818E-3,3.207183E-3,-1.5412301E-3,-1.1217618E-2,-8.5301006E-5,-2.666903E-3,3.9500715E-3,1.1960459E-3,2.9619457E-3,8.467766E-3,-2.2054347E-3,-1.3211615E-3,-1.4473916E-3,-4.1614175E-3,-1.07895765E-4,1.027112E-2,-3.7462474E-3,-1.9684539E-3,-1.2038803E-2,1.2804331E-3,8.563638E-3,2.7772593E-3,-1.348416E-3,9.516805E-3,-2.0130568E-3,-6.7416476E-3,7.401228E-4,-1.4053215E-3,2.7070453E-3,-1.5536795E-4,8.05378E-4,3.448981E-3,1.4100586E-3,-4.6215425E-3,-4.756558E-3,-4.209479E-3,6.077217E-3,1.1640686E-3,-4.352411E-3,1.0885523E-2,-2.414389E-3,2.8951138E-3,5.4484606E-4,-1.1516333E-3,7.18832E-5,9.992468E-3,-6.377594E-4,3.985714E-4,-4.2136313E-4,-2.2753032E-3,-3.216245E-4,2.4368854E-3,-1.1349022E-3,-3.935011E-4,-9.4158057E-4,1.2384827E-3,-2.3732995E-4,3.9261853E-5,-9.878874E-5,1.4807429E-3,-1.7978897E-3,7.01108E-4,-1.07306245E-4,-1.7869592E-3,7.577062E-4,5.3628446E-3,-3.6446957E-4,4.0158906E-4,-3.323132E-3,1.3645471E-3,1.649201E-3,4.069792E-3,-1.4400245E-3,4.2253736E-4,9.5564465E-4,2.925223E-4,4.269239E-3,2.082492E-3],"categories":[],"categories_nodes":[],"categories_segments":[],"categories_sizes":[],"default_left":[0,0,0,0,0,0,0,0,0,0,0,0,0,0,0,0,0,0,0,0,0,0,0,0,0,0,0,0,0,0,0,0,0,0,0,0,0,0,0,0,0,0,0,0,0,0,0,0,0,0,0,0,0,0,0,0,0,0,0,0,0,0,0,0,0,0,0,0,0,0,0,0,0,0,0,0,0,0,0,0,0,0,0],"id":15,"left_children":[1,3,5,7,9,11,13,15,17,19,21,-1,23,25,27,29,31,-1,-1,33,35,-1,37,39,41,43,45,47,49,51,53,55,57,59,61,-1,-1,63,65,-1,67,69,71,73,75,77,79,-1,-1,-1,81,-1,-1,-1,-1,-1,-1,-1,-1,-1,-1,-1,-1,-1,-1,-1,-1,-1,-1,-1,-1,-1,-1,-1,-1,-1,-1,-1,-1,-1,-1,-1,-1],"loss_changes":[6.786271E-3,1.7634629E-3,1.1945269E-3,4.6392134E-4,3.1332285E-4,2.84357E-4,6.2770443E-4,1.9178563E-4,1.7903105E-5,5.3743814E-4,3.0465974E-4,0E0,8.7985897E-4,4.7797663E-4,2.3937889E-4,2.7440896E-4,1.7503824E-4,0E0,0E0,3.0616918E-4,1.5622063E-5,0E0,4.188373E-4,8.265668E-5,4.227209E-4,4.9722195E-4,2.95175E-4,3.0614578E-5,8.586189E-5,1.2269837E-4,4.7815673E-5,5.438762E-4,2.0969496E-4,3.2866138E-4,4.0972338E-4,0E0,0E0,1.3040847E-4,2.6212737E-4,0E0,1.8057264E-5,7.09127E-4,3.1432929E-4,2.2995163E-4,1.1317921E-4,1.0708221E-4,2.5390997E-4,0E0,0E0,0E0,1.4689285E-4,0E0,0E0,0E0,0E0,0E0,0E0,0E0,0E0,0E0,0E0,0E0,0E0,0E0,0E0,0E0,0E0,0E0,0E0,0E0,0E0,0E0,0E0,0E0,0E0,0E0,0E0,0E0,0E0,0E0,0E0,0E0,0E0],"parents":[2147483647,0,0,1,1,2,2,3,3,4,4,5,5,6,6,7,7,8,8,9,9,10,10,12,12,13,13,14,14,15,15,16,16,19,19,20,20,22,22,23,23,24,24,25,25,26,26,27,27,28,28,29,29,30,30,31,31,32,32,33,33,34,34,37,37,38,38,40,40,41,41,42,42,43,43,44,44,45,45,46,46,50,50],"right_children":[2,4,6,8,10,12,14,16,18,20,22,-1,24,26,28,30,32,-1,-1,34,36,-1,38,40,42,44,46,48,50,52,54,56,58,60,62,-1,-1,64,66,-1,68,70,72,74,76,78,80,-1,-1,-1,82,-1,-1,-1,-1,-1,-1,-1,-1,-1,-1,-1,-1,-1,-1,-1,-1,-1,-1,-1,-1,-1,-1,-1,-1,-1,-1,-1,-1,-1,-1,-1,-1],"split_conditions":[1.4188E0,1.1264E0,1.7889E0,1.1369E0,1.4188E0,1.3827E0,2.0218E0,9.672E-1,1.1225E0,1.4267E0,1.3904E0,3.9500715E-3,1.3994E0,1.7889E0,1.9417E0,9.805E-1,9.713E-1,-1.4473916E-3,-4.1614175E-3,1.1333E0,1.3966E0,-3.7462474E-3,1.4245E0,1.3904E0,1.4188E0,1.7668E0,1.7889E0,2.0218E0,1.9916E0,9.755E-1,9.607E-1,9.778E-1,9.695E-1,1.1203E0,1.2816E0,8.05378E-4,3.448981E-3,1.4209E0,1.4397E0,-4.756558E-3,1.4245E0,1.432E0,1.4245E0,1.7668E0,1.7992E0,1.7992E0,1.9685E0,5.4484606E-4,-1.1516333E-3,7.18832E-5,2.0218E0,-6.377594E-4,3.985714E-4,-4.2136313E-4,-2.2753032E-3,-3.216245E-4,2.4368854E-3,-1.1349022E-3,-3.935011E-4,-9.4158057E-4,1.2384827E-3,-2.3732995E-4,3.9261853E-5,-9.878874E-5,1.4807429E-3,-1.7978897E-3,7.01108E-4,-1.07306245E-4,-1.7869592E-3,7.577062E-4,5.3628446E-3,-3.6446957E-4,4.0158906E-4,-3.323132E-3,1.3645471E-3,1.649201E-3,4.069792E-3,-1.4400245E-3,4.2253736E-4,9.5564465E-4,2.925223E-4,4.269239E-3,2.082492E-3],"split_indices":[0,1,3,2,3,1,2,6,0,4,5,0,1,6,6,0,6,0,0,1,3,0,4,2,1,5,0,3,4,0,6,2,3,2,0,0,0,4,2,0,0,0,3,0,0,3,5,0,0,0,5,0,0,0,0,0,0,0,0,0,0,0,0,0,0,0,0,0,0,0,0,0,0,0,0,0,0,0,0,0,0,0,0],"split_type":[0,0,0,0,0,0,0,0,0,0,0,0,0,0,0,0,0,0,0,0,0,0,0,0,0,0,0,0,0,0,0,0,0,0,0,0,0,0,0,0,0,0,0,0,0,0,0,0,0,0,0,0,0,0,0,0,0,0,0,0,0,0,0,0,0,0,0,0,0,0,0,0,0,0,0,0,0,0,0,0,0,0,0],"sum_hessian":[4.952E3,3.673E3,1.279E3,1.335E3,2.338E3,7.74E2,5.05E2,1.331E3,4E0,2.291E3,4.7E1,1E0,7.73E2,4.84E2,2.1E1,3.29E2,1.002E3,2E0,2E0,2.287E3,4E0,2E0,4.5E1,4E0,7.69E2,1.4E1,4.7E2,2E0,1.9E1,3.17E2,1.2E1,3.9E1,9.63E2,3.7E1,2.25E3,1E0,3E0,2E1,2.5E1,2E0,2E0,1.7E1,7.52E2,2E0,1.2E1,1E1,4.6E2,1E0,1E0,1E0,1.8E1,3.07E2,1E1,2E0,1E1,3.2E1,7E0,3.5E1,9.28E2,7E0,3E1,6.98E2,1.552E3,1.4E1,6E0,2.1E1,4E0,1E0,1E0,1.4E1,3E0,5.1E1,7.01E2,1E0,1E0,5E0,7E0,6E0,4E0,3.99E2,6.1E1,6E0,1.2E1],"tree_param":{"num_deleted":"0","num_feature":"7","num_nodes":"83","size_leaf_vector":"1"}},{"base_weights":[2.1382928E-5,-3.4936875E-4,1.9014677E-3,-1.1073955E-3,3.570907E-5,1.7171184E-3,5.3442367E-3,-1.069703E-3,-3.409324E-3,7.226556E-5,-7.6523377E-3,1.6767497E-3,4.9504284E-3,7.370733E-3,3.063253E-3,-1.0983458E-3,3.761673E-3,4.7405115E-3,4.303021E-5,1.3781488E-3,-1.0499299E-2,1.7648906E-3,-8.24569E-3,-4.785955E-4,8.705543E-3,7.993316E-3,1.4330429E-3,-1.0194249E-3,-3.802064E-3,7.092953E-5,7.2811083E-3,-2.7183493E-4,4.991204E-4,-7.608891E-4,1.058519E-3,-1.1128068E-3,-3.5199346E-3,1.6686912E-3,1.19985E-2,3.3064683E-3,-4.058354E-3,4.6116117E-4,-9.788991E-4,4.3888567E-3,2.8876178E-3,2.3953915E-3,3.278041E-3,-1.1583226E-3,2.9518171E-3,-3.3627576E-4,4.606756E-4,-1.9198649E-3,-5.735964E-4,6.7088846E-4,-1.0684967E-3,3.2513023E-3,2.537084E-4,-8.717232E-5,2.1946013E-3,2.5747288E-3,1.2535007E-4,5.277386E-4,-8.875204E-4,5.571431E-3,7.277817E-4,1.2808264E-3,2.0708442E-4,2.3345232E-3,-1.3774037E-3,2.2294165E-3,-1.1514903E-3,1.2165927E-3,-2.8384805E-3,1.4635257E-3,-1.0073662E-4],"categories":[],"categories_nodes":[],"categories_segments":[],"categories_sizes":[],"default_left":[0,0,0,0,0,0,0,0,0,0,0,0,0,0,0,0,0,0,0,0,0,0,0,0,0,0,0,0,0,0,0,0,0,0,0,0,0,0,0,0,0,0,0,0,0,0,0,0,0,0,0,0,0,0,0,0,0,0,0,0,0,0,0,0,0,0,0,0,0,0,0,0,0,0,0],"id":16,"left_children":[1,3,5,7,9,11,13,15,-1,17,19,21,-1,23,25,27,-1,29,31,33,35,37,39,41,43,45,47,49,51,53,55,57,59,-1,-1,-1,-1,61,63,65,-1,-1,-1,67,-1,69,-1,71,73,-1,-1,-1,-1,-1,-1,-1,-1,-1,-1,-1,-1,-1,-1,-1,-1,-1,-1,-1,-1,-1,-1,-1,-1,-1,-1],"loss_changes":[3.4531264E-3,1.2079189E-3,5.0871517E-4,5.267805E-4,7.7202986E-4,4.3546595E-4,1.6694027E-4,5.5557734E-4,0E0,3.727899E-4,3.4869235E-4,6.9234637E-4,0E0,2.24191E-4,1.5732308E-4,2.9229582E-4,0E0,2.0116346E-4,3.9031557E-4,4.261717E-5,4.0253042E-5,7.370338E-4,4.7187158E-4,2.7467067E-5,2.9228046E-5,5.5933197E-5,7.032604E-5,3.5180175E-4,1.792325E-4,6.3026026E-5,2.4260237E-4,2.3075049E-4,7.257579E-4,0E0,0E0,0E0,0E0,3.2449118E-4,3.9538566E-4,4.6106907E-6,0E0,0E0,0E0,1.8807275E-4,0E0,1.2270245E-4,0E0,3.4140138E-4,7.131109E-5,0E0,0E0,0E0,0E0,0E0,0E0,0E0,0E0,0E0,0E0,0E0,0E0,0E0,0E0,0E0,0E0,0E0,0E0,0E0,0E0,0E0,0E0,0E0,0E0,0E0,0E0],"parents":[2147483647,0,0,1,1,2,2,3,3,4,4,5,5,6,6,7,7,9,9,10,10,11,11,13,13,14,14,15,15,17,17,18,18,19,19,20,20,21,21,22,22,23,23,24,24,25,25,26,26,27,27,28,28,29,29,30,30,31,31,32,32,37,37,38,38,39,39,43,43,45,45,47,47,48,48],"right_children":[2,4,6,8,10,12,14,16,-1,18,20,22,-1,24,26,28,-1,30,32,34,36,38,40,42,44,46,48,50,52,54,56,58,60,-1,-1,-1,-1,62,64,66,-1,-1,-1,68,-1,70,-1,72,74,-1,-1,-1,-1,-1,-1,-1,-1,-1,-1,-1,-1,-1,-1,-1,-1,-1,-1,-1,-1,-1,-1,-1,-1,-1,-1],"split_conditions":[1.587E0,1.1369E0,1.9916E0,1.145E0,1.587E0,2.0218E0,2.0218E0,1.1478E0,-3.409324E-3,1.1392E0,1.5427E0,1.9916E0,4.9504284E-3,1.9623E0,2.0218E0,1.1302E0,3.761673E-3,1.1369E0,1.3448E0,1.5249E0,1.5427E0,1.9916E0,1.9486E0,2.0218E0,1.9916E0,2.0218E0,2.0218E0,1.1225E0,1.1369E0,1.1333E0,1.1478E0,1.386E0,1.3362E0,-7.608891E-4,1.058519E-3,-1.1128068E-3,-3.5199346E-3,1.9743E0,1.9623E0,1.9685E0,-4.058354E-3,4.6116117E-4,-9.788991E-4,1.9685E0,2.8876178E-3,2.0218E0,3.278041E-3,2.0218E0,2.0218E0,-3.3627576E-4,4.606756E-4,-1.9198649E-3,-5.735964E-4,6.7088846E-4,-1.0684967E-3,3.2513023E-3,2.537084E-4,-8.717232E-5,2.1946013E-3,2.5747288E-3,1.2535007E-4,5.277386E-4,-8.875204E-4,5.571431E-3,7.277817E-4,1.2808264E-3,2.0708442E-4,2.3345232E-3,-1.3774037E-3,2.2294165E-3,-1.1514903E-3,1.2165927E-3,-2.8384805E-3,1.4635257E-3,-1.0073662E-4],"split_indices":[1,5,4,4,5,5,5,6,0,5,6,6,0,6,6,4,0,0,5,0,4,2,3,3,3,2,2,2,0,1,1,1,6,0,0,0,0,3,4,1,0,0,0,0,0,1,0,3,0,0,0,0,0,0,0,0,0,0,0,0,0,0,0,0,0,0,0,0,0,0,0,0,0,0,0],"split_type":[0,0,0,0,0,0,0,0,0,0,0,0,0,0,0,0,0,0,0,0,0,0,0,0,0,0,0,0,0,0,0,0,0,0,0,0,0,0,0,0,0,0,0,0,0,0,0,0,0,0,0,0,0,0,0,0,0,0,0,0,0,0,0,0,0,0,0,0,0,0,0,0,0,0,0],"sum_hessian":[4.952E3,4.137E3,8.15E2,1.393E3,2.744E3,7.75E2,4E1,1.389E3,4E0,2.732E3,1.2E1,7.74E2,1E0,2E1,2E1,1.387E3,2E0,1.6E1,2.716E3,3E0,9E0,7.68E2,6E0,3E0,1.7E1,4E0,1.6E1,1.349E3,3.8E1,6E0,1E1,1.607E3,1.109E3,1E0,2E0,2E0,7E0,7.62E2,6E0,2E0,4E0,2E0,1E0,4E0,1.3E1,2E0,2E0,6E0,1E1,1.298E3,5.1E1,1.5E1,2.3E1,4E0,2E0,6E0,4E0,1.604E3,3E0,1E1,1.099E3,7.48E2,1.4E1,3E0,3E0,1E0,1E0,3E0,1E0,1E0,1E0,4E0,2E0,6E0,4E0],"tree_param":{"num_deleted":"0","num_feature":"7","num_nodes":"75","size_leaf_vector":"1"}},{"base_weights":[1.8443612E-5,-2.7551083E-4,1.2869696E-3,-9.0585824E-4,-4.87568E-5,1.4293289E-2,1.2155056E-3,-8.8593364E-4,-2.297163E-3,-6.252188E-5,1.0135829E-2,1.0828436E-3,4.818562E-3,8.0880633E-4,2.4113944E-3,-3.4296173E-3,-8.3381915E-4,-9.194952E-6,-3.5915861E-3,8.228213E-3,-1.4311434E-3,8.7413535E-4,-4.359007E-3,6.754376E-3,2.0845803E-3,-5.9447554E-3,-1.424551E-3,2.4759471E-3,-8.650523E-4,-5.7159763E-5,6.5989667E-3,-5.080357E-3,9.036899E-3,4.764443E-3,7.332661E-4,9.701396E-3,-9.249846E-3,-6.708622E-3,2.2784758E-3,-5.719632E-4,-3.154765E-3,5.189145E-4,-9.0559124E-4,1.0654316E-3,-3.6520362E-4,-2.716331E-4,4.8065398E-4,-2.1793374E-5,1.9012162E-3,2.6701272E-3,-1.6222001E-3,3.8721443E-3,-1.7617584E-3,3.931773E-3,5.866766E-4,1.8141654E-3,-3.710908E-3,-6.5674726E-4,3.074353E-4,1.0433793E-3,4.1802768E-3,-4.262477E-3,1.000464E-4,-3.6623718E-3,3.0806067E-4,1.5009075E-3,5.5382407E-4],"categories":[],"categories_nodes":[],"categories_segments":[],"categories_sizes":[],"default_left":[0,0,0,0,0,0,0,0,0,0,0,0,0,0,0,0,0,0,0,0,0,0,0,0,0,0,0,0,0,0,0,0,0,0,0,0,0,0,0,0,0,0,0,0,0,0,0,0,0,0,0,0,0,0,0,0,0,0,0,0,0,0,0,0,0,0,0],"id":17,"left_children":[1,3,5,7,9,11,13,15,-1,17,19,-1,-1,21,23,25,27,29,31,-1,-1,33,-1,35,37,39,41,43,45,47,49,51,53,55,57,59,61,63,65,-1,-1,-1,-1,-1,-1,-1,-1,-1,-1,-1,-1,-1,-1,-1,-1,-1,-1,-1,-1,-1,-1,-1,-1,-1,-1,-1,-1],"loss_changes":[1.8472731E-3,5.748356E-4,8.4890495E-4,1.363433E-4,4.154609E-4,3.6500976E-5,4.4939842E-4,1.3792195E-4,0E0,5.5626896E-4,1.161854E-3,0E0,0E0,7.081382E-4,3.194667E-4,9.7434764E-5,1.09857996E-4,9.236794E-4,8.731511E-4,0E0,0E0,3.7573942E-4,0E0,8.4437284E-4,3.903772E-4,1.4608365E-4,7.058763E-5,4.404437E-5,1.0439393E-4,2.8692064E-4,6.283993E-4,6.457645E-4,1.1843984E-4,6.0230406E-4,5.7219097E-4,3.2034016E-4,1.4729262E-4,2.252342E-4,2.4522992E-4,0E0,0E0,0E0,0E0,0E0,0E0,0E0,0E0,0E0,0E0,0E0,0E0,0E0,0E0,0E0,0E0,0E0,0E0,0E0,0E0,0E0,0E0,0E0,0E0,0E0,0E0,0E0,0E0],"parents":[2147483647,0,0,1,1,2,2,3,3,4,4,5,5,6,6,7,7,9,9,10,10,13,13,14,14,15,15,16,16,17,17,18,18,21,21,23,23,24,24,25,25,26,26,27,27,28,28,29,29,30,30,31,31,32,32,33,33,34,34,35,35,36,36,37,37,38,38],"right_children":[2,4,6,8,10,12,14,16,-1,18,20,-1,-1,22,24,26,28,30,32,-1,-1,34,-1,36,38,40,42,44,46,48,50,52,54,56,58,60,62,64,66,-1,-1,-1,-1,-1,-1,-1,-1,-1,-1,-1,-1,-1,-1,-1,-1,-1,-1,-1,-1,-1,-1,-1,-1,-1,-1,-1,-1],"split_conditions":[1.5211E0,1.0906E0,1.499E0,1.1264E0,1.5506E0,1.4493E0,1.9186E0,9.283E-1,-2.297163E-3,1.506E0,1.5163E0,1.0828436E-3,4.818562E-3,1.9486E0,1.9051E0,9.283E-1,9.283E-1,1.5002E0,1.5662E0,8.228213E-3,-1.4311434E-3,1.5158E0,-4.359007E-3,1.9486E0,1.9051E0,9.314E-1,9.314E-1,9.397E-1,1.0927E0,1.5168E0,1.5344E0,1.4188E0,1.5662E0,1.5506E0,1.5506E0,1.9238E0,1.9051E0,1.9186E0,1.9279E0,-5.719632E-4,-3.154765E-3,5.189145E-4,-9.0559124E-4,1.0654316E-3,-3.6520362E-4,-2.716331E-4,4.8065398E-4,-2.1793374E-5,1.9012162E-3,2.6701272E-3,-1.6222001E-3,3.8721443E-3,-1.7617584E-3,3.931773E-3,5.866766E-4,1.8141654E-3,-3.710908E-3,-6.5674726E-4,3.074353E-4,1.0433793E-3,4.1802768E-3,-4.262477E-3,1.000464E-4,-3.6623718E-3,3.0806067E-4,1.5009075E-3,5.5382407E-4],"split_indices":[6,1,5,6,5,2,4,0,0,5,3,0,0,6,0,3,2,6,1,0,0,1,0,4,2,5,3,0,0,4,0,4,2,3,3,5,1,0,4,0,0,0,0,0,0,0,0,0,0,0,0,0,0,0,0,0,0,0,0,0,0,0,0,0,0,0,0],"split_type":[0,0,0,0,0,0,0,0,0,0,0,0,0,0,0,0,0,0,0,0,0,0,0,0,0,0,0,0,0,0,0,0,0,0,0,0,0,0,0,0,0,0,0,0,0,0,0,0,0,0,0,0,0,0,0,0,0,0,0,0,0,0,0,0,0,0,0],"sum_hessian":[4.952E3,4.021E3,9.31E2,1.063E3,2.958E3,4E0,9.27E2,1.061E3,2E0,2.955E3,3E0,1E0,3E0,6.93E2,2.34E2,2E1,1.041E3,2.912E3,4.3E1,1E0,2E0,6.91E2,2E0,1.5E1,2.19E2,8E0,1.2E1,9E0,1.032E3,2.892E3,2E1,3.9E1,4E0,2.3E1,6.68E2,1.3E1,2E0,4E0,2.15E2,5E0,3E0,4E0,8E0,7E0,2E0,1.016E3,1.6E1,2.886E3,6E0,1.7E1,3E0,1E0,3.8E1,2E0,2E0,2.2E1,1E0,6E1,6.08E2,6E0,7E0,1E0,1E0,2E0,2E0,2.8E1,1.87E2],"tree_param":{"num_deleted":"0","num_feature":"7","num_nodes":"67","size_leaf_vector":"1"}},{"base_weights":[1.4925386E-5,-2.568304E-4,7.493454E-4,-2.2682184E-4,-3.6107004E-3,5.983049E-4,2.5932943E-3,-4.7688975E-4,1.5256312E-4,-6.719439E-3,8.6620875E-4,6.9276197E-4,-1.8100181E-3,9.256284E-3,1.414695E-3,-4.345983E-4,-2.4558704E-3,3.7900326E-3,4.4773373E-5,2.156794E-4,-8.033253E-3,8.749008E-3,-2.07901E-3,5.8261555E-4,7.8443885E-3,-4.51663E-3,1.2106481E-3,4.263288E-3,5.3578494E-3,-1.9682913E-4,3.4031563E-3,-4.5523292E-4,6.9012246E-3,-6.8829926E-3,-9.943213E-4,-9.62007E-3,5.1018847E-3,-2.5935593E-5,2.014853E-3,5.100489E-4,-6.3566567E-4,-8.608127E-3,8.8477136E-5,3.053582E-3,6.6903234E-4,2.1321296E-3,-4.7899657E-3,3.3420147E-3,5.641339E-4,1.3117248E-2,-3.863424E-4,-5.753869E-3,1.0252029E-3,4.8350175E-3,-4.964484E-3,1.046133E-2,2.1197398E-4,3.405596E-3,-3.5145741E-3,4.98276E-3,1.8119358E-3,-1.3165118E-4,-2.1829822E-3,3.8951756E-3,1.8416942E-4,-4.4042472E-4,-3.3452213E-3,4.2415562E-4,-1.7183423E-3,5.5122975E-4,-4.2155148E-3,5.6385873E-3,1.1457145E-3,1.7203936E-5,-5.800571E-4,1.383986E-3,4.6005745E-5,-3.6469512E-3,-1.4675459E-3,-4.7230722E-5,1.1132956E-3,1.2410879E-4,-2.0862508E-3,-1.48839E-3,1.833235E-4,-1.0523439E-3,5.160439E-3,-2.2226502E-3,2.5465072E-3,9.849608E-4,-1.9021649E-3,3.2762054E-3,9.1761263E-4,1.441008E-3,-2.0357654E-3,3.4599782E-3,9.260416E-4,-1.3136864E-3,1.0806532E-3,-3.1039359E-3,1.5378227E-3,1.8990353E-3,-2.242419E-3,-5.5918697E-4,1.7693703E-3,1.8070365E-3,1.4000079E-4],"categories":[],"categories_nodes":[],"categories_segments":[],"categories_sizes":[],"default_left":[0,0,0,0,0,0,0,0,0,0,0,0,0,0,0,0,0,0,0,0,0,0,0,0,0,0,0,0,0,0,0,0,0,0,0,0,0,0,0,0,0,0,0,0,0,0,0,0,0,0,0,0,0,0,0,0,0,0,0,0,0,0,0,0,0,0,0,0,0,0,0,0,0,0,0,0,0,0,0,0,0,0,0,0,0,0,0,0,0,0,0,0,0,0,0,0,0,0,0,0,0,0,0,0,0,0,0],"id":18,"left_children":[1,3,5,7,9,11,13,15,17,19,21,23,25,27,29,31,33,35,37,39,41,43,45,47,49,51,53,-1,55,57,59,61,63,65,67,69,71,73,75,-1,-1,77,-1,-1,-1,79,81,-1,83,85,87,89,-1,91,93,95,97,99,101,103,105,-1,-1,-1,-1,-1,-1,-1,-1,-1,-1,-1,-1,-1,-1,-1,-1,-1,-1,-1,-1,-1,-1,-1,-1,-1,-1,-1,-1,-1,-1,-1,-1,-1,-1,-1,-1,-1,-1,-1,-1,-1,-1,-1,-1,-1,-1],"loss_changes":[9.887265E-4,3.631126E-4,3.7109613E-4,3.401889E-4,4.511816E-4,2.8287806E-4,7.800576E-4,1.7979532E-4,5.585471E-4,1.748504E-4,3.4322124E-4,9.343992E-4,3.8972934E-4,2.1359196E-4,2.7945728E-4,3.235962E-4,2.8432664E-4,7.7035546E-4,1.9298593E-4,1.7464945E-5,7.9141E-5,1.4578254E-5,1.3579115E-4,2.2298036E-4,7.862585E-4,2.650685E-4,5.3876545E-4,0E0,2.6040128E-4,5.976137E-4,8.8998E-5,2.3301516E-4,2.2149246E-4,2.3783382E-4,4.070652E-4,2.2892142E-4,5.9574307E-4,2.1267605E-4,2.3146786E-4,0E0,0E0,1.383354E-4,0E0,0E0,0E0,1.8658702E-5,8.170941E-5,0E0,3.0755333E-4,8.072433E-4,5.614688E-4,1.3745844E-4,0E0,1.2874714E-4,1.9271544E-4,3.923895E-6,1.0915884E-4,6.208795E-4,1.0609652E-3,1.3004191E-4,1.1616696E-4,0E0,0E0,0E0,0E0,0E0,0E0,0E0,0E0,0E0,0E0,0E0,0E0,0E0,0E0,0E0,0E0,0E0,0E0,0E0,0E0,0E0,0E0,0E0,0E0,0E0,0E0,0E0,0E0,0E0,0E0,0E0,0E0,0E0,0E0,0E0,0E0,0E0,0E0,0E0,0E0,0E0,0E0,0E0,0E0,0E0,0E0],"parents":[2147483647,0,0,1,1,2,2,3,3,4,4,5,5,6,6,7,7,8,8,9,9,10,10,11,11,12,12,13,13,14,14,15,15,16,16,17,17,18,18,19,19,20,20,21,21,22,22,23,23,24,24,25,25,26,26,28,28,29,29,30,30,31,31,32,32,33,33,34,34,35,35,36,36,37,37,38,38,41,41,45,45,46,46,48,48,49,49,50,50,51,51,53,53,54,54,55,55,56,56,57,57,58,58,59,59,60,60],"right_children":[2,4,6,8,10,12,14,16,18,20,22,24,26,28,30,32,34,36,38,40,42,44,46,48,50,52,54,-1,56,58,60,62,64,66,68,70,72,74,76,-1,-1,78,-1,-1,-1,80,82,-1,84,86,88,90,-1,92,94,96,98,100,102,104,106,-1,-1,-1,-1,-1,-1,-1,-1,-1,-1,-1,-1,-1,-1,-1,-1,-1,-1,-1,-1,-1,-1,-1,-1,-1,-1,-1,-1,-1,-1,-1,-1,-1,-1,-1,-1,-1,-1,-1,-1,-1,-1,-1,-1,-1,-1],"split_conditions":[1.4108E0,1.4245E0,1.9623E0,1.2897E0,1.4267E0,1.9417E0,1.9486E0,1.2945E0,1.2932E0,1.4086E0,1.4188E0,1.9354E0,1.9623E0,1.9486E0,1.9916E0,1.2945E0,1.278E0,1.2753E0,1.4108E0,1.3904E0,1.4245E0,1.3943E0,1.3966E0,1.3827E0,1.9312E0,1.9685E0,1.9486E0,4.263288E-3,1.9685E0,1.9685E0,2.0218E0,1.2932E0,1.284E0,1.3021E0,1.2945E0,1.2308E0,1.2816E0,1.4017E0,1.4108E0,5.100489E-4,-6.3566567E-4,1.4245E0,8.8477136E-5,3.053582E-3,6.6903234E-4,1.3924E0,1.429E0,3.3420147E-3,1.3994E0,1.9238E0,1.9417E0,1.9238E0,1.0252029E-3,1.9417E0,1.9312E0,1.9743E0,1.9685E0,1.9417E0,1.9623E0,1.9623E0,2.0218E0,-1.3165118E-4,-2.1829822E-3,3.8951756E-3,1.8416942E-4,-4.4042472E-4,-3.3452213E-3,4.2415562E-4,-1.7183423E-3,5.5122975E-4,-4.2155148E-3,5.6385873E-3,1.1457145E-3,1.7203936E-5,-5.800571E-4,1.383986E-3,4.6005745E-5,-3.6469512E-3,-1.4675459E-3,-4.7230722E-5,1.1132956E-3,1.2410879E-4,-2.0862508E-3,-1.48839E-3,1.833235E-4,-1.0523439E-3,5.160439E-3,-2.2226502E-3,2.5465072E-3,9.849608E-4,-1.9021649E-3,3.2762054E-3,9.1761263E-4,1.441008E-3,-2.0357654E-3,3.4599782E-3,9.260416E-4,-1.3136864E-3,1.0806532E-3,-3.1039359E-3,1.5378227E-3,1.8990353E-3,-2.242419E-3,-5.5918697E-4,1.7693703E-3,1.8070365E-3,1.4000079E-4],"split_indices":[0,6,3,6,4,1,5,3,6,5,3,1,1,4,4,5,6,3,5,0,2,1,0,1,4,6,3,0,1,1,5,5,6,1,5,0,5,5,4,0,0,5,0,0,0,0,3,0,1,3,0,0,0,2,6,3,2,6,6,6,6,0,0,0,0,0,0,0,0,0,0,0,0,0,0,0,0,0,0,0,0,0,0,0,0,0,0,0,0,0,0,0,0,0,0,0,0,0,0,0,0,0,0,0,0,0,0],"split_type":[0,0,0,0,0,0,0,0,0,0,0,0,0,0,0,0,0,0,0,0,0,0,0,0,0,0,0,0,0,0,0,0,0,0,0,0,0,0,0,0,0,0,0,0,0,0,0,0,0,0,0,0,0,0,0,0,0,0,0,0,0,0,0,0,0,0,0,0,0,0,0,0,0,0,0,0,0,0,0,0,0,0,0,0,0,0,0,0,0,0,0,0,0,0,0,0,0,0,0,0,0,0,0,0,0,0,0],"sum_hessian":[4.952E3,3.615E3,1.337E3,3.584E3,3.1E1,1.237E3,1E2,2.16E3,1.424E3,1.8E1,1.3E1,1.191E3,4.6E1,1.4E1,8.6E1,2.116E3,4.4E1,4E1,1.384E3,3E0,1.5E1,3E0,1E1,1.174E3,1.7E1,2.4E1,2.2E1,5E0,9E0,4.8E1,3.8E1,2.111E3,5E0,1E1,3.4E1,3E0,3.7E1,1.337E3,4.7E1,2E0,1E0,1.4E1,1E0,2E0,1E0,4E0,6E0,1E0,1.173E3,1E1,7E0,2.1E1,3E0,1.4E1,8E0,4E0,5E0,2.3E1,2.5E1,1.8E1,2E1,2.107E3,4E0,2E0,3E0,5E0,5E0,2.3E1,1.1E1,1E0,2E0,2E0,3.5E1,1.282E3,5.5E1,1.9E1,2.8E1,6E0,8E0,2E0,2E0,2E0,4E0,9E0,1.164E3,2E0,8E0,4E0,3E0,1E0,2E1,2E0,1.2E1,1E0,7E0,3E0,1E0,2E0,3E0,2E0,2.1E1,7E0,1.8E1,2E0,1.6E1,4E0,1.6E1],"tree_param":{"num_deleted":"0","num_feature":"7","num_nodes":"107","size_leaf_vector":"1"}},{"base_weights":[1.4113256E-5,-3.0733997E-4,3.671476E-4,-2.4292343E-4,-2.1169588E-3,3.3427664E-4,3.846732E-3,-3.070393E-4,2.0593912E-3,-3.4743529E-3,1.1287001E-3,2.1584819E-3,2.7541368E-4,7.2870017E-3,9.044684E-4,-2.3586574E-4,-4.1741673E-3,-4.828175E-3,2.6826612E-3,-1.6378681E-3,-4.9925935E-3,8.214906E-3,-1.7622173E-3,2.865409E-4,6.780119E-3,6.1540604E-3,2.544917E-4,3.2574108E-3,3.7551105E-3,2.9120743E-3,-1.9230843E-3,-2.633554E-4,9.17966E-3,-7.074882E-3,-2.263942E-3,-2.1029236E-3,-3.1002364E-4,6.5091285E-3,1.0074271E-3,-3.2651823E-3,7.413259E-4,-6.6895057E-3,-2.5105476E-4,8.7606907E-4,1.0515173E-2,3.037262E-3,-3.151916E-3,-4.0170965E-3,1.64412E-3,-2.0936218E-3,1.046919E-2,-1.2803078E-4,3.7404478E-3,2.8339506E-3,2.4217185E-4,7.6650777E-3,-3.8671493E-5,3.054142E-5,4.577875E-3,-1.1231662E-3,-2.430439E-4,-9.011532E-5,7.6887803E-4,3.2565654E-3,-1.3105274E-4,-2.3849867E-3,1.0389448E-3,1.232475E-4,-1.2056519E-3,-3.2665732E-4,1.8714667E-4,2.2272875E-3,-2.5395156E-4,-6.231513E-4,1.0674577E-3,9.803892E-4,-1.285822E-3,-1.1662245E-3,4.3530168E-4,-7.838539E-4,-2.3518063E-3,1.8288374E-3,-4.9009325E-4,6.956756E-4,-3.0144455E-4,3.7854913E-4,3.634043E-3,5.963445E-5,1.1091561E-3,-1.4511503E-3,-8.824212E-5,-2.153059E-3,7.4217084E-4,1.1790276E-3,-2.8579653E-4,5.5703404E-4,-2.3939253E-3,4.961579E-3,2.0275875E-3,6.205559E-4,-1.3371349E-3,-3.148766E-4,9.7430835E-5,3.6392212E-4,3.085363E-3,1.0830403E-3,-5.560219E-4,1.3866425E-4,2.1502734E-3],"categories":[],"categories_nodes":[],"categories_segments":[],"categories_sizes":[],"default_left":[0,0,0,0,0,0,0,0,0,0,0,0,0,0,0,0,0,0,0,0,0,0,0,0,0,0,0,0,0,0,0,0,0,0,0,0,0,0,0,0,0,0,0,0,0,0,0,0,0,0,0,0,0,0,0,0,0,0,0,0,0,0,0,0,0,0,0,0,0,0,0,0,0,0,0,0,0,0,0,0,0,0,0,0,0,0,0,0,0,0,0,0,0,0,0,0,0,0,0,0,0,0,0,0,0,0,0,0,0],"id":19,"left_children":[1,3,5,7,9,11,13,15,17,19,21,23,25,27,29,31,33,35,37,39,41,43,45,47,49,51,53,55,-1,57,59,61,63,65,67,-1,69,71,73,75,77,79,81,83,85,87,89,91,93,95,97,99,-1,-1,101,103,105,-1,107,-1,-1,-1,-1,-1,-1,-1,-1,-1,-1,-1,-1,-1,-1,-1,-1,-1,-1,-1,-1,-1,-1,-1,-1,-1,-1,-1,-1,-1,-1,-1,-1,-1,-1,-1,-1,-1,-1,-1,-1,-1,-1,-1,-1,-1,-1,-1,-1,-1,-1],"loss_changes":[5.621992E-4,3.017501E-4,2.6875874E-4,3.7040765E-4,3.9602327E-4,2.5067042E-4,2.160971E-4,6.700439E-4,3.0486364E-4,1.6748102E-4,5.6758866E-4,6.296118E-4,2.7738174E-4,1.699758E-4,7.939611E-5,6.223146E-4,2.277877E-4,5.696679E-5,3.972869E-4,1.1857144E-4,2.7188362E-4,1.2583821E-4,1.4296979E-4,3.1625855E-4,7.0937164E-4,3.1892228E-4,2.5375723E-4,1.0199265E-4,0E0,3.6984755E-5,9.125544E-6,2.5078916E-4,1.1753308E-4,1.8429832E-4,1.3308143E-4,0E0,2.8611862E-6,1.3418519E-4,3.6145476E-4,1.3406006E-4,4.834466E-5,9.670551E-5,9.771432E-5,1.0471583E-5,7.345271E-5,8.630985E-6,7.563432E-5,2.843854E-4,2.471264E-4,1.7758466E-4,2.260356E-4,5.67649E-5,0E0,0E0,2.4136782E-4,3.82265E-5,3.979912E-5,0E0,4.9978735E-5,0E0,0E0,0E0,0E0,0E0,0E0,0E0,0E0,0E0,0E0,0E0,0E0,0E0,0E0,0E0,0E0,0E0,0E0,0E0,0E0,0E0,0E0,0E0,0E0,0E0,0E0,0E0,0E0,0E0,0E0,0E0,0E0,0E0,0E0,0E0,0E0,0E0,0E0,0E0,0E0,0E0,0E0,0E0,0E0,0E0,0E0,0E0,0E0,0E0,0E0],"parents":[2147483647,0,0,1,1,2,2,3,3,4,4,5,5,6,6,7,7,8,8,9,9,10,10,11,11,12,12,13,13,14,14,15,15,16,16,17,17,18,18,19,19,20,20,21,21,22,22,23,23,24,24,25,25,26,26,27,27,29,29,30,30,31,31,32,32,33,33,34,34,36,36,37,37,38,38,39,39,40,40,41,41,42,42,43,43,44,44,45,45,46,46,47,47,48,48,49,49,50,50,51,51,54,54,55,55,56,56,58,58],"right_children":[2,4,6,8,10,12,14,16,18,20,22,24,26,28,30,32,34,36,38,40,42,44,46,48,50,52,54,56,-1,58,60,62,64,66,68,-1,70,72,74,76,78,80,82,84,86,88,90,92,94,96,98,100,-1,-1,102,104,106,-1,108,-1,-1,-1,-1,-1,-1,-1,-1,-1,-1,-1,-1,-1,-1,-1,-1,-1,-1,-1,-1,-1,-1,-1,-1,-1,-1,-1,-1,-1,-1,-1,-1,-1,-1,-1,-1,-1,-1,-1,-1,-1,-1,-1,-1,-1,-1,-1,-1,-1,-1],"split_conditions":[1.3156E0,1.3156E0,2.0218E0,1.3103E0,1.3273E0,1.3165E0,2.0218E0,1.3057E0,1.297E0,1.3092E0,1.3189E0,1.3235E0,1.3165E0,1.9685E0,2.0218E0,1.3134E0,1.3068E0,1.3179E0,1.3002E0,1.321E0,1.3142E0,1.3057E0,1.3134E0,1.3002E0,1.3036E0,1.3273E0,1.2604E0,1.9417E0,3.7551105E-3,2.0218E0,2.0218E0,1.3165E0,1.3045E0,1.3142E0,1.3068E0,-2.1029236E-3,1.284E0,1.3092E0,1.3142E0,1.308E0,1.2932E0,1.3092E0,1.3012E0,1.2872E0,1.3165E0,1.3002E0,1.3303E0,1.3134E0,1.3142E0,1.3123E0,1.3115E0,1.3247E0,3.7404478E-3,2.8339506E-3,1.32E0,2.0218E0,2.0218E0,3.054142E-5,2.0218E0,-1.1231662E-3,-2.430439E-4,-9.011532E-5,7.6887803E-4,3.2565654E-3,-1.3105274E-4,-2.3849867E-3,1.0389448E-3,1.232475E-4,-1.2056519E-3,-3.2665732E-4,1.8714667E-4,2.2272875E-3,-2.5395156E-4,-6.231513E-4,1.0674577E-3,9.803892E-4,-1.285822E-3,-1.1662245E-3,4.3530168E-4,-7.838539E-4,-2.3518063E-3,1.8288374E-3,-4.9009325E-4,6.956756E-4,-3.0144455E-4,3.7854913E-4,3.634043E-3,5.963445E-5,1.1091561E-3,-1.4511503E-3,-8.824212E-5,-2.153059E-3,7.4217084E-4,1.1790276E-3,-2.8579653E-4,5.5703404E-4,-2.3939253E-3,4.961579E-3,2.0275875E-3,6.205559E-4,-1.3371349E-3,-3.148766E-4,9.7430835E-5,3.6392212E-4,3.085363E-3,1.0830403E-3,-5.560219E-4,1.3866425E-4,2.1502734E-3],"split_indices":[0,2,0,1,3,1,4,1,0,0,2,0,0,6,6,0,1,3,6,2,0,0,1,4,2,5,6,4,0,5,1,4,2,0,6,0,0,5,6,3,0,1,5,0,2,0,6,1,4,1,1,2,0,0,6,1,1,0,2,0,0,0,0,0,0,0,0,0,0,0,0,0,0,0,0,0,0,0,0,0,0,0,0,0,0,0,0,0,0,0,0,0,0,0,0,0,0,0,0,0,0,0,0,0,0,0,0,0,0],"split_type":[0,0,0,0,0,0,0,0,0,0,0,0,0,0,0,0,0,0,0,0,0,0,0,0,0,0,0,0,0,0,0,0,0,0,0,0,0,0,0,0,0,0,0,0,0,0,0,0,0,0,0,0,0,0,0,0,0,0,0,0,0,0,0,0,0,0,0,0,0,0,0,0,0,0,0,0,0,0,0,0,0,0,0,0,0,0,0,0,0,0,0,0,0,0,0,0,0,0,0,0,0,0,0,0,0,0,0,0,0],"sum_hessian":[4.952E3,2.592E3,2.36E3,2.504E3,8.8E1,2.339E3,2.1E1,2.437E3,6.7E1,6.2E1,2.6E1,7.2E1,2.267E3,9E0,1.2E1,2.394E3,4.3E1,5E0,6.2E1,2.9E1,3.3E1,7E0,1.9E1,5.2E1,2E1,7E0,2.26E3,6E0,3E0,7E0,5E0,2.388E3,6E0,1.6E1,2.7E1,3E0,2E0,1.8E1,4.4E1,1.7E1,1.2E1,2.4E1,9E0,2E0,5E0,4E0,1.5E1,1.2E1,4E1,6E0,1.4E1,4E0,3E0,2E0,2.258E3,2E0,4E0,3E0,4E0,1E0,4E0,2.358E3,3E1,5E0,1E0,1.5E1,1E0,1.1E1,1.6E1,1E0,1E0,1.6E1,2E0,2E1,2.4E1,2E0,1.5E1,1E0,1.1E1,6E0,1.8E1,1E0,8E0,1E0,1E0,1E0,4E0,1E0,3E0,9E0,6E0,8E0,4E0,2.1E1,1.9E1,4E0,2E0,4E0,1E1,3E0,1E0,1.35E2,2.123E3,1E0,1E0,1E0,3E0,2E0,2E0],"tree_param":{"num_deleted":"0","num_feature":"7","num_nodes":"109","size_leaf_vector":"1"}},{"base_weights":[1.4279975E-5,-6.582965E-5,1.0067347E-3,-3.460617E-4,7.180164E-5,6.9377986E-3,6.83732E-4,-3.2208802E-4,-6.3017807E-3,2.594886E-3,4.943526E-5,1.3662468E-3,1.2976606E-2,-8.382333E-3,9.1893796E-4,-2.8053013E-4,-2.8748661E-3,-2.1810008E-3,-2.1910072E-4,-2.1748543E-3,4.3730377E-3,-5.987674E-3,6.5295695E-5,3.3225482E-3,-1.487422E-3,1.6055644E-2,5.1138997E-3,-1.18287355E-2,2.8783323E-3,1.2028813E-2,7.8592205E-4,-3.0804606E-4,1.6684413E-3,-1.0766983E-3,-7.088031E-3,2.4163486E-3,-2.2110434E-3,1.0321048E-3,9.255424E-3,-1.5659094E-3,-3.0053884E-3,9.997254E-5,-1.5498232E-3,-3.4028292E-3,7.252375E-3,7.33012E-4,5.486827E-3,4.1801334E-4,1.7668845E-3,-1.6322673E-3,-4.3719793E-3,1.0170937E-3,4.133463E-3,-2.399988E-3,1.1350617E-3,-4.2987056E-4,-7.353316E-5,-9.309131E-4,1.4437223E-3,-4.119158E-4,-3.3093006E-3,8.177758E-6,1.1999964E-3,1.0754521E-3,-2.6015877E-3,-8.172155E-4,4.1107773E-3,-7.531763E-4,-2.9778483E-5,2.4773783E-5,3.9046707E-3,-1.1640153E-3,6.721602E-4,-1.1774183E-3,-2.7557017E-4,2.4510815E-3,3.994346E-4,9.3175314E-4,-2.2399824E-3,1.4579834E-3,2.4522142E-4],"categories":[],"categories_nodes":[],"categories_segments":[],"categories_sizes":[],"default_left":[0,0,0,0,0,0,0,0,0,0,0,0,0,0,0,0,0,0,0,0,0,0,0,0,0,0,0,0,0,0,0,0,0,0,0,0,0,0,0,0,0,0,0,0,0,0,0,0,0,0,0,0,0,0,0,0,0,0,0,0,0,0,0,0,0,0,0,0,0,0,0,0,0,0,0,0,0,0,0,0,0],"id":20,"left_children":[1,3,5,7,9,11,13,15,17,19,21,23,25,27,29,31,33,-1,-1,35,37,39,41,43,-1,45,47,49,-1,51,53,55,-1,57,59,61,-1,63,65,67,-1,69,71,73,75,-1,-1,-1,-1,-1,-1,-1,-1,77,79,-1,-1,-1,-1,-1,-1,-1,-1,-1,-1,-1,-1,-1,-1,-1,-1,-1,-1,-1,-1,-1,-1,-1,-1,-1,-1],"loss_changes":[3.9385541E-4,1.7682374E-4,7.040838E-4,2.1356875E-4,1.734009E-4,6.215359E-4,7.583051E-4,1.5885598E-4,2.7056813E-5,2.3850643E-4,2.923363E-4,1.5256848E-4,1.3577926E-4,6.710867E-4,4.9890624E-4,2.3994164E-4,1.7419182E-4,0E0,0E0,2.0862988E-4,3.1668192E-4,1.2688062E-4,1.7052892E-4,2.6254472E-4,0E0,1.3775285E-4,3.3377946E-6,6.0961465E-5,0E0,1.3736193E-5,3.8202782E-4,1.0413982E-4,0E0,2.297336E-4,1.4259177E-4,1.8808245E-5,0E0,3.5312236E-4,4.6352448E-4,6.678343E-6,0E0,6.6814077E-4,5.7396665E-4,1.5810001E-6,2.1730462E-5,0E0,0E0,0E0,0E0,0E0,0E0,0E0,0E0,9.7165257E-4,