{"learner":{"attributes":{},"feature_names":[],"feature_types":[],"gradient_booster":{"model":{"gbtree_model_param":{"num_parallel_tree":"1","num_trees":"100"},"iteration_indptr":[0,1,2,3,4,5,6,7,8,9,10,11,12,13,14,15,16,17,18,19,20,21,22,23,24,25,26,27,28,29,30,31,32,33,34,35,36,37,38,39,40,41,42,43,44,45,46,47,48,49,50,51,52,53,54,55,56,57,58,59,60,61,62,63,64,65,66,67,68,69,70,71,72,73,74,75,76,77,78,79,80,81,82,83,84,85,86,87,88,89,90,91,92,93,94,95,96,97,98,99,100],"tree_info":[0,0,0,0,0,0,0,0,0,0,0,0,0,0,0,0,0,0,0,0,0,0,0,0,0,0,0,0,0,0,0,0,0,0,0,0,0,0,0,0,0,0,0,0,0,0,0,0,0,0,0,0,0,0,0,0,0,0,0,0,0,0,0,0,0,0,0,0,0,0,0,0,0,0,0,0,0,0,0,0,0,0,0,0,0,0,0,0,0,0,0,0,0,0,0,0,0,0,0,0],"trees":[{"base_weights":[4.139713E-8,-3.7246415E-1,1.6094774E0,-7.643304E-1,1.5107426E-1,9.98793E-1,2.0420804E0,-1.150884E0,-6.088202E-1,-9.609391E-2,3.730326E-1,7.166067E-1,1.2744102E0,5.319355E-1,2.2098022E0,-1.3536072E0,-1.0220393E0,-7.3654383E-1,-4.6376348E-1,-1.9604133E-1,1.3045974E-2,2.9782793E-1,5.044784E-1,1.9468847E-1,2.266736E-1,3.3363408E-1,4.0050068E-1,6.310158E-1,7.145125E-1,-4.4563073E-1,-3.6878207E-1,-3.2074535E-1,-2.7609023E-1,-2.3986991E-1,-1.9687106E-1,-5.2877355E-1,-3.909568E-1,-2.3507024E-1,-1.3871944E-1,-4.9886912E-2,5.5935603E-2,2.1336462E-1,3.387511E-1,1.3597663E-1,1.6771686E-1,-1.675925E-1,-1.4781874E-1,-1.2821567E-1,-1.04501665E-1,-7.4286774E-2,-6.0643543E-2,-5.040504E-2,-3.6710937E-2,-2.1804877E-2,-7.764695E-3,1.0394232E-2,2.8864836E-2,5.0554335E-2,7.693784E-2,9.135445E-2,1.0951269E-1],"categories":[],"categories_nodes":[],"categories_segments":[],"categories_sizes":[],"default_left":[0,0,0,0,0,0,0,0,0,0,0,0,0,0,0,0,0,0,0,0,0,0,0,0,0,0,0,0,0,0,0,0,0,0,0,0,0,0,0,0,0,0,0,0,0,0,0,0,0,0,0,0,0,0,0,0,0,0,0,0,0],"id":0,"left_children":[1,3,5,7,9,11,13,15,17,19,21,23,25,-1,27,29,31,33,35,37,39,41,43,-1,-1,-1,-1,-1,-1,-1,-1,-1,-1,-1,-1,45,47,49,51,53,55,57,59,-1,-1,-1,-1,-1,-1,-1,-1,-1,-1,-1,-1,-1,-1,-1,-1,-1,-1],"loss_changes":[2.9697878E3,8.2546234E2,2.4391528E2,1.3761926E2,9.45614E1,2.926361E1,2.0622314E1,1.5829529E1,3.0098572E1,8.90369E0,8.825638E0,2.1087646E-2,4.3292236E-1,0E0,1.0454102E0,2.3208313E0,9.668579E-1,3.8886108E0,3.4472656E0,9.204426E-1,1.0581652E0,1.9324989E0,6.6635895E-1,0E0,0E0,0E0,0E0,0E0,0E0,0E0,0E0,0E0,0E0,0E0,0E0,1.6075134E-1,4.2245102E-1,5.4092407E-2,6.3265085E-2,8.512503E-2,1.9646347E-1,3.278818E-1,2.3898315E-1,0E0,0E0,0E0,0E0,0E0,0E0,0E0,0E0,0E0,0E0,0E0,0E0,0E0,0E0,0E0,0E0,0E0,0E0],"parents":[2147483647,0,0,1,1,2,2,3,3,4,4,5,5,6,6,7,7,8,8,9,9,10,10,11,11,12,12,14,14,15,15,16,16,17,17,18,18,19,19,20,20,21,21,22,22,35,35,36,36,37,37,38,38,39,39,40,40,41,41,42,42],"right_children":[2,4,6,8,10,12,14,16,18,20,22,24,26,-1,28,30,32,34,36,38,40,42,44,-1,-1,-1,-1,-1,-1,-1,-1,-1,-1,-1,-1,46,48,50,52,54,56,58,60,-1,-1,-1,-1,-1,-1,-1,-1,-1,-1,-1,-1,-1,-1,-1,-1,-1,-1],"split_conditions":[6.9036E0,5.9861E0,7.7975E0,5.397E0,6.41E0,7.252E0,8.2565E0,5.092E0,5.6847E0,6.1831E0,6.6849E0,6.9757E0,7.505E0,5.319355E-1,8.525E0,4.9337E0,5.2978E0,5.5539E0,5.82E0,6.0927E0,6.276E0,6.5525E0,6.7934E0,1.9468847E-1,2.266736E-1,3.3363408E-1,4.0050068E-1,6.310158E-1,7.145125E-1,-4.4563073E-1,-3.6878207E-1,-3.2074535E-1,-2.7609023E-1,-2.3986991E-1,-1.9687106E-1,5.7513E0,5.8865E0,6.062E0,6.1275E0,6.2293E0,6.355E0,6.499E0,6.6137E0,1.3597663E-1,1.6771686E-1,-1.675925E-1,-1.4781874E-1,-1.2821567E-1,-1.04501665E-1,-7.4286774E-2,-6.0643543E-2,-5.040504E-2,-3.6710937E-2,-2.1804877E-2,-7.764695E-3,1.0394232E-2,2.8864836E-2,5.0554335E-2,7.693784E-2,9.135445E-2,1.0951269E-1],"split_indices":[0,0,0,0,0,0,0,0,0,0,0,0,0,0,0,0,0,0,0,0,0,0,0,0,0,0,0,0,0,0,0,0,0,0,0,0,0,0,0,0,0,0,0,0,0,0,0,0,0,0,0,0,0,0,0,0,0,0,0,0,0],"split_type":[0,0,0,0,0,0,0,0,0,0,0,0,0,0,0,0,0,0,0,0,0,0,0,0,0,0,0,0,0,0,0,0,0,0,0,0,0,0,0,0,0,0,0,0,0,0,0,0,0,0,0,0,0,0,0,0,0,0,0,0,0],"sum_hessian":[4.952E3,4.022E3,9.3E2,2.3E3,1.722E3,3.87E2,5.43E2,6.58E2,1.642E3,8.15E2,9.07E2,1.93E2,1.94E2,2.13E2,3.3E2,2.52E2,4.06E2,8.71E2,7.71E2,4.25E2,3.9E2,5.79E2,3.28E2,7.7E1,1.16E2,5.8E1,1.36E2,2.12E2,1.18E2,1.17E2,1.35E2,2.71E2,1.35E2,4.83E2,3.88E2,4.04E2,3.67E2,2.51E2,1.74E2,1.58E2,2.32E2,1.91E2,3.88E2,1.74E2,1.54E2,2.13E2,1.91E2,1.93E2,1.74E2,1.77E2,7.4E1,5.9E1,1.15E2,8E1,7.8E1,1.53E2,7.9E1,9.6E1,9.5E1,1.74E2,2.14E2],"tree_param":{"num_deleted":"0","num_feature":"7","num_nodes":"61","size_leaf_vector":"1"}},{"base_weights":[2.1337351E-4,-2.7128005E-1,1.0886575E0,-5.414794E-1,8.792867E-2,6.2846595E-1,1.408056E0,-7.7915543E-1,-4.176521E-1,-7.404694E-2,2.5056306E-1,4.8527434E-1,2.5672406E-1,3.414644E-1,1.5200711E0,-9.369294E-1,-6.8215925E-1,-4.9510297E-1,-3.236579E-1,-1.468399E-1,6.2608975E-3,2.03608E-1,3.312871E-1,1.3057844E-1,1.5741959E-1,4.209523E-1,4.8570716E-1,-3.1351802E-1,-2.575994E-1,-2.2148304E-1,-1.9066049E-1,-5.3364444E-1,-1.311402E-1,-3.5916528E-1,-2.754465E-1,-1.7150418E-1,-1.009312E-1,-3.4845956E-2,4.2413652E-2,1.3237391E-1,2.2656073E-1,8.6658634E-2,1.0878202E-1,-1.6835345E-1,-1.5178795E-1,-1.1282942E-1,-9.769333E-2,-8.694751E-2,-7.2966345E-2,-5.9150394E-2,-4.5978554E-2,-3.5535555E-2,-2.6822852E-2,-1.4112835E-2,-1.6042207E-3,6.018625E-3,1.8403826E-2,2.9782811E-2,4.667569E-2,6.0093436E-2,7.359105E-2],"categories":[],"categories_nodes":[],"categories_segments":[],"categories_sizes":[],"default_left":[0,0,0,0,0,0,0,0,0,0,0,0,0,0,0,0,0,0,0,0,0,0,0,0,0,0,0,0,0,0,0,0,0,0,0,0,0,0,0,0,0,0,0,0,0,0,0,0,0,0,0,0,0,0,0,0,0,0,0,0,0],"id":1,"left_children":[1,3,5,7,9,11,13,15,17,19,21,23,-1,-1,25,27,29,31,33,35,37,39,41,-1,-1,-1,-1,-1,-1,-1,-1,43,-1,45,47,49,51,53,55,57,59,-1,-1,-1,-1,-1,-1,-1,-1,-1,-1,-1,-1,-1,-1,-1,-1,-1,-1,-1,-1],"loss_changes":[1.4639338E3,3.8488248E2,1.4448267E2,6.627643E1,4.4880352E1,1.2830429E1,1.5891846E1,1.12057495E1,1.0686829E1,4.993272E0,3.1543922E0,2.6890182E-1,0E0,0E0,2.4591675E0,1.5737915E0,7.945404E-1,1.587616E0,1.0582886E0,4.8996162E-1,6.063312E-1,8.529186E-1,3.0849075E-1,0E0,0E0,0E0,0E0,0E0,0E0,0E0,0E0,8.5754395E-2,0E0,9.662247E-2,6.43425E-2,1.05550766E-1,2.150631E-2,6.846808E-2,9.059706E-2,8.750081E-2,1.5110016E-1,0E0,0E0,0E0,0E0,0E0,0E0,0E0,0E0,0E0,0E0,0E0,0E0,0E0,0E0,0E0,0E0,0E0,0E0,0E0,0E0],"parents":[2147483647,0,0,1,1,2,2,3,3,4,4,5,5,6,6,7,7,8,8,9,9,10,10,11,11,14,14,15,15,16,16,17,17,18,18,19,19,20,20,21,21,22,22,31,31,33,33,34,34,35,35,36,36,37,37,38,38,39,39,40,40],"right_children":[2,4,6,8,10,12,14,16,18,20,22,24,-1,-1,26,28,30,32,34,36,38,40,42,-1,-1,-1,-1,-1,-1,-1,-1,44,-1,46,48,50,52,54,56,58,60,-1,-1,-1,-1,-1,-1,-1,-1,-1,-1,-1,-1,-1,-1,-1,-1,-1,-1,-1,-1],"split_conditions":[6.8575E0,5.9574E0,7.673E0,5.4444E0,6.41E0,7.254E0,8.13E0,5.1355E0,5.7019E0,6.1752E0,6.6692E0,6.9552E0,2.5672406E-1,3.414644E-1,8.41E0,4.9337E0,5.2831E0,5.5933E0,5.8315E0,6.0927E0,6.2866E0,6.5265E0,6.7398E0,1.3057844E-1,1.5741959E-1,4.209523E-1,4.8570716E-1,-3.1351802E-1,-2.575994E-1,-2.2148304E-1,-1.9066049E-1,5.5093E0,-1.311402E-1,5.7834E0,5.9082E0,6.0248E0,6.1275E0,6.253E0,6.3339E0,6.458E0,6.5922E0,8.6658634E-2,1.0878202E-1,-1.6835345E-1,-1.5178795E-1,-1.1282942E-1,-9.769333E-2,-8.694751E-2,-7.2966345E-2,-5.9150394E-2,-4.5978554E-2,-3.5535555E-2,-2.6822852E-2,-1.4112835E-2,-1.6042207E-3,6.018625E-3,1.8403826E-2,2.9782811E-2,4.667569E-2,6.0093436E-2,7.359105E-2],"split_indices":[0,0,0,0,0,1,0,0,0,0,0,0,0,0,0,1,0,0,0,0,0,0,0,0,0,0,0,0,0,0,0,0,0,0,0,0,0,0,0,0,0,0,0,0,0,0,0,0,0,0,0,0,0,0,0,0,0,0,0,0,0],"split_type":[0,0,0,0,0,0,0,0,0,0,0,0,0,0,0,0,0,0,0,0,0,0,0,0,0,0,0,0,0,0,0,0,0,0,0,0,0,0,0,0,0,0,0,0,0,0,0,0,0,0,0,0,0,0,0,0,0,0,0,0,0],"sum_hessian":[4.952E3,3.964E3,9.88E2,2.262E3,1.702E3,4.06E2,5.82E2,7.73E2,1.489E3,8.53E2,8.49E2,2.51E2,1.55E2,1.74E2,4.08E2,2.91E2,4.82E2,8.14E2,6.75E2,4.47E2,4.06E2,5.39E2,3.1E2,1.16E2,1.35E2,1.94E2,2.14E2,1.17E2,1.74E2,2.12E2,2.7E2,4.84E2,3.3E2,3.85E2,2.9E2,2.89E2,1.58E2,1.9E2,2.16E2,1.33E2,4.06E2,1.36E2,1.74E2,2.33E2,2.51E2,2.49E2,1.36E2,1.95E2,9.5E1,1.16E2,1.73E2,5.9E1,9.9E1,1.34E2,5.6E1,1E2,1.16E2,5.7E1,7.6E1,1.74E2,2.32E2],"tree_param":{"num_deleted":"0","num_feature":"7","num_nodes":"61","size_leaf_vector":"1"}},{"base_weights":[1.9672686E-4,-1.8561998E-1,7.833651E-1,-3.7781775E-1,6.956034E-2,5.017718E-1,1.030508E0,-5.6063604E-1,-2.971719E-1,-4.432556E-2,1.8604103E-1,3.6109734E-1,6.525914E-1,9.8231316E-1,3.6547005E-1,-6.945439E-1,-5.077141E-1,-3.7059364E-1,-2.3940295E-1,-9.3868144E-2,1.7877234E-2,1.534472E-1,2.4727E-1,9.944352E-2,1.3342491E-1,1.7890942E-1,2.0798436E-1,2.5313917E-1,3.03623E-1,-2.2493723E-1,-1.8966296E-1,-1.6891082E-1,-1.3958578E-1,-1.2179577E-1,-1.0492959E-1,-2.7117443E-1,-1.9808094E-1,-1.1389183E-1,-5.838122E-2,-9.009361E-3,4.4123914E-2,1.1896855E-1,1.7149633E-1,2.155457E-1,8.01945E-2,-8.614942E-2,-7.4406534E-2,-6.62042E-2,-5.3624794E-2,-3.7890255E-2,-2.9088732E-2,-2.0038705E-2,-1.4129253E-2,-6.922851E-3,1.2172666E-4,9.30136E-3,1.8827839E-2,2.5371833E-2,3.7946396E-2,4.7238823E-2,5.582397E-2,6.513088E-2,2.4889613E-2],"categories":[],"categories_nodes":[],"categories_segments":[],"categories_sizes":[],"default_left":[0,0,0,0,0,0,0,0,0,0,0,0,0,0,0,0,0,0,0,0,0,0,0,0,0,0,0,0,0,0,0,0,0,0,0,0,0,0,0,0,0,0,0,0,0,0,0,0,0,0,0,0,0,0,0,0,0,0,0,0,0,0,0],"id":2,"left_children":[1,3,5,7,9,11,13,15,17,19,21,23,25,27,-1,29,31,33,35,37,39,41,43,-1,-1,-1,-1,-1,-1,-1,-1,-1,-1,-1,-1,45,47,49,51,53,55,57,59,61,-1,-1,-1,-1,-1,-1,-1,-1,-1,-1,-1,-1,-1,-1,-1,-1,-1,-1,-1],"loss_changes":[7.209345E2,1.964028E2,6.5596985E1,3.350766E1,2.2838184E1,9.226898E0,3.3722534E0,4.593857E0,6.6425323E0,2.6858277E0,1.660387E0,4.2987823E-1,7.614899E-2,8.239746E-1,0E0,1.9750977E-1,9.210205E-1,3.7180328E-1,1.1160431E0,3.379817E-1,2.7349716E-1,3.2684612E-1,1.2933922E-1,0E0,0E0,0E0,0E0,0E0,0E0,0E0,0E0,0E0,0E0,0E0,0E0,1.14254E-1,1.3137627E-1,5.2667618E-2,1.3659596E-2,2.5437966E-2,4.597363E-2,3.9736748E-2,4.519558E-2,6.5569878E-3,0E0,0E0,0E0,0E0,0E0,0E0,0E0,0E0,0E0,0E0,0E0,0E0,0E0,0E0,0E0,0E0,0E0,0E0,0E0],"parents":[2147483647,0,0,1,1,2,2,3,3,4,4,5,5,6,6,7,7,8,8,9,9,10,10,11,11,12,12,13,13,15,15,16,16,17,17,18,18,19,19,20,20,21,21,22,22,35,35,36,36,37,37,38,38,39,39,40,40,41,41,42,42,43,43],"right_children":[2,4,6,8,10,12,14,16,18,20,22,24,26,28,-1,30,32,34,36,38,40,42,44,-1,-1,-1,-1,-1,-1,-1,-1,-1,-1,-1,-1,46,48,50,52,54,56,58,60,62,-1,-1,-1,-1,-1,-1,-1,-1,-1,-1,-1,-1,-1,-1,-1,-1,-1,-1,-1],"split_conditions":[6.885E0,5.9745E0,7.9035E0,5.4106E0,6.4356E0,7.367E0,8.572E0,5.0533E0,5.6399E0,6.2106E0,6.6914E0,7.0535E0,7.593E0,8.093E0,3.6547005E-1,4.837E0,5.2247E0,5.4912E0,5.8032E0,6.115E0,6.3166E0,6.567E0,6.7658E0,9.944352E-2,1.3342491E-1,1.7890942E-1,2.0798436E-1,2.5313917E-1,3.03623E-1,-2.2493723E-1,-1.8966296E-1,-1.6891082E-1,-1.3958578E-1,-1.2179577E-1,-1.0492959E-1,5.7339E0,5.8628E0,6.055E0,6.169E0,6.253E0,6.3765E0,6.4745E0,6.6351E0,6.8343E0,8.01945E-2,-8.614942E-2,-7.4406534E-2,-6.62042E-2,-5.3624794E-2,-3.7890255E-2,-2.9088732E-2,-2.0038705E-2,-1.4129253E-2,-6.922851E-3,1.2172666E-4,9.30136E-3,1.8827839E-2,2.5371833E-2,3.7946396E-2,4.7238823E-2,5.582397E-2,6.513088E-2,2.4889613E-2],"split_indices":[0,0,0,0,0,0,1,0,0,0,0,1,0,0,0,0,0,0,0,0,0,0,0,0,0,0,0,0,0,0,0,0,0,0,0,0,0,0,0,0,0,0,0,1,0,0,0,0,0,0,0,0,0,0,0,0,0,0,0,0,0,0,0],"split_type":[0,0,0,0,0,0,0,0,0,0,0,0,0,0,0,0,0,0,0,0,0,0,0,0,0,0,0,0,0,0,0,0,0,0,0,0,0,0,0,0,0,0,0,0,0,0,0,0,0,0,0,0,0,0,0,0,0,0,0,0,0,0,0],"sum_hessian":[4.952E3,4.003E3,9.49E2,2.283E3,1.72E3,4.45E2,5.04E2,6.97E2,1.586E3,8.7E2,8.5E2,2.32E2,2.13E2,4.06E2,9.8E1,1.94E2,5.03E2,6.96E2,8.9E2,4.84E2,3.86E2,5.57E2,2.93E2,1.75E2,5.7E1,9.6E1,1.17E2,7.7E1,3.29E2,9.7E1,9.7E1,2.13E2,2.9E2,2.51E2,4.45E2,5E2,3.9E2,3.08E2,1.76E2,1.91E2,1.95E2,1.94E2,3.63E2,1.18E2,1.75E2,2.89E2,2.11E2,1.75E2,2.15E2,1.74E2,1.34E2,9.8E1,7.8E1,7.6E1,1.15E2,1.16E2,7.9E1,3.7E1,1.57E2,1.91E2,1.72E2,1.16E2,2E0],"tree_param":{"num_deleted":"0","num_feature":"7","num_nodes":"63","size_leaf_vector":"1"}},{"base_weights":[2.5249485E-4,-1.3674733E-1,5.241065E-1,-2.6919785E-1,3.6202624E-2,3.232163E-1,7.1558017E-1,-4.0849704E-1,-2.174811E-1,-4.369453E-2,1.1596367E-1,2.266201E-1,4.3417916E-1,6.327937E-1,7.896805E-1,-1.5161568E-1,-3.736919E-1,-2.691087E-1,-1.7460047E-1,-7.695942E-2,-3.3359837E-3,8.388111E-2,1.4491588E-1,6.1293922E-2,7.252641E-2,1.0376E-1,1.3824457E-1,1.5485969E-1,1.9548906E-1,2.2426285E-1,2.64598E-1,-1.228056E-1,-1.0338446E-1,-8.803794E-2,-7.577401E-2,-1.9656041E-1,-1.4781742E-1,-9.290594E-2,-5.7507206E-2,-2.3195567E-2,1.3073276E-2,5.3109728E-2,9.929803E-2,1.3021654E-1,5.137144E-2,-6.0832296E-2,-5.3826354E-2,-4.759318E-2,-3.9714485E-2,-3.4351066E-2,-2.5701998E-2,-1.9826205E-2,-1.40878465E-2,-8.956638E-3,-2.8786547E-3,2.4494322E-4,6.239462E-3,1.3250069E-2,1.9300634E-2,2.654287E-2,3.1400148E-2,3.5548676E-2,4.06929E-2],"categories":[],"categories_nodes":[],"categories_segments":[],"categories_sizes":[],"default_left":[0,0,0,0,0,0,0,0,0,0,0,0,0,0,0,0,0,0,0,0,0,0,0,0,0,0,0,0,0,0,0,0,0,0,0,0,0,0,0,0,0,0,0,0,0,0,0,0,0,0,0,0,0,0,0,0,0,0,0,0,0,0,0],"id":3,"left_children":[1,3,5,7,9,11,13,15,17,19,21,23,25,27,29,-1,31,33,35,37,39,41,43,-1,-1,-1,-1,-1,-1,-1,-1,-1,-1,-1,-1,45,47,49,51,53,55,57,59,61,-1,-1,-1,-1,-1,-1,-1,-1,-1,-1,-1,-1,-1,-1,-1,-1,-1,-1,-1],"loss_changes":[3.5553812E2,8.996677E1,3.927243E1,1.5933075E1,1.0864114E1,5.2930565E0,2.7209167E0,1.8378448E0,3.5482712E0,1.1435727E0,7.8016376E-1,4.2098045E-2,3.887024E-1,2.1928406E-1,4.0260315E-1,0E0,3.2138443E-1,2.2170639E-1,4.9440193E-1,1.3951826E-1,1.2609333E-1,1.8780708E-1,1.506548E-1,0E0,0E0,0E0,0E0,0E0,0E0,0E0,0E0,0E0,0E0,0E0,0E0,1.5378952E-2,4.668045E-2,3.002286E-2,1.6173303E-2,1.5564121E-2,2.00558E-2,1.1012256E-2,6.4275265E-3,2.4356842E-3,0E0,0E0,0E0,0E0,0E0,0E0,0E0,0E0,0E0,0E0,0E0,0E0,0E0,0E0,0E0,0E0,0E0,0E0,0E0],"parents":[2147483647,0,0,1,1,2,2,3,3,4,4,5,5,6,6,7,7,8,8,9,9,10,10,11,11,12,12,13,13,14,14,16,16,17,17,18,18,19,19,20,20,21,21,22,22,35,35,36,36,37,37,38,38,39,39,40,40,41,41,42,42,43,43],"right_children":[2,4,6,8,10,12,14,16,18,20,22,24,26,28,30,-1,32,34,36,38,40,42,44,-1,-1,-1,-1,-1,-1,-1,-1,-1,-1,-1,-1,46,48,50,52,54,56,58,60,62,-1,-1,-1,-1,-1,-1,-1,-1,-1,-1,-1,-1,-1,-1,-1,-1,-1,-1,-1],"split_conditions":[6.834E0,5.938E0,7.859E0,5.363E0,6.3765E0,7.1135E0,8.3374E0,5.0162E0,5.62E0,6.169E0,6.6137E0,6.921E0,7.439E0,7.956E0,8.635E0,-1.5161568E-1,5.1835E0,5.4762E0,5.776E0,6.062E0,6.2632E0,6.499E0,6.7239E0,6.1293922E-2,7.252641E-2,1.0376E-1,1.3824457E-1,1.5485969E-1,1.9548906E-1,2.2426285E-1,2.64598E-1,-1.228056E-1,-1.0338446E-1,-8.803794E-2,-7.577401E-2,5.7339E0,5.8571E0,5.9574E0,6.115E0,6.2293E0,6.308E0,6.4356E0,6.5525E0,6.6462E0,5.137144E-2,-6.0832296E-2,-5.3826354E-2,-4.759318E-2,-3.9714485E-2,-3.4351066E-2,-2.5701998E-2,-1.9826205E-2,-1.40878465E-2,-8.956638E-3,-2.8786547E-3,2.4494322E-4,6.239462E-3,1.3250069E-2,1.9300634E-2,2.654287E-2,3.1400148E-2,3.5548676E-2,4.06929E-2],"split_indices":[0,0,0,0,0,0,0,0,0,0,0,0,0,0,0,0,0,0,0,0,0,0,0,0,0,0,0,0,0,0,0,0,0,0,0,0,0,6,0,0,1,0,0,0,0,0,0,0,0,0,0,0,0,0,0,0,0,0,0,0,0,0,0],"split_type":[0,0,0,0,0,0,0,0,0,0,0,0,0,0,0,0,0,0,0,0,0,0,0,0,0,0,0,0,0,0,0,0,0,0,0,0,0,0,0,0,0,0,0,0,0,0,0,0,0,0,0,0,0,0,0,0,0,0,0,0,0,0,0],"sum_hessian":[4.952E3,3.926E3,1.026E3,2.223E3,1.703E3,5.02E2,5.24E2,6E2,1.623E3,8.51E2,8.52E2,2.7E2,2.32E2,2.52E2,2.72E2,1.55E2,4.45E2,7.34E2,8.89E2,4.66E2,3.85E2,4.06E2,4.46E2,1.15E2,1.55E2,5.7E1,1.75E2,3.9E1,2.13E2,1.93E2,7.9E1,1.94E2,2.51E2,2.9E2,4.44E2,4.85E2,4.04E2,2.54E2,2.12E2,1.74E2,2.11E2,1.37E2,2.69E2,2.9E2,1.56E2,3.48E2,1.37E2,2.32E2,1.72E2,6E1,1.94E2,1.14E2,9.8E1,1.16E2,5.8E1,8.2E1,1.29E2,7.9E1,5.8E1,9.5E1,1.74E2,9.9E1,1.91E2],"tree_param":{"num_deleted":"0","num_feature":"7","num_nodes":"63","size_leaf_vector":"1"}},{"base_weights":[2.959395E-4,-8.446084E-2,4.177937E-1,-1.8423751E-1,4.425863E-2,2.9094997E-1,5.173962E-1,-2.668365E-1,-1.3949974E-1,-1.7919796E-2,1.00343324E-1,2.0839353E-1,3.3804092E-1,1.4353503E-1,5.785032E-1,-3.2389596E-1,-2.3109773E-1,-1.7247939E-1,-1.1253612E-1,-4.4835113E-2,9.227133E-3,7.9022855E-2,1.3675314E-1,5.3567193E-2,7.3786184E-2,9.114347E-2,1.1090208E-1,1.6469778E-1,1.9890057E-1,-1.159408E-1,-9.0386994E-2,-7.4907124E-2,-2.116651E-1,-1.8332848E-1,-1.5325923E-1,-1.2497979E-1,-8.884837E-2,-5.448317E-2,-3.319637E-2,-5.9287325E-3,2.4128605E-2,6.5261215E-2,9.004292E-2,3.5316177E-2,4.4522226E-2,-3.0372405E-2,-6.377557E-2,-5.7193127E-2,-5.1543813E-2,-1.3532162E-2,-4.6184864E-2,-3.98188E-2,-3.367625E-2,-2.9124338E-2,-2.3643645E-2,-1.7263552E-2,-1.29802665E-2,-1.1169705E-2,-5.9677036E-3,-3.5522983E-3,1.1337776E-3,4.955688E-3,9.863431E-3,1.9722067E-2,-9.538794E-3,2.4697196E-2,2.8548637E-2],"categories":[],"categories_nodes":[],"categories_segments":[],"categories_sizes":[],"default_left":[0,0,0,0,0,0,0,0,0,0,0,0,0,0,0,0,0,0,0,0,0,0,0,0,0,0,0,0,0,0,0,0,0,0,0,0,0,0,0,0,0,0,0,0,0,0,0,0,0,0,0,0,0,0,0,0,0,0,0,0,0,0,0,0,0,0,0],"id":4,"left_children":[1,3,5,7,9,11,13,15,17,19,21,23,25,-1,27,29,31,33,35,37,39,41,43,-1,-1,-1,-1,-1,-1,-1,-1,-1,45,47,49,51,53,55,57,59,61,63,65,-1,-1,-1,-1,-1,-1,-1,-1,-1,-1,-1,-1,-1,-1,-1,-1,-1,-1,-1,-1,-1,-1,-1,-1],"loss_changes":[1.7530098E2,5.289645E1,1.0411453E1,8.535851E0,6.2753744E0,1.3679886E0,8.346176E-1,1.5850868E0,1.320694E0,6.2440443E-1,7.2354984E-1,1.09613895E-1,1.4105606E-1,0E0,7.738495E-2,3.234825E-1,1.2924576E-1,1.1286354E-1,2.3413754E-1,4.6364307E-2,9.6352905E-2,8.4964514E-2,5.972004E-2,0E0,0E0,0E0,0E0,0E0,0E0,0E0,0E0,0E0,4.1828156E-3,3.2148361E-3,1.1720657E-2,3.8650513E-2,1.6310215E-2,5.51188E-3,9.83724E-3,1.2212739E-2,1.3771698E-2,1.4642954E-2,5.2056313E-3,0E0,0E0,0E0,0E0,0E0,0E0,0E0,0E0,0E0,0E0,0E0,0E0,0E0,0E0,0E0,0E0,0E0,0E0,0E0,0E0,0E0,0E0,0E0,0E0],"parents":[2147483647,0,0,1,1,2,2,3,3,4,4,5,5,6,6,7,7,8,8,9,9,10,10,11,11,12,12,14,14,15,15,16,16,17,17,18,18,19,19,20,20,21,21,22,22,32,32,33,33,34,34,35,35,36,36,37,37,38,38,39,39,40,40,41,41,42,42],"right_children":[2,4,6,8,10,12,14,16,18,20,22,24,26,-1,28,30,32,34,36,38,40,42,44,-1,-1,-1,-1,-1,-1,-1,-1,-1,46,48,50,52,54,56,58,60,62,64,66,-1,-1,-1,-1,-1,-1,-1,-1,-1,-1,-1,-1,-1,-1,-1,-1,-1,-1,-1,-1,-1,-1,-1,-1],"split_conditions":[6.9975E0,5.9935E0,8.006E0,5.4553E0,6.458E0,7.439E0,8.4555E0,5.157E0,5.6706E0,6.196E0,6.7239E0,7.1167E0,7.673E0,1.4353503E-1,8.733E0,4.8064E0,5.3353E0,5.587E0,5.8506E0,6.0927E0,6.3166E0,6.6006E0,6.8195E0,5.3567193E-2,7.3786184E-2,9.114347E-2,1.1090208E-1,1.6469778E-1,1.9890057E-1,-1.159408E-1,-9.0386994E-2,-7.4907124E-2,5.1835E0,5.5254E0,5.435E0,5.776E0,5.9185E0,6.1055E0,6.196E0,6.276E0,6.3765E0,6.7398E0,6.6462E0,3.5316177E-2,4.4522226E-2,-3.0372405E-2,-6.377557E-2,-5.7193127E-2,-5.1543813E-2,-1.3532162E-2,-4.6184864E-2,-3.98188E-2,-3.367625E-2,-2.9124338E-2,-2.3643645E-2,-1.7263552E-2,-1.29802665E-2,-1.1169705E-2,-5.9677036E-3,-3.5522983E-3,1.1337776E-3,4.955688E-3,9.863431E-3,1.9722067E-2,-9.538794E-3,2.4697196E-2,2.8548637E-2],"split_indices":[0,0,0,0,0,0,0,0,0,0,0,2,1,0,0,0,0,0,0,0,0,0,0,0,0,0,0,0,0,0,0,0,5,0,6,1,0,4,6,4,0,2,0,0,0,0,0,0,0,0,0,0,0,0,0,0,0,0,0,0,0,0,0,0,0,0,0],"split_type":[0,0,0,0,0,0,0,0,0,0,0,0,0,0,0,0,0,0,0,0,0,0,0,0,0,0,0,0,0,0,0,0,0,0,0,0,0,0,0,0,0,0,0,0,0,0,0,0,0,0,0,0,0,0,0,0,0,0,0,0,0,0,0,0,0,0,0],"sum_hessian":[4.952E3,4.117E3,8.35E2,2.319E3,1.798E3,3.69E2,4.66E2,8.13E2,1.506E3,8.53E2,9.45E2,1.36E2,2.33E2,2.9E2,1.76E2,3.1E2,5.03E2,6.75E2,8.31E2,4.28E2,4.25E2,5.98E2,3.47E2,7.9E1,5.7E1,1.17E2,1.16E2,1.36E2,4E1,7.8E1,2.32E2,2.51E2,2.52E2,4.26E2,2.49E2,5.42E2,2.89E2,2.32E2,1.96E2,2.11E2,2.14E2,2.69E2,3.29E2,1.36E2,2.11E2,3E0,2.49E2,2.51E2,1.75E2,2E0,2.47E2,3.31E2,2.11E2,1.54E2,1.35E2,1.79E2,5.3E1,1.49E2,4.7E1,1.31E2,8E1,1.16E2,9.8E1,2.68E2,1E0,1.38E2,1.91E2],"tree_param":{"num_deleted":"0","num_feature":"7","num_nodes":"67","size_leaf_vector":"1"}},{"base_weights":[2.626105E-4,-6.25218E-2,2.7852392E-1,-1.3049252E-1,2.577136E-2,1.8476471E-1,3.6032775E-1,-2.0022102E-1,-1.04391634E-1,-1.5103594E-2,6.5789714E-2,1.303722E-1,2.2949336E-1,3.2239598E-1,3.9947018E-1,-2.521575E-1,-1.8240489E-1,-1.3083562E-1,-8.332902E-2,-3.2193832E-2,6.3534337E-3,5.4049905E-2,8.985211E-2,3.5821944E-2,5.0963752E-2,5.8799222E-2,7.3431075E-2,4.824454E-2,9.710907E-2,1.1484375E-1,1.4068586E-1,-8.5391074E-2,-6.884028E-2,-5.901379E-2,-4.856082E-2,-1.3855457E-1,-1.171586E-1,-9.556367E-2,-6.997985E-2,-3.7716802E-2,-1.788938E-2,-3.1587232E-3,1.563905E-2,3.966874E-2,6.082399E-2,8.176401E-2,9.840948E-2,-2.696085E-3,-4.1644335E-2,-3.527479E-2,-3.3702853E-4,-2.8723637E-2,-1.2188674E-3,-2.2863002E-2,-1.849652E-2,-1.2234621E-2,-7.1866233E-3,-6.39106E-3,-3.3345462E-3,-2.1409048E-3,1.259862E-3,2.3658536E-3,5.827708E-3,9.21309E-3,1.3613566E-2,1.1213155E-2,1.8601747E-2,6.990814E-3,2.4712773E-2,2.9715968E-2,1.105566E-2],"categories":[],"categories_nodes":[],"categories_segments":[],"categories_sizes":[],"default_left":[0,0,0,0,0,0,0,0,0,0,0,0,0,0,0,0,0,0,0,0,0,0,0,0,0,0,0,0,0,0,0,0,0,0,0,0,0,0,0,0,0,0,0,0,0,0,0,0,0,0,0,0,0,0,0,0,0,0,0,0,0,0,0,0,0,0,0,0,0,0,0],"id":5,"left_children":[1,3,5,7,9,11,13,15,17,19,21,23,25,27,29,31,33,35,37,39,41,43,45,-1,-1,-1,-1,-1,-1,-1,-1,-1,-1,-1,-1,47,49,51,53,55,57,59,61,63,65,67,69,-1,-1,-1,-1,-1,-1,-1,-1,-1,-1,-1,-1,-1,-1,-1,-1,-1,-1,-1,-1,-1,-1,-1,-1],"loss_changes":[8.654866E1,2.4260822E1,6.928337E0,4.1359215E0,2.878275E0,1.0089302E0,5.927963E-1,5.286217E-1,9.159107E-1,3.1960523E-1,2.4627542E-1,6.4193726E-2,7.125473E-2,9.174347E-4,9.247208E-2,4.9650192E-2,1.05075836E-1,6.1468124E-2,1.4503956E-1,3.7641764E-2,3.4231655E-2,5.6038618E-2,1.2025356E-2,0E0,0E0,0E0,0E0,0E0,0E0,0E0,0E0,0E0,0E0,0E0,0E0,1.4409065E-2,1.3251066E-2,7.627964E-3,1.8536568E-2,1.3744652E-2,2.9317774E-3,5.649505E-3,5.6008473E-3,8.5808635E-3,8.9325905E-3,3.6251545E-3,1.7390251E-3,0E0,0E0,0E0,0E0,0E0,0E0,0E0,0E0,0E0,0E0,0E0,0E0,0E0,0E0,0E0,0E0,0E0,0E0,0E0,0E0,0E0,0E0,0E0,0E0],"parents":[2147483647,0,0,1,1,2,2,3,3,4,4,5,5,6,6,7,7,8,8,9,9,10,10,11,11,12,12,13,13,14,14,15,15,16,16,17,17,18,18,19,19,20,20,21,21,22,22,35,35,36,36,37,37,38,38,39,39,40,40,41,41,42,42,43,43,44,44,45,45,46,46],"right_children":[2,4,6,8,10,12,14,16,18,20,22,24,26,28,30,32,34,36,38,40,42,44,46,-1,-1,-1,-1,-1,-1,-1,-1,-1,-1,-1,-1,48,50,52,54,56,58,60,62,64,66,68,70,-1,-1,-1,-1,-1,-1,-1,-1,-1,-1,-1,-1,-1,-1,-1,-1,-1,-1,-1,-1,-1,-1,-1,-1],"split_conditions":[6.921E0,5.9745E0,7.956E0,5.3746E0,6.4356E0,7.367E0,8.381E0,5.0162E0,5.6273E0,6.2106E0,6.7149E0,7.126E0,7.565E0,7.859E0,8.733E0,4.78E0,5.2361E0,5.5299E0,5.7834E0,6.1413E0,6.3166E0,6.567E0,6.8195E0,3.5821944E-2,5.0963752E-2,5.8799222E-2,7.3431075E-2,4.824454E-2,9.710907E-2,1.1484375E-1,1.4068586E-1,-8.5391074E-2,-6.884028E-2,-5.901379E-2,-4.856082E-2,5.1922E0,5.7553E0,5.938E0,5.8719E0,6.1275E0,6.196E0,6.2866E0,6.345E0,6.5188E0,6.5188E0,6.6404E0,7.0603E0,-2.696085E-3,-4.1644335E-2,-3.527479E-2,-3.3702853E-4,-2.8723637E-2,-1.2188674E-3,-2.2863002E-2,-1.849652E-2,-1.2234621E-2,-7.1866233E-3,-6.39106E-3,-3.3345462E-3,-2.1409048E-3,1.259862E-3,2.3658536E-3,5.827708E-3,9.21309E-3,1.3613566E-2,1.1213155E-2,1.8601747E-2,6.990814E-3,2.4712773E-2,2.9715968E-2,1.105566E-2],"split_indices":[0,2,0,2,0,2,0,0,0,0,1,3,0,3,0,0,0,0,0,0,0,0,0,0,0,0,0,0,0,0,0,0,0,0,0,1,3,3,0,4,4,2,1,0,6,2,5,0,0,0,0,0,0,0,0,0,0,0,0,0,0,0,0,0,0,0,0,0,0,0,0],"split_type":[0,0,0,0,0,0,0,0,0,0,0,0,0,0,0,0,0,0,0,0,0,0,0,0,0,0,0,0,0,0,0,0,0,0,0,0,0,0,0,0,0,0,0,0,0,0,0,0,0,0,0,0,0,0,0,0,0,0,0,0,0,0,0,0,0,0,0,0,0,0,0],"sum_hessian":[4.952E3,4.041E3,9.11E2,2.283E3,1.758E3,4.26E2,4.85E2,6.2E2,1.663E3,8.7E2,8.88E2,1.94E2,2.32E2,2.51E2,2.34E2,1.55E2,4.65E2,7.35E2,9.28E2,4.84E2,3.86E2,5.99E2,2.89E2,1.55E2,3.9E1,7.7E1,1.55E2,3E0,2.48E2,1.94E2,4E1,5.9E1,9.6E1,2.69E2,1.96E2,4.64E2,2.71E2,4.81E2,4.47E2,3.48E2,1.36E2,1.91E2,1.95E2,1.94E2,4.05E2,1.54E2,1.35E2,1E0,4.63E2,2.7E2,1E0,4.8E2,1E0,2.51E2,1.96E2,2.83E2,6.5E1,8.9E1,4.7E1,1.24E2,6.7E1,6.5E1,1.3E2,7.8E1,1.16E2,2.1E1,3.84E2,2E0,1.52E2,1.33E2,2E0],"tree_param":{"num_deleted":"0","num_feature":"7","num_nodes":"71","size_leaf_vector":"1"}},{"base_weights":[2.4646378E-4,-4.6681717E-2,1.8395515E-1,-9.208784E-2,1.4363858E-2,1.0466454E-1,2.4157752E-1,-1.3129292E-1,-6.9201805E-2,-1.3171861E-2,4.1204836E-2,7.9553634E-2,1.4022617E-1,1.9516931E-1,2.6776612E-1,-1.7036992E-1,-1.17593296E-1,-8.1316695E-2,-5.3132676E-2,-2.351874E-2,1.3576915E-3,3.0552385E-2,5.176079E-2,7.323706E-2,2.5864812E-2,3.6850624E-2,1.4758581E-1,2.2480821E-2,1.9595012E-1,7.602473E-2,3.1661838E-1,-6.3756794E-2,-4.7928445E-2,-4.1012593E-2,-1.09829225E-1,-8.794558E-2,-7.2232515E-2,-5.6154545E-2,-4.051495E-2,-3.4021784E-2,-1.8996926E-2,-3.7316706E-3,7.6128184E-3,2.0840893E-2,3.600989E-2,4.6971913E-2,6.166219E-2,7.38728E-2,2.0428658E-2,4.4449218E-2,1.1989833E-2,5.8906887E-2,1.6537571E-2,2.4210263E-2,9.557495E-2,-3.5417963E-2,-3.1299565E-2,-3.7436488E-3,-2.6424313E-2,-2.1825764E-2,-2.7576329E-3,6.4718486E-3,-1.6906546E-2,-5.5414587E-3,-1.3309352E-2,-1.0883323E-2,1.8439292E-5,-6.475261E-3,-3.7559639E-3,-1.7087534E-3,4.33573E-3,2.7317922E-3,-1.1790506E-2,1.8032242E-2,5.742784E-3,1.0344097E-2,1.8520413E-2,1.44478055E-2,8.806508E-3,2.1142596E-2,1.5703766E-2,2.2346428E-2,6.6526416E-3,4.0841103E-5,9.152055E-3],"categories":[],"categories_nodes":[],"categories_segments":[],"categories_sizes":[],"default_left":[0,0,0,0,0,0,0,0,0,0,0,0,0,0,0,0,0,0,0,0,0,0,0,0,0,0,0,0,0,0,0,0,0,0,0,0,0,0,0,0,0,0,0,0,0,0,0,0,0,0,0,0,0,0,0,0,0,0,0,0,0,0,0,0,0,0,0,0,0,0,0,0,0,0,0,0,0,0,0,0,0,0,0,0,0],"id":6,"left_children":[1,3,5,7,9,11,13,15,17,19,21,23,25,27,29,31,33,35,37,39,41,43,45,47,-1,-1,49,-1,51,-1,53,-1,-1,-1,55,57,59,61,63,65,67,69,71,73,75,77,79,81,83,-1,-1,-1,-1,-1,-1,-1,-1,-1,-1,-1,-1,-1,-1,-1,-1,-1,-1,-1,-1,-1,-1,-1,-1,-1,-1,-1,-1,-1,-1,-1,-1,-1,-1,-1,-1],"loss_changes":[4.2708965E1,1.0939017E1,4.580181E0,2.021389E0,1.2451631E0,3.6925602E-1,6.562958E-1,4.2590427E-1,2.7426052E-1,1.251111E-1,9.4335556E-2,4.290819E-3,4.2698383E-3,5.4063797E-3,1.7915344E-1,6.1742783E-2,7.700157E-2,4.2664528E-2,2.1288633E-2,2.2435188E-2,1.1075016E-2,2.1880746E-2,1.7350554E-2,3.0566454E-3,0E0,0E0,1.4214516E-3,0E0,1.3027191E-3,0E0,1.1371613E-2,0E0,0E0,0E0,7.862568E-3,3.6644936E-3,1.0772467E-2,8.949757E-3,9.6179545E-3,1.11513585E-2,5.4609627E-3,6.9399336E-3,1.1285783E-2,9.252347E-3,8.573979E-3,4.6946406E-3,7.477224E-3,2.6106834E-3,6.0938264E-4,0E0,0E0,0E0,0E0,0E0,0E0,0E0,0E0,0E0,0E0,0E0,0E0,0E0,0E0,0E0,0E0,0E0,0E0,0E0,0E0,0E0,0E0,0E0,0E0,0E0,0E0,0E0,0E0,0E0,0E0,0E0,0E0,0E0,0E0,0E0,0E0],"parents":[2147483647,0,0,1,1,2,2,3,3,4,4,5,5,6,6,7,7,8,8,9,9,10,10,11,11,12,12,13,13,14,14,15,15,16,16,17,17,18,18,19,19,20,20,21,21,22,22,23,23,26,26,28,28,30,30,34,34,35,35,36,36,37,37,38,38,39,39,40,40,41,41,42,42,43,43,44,44,45,45,46,46,47,47,48,48],"right_children":[2,4,6,8,10,12,14,16,18,20,22,24,26,28,30,32,34,36,38,40,42,44,46,48,-1,-1,50,-1,52,-1,54,-1,-1,-1,56,58,60,62,64,66,68,70,72,74,76,78,80,82,84,-1,-1,-1,-1,-1,-1,-1,-1,-1,-1,-1,-1,-1,-1,-1,-1,-1,-1,-1,-1,-1,-1,-1,-1,-1,-1,-1,-1,-1,-1,-1,-1,-1,-1,-1,-1],"split_conditions":[6.843E0,5.9574E0,7.673E0,5.4599E0,6.387E0,7.1138E0,8.1995E0,5.0719E0,5.7204E0,6.196E0,6.6285E0,6.9552E0,7.439E0,7.632E0,8.635E0,4.7461E0,5.2094E0,5.6061E0,5.8981E0,6.0356E0,6.308E0,6.5265E0,6.7529E0,7.0625E0,2.5864812E-2,3.6850624E-2,7.747E0,2.2480821E-2,8.3374E0,7.602473E-2,8.28E0,-6.3756794E-2,-4.7928445E-2,-4.1012593E-2,5.3353E0,5.3476E0,5.8446E0,5.5381E0,5.8865E0,6.115E0,6.1525E0,6.3166E0,6.458E0,6.3166E0,6.7529E0,6.8353E0,6.8091E0,7.014E0,6.87E0,4.4449218E-2,1.1989833E-2,5.8906887E-2,1.6537571E-2,2.4210263E-2,9.557495E-2,-3.5417963E-2,-3.1299565E-2,-3.7436488E-3,-2.6424313E-2,-2.1825764E-2,-2.7576329E-3,6.4718486E-3,-1.6906546E-2,-5.5414587E-3,-1.3309352E-2,-1.0883323E-2,1.8439292E-5,-6.475261E-3,-3.7559639E-3,-1.7087534E-3,4.33573E-3,2.7317922E-3,-1.1790506E-2,1.8032242E-2,5.742784E-3,1.0344097E-2,1.8520413E-2,1.44478055E-2,8.806508E-3,2.1142596E-2,1.5703766E-2,2.2346428E-2,6.6526416E-3,4.0841103E-5,9.152055E-3],"split_indices":[0,3,3,0,3,1,0,1,0,0,0,0,0,1,1,0,0,0,0,0,0,0,0,6,0,0,0,0,2,0,2,0,0,0,5,1,2,4,1,4,0,1,6,6,6,6,2,1,0,0,0,0,0,0,0,0,0,0,0,0,0,0,0,0,0,0,0,0,0,0,0,0,0,0,0,0,0,0,0,0,0,0,0,0,0],"split_type":[0,0,0,0,0,0,0,0,0,0,0,0,0,0,0,0,0,0,0,0,0,0,0,0,0,0,0,0,0,0,0,0,0,0,0,0,0,0,0,0,0,0,0,0,0,0,0,0,0,0,0,0,0,0,0,0,0,0,0,0,0,0,0,0,0,0,0,0,0,0,0,0,0,0,0,0,0,0,0,0,0,0,0,0,0],"sum_hessian":[4.952E3,3.945E3,1.007E3,2.262E3,1.683E3,4.25E2,5.82E2,8.32E2,1.43E3,8.31E2,8.52E2,2.51E2,1.74E2,2.13E2,3.69E2,2.13E2,6.19E2,8.13E2,6.17E2,4.85E2,3.46E2,4.26E2,4.26E2,1.35E2,1.16E2,5.7E1,1.17E2,2E0,2.11E2,2.9E2,7.9E1,3.9E1,1.74E2,1.74E2,4.45E2,4.65E2,3.48E2,4.95E2,1.22E2,1.44E2,3.41E2,1.91E2,1.55E2,1.55E2,2.71E2,2.91E2,1.35E2,1.33E2,2E0,1.16E2,1E0,2.1E2,1E0,1E0,7.8E1,1.7E2,2.75E2,1E0,4.64E2,3.45E2,3E0,1E0,4.94E2,1.9E1,1.03E2,1.35E2,9E0,2.42E2,9.9E1,1.73E2,1.8E1,1.51E2,4E0,5E0,1.5E2,2.58E2,1.3E1,2.71E2,2E1,6.6E1,6.9E1,1.31E2,2E0,1E0,1E0],"tree_param":{"num_deleted":"0","num_feature":"7","num_nodes":"85","size_leaf_vector":"1"}},{"base_weights":[2.1958904E-4,-2.8731238E-2,1.472469E-1,-6.3035406E-2,1.6722023E-2,1.0426616E-1,1.8239823E-1,-9.629747E-2,-4.902821E-2,-4.8386618E-3,3.562964E-2,8.120457E-2,1.2059018E-1,1.7751329E-1,8.060932E-2,-1.2661998E-1,-8.740869E-2,-5.8544595E-2,-3.509588E-2,-1.3290488E-2,4.9832473E-3,2.775105E-2,4.793813E-2,6.400895E-2,9.100387E-2,5.162573E-3,1.20994754E-1,1.6212733E-1,1.9199783E-1,-4.5107886E-2,-1.17421634E-1,-2.9193884E-2,-7.965061E-2,-6.793059E-2,-5.3741064E-2,-4.0188815E-2,-3.0194249E-2,-1.4998867E-2,-3.8509709E-3,2.2584146E-3,1.2967873E-2,2.5616521E-2,3.5997245E-2,4.2811263E-2,5.3376995E-2,2.3259252E-2,5.4140203E-2,9.2978634E-2,3.607254E-2,1.1094787E-1,1.281431E-1,4.8850656E-2,1.748295E-2,1.2621832E-2,1.9250418E-1,-3.536272E-2,-9.7121E-3,-2.3988072E-2,2.4032593E-3,-1.9982308E-2,-2.6918838E-2,-1.6001606E-2,-3.182831E-2,3.6143304E-3,-1.2211943E-2,-1.2251991E-2,-8.366271E-3,-1.2312286E-2,-4.2980076E-3,-4.6368497E-3,-2.799034E-4,-9.991071E-4,1.5297764E-3,1.6148044E-2,3.333298E-3,7.5629E-3,1.74016E-2,1.1041519E-2,-2.090454E-3,2.3986818E-3,1.2994085E-2,2.2646343E-2,1.4961511E-2,1.4032012E-2,2.2775747E-2,2.8108334E-2,4.0685893E-3,-1.0631419E-2,1.8842913E-2,3.3626605E-2,1.1466074E-2,4.6538606E-2,3.631587E-2,1.4056922E-2,5.7891052E-2],"categories":[],"categories_nodes":[],"categories_segments":[],"categories_sizes":[],"default_left":[0,0,0,0,0,0,0,0,0,0,0,0,0,0,0,0,0,0,0,0,0,0,0,0,0,0,0,0,0,0,0,0,0,0,0,0,0,0,0,0,0,0,0,0,0,0,0,0,0,0,0,0,0,0,0,0,0,0,0,0,0,0,0,0,0,0,0,0,0,0,0,0,0,0,0,0,0,0,0,0,0,0,0,0,0,0,0,0,0,0,0,0,0,0,0],"id":7,"left_children":[1,3,5,7,9,11,13,15,17,19,21,23,25,27,-1,29,31,33,35,37,39,41,43,45,47,-1,49,51,53,-1,55,-1,57,59,61,63,65,67,69,71,73,75,77,79,81,-1,83,85,87,89,91,-1,-1,-1,93,-1,-1,-1,-1,-1,-1,-1,-1,-1,-1,-1,-1,-1,-1,-1,-1,-1,-1,-1,-1,-1,-1,-1,-1,-1,-1,-1,-1,-1,-1,-1,-1,-1,-1,-1,-1,-1,-1,-1,-1],"loss_changes":[2.108698E1,6.454733E0,1.2123108E0,1.0943565E0,7.2621703E-1,1.2912035E-1,1.4074326E-1,1.770649E-1,2.1830225E-1,6.921611E-2,9.069753E-2,2.0461679E-2,6.868124E-3,6.3809395E-2,0E0,1.6409636E-2,3.3971786E-2,4.0804148E-2,1.568693E-2,7.166818E-3,8.3688265E-3,9.304494E-3,8.004189E-3,3.8090944E-3,7.1682334E-3,0E0,1.080513E-3,6.175995E-3,8.146286E-3,0E0,7.0238113E-4,0E0,9.054422E-3,3.5396814E-3,8.181214E-3,9.386897E-3,7.431209E-3,6.0463697E-3,2.3560233E-3,4.6053794E-3,6.837206E-3,4.6652555E-3,4.3173432E-3,3.0641556E-3,9.798646E-3,0E0,2.5458038E-3,4.016161E-3,1.1785808E-2,3.6808252E-3,3.7984848E-3,0E0,0E0,0E0,5.414963E-3,0E0,0E0,0E0,0E0,0E0,0E0,0E0,0E0,0E0,0E0,0E0,0E0,0E0,0E0,0E0,0E0,0E0,0E0,0E0,0E0,0E0,0E0,0E0,0E0,0E0,0E0,0E0,0E0,0E0,0E0,0E0,0E0,0E0,0E0,0E0,0E0,0E0,0E0,0E0,0E0],"parents":[2147483647,0,0,1,1,2,2,3,3,4,4,5,5,6,6,7,7,8,8,9,9,10,10,11,11,12,12,13,13,15,15,16,16,17,17,18,18,19,19,20,20,21,21,22,22,23,23,24,24,26,26,27,27,28,28,30,30,32,32,33,33,34,34,35,35,36,36,37,37,38,38,39,39,40,40,41,41,42,42,43,43,44,44,46,46,47,47,48,48,49,49,50,50,54,54],"right_children":[2,4,6,8,10,12,14,16,18,20,22,24,26,28,-1,30,32,34,36,38,40,42,44,46,48,-1,50,52,54,-1,56,-1,58,60,62,64,66,68,70,72,74,76,78,80,82,-1,84,86,88,90,92,-1,-1,-1,94,-1,-1,-1,-1,-1,-1,-1,-1,-1,-1,-1,-1,-1,-1,-1,-1,-1,-1,-1,-1,-1,-1,-1,-1,-1,-1,-1,-1,-1,-1,-1,-1,-1,-1,-1,-1,-1,-1,-1,-1],"split_conditions":[7.014E0,6.0112E0,8.048E0,5.4106E0,6.4745E0,7.545E0,8.7911E0,5.0162E0,5.7339E0,6.2293E0,6.7239E0,7.1167E0,7.367E0,8.381E0,8.060932E-2,4.7461E0,5.2094E0,5.5138E0,5.8446E0,6.218E0,6.387E0,6.6692E0,6.8575E0,7.015E0,7.632E0,5.162573E-3,7.747E0,8.4935E0,8.1995E0,-4.5107886E-2,5.157E0,-2.9193884E-2,5.5539E0,5.5539E0,5.8719E0,5.5986E0,5.82E0,5.8981E0,6.2106E0,6.276E0,6.2866E0,6.7934E0,6.8091E0,6.5715E0,6.8091E0,2.3259252E-2,7.126E0,7.632E0,7.505E0,7.7975E0,7.7975E0,4.8850656E-2,1.748295E-2,1.2621832E-2,8.1995E0,-3.536272E-2,-9.7121E-3,-2.3988072E-2,2.4032593E-3,-1.9982308E-2,-2.6918838E-2,-1.6001606E-2,-3.182831E-2,3.6143304E-3,-1.2211943E-2,-1.2251991E-2,-8.366271E-3,-1.2312286E-2,-4.2980076E-3,-4.6368497E-3,-2.799034E-4,-9.991071E-4,1.5297764E-3,1.6148044E-2,3.333298E-3,7.5629E-3,1.74016E-2,1.1041519E-2,-2.090454E-3,2.3986818E-3,1.2994085E-2,2.2646343E-2,1.4961511E-2,1.4032012E-2,2.2775747E-2,2.8108334E-2,4.0685893E-3,-1.0631419E-2,1.8842913E-2,3.3626605E-2,1.1466074E-2,4.6538606E-2,3.631587E-2,1.4056922E-2,5.7891052E-2],"split_indices":[0,0,0,1,0,0,0,5,0,0,0,2,5,2,0,0,0,0,0,6,0,0,0,2,5,0,0,4,3,0,1,0,4,3,5,3,6,6,5,4,5,3,1,3,3,0,3,1,1,3,0,0,0,0,0,0,0,0,0,0,0,0,0,0,0,0,0,0,0,0,0,0,0,0,0,0,0,0,0,0,0,0,0,0,0,0,0,0,0,0,0,0,0,0,0],"split_type":[0,0,0,0,0,0,0,0,0,0,0,0,0,0,0,0,0,0,0,0,0,0,0,0,0,0,0,0,0,0,0,0,0,0,0,0,0,0,0,0,0,0,0,0,0,0,0,0,0,0,0,0,0,0,0,0,0,0,0,0,0,0,0,0,0,0,0,0,0,0,0,0,0,0,0,0,0,0,0,0,0,0,0,0,0,0,0,0,0,0,0,0,0,0,0],"sum_hessian":[4.952E3,4.138E3,8.14E2,2.358E3,1.78E3,3.68E2,4.46E2,6.97E2,1.661E3,8.32E2,9.48E2,1.55E2,2.13E2,4.25E2,2.1E1,1.55E2,5.42E2,9.85E2,6.76E2,4.47E2,3.85E2,5.8E2,3.68E2,5.9E1,9.6E1,1E0,2.12E2,2.12E2,2.13E2,3.9E1,1.16E2,2.33E2,3.09E2,3.29E2,6.56E2,3.28E2,3.48E2,3.78E2,6.9E1,2.88E2,9.7E1,4.64E2,1.16E2,1.94E2,1.74E2,2.2E1,3.7E1,9.2E1,4E0,9.5E1,1.17E2,2.1E2,2E0,1E0,2.12E2,1.15E2,1E0,3.08E2,1E0,3.14E2,1.5E1,6.53E2,3E0,3E0,3.25E2,5.9E1,2.89E2,8E0,3.7E2,1.3E1,5.6E1,9.7E1,1.91E2,3E0,9.4E1,4.6E2,4E0,1.14E2,2E0,3E0,1.91E2,2.1E1,1.53E2,3E1,7E0,9.1E1,1E0,1E0,3E0,9.3E1,2E0,2E1,9.7E1,1E0,2.11E2],"tree_param":{"num_deleted":"0","num_feature":"7","num_nodes":"95","size_leaf_vector":"1"}},{"base_weights":[2.1135497E-4,-2.0747226E-2,1.00831926E-1,-4.4721972E-2,1.0494861E-2,6.90615E-2,1.27012E-1,-7.0831664E-2,-3.5957992E-2,-3.2958467E-3,2.4971755E-2,4.8672955E-2,7.98717E-2,1.19779065E-1,1.6050407E-1,-2.8978279E-2,-6.547998E-2,-4.494855E-2,-2.7331097E-2,-9.83496E-3,4.1698306E-3,2.0596776E-2,3.36356E-2,4.416397E-2,5.850315E-2,7.047343E-2,8.736968E-2,1.08700976E-1,1.3018608E-1,1.4613172E-1,1.9175248E-1,-2.142336E-2,-5.9758816E-2,-4.8556175E-2,-4.0068336E-2,-3.144237E-2,-2.2799572E-2,-1.3981674E-2,-6.993938E-3,3.8126152E-4,7.903762E-3,1.4314182E-2,2.2326523E-2,6.1981462E-2,3.2401886E-2,4.9222812E-2,3.365168E-2,7.1089625E-2,4.373017E-2,7.34956E-2,5.3158034E-2,8.8179834E-2,-3.300047E-3,1.3199297E-1,1.03635415E-1,3.9572626E-2,6.507615E-2,4.5958288E-2,8.9873634E-2,6.167018E-2,3.1100636E-2,-1.1815443E-2,-1.8635763E-2,2.455187E-3,-1.4642579E-2,-1.2082785E-2,5.387664E-3,-4.6435636E-3,-1.0092017E-2,-7.0416937E-3,1.4328003E-3,-1.192689E-3,-6.1940835E-3,-6.9178105E-3,-1.8660906E-3,7.58969E-3,-2.143639E-4,7.795976E-3,1.5505604E-3,3.904144E-3,1.3110152E-2,-3.1346323E-3,6.7485115E-3,1.2245644E-2,2.664342E-2,8.348141E-3,1.140449E-2,1.5450324E-2,6.9941794E-3,4.3634446E-3,1.4176376E-2,3.0323984E-3,2.2130156E-2,9.124517E-3,1.7431261E-2,1.984049E-2,2.523921E-2,-9.036684E-3,1.764845E-2,2.8642783E-2,2.2956198E-2,4.019488E-2,1.0844136E-2,1.9694183E-2,3.2360774E-2,8.9721684E-4,2.247758E-2,3.9965916E-2,7.15828E-4],"categories":[],"categories_nodes":[],"categories_segments":[],"categories_sizes":[],"default_left":[0,0,0,0,0,0,0,0,0,0,0,0,0,0,0,0,0,0,0,0,0,0,0,0,0,0,0,0,0,0,0,0,0,0,0,0,0,0,0,0,0,0,0,0,0,0,0,0,0,0,0,0,0,0,0,0,0,0,0,0,0,0,0,0,0,0,0,0,0,0,0,0,0,0,0,0,0,0,0,0,0,0,0,0,0,0,0,0,0,0,0,0,0,0,0,0,0,0,0,0,0,0,0,0,0,0,0,0,0],"id":8,"left_children":[1,3,5,7,9,11,13,15,17,19,21,23,25,27,29,-1,31,33,35,37,39,41,43,45,47,49,51,53,55,57,59,-1,61,63,65,67,69,71,73,75,77,79,81,83,85,87,89,91,93,95,97,99,-1,101,103,-1,105,-1,107,-1,-1,-1,-1,-1,-1,-1,-1,-1,-1,-1,-1,-1,-1,-1,-1,-1,-1,-1,-1,-1,-1,-1,-1,-1,-1,-1,-1,-1,-1,-1,-1,-1,-1,-1,-1,-1,-1,-1,-1,-1,-1,-1,-1,-1,-1,-1,-1,-1,-1],"loss_changes":[1.0447297E1,3.0714557E0,7.0154476E-1,5.28327E-1,3.5565293E-1,8.162916E-2,9.390402E-2,7.391691E-2,1.3364935E-1,4.4612676E-2,3.2245934E-2,3.4886897E-3,1.1600852E-2,3.0581474E-2,7.907629E-3,0E0,1.219058E-2,1.3019443E-2,1.5864134E-2,5.639512E-3,6.037439E-3,5.983472E-3,8.133173E-3,3.5552084E-3,4.328832E-3,2.215743E-3,1.1808395E-2,9.210348E-3,1.3287306E-2,9.6741915E-3,5.4599643E-3,0E0,9.7203255E-3,7.3313713E-3,5.144596E-3,1.5758067E-2,8.0334395E-3,1.3056435E-2,3.4733433E-3,5.834046E-3,1.0499726E-2,4.3225624E-3,2.7369708E-3,2.6205406E-3,6.132096E-3,2.5770515E-3,8.409504E-3,2.5200024E-3,2.2519827E-3,2.0292401E-3,1.16884485E-2,4.178047E-3,0E0,1.0694861E-3,1.9295812E-2,0E0,4.056325E-3,0E0,3.3812307E-2,0E0,0E0,0E0,0E0,0E0,0E0,0E0,0E0,0E0,0E0,0E0,0E0,0E0,0E0,0E0,0E0,0E0,0E0,0E0,0E0,0E0,0E0,0E0,0E0,0E0,0E0,0E0,0E0,0E0,0E0,0E0,0E0,0E0,0E0,0E0,0E0,0E0,0E0,0E0,0E0,0E0,0E0,0E0,0E0,0E0,0E0,0E0,0E0,0E0,0E0],"parents":[2147483647,0,0,1,1,2,2,3,3,4,4,5,5,6,6,7,7,8,8,9,9,10,10,11,11,12,12,13,13,14,14,16,16,17,17,18,18,19,19,20,20,21,21,22,22,23,23,24,24,25,25,26,26,27,27,28,28,29,29,30,30,32,32,33,33,34,34,35,35,36,36,37,37,38,38,39,39,40,40,41,41,42,42,43,43,44,44,45,45,46,46,47,47,48,48,49,49,50,50,51,51,53,53,54,54,56,56,58,58],"right_children":[2,4,6,8,10,12,14,16,18,20,22,24,26,28,30,-1,32,34,36,38,40,42,44,46,48,50,52,54,56,58,60,-1,62,64,66,68,70,72,74,76,78,80,82,84,86,88,90,92,94,96,98,100,-1,102,104,-1,106,-1,108,-1,-1,-1,-1,-1,-1,-1,-1,-1,-1,-1,-1,-1,-1,-1,-1,-1,-1,-1,-1,-1,-1,-1,-1,-1,-1,-1,-1,-1,-1,-1,-1,-1,-1,-1,-1,-1,-1,-1,-1,-1,-1,-1,-1,-1,-1,-1,-1,-1,-1],"split_conditions":[6.976E0,5.9935E0,8.006E0,5.3476E0,6.5188E0,7.367E0,8.635E0,4.837E0,5.653E0,6.2293E0,6.7529E0,7.1317E0,7.632E0,8.3374E0,8.7911E0,-2.8978279E-2,5.1695E0,5.5254E0,5.8032E0,6.0755E0,6.345E0,6.567E0,6.6642E0,7.0208E0,7.254E0,7.632E0,8.1995E0,8.048E0,8.635E0,8.7911E0,8.7911E0,-2.142336E-2,5.157E0,5.2602E0,5.7553E0,5.6605E0,6.0669E0,6.0356E0,6.0112E0,6.1525E0,6.3166E0,6.6914E0,6.5265E0,6.6462E0,6.8759E0,7.0542E0,7.0301E0,7.014E0,7.439E0,7.565E0,7.505E0,7.859E0,-3.300047E-3,8.2565E0,8.093E0,3.9572626E-2,8.525E0,4.5958288E-2,8.733E0,6.167018E-2,3.1100636E-2,-1.1815443E-2,-1.8635763E-2,2.455187E-3,-1.4642579E-2,-1.2082785E-2,5.387664E-3,-4.6435636E-3,-1.0092017E-2,-7.0416937E-3,1.4328003E-3,-1.192689E-3,-6.1940835E-3,-6.9178105E-3,-1.8660906E-3,7.58969E-3,-2.143639E-4,7.795976E-3,1.5505604E-3,3.904144E-3,1.3110152E-2,-3.1346323E-3,6.7485115E-3,1.2245644E-2,2.664342E-2,8.348141E-3,1.140449E-2,1.5450324E-2,6.9941794E-3,4.3634446E-3,1.4176376E-2,3.0323984E-3,2.2130156E-2,9.124517E-3,1.7431261E-2,1.984049E-2,2.523921E-2,-9.036684E-3,1.764845E-2,2.8642783E-2,2.2956198E-2,4.019488E-2,1.0844136E-2,1.9694183E-2,3.2360774E-2,8.9721684E-4,2.247758E-2,3.9965916E-2,7.15828E-4],"split_indices":[1,0,1,2,3,0,1,1,0,0,0,5,0,0,0,0,0,1,1,0,0,0,5,6,1,5,4,5,2,1,6,0,3,1,3,1,4,3,3,5,5,5,1,5,5,2,1,0,6,5,1,6,0,0,2,0,0,0,6,0,0,0,0,0,0,0,0,0,0,0,0,0,0,0,0,0,0,0,0,0,0,0,0,0,0,0,0,0,0,0,0,0,0,0,0,0,0,0,0,0,0,0,0,0,0,0,0,0,0],"split_type":[0,0,0,0,0,0,0,0,0,0,0,0,0,0,0,0,0,0,0,0,0,0,0,0,0,0,0,0,0,0,0,0,0,0,0,0,0,0,0,0,0,0,0,0,0,0,0,0,0,0,0,0,0,0,0,0,0,0,0,0,0,0,0,0,0,0,0,0,0,0,0,0,0,0,0,0,0,0,0,0,0,0,0,0,0,0,0,0,0,0,0,0,0,0,0,0,0,0,0,0,0,0,0,0,0,0,0,0,0],"sum_hessian":[4.952E3,4.099E3,8.53E2,2.319E3,1.78E3,3.87E2,4.66E2,5.81E2,1.738E3,9.12E2,8.68E2,1.36E2,2.51E2,3.87E2,7.9E1,9.7E1,4.84E2,8.49E2,8.89E2,4.86E2,4.26E2,5.79E2,2.89E2,9.7E1,3.9E1,1.16E2,1.35E2,1.93E2,1.94E2,5.8E1,2.1E1,2.32E2,2.52E2,4.83E2,3.66E2,4.63E2,4.26E2,1.96E2,2.9E2,2.12E2,2.14E2,1.27E2,4.52E2,1E1,2.79E2,6.3E1,3.4E1,1.9E1,2E1,9.6E1,2E1,1.34E2,1E0,3E1,1.63E2,1.88E2,6E0,5E1,8E0,1.7E1,4E0,2.8E1,2.24E2,2E0,4.81E2,3.65E2,1E0,5.7E1,4.06E2,4.16E2,1E1,7.9E1,1.17E2,1.2E1,2.78E2,8E0,2.04E2,2.7E1,1.87E2,1.23E2,4E0,2E0,4.5E2,7E0,3E0,1.57E2,1.22E2,5.7E1,6E0,1.5E1,1.9E1,1E0,1.8E1,1.2E1,8E0,6.1E1,3.5E1,1E0,1.9E1,7.8E1,5.6E1,2.9E1,1E0,1.8E1,1.45E2,1E0,5E0,5E0,3E0],"tree_param":{"num_deleted":"0","num_feature":"7","num_nodes":"109","size_leaf_vector":"1"}},{"base_weights":[2.488343E-4,-1.4532909E-2,7.121476E-2,-3.204675E-2,6.617835E-3,4.642265E-2,8.825639E-2,-5.2380685E-2,-2.6421962E-2,-4.7634155E-3,1.6240682E-2,3.082796E-2,5.2279793E-2,8.1305794E-2,1.1011877E-1,-6.8259045E-2,-4.823517E-2,-3.262939E-2,-2.0296628E-2,-9.179263E-3,-7.2302733E-4,1.1607426E-2,2.2042587E-2,4.2818546E-2,2.67936E-2,5.2562103E-2,-2.8293373E-3,7.37691E-2,8.820023E-2,7.626057E-4,1.110089E-1,-8.570365E-2,-1.8806193E-2,-4.7391128E-2,-6.739811E-2,-3.6843512E-2,-2.9719599E-2,-2.2707501E-2,-1.6190741E-2,9.436685E-3,-9.660641E-3,-1.8708056E-4,-3.430782E-2,1.25224115E-2,1.1316607E-2,1.958809E-2,2.1700704E-2,4.7352746E-2,-3.1936963E-3,2.107632E-2,3.3996224E-2,4.827308E-2,5.8918033E-2,7.648434E-2,4.6729565E-2,1.0298275E-1,8.261018E-2,1.0364218E-1,1.3844356E-1,-2.6561216E-2,-4.354334E-3,-1.4341692E-2,-5.631025E-3,-2.2553075E-2,-4.1450504E-3,-1.086315E-2,-2.2059804E-2,-9.129843E-3,-4.6630013E-3,-9.7452884E-4,-7.0166043E-3,-3.9637918E-3,-7.3276456E-3,-3.025044E-3,1.0511542E-2,-1.3311816E-2,3.4796376E-5,-1.10568525E-2,-2.8526546E-3,8.167787E-4,3.733251E-3,5.4574055E-3,7.448735E-3,1.6088756E-2,2.1811724E-3,2.1550655E-3,-3.592229E-3,7.3593757E-3,-6.140864E-3,6.7040924E-4,1.1938567E-2,1.5401689E-2,9.290727E-3,2.0103838E-2,1.3548418E-2,4.6795607E-3,2.3024753E-2,6.979908E-3,2.035984E-2,2.6226998E-3,3.2018192E-2,-5.2433014E-3,2.523029E-2,4.5675416E-2,2.9629227E-2,4.4196922E-2,2.363657E-2],"categories":[],"categories_nodes":[],"categories_segments":[],"categories_sizes":[],"default_left":[0,0,0,0,0,0,0,0,0,0,0,0,0,0,0,0,0,0,0,0,0,0,0,0,0,0,0,0,0,0,0,0,0,0,0,0,0,0,0,0,0,0,0,0,0,0,0,0,0,0,0,0,0,0,0,0,0,0,0,0,0,0,0,0,0,0,0,0,0,0,0,0,0,0,0,0,0,0,0,0,0,0,0,0,0,0,0,0,0,0,0,0,0,0,0,0,0,0,0,0,0,0,0,0,0,0,0],"id":9,"left_children":[1,3,5,7,9,11,13,15,17,19,21,23,25,27,29,31,33,35,37,39,41,43,45,47,49,51,-1,53,55,-1,57,59,-1,61,63,65,67,69,71,-1,73,75,77,-1,79,-1,81,83,85,87,89,91,93,95,97,99,101,103,105,-1,-1,-1,-1,-1,-1,-1,-1,-1,-1,-1,-1,-1,-1,-1,-1,-1,-1,-1,-1,-1,-1,-1,-1,-1,-1,-1,-1,-1,-1,-1,-1,-1,-1,-1,-1,-1,-1,-1,-1,-1,-1,-1,-1,-1,-1,-1,-1],"loss_changes":[5.1967325E0,1.5189784E0,3.5671616E-1,2.5515723E-1,2.035656E-1,3.035742E-2,6.7784786E-2,2.8632164E-2,6.621945E-2,1.5194526E-2,2.6814044E-2,3.5934225E-3,4.9034357E-3,1.3602495E-2,1.111269E-2,4.152715E-3,3.0815601E-3,9.597659E-3,8.422464E-3,8.265089E-3,8.02143E-3,4.452735E-3,5.17796E-3,4.949689E-3,2.4131238E-3,4.0255785E-3,0E0,1.0448933E-2,7.771492E-3,0E0,9.499669E-3,2.951309E-3,0E0,3.551662E-3,4.7964677E-3,5.512476E-3,4.7946274E-3,7.307142E-3,7.81922E-3,0E0,7.970236E-3,5.8973073E-3,9.191688E-5,0E0,5.3733066E-3,0E0,4.422888E-3,4.893124E-3,3.5936572E-4,6.9613606E-3,5.804993E-3,6.686181E-3,7.7751875E-3,1.5763044E-3,8.339636E-3,1.6711414E-2,2.3552775E-2,7.963777E-3,4.6163797E-5,0E0,0E0,0E0,0E0,0E0,0E0,0E0,0E0,0E0,0E0,0E0,0E0,0E0,0E0,0E0,0E0,0E0,0E0,0E0,0E0,0E0,0E0,0E0,0E0,0E0,0E0,0E0,0E0,0E0,0E0,0E0,0E0,0E0,0E0,0E0,0E0,0E0,0E0,0E0,0E0,0E0,0E0,0E0,0E0,0E0,0E0,0E0,0E0],"parents":[2147483647,0,0,1,1,2,2,3,3,4,4,5,5,6,6,7,7,8,8,9,9,10,10,11,11,12,12,13,13,14,14,15,15,16,16,17,17,18,18,19,19,20,20,21,21,22,22,23,23,24,24,25,25,27,27,28,28,30,30,31,31,33,33,34,34,35,35,36,36,37,37,38,38,40,40,41,41,42,42,44,44,46,46,47,47,48,48,49,49,50,50,51,51,52,52,53,53,54,54,55,55,56,56,57,57,58,58],"right_children":[2,4,6,8,10,12,14,16,18,20,22,24,26,28,30,32,34,36,38,40,42,44,46,48,50,52,-1,54,56,-1,58,60,-1,62,64,66,68,70,72,-1,74,76,78,-1,80,-1,82,84,86,88,90,92,94,96,98,100,102,104,106,-1,-1,-1,-1,-1,-1,-1,-1,-1,-1,-1,-1,-1,-1,-1,-1,-1,-1,-1,-1,-1,-1,-1,-1,-1,-1,-1,-1,-1,-1,-1,-1,-1,-1,-1,-1,-1,-1,-1,-1,-1,-1,-1,-1,-1,-1,-1,-1],"split_conditions":[6.976E0,5.9475E0,7.9035E0,5.2694E0,6.387E0,7.1135E0,8.525E0,4.837E0,5.6273E0,6.1525E0,6.6692E0,6.9417E0,8.1995E0,8.28E0,8.28E0,4.726E0,5.2831E0,5.4599E0,5.8122E0,5.8719E0,6.458E0,6.308E0,6.5392E0,7.0542E0,7.0341E0,7.632E0,-2.8293373E-3,8.3374E0,8.3374E0,7.626057E-4,8.7911E0,4.8064E0,-1.8806193E-2,5.3746E0,5.3476E0,5.5489E0,5.6399E0,5.6061E0,5.9082E0,9.436685E-3,6.2293E0,6.0356E0,6.355E0,1.25224115E-2,6.4356E0,1.958809E-2,6.7934E0,7.0535E0,6.9975E0,7.0542E0,6.9975E0,7.593E0,7.7975E0,7.747E0,8.23E0,8.1995E0,8.23E0,8.4555E0,8.7911E0,-2.6561216E-2,-4.354334E-3,-1.4341692E-2,-5.631025E-3,-2.2553075E-2,-4.1450504E-3,-1.086315E-2,-2.2059804E-2,-9.129843E-3,-4.6630013E-3,-9.7452884E-4,-7.0166043E-3,-3.9637918E-3,-7.3276456E-3,-3.025044E-3,1.0511542E-2,-1.3311816E-2,3.4796376E-5,-1.10568525E-2,-2.8526546E-3,8.167787E-4,3.733251E-3,5.4574055E-3,7.448735E-3,1.6088756E-2,2.1811724E-3,2.1550655E-3,-3.592229E-3,7.3593757E-3,-6.140864E-3,6.7040924E-4,1.1938567E-2,1.5401689E-2,9.290727E-3,2.0103838E-2,1.3548418E-2,4.6795607E-3,2.3024753E-2,6.979908E-3,2.035984E-2,2.6226998E-3,3.2018192E-2,-5.2433014E-3,2.523029E-2,4.5675416E-2,2.9629227E-2,4.4196922E-2,2.363657E-2],"split_indices":[1,3,0,5,3,0,5,0,0,1,0,5,6,2,3,0,6,0,0,5,6,6,5,2,5,3,0,6,4,0,0,6,0,0,2,2,1,1,5,0,3,3,1,0,0,0,1,1,0,2,0,4,0,6,1,0,5,0,6,0,0,0,0,0,0,0,0,0,0,0,0,0,0,0,0,0,0,0,0,0,0,0,0,0,0,0,0,0,0,0,0,0,0,0,0,0,0,0,0,0,0,0,0,0,0,0,0],"split_type":[0,0,0,0,0,0,0,0,0,0,0,0,0,0,0,0,0,0,0,0,0,0,0,0,0,0,0,0,0,0,0,0,0,0,0,0,0,0,0,0,0,0,0,0,0,0,0,0,0,0,0,0,0,0,0,0,0,0,0,0,0,0,0,0,0,0,0,0,0,0,0,0,0,0,0,0,0,0,0,0,0,0,0,0,0,0,0,0,0,0,0,0,0,0,0,0,0,0,0,0,0,0,0,0,0,0,0],"sum_hessian":[4.952E3,4.099E3,8.53E2,2.242E3,1.857E3,3.49E2,5.04E2,4.84E2,1.758E3,8.51E2,1.006E3,9.7E1,2.52E2,3.86E2,1.18E2,9.7E1,3.87E2,8.71E2,8.87E2,4.06E2,4.45E2,5.61E2,4.45E2,2.2E1,7.5E1,2.51E2,1E0,1.9E2,1.96E2,1E0,1.17E2,2E1,7.7E1,3.74E2,1.3E1,3.51E2,5.2E2,5.56E2,3.31E2,4E0,4.02E2,4.39E2,6E0,4E0,5.57E2,2E0,4.43E2,2E1,2E0,4.4E1,3.1E1,1.55E2,9.6E1,1.71E2,1.9E1,4.9E1,1.47E2,9.6E1,2.1E1,1.9E1,1E0,3.68E2,6E0,1.1E1,2E0,3.47E2,4E0,4.94E2,2.6E1,1.9E1,5.37E2,2.45E2,8.6E1,3.99E2,3E0,2E0,4.37E2,5E0,1E0,6.5E1,4.92E2,2.12E2,2.31E2,1.7E1,3E0,1E0,1E0,4.1E1,3E0,5E0,2.6E1,1.3E2,2.5E1,5.8E1,3.8E1,1E0,1.7E2,1E1,9E0,2E0,4.7E1,2E0,1.45E2,6E0,9E1,1.7E1,4E0],"tree_param":{"num_deleted":"0","num_feature":"7","num_nodes":"107","size_leaf_vector":"1"}},{"base_weights":[2.1798447E-4,-1.0352959E-2,4.9633566E-2,-2.2906369E-2,4.111749E-3,3.1047372E-2,6.189442E-2,-3.6865156E-2,-1.8912883E-2,-3.6038645E-3,1.1214074E-2,2.4376938E-2,3.7465602E-2,5.9083782E-2,9.363261E-2,-5.294037E-2,-3.4514505E-2,-2.2414394E-2,-1.3836942E-2,-5.676403E-2,-3.3065083E-3,7.993466E-3,1.5125975E-2,4.7833655E-2,2.2958338E-2,4.080166E-2,9.404277E-3,5.3103816E-2,6.634651E-2,5.573149E-2,8.414415E-2,-1.8225688E-2,-1.1319587E-2,-3.907481E-2,-3.18156E-2,-2.2025432E-2,-4.6617474E-2,2.4929523E-2,-1.4437516E-2,-2.1811152E-2,1.0492802E-3,-5.4563205E-3,8.442802E-4,8.321601E-3,-1.1515547E-2,4.253204E-2,1.4268228E-2,5.6357384E-2,-3.053427E-3,1.7507974E-2,2.7366336E-2,3.676502E-2,6.5193E-2,-1.7742062E-2,1.7299742E-2,5.3345393E-2,-1.8183232E-3,4.626784E-2,6.839555E-2,2.0509584E-2,9.509257E-2,-1.1076219E-2,-1.5498326E-2,-7.987247E-3,-1.1552991E-2,-7.233564E-3,-5.5095693E-3,-2.3150051E-2,-5.303145E-3,9.606298E-3,-1.3964177E-3,-1.3491469E-2,-4.2578545E-3,-1.334465E-3,-4.3214154E-3,-1.3451911E-2,3.8595387E-4,2.0811567E-3,3.967673E-3,1.6097102E-2,4.200211E-3,3.6077772E-3,5.6923246E-3,2.017615E-2,4.73361E-3,1.030758E-2,4.4317413E-3,9.368258E-3,3.0560177E-3,2.1462012E-2,1.0471744E-2,5.084944E-3,2.0813739E-2,-9.729624E-3,6.1527016E-3,-8.969307E-3,6.7318254E-3,1.6197586E-2,7.62645E-3,2.088653E-2,1.0178965E-2,2.4181671E-2,1.8600436E-2,1.3403083E-2,-1.8674184E-2,3.632834E-2,2.29762E-2],"categories":[],"categories_nodes":[],"categories_segments":[],"categories_sizes":[],"default_left":[0,0,0,0,0,0,0,0,0,0,0,0,0,0,0,0,0,0,0,0,0,0,0,0,0,0,0,0,0,0,0,0,0,0,0,0,0,0,0,0,0,0,0,0,0,0,0,0,0,0,0,0,0,0,0,0,0,0,0,0,0,0,0,0,0,0,0,0,0,0,0,0,0,0,0,0,0,0,0,0,0,0,0,0,0,0,0,0,0,0,0,0,0,0,0,0,0,0,0,0,0,0,0,0,0,0,0],"id":10,"left_children":[1,3,5,7,9,11,13,15,17,19,21,23,25,27,29,31,33,35,37,39,41,43,45,47,49,51,53,55,57,-1,59,-1,-1,61,63,65,67,69,71,-1,-1,73,75,77,-1,79,81,83,-1,85,87,89,91,93,95,97,-1,99,101,103,105,-1,-1,-1,-1,-1,-1,-1,-1,-1,-1,-1,-1,-1,-1,-1,-1,-1,-1,-1,-1,-1,-1,-1,-1,-1,-1,-1,-1,-1,-1,-1,-1,-1,-1,-1,-1,-1,-1,-1,-1,-1,-1,-1,-1,-1,-1],"loss_changes":[2.5878093E0,7.411278E-1,1.9702005E-1,1.21104E-1,1.03993714E-1,1.4028221E-2,4.130006E-2,1.6499579E-2,2.9922545E-2,1.4197137E-2,1.2326613E-2,4.691787E-3,1.609236E-2,1.7540693E-2,2.0212948E-2,4.8360974E-3,3.9999485E-3,8.434296E-3,1.658757E-2,5.0570816E-3,8.089222E-3,8.598261E-3,9.853981E-3,5.0238986E-3,3.509052E-3,1.3061255E-2,4.593592E-3,4.1967034E-3,5.6809187E-3,0E0,2.52209E-2,0E0,0E0,2.2678524E-3,8.462369E-3,7.1252882E-3,1.1897534E-2,2.4568029E-3,4.494086E-3,0E0,0E0,5.3214133E-3,6.320601E-3,3.58117E-3,0E0,3.3750944E-3,4.3411404E-3,2.4761278E-3,0E0,3.041748E-3,5.651921E-3,6.3604265E-3,3.0650347E-3,3.474694E-3,4.552158E-3,3.50219E-3,0E0,4.264958E-3,1.0070264E-2,1.678112E-2,6.6043735E-3,0E0,0E0,0E0,0E0,0E0,0E0,0E0,0E0,0E0,0E0,0E0,0E0,0E0,0E0,0E0,0E0,0E0,0E0,0E0,0E0,0E0,0E0,0E0,0E0,0E0,0E0,0E0,0E0,0E0,0E0,0E0,0E0,0E0,0E0,0E0,0E0,0E0,0E0,0E0,0E0,0E0,0E0,0E0,0E0,0E0,0E0],"parents":[2147483647,0,0,1,1,2,2,3,3,4,4,5,5,6,6,7,7,8,8,9,9,10,10,11,11,12,12,13,13,14,14,15,15,16,16,17,17,18,18,19,19,20,20,21,21,22,22,23,23,24,24,25,25,26,26,27,27,28,28,30,30,33,33,34,34,35,35,36,36,37,37,38,38,41,41,42,42,43,43,45,45,46,46,47,47,49,49,50,50,51,51,52,52,53,53,54,54,55,55,57,57,58,58,59,59,60,60],"right_children":[2,4,6,8,10,12,14,16,18,20,22,24,26,28,30,32,34,36,38,40,42,44,46,48,50,52,54,56,58,-1,60,-1,-1,62,64,66,68,70,72,-1,-1,74,76,78,-1,80,82,84,-1,86,88,90,92,94,96,98,-1,100,102,104,106,-1,-1,-1,-1,-1,-1,-1,-1,-1,-1,-1,-1,-1,-1,-1,-1,-1,-1,-1,-1,-1,-1,-1,-1,-1,-1,-1,-1,-1,-1,-1,-1,-1,-1,-1,-1,-1,-1,-1,-1,-1,-1,-1,-1,-1,-1],"split_conditions":[6.9587E0,5.9185E0,7.859E0,5.2694E0,6.387E0,7.439E0,8.733E0,4.78E0,5.6706E0,5.7204E0,6.6642E0,6.9255E0,7.7975E0,8.3625E0,8.635E0,4.78E0,5.0719E0,5.7513E0,5.6399E0,5.9745E0,6.218E0,6.8214E0,6.5778E0,7.0542E0,7.0295E0,7.747E0,7.7975E0,8.4335E0,8.3374E0,5.573149E-2,8.733E0,-1.8225688E-2,-1.1319587E-2,5.0809E0,5.1922E0,5.5489E0,5.6061E0,5.6659E0,5.4965E0,-2.1811152E-2,1.0492802E-3,6.1831E0,6.161E0,6.6351E0,-1.1515547E-2,6.6462E0,6.846E0,7.0301E0,-3.053427E-3,6.9614E0,7.439E0,7.439E0,7.673E0,7.7975E0,7.7975E0,8.475E0,-1.8183232E-3,8.3155E0,8.4555E0,8.7911E0,8.687E0,-1.1076219E-2,-1.5498326E-2,-7.987247E-3,-1.1552991E-2,-7.233564E-3,-5.5095693E-3,-2.3150051E-2,-5.303145E-3,9.606298E-3,-1.3964177E-3,-1.3491469E-2,-4.2578545E-3,-1.334465E-3,-4.3214154E-3,-1.3451911E-2,3.8595387E-4,2.0811567E-3,3.967673E-3,1.6097102E-2,4.200211E-3,3.6077772E-3,5.6923246E-3,2.017615E-2,4.73361E-3,1.030758E-2,4.4317413E-3,9.368258E-3,3.0560177E-3,2.1462012E-2,1.0471744E-2,5.084944E-3,2.0813739E-2,-9.729624E-3,6.1527016E-3,-8.969307E-3,6.7318254E-3,1.6197586E-2,7.62645E-3,2.088653E-2,1.0178965E-2,2.4181671E-2,1.8600436E-2,1.3403083E-2,-1.8674184E-2,3.632834E-2,2.29762E-2],"split_indices":[3,0,0,5,3,0,1,0,0,6,2,5,0,0,0,6,1,5,1,0,5,6,5,2,0,0,6,1,3,0,0,0,0,4,6,6,1,3,5,0,0,5,6,0,0,4,6,1,0,5,5,1,4,2,3,4,0,1,2,1,6,0,0,0,0,0,0,0,0,0,0,0,0,0,0,0,0,0,0,0,0,0,0,0,0,0,0,0,0,0,0,0,0,0,0,0,0,0,0,0,0,0,0,0,0,0,0],"split_type":[0,0,0,0,0,0,0,0,0,0,0,0,0,0,0,0,0,0,0,0,0,0,0,0,0,0,0,0,0,0,0,0,0,0,0,0,0,0,0,0,0,0,0,0,0,0,0,0,0,0,0,0,0,0,0,0,0,0,0,0,0,0,0,0,0,0,0,0,0,0,0,0,0,0,0,0,0,0,0,0,0,0,0,0,0,0,0,0,0,0,0,0,0,0,0,0,0,0,0,0,0,0,0,0,0,0,0],"sum_hessian":[4.952E3,4.08E3,8.72E2,2.184E3,1.896E3,3.48E2,5.24E2,4.84E2,1.7E3,9.09E2,9.87E2,1.73E2,1.75E2,4.84E2,4E1,5.9E1,4.25E2,1.004E3,6.96E2,4E0,9.05E2,5.43E2,4.44E2,8E0,1.65E2,1.56E2,1.9E1,2.7E2,2.14E2,2E0,3.8E1,3.7E1,2.2E1,1.53E2,2.72E2,9.9E2,1.4E1,1E1,6.86E2,3E0,1E0,5.96E2,3.09E2,5.4E2,3E0,1.2E1,4.32E2,7E0,1E0,7.6E1,8.9E1,1.36E2,2E1,4E0,1.5E1,2.69E2,1E0,2.2E1,1.92E2,6E0,3.2E1,1.34E2,1.9E1,1.56E2,1.16E2,6.27E2,3.63E2,6E0,8E0,8E0,2E0,4E0,6.82E2,5.37E2,5.9E1,2E0,3.07E2,4.23E2,1.17E2,8E0,4E0,2.95E2,1.37E2,5E0,2E0,9E0,6.7E1,7.2E1,1.7E1,5E0,1.31E2,2E0,1.8E1,3E0,1E0,1E0,1.4E1,2.62E2,7E0,6E0,1.6E1,6.2E1,1.3E2,5E0,1E0,1.1E1,2.1E1],"tree_param":{"num_deleted":"0","num_feature":"7","num_nodes":"107","size_leaf_vector":"1"}},{"base_weights":[1.8587118E-4,-7.4941474E-3,3.4223646E-2,-1.5352005E-2,3.7446367E-3,2.3917107E-2,4.6840448E-2,-2.4975799E-2,-1.2228312E-2,-4.8486213E-4,8.620404E-3,1.5952352E-2,2.8850041E-2,4.2583033E-2,5.974161E-2,-3.285742E-2,-2.203784E-2,-1.5053176E-2,-8.488538E-3,-6.9852243E-4,1.1267453E-2,3.103195E-2,8.4046265E-3,4.3550134E-2,1.4693126E-2,3.0091098E-2,-4.4771037E-3,-1.1819124E-2,4.3510582E-2,6.603193E-2,4.577387E-2,-4.476461E-2,-3.0777212E-2,-2.0986518E-2,-3.6269646E-2,-1.4790957E-2,-4.6473444E-2,2.368784E-2,-8.770026E-3,-2.899218E-3,1.5386887E-3,1.2958975E-2,4.1357675E-4,6.2845265E-3,1.0459351E-2,1.5210629E-2,4.41885E-3,1.5434093E-2,-1.0355234E-2,2.6543023E-2,3.6300868E-2,1.5314293E-2,-1.6287088E-2,-2.1187186E-2,1.3834E-3,7.465207E-2,4.0954012E-2,4.3035172E-2,7.2530195E-2,3.060123E-2,9.992532E-2,-1.4641874E-2,-4.6158317E-3,-8.614877E-3,-1.2388487E-2,-6.669515E-3,-1.2869919E-3,5.4111006E-3,-1.2342244E-2,-4.472509E-3,8.946706E-3,-2.530303E-2,-5.9378627E-3,1.2931824E-4,9.871302E-3,-2.7180961E-3,1.3863845E-3,3.780052E-3,-1.1187702E-3,-9.459925E-3,5.28356E-4,1.8170357E-3,-1.6309262E-3,2.9621075E-3,9.218755E-4,3.9753024E-3,1.853212E-3,3.979417E-3,7.2685312E-3,3.8322688E-3,-5.260792E-3,8.611718E-3,1.8876601E-3,1.1676626E-2,3.0374052E-3,1.7154694E-3,5.9416774E-3,-8.049917E-3,3.0701638E-3,-1.5874386E-3,-7.4165827E-3,1.5760178E-2,3.436297E-2,1.20506E-2,3.959885E-2,1.603487E-2,-1.2521982E-3,2.7340008E-2,1.745654E-2,1.2480103E-2,-1.373806E-2,4.9198534E-2,1.2449513E-2],"categories":[],"categories_nodes":[],"categories_segments":[],"categories_sizes":[],"default_left":[0,0,0,0,0,0,0,0,0,0,0,0,0,0,0,0,0,0,0,0,0,0,0,0,0,0,0,0,0,0,0,0,0,0,0,0,0,0,0,0,0,0,0,0,0,0,0,0,0,0,0,0,0,0,0,0,0,0,0,0,0,0,0,0,0,0,0,0,0,0,0,0,0,0,0,0,0,0,0,0,0,0,0,0,0,0,0,0,0,0,0,0,0,0,0,0,0,0,0,0,0,0,0,0,0,0,0,0,0,0,0,0,0],"id":11,"left_children":[1,3,5,7,9,11,13,15,17,19,21,23,25,27,29,31,33,35,37,39,-1,41,43,45,47,49,51,53,55,57,59,61,63,65,67,69,71,73,75,77,79,-1,81,83,85,-1,-1,87,89,91,93,95,97,99,-1,101,103,105,107,109,111,-1,-1,-1,-1,-1,-1,-1,-1,-1,-1,-1,-1,-1,-1,-1,-1,-1,-1,-1,-1,-1,-1,-1,-1,-1,-1,-1,-1,-1,-1,-1,-1,-1,-1,-1,-1,-1,-1,-1,-1,-1,-1,-1,-1,-1,-1,-1,-1,-1,-1,-1,-1],"loss_changes":[1.295024E0,3.570177E-1,1.1747205E-1,7.121152E-2,3.4319274E-2,1.9341737E-2,1.9920588E-2,1.2752622E-2,1.8866956E-2,7.276666E-3,3.4773424E-3,6.136723E-3,1.2956619E-2,1.6207576E-2,5.675763E-3,2.4863034E-3,5.6276917E-3,7.7411383E-3,7.2361827E-3,4.3764585E-3,0E0,2.5893636E-3,3.2754913E-3,9.0217683E-4,3.649108E-3,5.6242347E-3,3.0542584E-3,1.0212304E-3,2.1305025E-2,6.741643E-3,2.4877258E-2,1.7425381E-3,1.7621815E-3,8.220822E-3,8.149084E-3,5.7662427E-3,6.413741E-3,1.4862386E-3,3.0351877E-3,5.810393E-3,3.3005914E-3,0E0,1.3196548E-4,4.349918E-3,4.5562238E-3,0E0,0E0,3.1699203E-3,1.2205283E-3,8.315906E-3,6.878972E-3,1.02240825E-4,2.512121E-3,9.393471E-5,0E0,1.3393588E-2,1.5075237E-2,8.581229E-3,8.03715E-3,2.5432719E-2,1.9398287E-2,0E0,0E0,0E0,0E0,0E0,0E0,0E0,0E0,0E0,0E0,0E0,0E0,0E0,0E0,0E0,0E0,0E0,0E0,0E0,0E0,0E0,0E0,0E0,0E0,0E0,0E0,0E0,0E0,0E0,0E0,0E0,0E0,0E0,0E0,0E0,0E0,0E0,0E0,0E0,0E0,0E0,0E0,0E0,0E0,0E0,0E0,0E0,0E0,0E0,0E0,0E0,0E0],"parents":[2147483647,0,0,1,1,2,2,3,3,4,4,5,5,6,6,7,7,8,8,9,9,10,10,11,11,12,12,13,13,14,14,15,15,16,16,17,17,18,18,19,19,21,21,22,22,23,23,24,24,25,25,26,26,27,27,28,28,29,29,30,30,31,31,32,32,33,33,34,34,35,35,36,36,37,37,38,38,39,39,40,40,42,42,43,43,44,44,47,47,48,48,49,49,50,50,51,51,52,52,53,53,55,55,56,56,57,57,58,58,59,59,60,60],"right_children":[2,4,6,8,10,12,14,16,18,20,22,24,26,28,30,32,34,36,38,40,-1,42,44,46,48,50,52,54,56,58,60,62,64,66,68,70,72,74,76,78,80,-1,82,84,86,-1,-1,88,90,92,94,96,98,100,-1,102,104,106,108,110,112,-1,-1,-1,-1,-1,-1,-1,-1,-1,-1,-1,-1,-1,-1,-1,-1,-1,-1,-1,-1,-1,-1,-1,-1,-1,-1,-1,-1,-1,-1,-1,-1,-1,-1,-1,-1,-1,-1,-1,-1,-1,-1,-1,-1,-1,-1,-1,-1,-1,-1,-1,-1],"split_conditions":[6.921E0,6.0248E0,8.13E0,5.3476E0,6.5392E0,7.367E0,8.572E0,5.0162E0,5.7061E0,6.6587E0,6.4745E0,6.8091E0,8.169E0,8.048E0,8.733E0,4.726E0,5.3746E0,5.8315E0,5.6605E0,6.2435E0,1.1267453E-2,6.5602E0,6.6692E0,6.9214E0,7.367E0,7.859E0,8.093E0,8.23E0,8.169E0,8.475E0,8.7911E0,4.78E0,4.9936E0,5.3353E0,5.2602E0,5.8239E0,5.8446E0,5.587E0,6.0861E0,5.9861E0,6.1525E0,1.2958975E-2,6.6006E0,6.6059E0,6.8091E0,1.5210629E-2,4.41885E-3,7.126E0,7.367E0,7.7975E0,8.1995E0,8.1995E0,8.169E0,8.048E0,1.3834E-3,8.169E0,8.733E0,8.572E0,8.635E0,8.7911E0,8.7911E0,-1.4641874E-2,-4.6158317E-3,-8.614877E-3,-1.2388487E-2,-6.669515E-3,-1.2869919E-3,5.4111006E-3,-1.2342244E-2,-4.472509E-3,8.946706E-3,-2.530303E-2,-5.9378627E-3,1.2931824E-4,9.871302E-3,-2.7180961E-3,1.3863845E-3,3.780052E-3,-1.1187702E-3,-9.459925E-3,5.28356E-4,1.8170357E-3,-1.6309262E-3,2.9621075E-3,9.218755E-4,3.9753024E-3,1.853212E-3,3.979417E-3,7.2685312E-3,3.8322688E-3,-5.260792E-3,8.611718E-3,1.8876601E-3,1.1676626E-2,3.0374052E-3,1.7154694E-3,5.9416774E-3,-8.049917E-3,3.0701638E-3,-1.5874386E-3,-7.4165827E-3,1.5760178E-2,3.436297E-2,1.20506E-2,3.959885E-2,1.603487E-2,-1.2521982E-3,2.7340008E-2,1.745654E-2,1.2480103E-2,-1.373806E-2,4.9198534E-2,1.2449513E-2],"split_indices":[0,0,2,0,0,2,0,5,0,4,2,3,0,0,6,0,6,6,1,0,0,0,0,1,1,0,5,3,1,6,0,5,5,5,1,6,6,5,4,4,4,0,0,2,2,0,0,3,5,0,5,0,4,1,0,0,1,4,6,1,6,0,0,0,0,0,0,0,0,0,0,0,0,0,0,0,0,0,0,0,0,0,0,0,0,0,0,0,0,0,0,0,0,0,0,0,0,0,0,0,0,0,0,0,0,0,0,0,0,0,0,0,0],"split_type":[0,0,0,0,0,0,0,0,0,0,0,0,0,0,0,0,0,0,0,0,0,0,0,0,0,0,0,0,0,0,0,0,0,0,0,0,0,0,0,0,0,0,0,0,0,0,0,0,0,0,0,0,0,0,0,0,0,0,0,0,0,0,0,0,0,0,0,0,0,0,0,0,0,0,0,0,0,0,0,0,0,0,0,0,0,0,0,0,0,0,0,0,0,0,0,0,0,0,0,0,0,0,0,0,0,0,0,0,0,0,0,0,0],"sum_hessian":[4.952E3,4.041E3,9.11E2,2.378E3,1.663E3,5.03E2,4.08E2,5.81E2,1.797E3,8.91E2,7.72E2,1.94E2,3.09E2,3.1E2,9.8E1,1.55E2,4.26E2,1.022E3,7.75E2,8.87E2,4E0,6E0,7.66E2,7E0,1.87E2,2.98E2,1.1E1,5E0,3.05E2,6.5E1,3.3E1,2E1,1.35E2,3.99E2,2.7E1,1.015E3,7E0,6E0,7.69E2,4.47E2,4.4E2,4E0,2E0,3.79E2,3.87E2,5E0,2E0,1.82E2,5E0,1.93E2,1.05E2,4E0,7E0,3E0,2E0,2.1E1,2.84E2,1.6E1,4.9E1,2.7E1,6E0,1.7E1,3E0,1.16E2,1.9E1,3.71E2,2.8E1,2E0,2.5E1,1.013E3,2E0,2E0,5E0,2E0,4E0,7.53E2,1.6E1,2.2E1,4.25E2,2E0,4.38E2,1E0,1E0,1.78E2,2.01E2,2.33E2,1.54E2,1.48E2,3.4E1,1E0,4E0,1.74E2,1.9E1,9.5E1,1E1,2E0,2E0,5E0,2E0,1E0,2E0,1.5E1,6E0,2.83E2,1E0,1.3E1,3E0,1.9E1,3E1,2.4E1,3E0,2E0,4E0],"tree_param":{"num_deleted":"0","num_feature":"7","num_nodes":"113","size_leaf_vector":"1"}},{"base_weights":[1.7578858E-4,-5.9208227E-3,2.1915523E-2,-1.2014151E-2,4.197449E-4,1.2602588E-2,3.0496085E-2,-1.9755391E-2,-1.0112753E-2,-3.0018992E-3,3.8481648E-3,3.4413166E-2,1.1977931E-2,2.9222097E-2,6.0554244E-2,-3.0108E-2,-1.851224E-2,-9.962016E-3,-5.578356E-2,3.660992E-2,-3.292451E-3,4.1648895E-3,-1.4861345E-2,1.7585278E-2,1.8869638E-2,3.4057335E-3,1.3811085E-2,2.3707353E-2,3.3290576E-2,3.5832815E-2,9.228155E-2,-3.5392094E-2,-1.996985E-2,-1.7160108E-2,-2.663373E-2,-1.0356052E-2,1.401782E-2,-1.8947698E-2,-3.9422754E-3,1.5869737E-2,-9.1687925E-3,-5.4095834E-3,-1.0999433E-3,3.6980943E-3,2.909938E-2,1.2389469E-2,-2.5834015E-2,4.1173524E-3,3.996873E-2,1.3427553E-2,-5.0807092E-3,3.5679996E-2,1.3352924E-2,2.548353E-2,-4.640467E-4,3.432699E-2,-5.185869E-3,-3.7503242E-4,4.5741774E-2,5.877972E-4,1.0332692E-1,-1.0950793E-2,-1.3108492E-3,1.3735772E-3,-7.1411445E-3,-5.4828404E-3,-1.3830406E-3,-7.7700615E-4,-8.810783E-3,-3.0038538E-3,-7.0373868E-3,-7.446099E-4,1.0042346E-2,-1.4662318E-3,-1.0681558E-2,-4.3885116E-4,4.6674013E-3,1.2680901E-3,-7.364904E-3,9.407142E-3,-1.0537148E-3,-1.0501074E-2,1.7522336E-3,2.1936418E-3,-2.2577047E-3,1.4547539E-2,2.1599294E-3,1.4253404E-3,8.168936E-3,4.2633535E-3,-2.8986386E-3,1.2267638E-2,-1.20735174E-4,-6.2294076E-3,4.172481E-3,7.156309E-3,2.1355044E-2,1.0828209E-2,-2.3234177E-3,9.612029E-3,1.6668474E-2,-1.3283873E-2,1.6425349E-2,2.77133E-3,-1.9975663E-3,1.1190892E-3,1.4870969E-2,3.970671E-3,3.4291897E-2],"categories":[],"categories_nodes":[],"categories_segments":[],"categories_sizes":[],"default_left":[0,0,0,0,0,0,0,0,0,0,0,0,0,0,0,0,0,0,0,0,0,0,0,0,0,0,0,0,0,0,0,0,0,0,0,0,0,0,0,0,0,0,0,0,0,0,0,0,0,0,0,0,0,0,0,0,0,0,0,0,0,0,0,0,0,0,0,0,0,0,0,0,0,0,0,0,0,0,0,0,0,0,0,0,0,0,0,0,0,0,0,0,0,0,0,0,0,0,0,0,0,0,0,0,0,0,0,0,0],"id":12,"left_children":[1,3,5,7,9,11,13,15,17,19,21,23,25,27,29,31,33,35,37,39,41,43,45,-1,47,49,51,53,55,57,59,61,63,65,67,69,71,-1,-1,-1,-1,73,75,77,79,-1,81,83,85,87,89,91,93,95,97,99,101,103,105,-1,107,-1,-1,-1,-1,-1,-1,-1,-1,-1,-1,-1,-1,-1,-1,-1,-1,-1,-1,-1,-1,-1,-1,-1,-1,-1,-1,-1,-1,-1,-1,-1,-1,-1,-1,-1,-1,-1,-1,-1,-1,-1,-1,-1,-1,-1,-1,-1,-1],"loss_changes":[6.56594E-1,1.4948447E-1,8.6318314E-2,2.8841138E-2,2.2264943E-2,6.6995993E-3,1.982814E-2,4.4361353E-3,1.0362804E-2,1.1054356E-2,5.679516E-3,4.161019E-3,7.951476E-3,1.1393845E-2,1.3948865E-2,1.4360622E-3,3.3754408E-3,1.5093356E-2,7.425733E-4,9.276048E-3,4.3759374E-3,1.07518565E-2,1.0926426E-2,0E0,2.9480327E-3,7.8077354E-3,3.721729E-3,1.0058075E-2,1.2540042E-2,5.0401054E-3,8.776337E-3,7.018037E-4,1.6148724E-3,4.145585E-3,3.08102E-3,6.7664087E-3,8.42992E-3,0E0,0E0,0E0,0E0,7.393892E-3,2.833714E-3,1.3803264E-2,1.3618413E-3,0E0,4.2706635E-3,3.1540787E-4,7.680394E-4,4.9002934E-3,4.5565213E-3,1.5209885E-3,8.094996E-3,1.4532685E-2,4.804388E-3,1.2885302E-2,2.3512801E-2,3.0311907E-4,1.5841629E-3,0E0,6.4002797E-3,0E0,0E0,0E0,0E0,0E0,0E0,0E0,0E0,0E0,0E0,0E0,0E0,0E0,0E0,0E0,0E0,0E0,0E0,0E0,0E0,0E0,0E0,0E0,0E0,0E0,0E0,0E0,0E0,0E0,0E0,0E0,0E0,0E0,0E0,0E0,0E0,0E0,0E0,0E0,0E0,0E0,0E0,0E0,0E0,0E0,0E0,0E0,0E0],"parents":[2147483647,0,0,1,1,2,2,3,3,4,4,5,5,6,6,7,7,8,8,9,9,10,10,11,11,12,12,13,13,14,14,15,15,16,16,17,17,18,18,19,19,20,20,21,21,22,22,24,24,25,25,26,26,27,27,28,28,29,29,30,30,31,31,32,32,33,33,34,34,35,35,36,36,41,41,42,42,43,43,44,44,46,46,47,47,48,48,49,49,50,50,51,51,52,52,53,53,54,54,55,55,56,56,57,57,58,58,60,60],"right_children":[2,4,6,8,10,12,14,16,18,20,22,24,26,28,30,32,34,36,38,40,42,44,46,-1,48,50,52,54,56,58,60,62,64,66,68,70,72,-1,-1,-1,-1,74,76,78,80,-1,82,84,86,88,90,92,94,96,98,100,102,104,106,-1,108,-1,-1,-1,-1,-1,-1,-1,-1,-1,-1,-1,-1,-1,-1,-1,-1,-1,-1,-1,-1,-1,-1,-1,-1,-1,-1,-1,-1,-1,-1,-1,-1,-1,-1,-1,-1,-1,-1,-1,-1,-1,-1,-1,-1,-1,-1,-1,-1],"split_conditions":[6.7934E0,5.8315E0,7.747E0,5.2094E0,6.2975E0,6.7742E0,8.7911E0,4.7461E0,5.8865E0,5.776E0,6.8195E0,6.7149E0,6.846E0,8.2565E0,8.7911E0,4.7461E0,5.1922E0,5.8571E0,5.8122E0,5.9279E0,6.055E0,6.7934E0,6.6642E0,1.7585278E-2,6.7658E0,6.7742E0,6.8091E0,8.3155E0,8.7911E0,8.635E0,8.635E0,4.837E0,4.726E0,5.1695E0,5.157E0,5.82E0,5.8315E0,-1.8947698E-2,-3.9422754E-3,1.5869737E-2,-9.1687925E-3,6.0927E0,6.355E0,6.8353E0,6.8735E0,1.2389469E-2,6.8735E0,6.7934E0,6.834E0,6.8595E0,6.8195E0,6.9417E0,6.8345E0,8.28E0,8.2565E0,8.733E0,8.7911E0,8.475E0,8.635E0,5.877972E-4,8.7911E0,-1.0950793E-2,-1.3108492E-3,1.3735772E-3,-7.1411445E-3,-5.4828404E-3,-1.3830406E-3,-7.7700615E-4,-8.810783E-3,-3.0038538E-3,-7.0373868E-3,-7.446099E-4,1.0042346E-2,-1.4662318E-3,-1.0681558E-2,-4.3885116E-4,4.6674013E-3,1.2680901E-3,-7.364904E-3,9.407142E-3,-1.0537148E-3,-1.0501074E-2,1.7522336E-3,2.1936418E-3,-2.2577047E-3,1.4547539E-2,2.1599294E-3,1.4253404E-3,8.168936E-3,4.2633535E-3,-2.8986386E-3,1.2267638E-2,-1.20735174E-4,-6.2294076E-3,4.172481E-3,7.156309E-3,2.1355044E-2,1.0828209E-2,-2.3234177E-3,9.612029E-3,1.6668474E-2,-1.3283873E-2,1.6425349E-2,2.77133E-3,-1.9975663E-3,1.1190892E-3,1.4870969E-2,3.970671E-3,3.4291897E-2],"split_indices":[1,4,0,0,4,2,5,0,5,6,3,4,6,5,2,2,3,6,2,0,1,3,0,0,2,6,3,2,4,3,1,5,6,2,6,5,2,0,0,0,0,2,0,6,4,0,4,3,0,2,2,5,3,2,0,0,0,0,0,0,4,0,0,0,0,0,0,0,0,0,0,0,0,0,0,0,0,0,0,0,0,0,0,0,0,0,0,0,0,0,0,0,0,0,0,0,0,0,0,0,0,0,0,0,0,0,0,0,0],"split_type":[0,0,0,0,0,0,0,0,0,0,0,0,0,0,0,0,0,0,0,0,0,0,0,0,0,0,0,0,0,0,0,0,0,0,0,0,0,0,0,0,0,0,0,0,0,0,0,0,0,0,0,0,0,0,0,0,0,0,0,0,0,0,0,0,0,0,0,0,0,0,0,0,0,0,0,0,0,0,0,0,0,0,0,0,0,0,0,0,0,0,0,0,0,0,0,0,0,0,0,0,0,0,0,0,0,0,0,0,0],"sum_hessian":[4.952E3,3.868E3,1.084E3,1.972E3,1.896E3,5.21E2,5.63E2,3.87E2,1.585E3,9.49E2,9.47E2,1.3E1,5.08E2,5.42E2,2.1E1,3.9E1,3.48E2,1.581E3,4E0,6E0,9.43E2,9.32E2,1.5E1,4E0,9E0,9E1,4.18E2,2.33E2,3.09E2,1.3E1,8E0,2.4E1,1.5E1,3.01E2,4.7E1,1.556E3,2.5E1,3E0,1E0,5E0,1E0,4.79E2,4.64E2,9.16E2,1.6E1,2E0,1.3E1,6E0,3E0,4.1E1,4.9E1,7E0,4.11E2,2.17E2,1.6E1,3.01E2,8E0,3E0,1E1,1E0,7E0,2.3E1,1E0,2E0,1.3E1,2.76E2,2.5E1,5E0,4.2E1,1.518E3,3.8E1,1.4E1,1.1E1,4.72E2,7E0,4.55E2,9E0,9E2,1.6E1,1.5E1,1E0,1E1,3E0,5E0,1E0,2E0,1E0,2.6E1,1.5E1,9E0,4E1,6E0,1E0,6E0,4.05E2,2.11E2,6E0,2E0,1.4E1,2.74E2,2.7E1,5E0,3E0,1E0,2E0,1E0,9E0,1E0,6E0],"tree_param":{"num_deleted":"0","num_feature":"7","num_nodes":"109","size_leaf_vector":"1"}},{"base_weights":[1.4815367E-4,-4.969022E-3,1.3203264E-2,-9.157313E-3,-1.0467716E-3,6.5110493E-3,2.0646093E-2,-1.1965631E-2,-6.515596E-3,-3.374807E-3,8.7581977E-4,2.6946157E-2,6.048535E-3,1.8239602E-2,2.9616736E-2,-1.771046E-2,-1.081928E-2,-6.304714E-3,-4.2538643E-2,2.1782637E-2,-3.6146673E-3,1.0638887E-3,-1.7999839E-2,3.6339857E-2,9.677137E-3,-1.879767E-2,6.283325E-3,2.554865E-2,1.7819243E-2,-1.2895902E-2,3.2332096E-2,-1.8968698E-2,-8.338292E-3,-3.5710274E-3,-1.172686E-2,-6.5118507E-3,2.5126139E-2,-1.8267203E-2,-3.0021193E-3,-2.6088953E-3,3.6939334E-2,-2.5753148E-3,-8.681675E-3,1.1944479E-3,-2.5130177E-2,-8.618696E-3,-2.9916883E-2,1.8325568E-3,3.9020166E-2,-1.0437329E-2,1.981039E-2,3.821826E-3,-2.6177088E-2,6.0340185E-3,2.7561545E-2,-7.8183655E-3,1.8285174E-2,1.5456994E-2,-1.5660383E-2,6.1323505E-2,2.8586697E-2,-4.503944E-3,-7.78718E-3,1.9598962E-3,-6.266585E-3,-2.147401E-3,5.7761194E-3,-6.2146042E-3,-3.1739932E-3,-1.8403329E-3,-9.989954E-3,1.4758683E-2,2.3775101E-4,6.26421E-4,-2.5049688E-3,1.2977172E-2,1.7501593E-3,-1.0693233E-3,2.458699E-3,-1.2314529E-2,-2.2283657E-3,1.0789674E-4,2.149516E-3,-2.584219E-4,-9.294606E-3,-6.017209E-4,-3.25882E-3,-1.0235739E-2,-2.5965215E-3,5.434263E-3,1.3936235E-2,-7.738352E-4,-3.9229635E-3,8.942628E-3,-3.027463E-3,-9.502116E-3,1.9590855E-4,1.9679177E-3,-1.2785953E-3,1.4545298E-2,-1.6446948E-3,-1.939812E-2,4.342407E-3,1.3030064E-2,5.2938964E-3,-8.381367E-4,1.0391713E-2,5.0388337E-3,2.5258414E-2,2.1685123E-2,7.6720472E-3],"categories":[],"categories_nodes":[],"categories_segments":[],"categories_sizes":[],"default_left":[0,0,0,0,0,0,0,0,0,0,0,0,0,0,0,0,0,0,0,0,0,0,0,0,0,0,0,0,0,0,0,0,0,0,0,0,0,0,0,0,0,0,0,0,0,0,0,0,0,0,0,0,0,0,0,0,0,0,0,0,0,0,0,0,0,0,0,0,0,0,0,0,0,0,0,0,0,0,0,0,0,0,0,0,0,0,0,0,0,0,0,0,0,0,0,0,0,0,0,0,0,0,0,0,0,0,0,0,0,0,0],"id":13,"left_children":[1,3,5,7,9,11,13,15,17,19,21,23,25,27,29,31,33,35,37,39,41,43,45,47,49,51,53,-1,55,57,59,61,63,65,67,69,71,-1,-1,73,75,77,79,81,83,85,87,-1,89,91,93,-1,95,97,99,101,103,105,-1,107,109,-1,-1,-1,-1,-1,-1,-1,-1,-1,-1,-1,-1,-1,-1,-1,-1,-1,-1,-1,-1,-1,-1,-1,-1,-1,-1,-1,-1,-1,-1,-1,-1,-1,-1,-1,-1,-1,-1,-1,-1,-1,-1,-1,-1,-1,-1,-1,-1,-1,-1],"loss_changes":[3.3095223E-1,5.8455974E-2,6.934914E-2,1.2689769E-2,8.234063E-3,6.7933407E-3,1.3707727E-2,5.2941814E-3,6.4852014E-3,5.099251E-3,3.5974726E-3,2.2438532E-3,4.324168E-3,1.3195261E-2,1.6347274E-2,1.4573932E-3,4.5432597E-3,5.9253983E-3,2.3757666E-3,3.0539318E-3,4.3224283E-3,3.4464737E-3,8.601104E-4,5.7193823E-4,1.6335427E-3,1.9625581E-3,3.6266241E-3,0E0,6.366506E-3,1.0836665E-2,1.2362942E-2,2.927538E-3,3.4959733E-3,6.605695E-3,6.1619356E-3,8.692533E-3,3.4751988E-3,0E0,0E0,1.2529628E-4,7.3024957E-4,7.3375353E-3,5.3764544E-3,4.9567157E-3,6.8339705E-4,8.209032E-5,6.208592E-5,0E0,5.572438E-4,2.8485607E-5,1.7956691E-3,0E0,9.0553565E-4,3.8601328E-3,5.7967626E-3,1.3607764E-2,7.459417E-3,2.1972982E-3,0E0,1.2843385E-2,1.3556629E-2,0E0,0E0,0E0,0E0,0E0,0E0,0E0,0E0,0E0,0E0,0E0,0E0,0E0,0E0,0E0,0E0,0E0,0E0,0E0,0E0,0E0,0E0,0E0,0E0,0E0,0E0,0E0,0E0,0E0,0E0,0E0,0E0,0E0,0E0,0E0,0E0,0E0,0E0,0E0,0E0,0E0,0E0,0E0,0E0,0E0,0E0,0E0,0E0,0E0,0E0],"parents":[2147483647,0,0,1,1,2,2,3,3,4,4,5,5,6,6,7,7,8,8,9,9,10,10,11,11,12,12,13,13,14,14,15,15,16,16,17,17,18,18,19,19,20,20,21,21,22,22,23,23,24,24,25,25,26,26,28,28,29,29,30,30,31,31,32,32,33,33,34,34,35,35,36,36,39,39,40,40,41,41,42,42,43,43,44,44,45,45,46,46,48,48,49,49,50,50,52,52,53,53,54,54,55,55,56,56,57,57,59,59,60,60],"right_children":[2,4,6,8,10,12,14,16,18,20,22,24,26,28,30,32,34,36,38,40,42,44,46,48,50,52,54,-1,56,58,60,62,64,66,68,70,72,-1,-1,74,76,78,80,82,84,86,88,-1,90,92,94,-1,96,98,100,102,104,106,-1,108,110,-1,-1,-1,-1,-1,-1,-1,-1,-1,-1,-1,-1,-1,-1,-1,-1,-1,-1,-1,-1,-1,-1,-1,-1,-1,-1,-1,-1,-1,-1,-1,-1,-1,-1,-1,-1,-1,-1,-1,-1,-1,-1,-1,-1,-1,-1,-1,-1,-1,-1],"split_conditions":[6.6404E0,5.745E0,7.545E0,5.4599E0,6.0927E0,6.5778E0,8.4935E0,4.9936E0,5.8719E0,5.5714E0,6.6757E0,6.6914E0,6.5922E0,7.439E0,8.4335E0,4.9936E0,5.0719E0,5.82E0,5.7553E0,5.7339E0,6.0431E0,6.7529E0,6.6137E0,6.6285E0,6.6914E0,6.6462E0,7.565E0,2.554865E-2,7.505E0,8.41E0,8.525E0,4.8064E0,4.9337E0,5.092E0,5.1111E0,5.8315E0,5.7986E0,-1.8267203E-2,-3.0021193E-3,5.7553E0,5.9082E0,6.0112E0,5.9935E0,6.6137E0,6.5472E0,6.5525E0,6.6642E0,1.8325568E-3,6.5778E0,6.6692E0,6.7529E0,3.821826E-3,6.7398E0,7.439E0,7.593E0,7.545E0,7.545E0,8.3625E0,-1.5660383E-2,8.475E0,8.4555E0,-4.503944E-3,-7.78718E-3,1.9598962E-3,-6.266585E-3,-2.147401E-3,5.7761194E-3,-6.2146042E-3,-3.1739932E-3,-1.8403329E-3,-9.989954E-3,1.4758683E-2,2.3775101E-4,6.26421E-4,-2.5049688E-3,1.2977172E-2,1.7501593E-3,-1.0693233E-3,2.458699E-3,-1.2314529E-2,-2.2283657E-3,1.0789674E-4,2.149516E-3,-2.584219E-4,-9.294606E-3,-6.017209E-4,-3.25882E-3,-1.0235739E-2,-2.5965215E-3,5.434263E-3,1.3936235E-2,-7.738352E-4,-3.9229635E-3,8.942628E-3,-3.027463E-3,-9.502116E-3,1.9590855E-4,1.9679177E-3,-1.2785953E-3,1.4545298E-2,-1.6446948E-3,-1.939812E-2,4.342407E-3,1.3030064E-2,5.2938964E-3,-8.381367E-4,1.0391713E-2,5.0388337E-3,2.5258414E-2,2.1685123E-2,7.6720472E-3],"split_indices":[2,0,5,0,4,5,6,0,5,6,1,3,3,2,3,6,4,2,1,1,3,5,3,0,1,2,4,0,1,3,6,4,0,1,0,6,4,0,0,0,0,3,2,6,0,6,0,0,3,0,2,0,0,4,0,4,4,3,0,0,0,0,0,0,0,0,0,0,0,0,0,0,0,0,0,0,0,0,0,0,0,0,0,0,0,0,0,0,0,0,0,0,0,0,0,0,0,0,0,0,0,0,0,0,0,0,0,0,0,0,0],"split_type":[0,0,0,0,0,0,0,0,0,0,0,0,0,0,0,0,0,0,0,0,0,0,0,0,0,0,0,0,0,0,0,0,0,0,0,0,0,0,0,0,0,0,0,0,0,0,0,0,0,0,0,0,0,0,0,0,0,0,0,0,0,0,0,0,0,0,0,0,0,0,0,0,0,0,0,0,0,0,0,0,0,0,0,0,0,0,0,0,0,0,0,0,0,0,0,0,0,0,0,0,0,0,0,0,0,0,0,0,0,0,0],"sum_hessian":[4.952E3,3.558E3,1.394E3,1.72E3,1.838E3,7.35E2,6.59E2,8.32E2,8.88E2,8.31E2,1.007E3,1.5E1,7.2E2,5.22E2,1.37E2,1.36E2,6.96E2,8.84E2,4E0,7E0,8.24E2,9.98E2,9E0,9E0,6E0,6E0,7.14E2,2E0,5.2E2,8E0,1.29E2,1.19E2,1.7E1,7.8E1,6.18E2,8.79E2,5E0,2E0,2E0,3E0,4E0,6.85E2,1.39E2,9.94E2,4E0,6E0,3E0,1E0,8E0,2E0,4E0,1E0,5E0,7.07E2,7E0,9E0,5.11E2,5E0,3E0,1.3E1,1.16E2,7.8E1,4.1E1,8E0,9E0,6.8E1,1E1,6.8E1,5.5E2,8.68E2,1.1E1,2E0,3E0,2E0,1E0,3E0,1E0,6.28E2,5.7E1,4E0,1.35E2,8.73E2,1.21E2,1E0,3E0,2E0,4E0,2E0,1E0,3E0,5E0,1E0,1E0,3E0,1E0,4E0,1E0,6.73E2,3.4E1,4E0,3E0,2E0,7E0,1.1E1,5E2,3E0,2E0,5E0,8E0,6E0,1.1E2],"tree_param":{"num_deleted":"0","num_feature":"7","num_nodes":"111","size_leaf_vector":"1"}},{"base_weights":[1.13411385E-4,-2.56418E-3,1.2968225E-2,-5.258099E-3,1.550482E-3,9.5142685E-3,1.8396942E-2,-8.155337E-3,-3.457618E-3,1.6665282E-3,-2.2084653E-2,1.0421866E-2,-1.8166542E-2,-7.8176416E-4,1.9764947E-2,-8.010843E-3,-5.1048756E-2,-3.0566123E-3,-1.3231309E-2,1.1670485E-4,3.6490008E-3,2.3859502E-3,-4.169798E-2,9.291159E-3,5.2761003E-2,3.3320426E-3,-4.2768955E-2,9.853458E-3,-5.5483407E-3,3.8420867E-2,1.6522376E-2,-8.185868E-3,2.0803213E-2,-2.4238372E-2,1.2664319E-3,-2.9045835E-3,-3.0495822E-2,-2.6378017E-3,-2.373689E-2,3.1565197E-4,-1.3477278E-2,-1.2188825E-2,3.8930166E-3,-3.3839466E-3,-1.3944769E-2,1.0489211E-2,-1.1108058E-2,-6.8028766E-4,6.253945E-2,-1.2103272E-2,1.2667656E-2,-2.0840265E-2,-1.2856293E-2,-2.1789657E-2,6.1224424E-3,-4.035044E-3,3.990544E-2,3.024084E-3,1.9962583E-2,-4.8033833E-3,-2.293458E-3,1.3494111E-2,-7.591367E-4,-1.0409018E-3,2.195826E-3,-1.4907074E-2,-2.7123357E-3,-1.264E-2,2.494812E-5,-8.487151E-3,3.8802626E-3,3.345249E-5,7.946532E-3,-5.4884437E-3,3.057623E-3,2.8342435E-3,9.540424E-4,2.7007526E-3,1.2086132E-2,9.243965E-3,-6.4683254E-3,-3.8412095E-3,3.53508E-3,1.1090279E-2,2.3306418E-2,-2.9752732E-3,6.1612134E-3,-6.2498334E-3,2.8574467E-3,2.3923875E-3,-9.429891E-3,1.1246681E-2,-2.1109201E-3,-2.6919367E-3,1.23752495E-2,3.9320174E-3,-9.167642E-3,1.6550876E-2,5.652069E-3],"categories":[],"categories_nodes":[],"categories_segments":[],"categories_sizes":[],"default_left":[0,0,0,0,0,0,0,0,0,0,0,0,0,0,0,0,0,0,0,0,0,0,0,0,0,0,0,0,0,0,0,0,0,0,0,0,0,0,0,0,0,0,0,0,0,0,0,0,0,0,0,0,0,0,0,0,0,0,0,0,0,0,0,0,0,0,0,0,0,0,0,0,0,0,0,0,0,0,0,0,0,0,0,0,0,0,0,0,0,0,0,0,0,0,0,0,0,0,0],"id":14,"left_children":[1,3,5,7,9,11,13,15,17,19,21,23,25,27,29,31,33,35,37,39,41,-1,43,45,47,49,51,-1,53,55,57,59,61,-1,-1,63,65,67,69,71,-1,73,75,-1,-1,77,79,81,83,-1,85,-1,87,89,91,-1,93,95,97,-1,-1,-1,-1,-1,-1,-1,-1,-1,-1,-1,-1,-1,-1,-1,-1,-1,-1,-1,-1,-1,-1,-1,-1,-1,-1,-1,-1,-1,-1,-1,-1,-1,-1,-1,-1,-1,-1,-1,-1],"loss_changes":[1.7051521E-1,4.5454875E-2,1.5837952E-2,1.2898102E-2,4.4883154E-3,1.3353799E-2,8.699745E-3,5.472794E-3,5.956093E-3,4.964706E-3,5.044764E-3,2.3829356E-2,9.134098E-3,3.8687636E-3,1.8057577E-2,4.9461797E-3,5.2732397E-3,6.047777E-3,6.6148425E-3,8.15056E-3,2.78751E-3,0E0,2.033757E-4,1.2238432E-2,6.835986E-3,4.5885155E-3,5.4959124E-3,0E0,4.113932E-3,4.0020198E-3,1.2245417E-2,3.8656667E-3,3.4986713E-3,0E0,0E0,8.483618E-3,2.8452296E-3,3.3349446E-3,5.375495E-3,4.83247E-3,0E0,1.6896941E-3,2.737742E-3,0E0,0E0,2.0414293E-2,1.2934083E-2,6.042045E-4,1.3892166E-3,0E0,1.8033362E-3,0E0,1.0910415E-3,2.8339024E-3,5.6294953E-3,0E0,3.2636225E-3,1.9023756E-2,7.2981864E-3,0E0,0E0,0E0,0E0,0E0,0E0,0E0,0E0,0E0,0E0,0E0,0E0,0E0,0E0,0E0,0E0,0E0,0E0,0E0,0E0,0E0,0E0,0E0,0E0,0E0,0E0,0E0,0E0,0E0,0E0,0E0,0E0,0E0,0E0,0E0,0E0,0E0,0E0,0E0,0E0],"parents":[2147483647,0,0,1,1,2,2,3,3,4,4,5,5,6,6,7,7,8,8,9,9,10,10,11,11,12,12,13,13,14,14,15,15,16,16,17,17,18,18,19,19,20,20,22,22,23,23,24,24,25,25,26,26,28,28,29,29,30,30,31,31,32,32,35,35,36,36,37,37,38,38,39,39,41,41,42,42,45,45,46,46,47,47,48,48,50,50,52,52,53,53,54,54,56,56,57,57,58,58],"right_children":[2,4,6,8,10,12,14,16,18,20,22,24,26,28,30,32,34,36,38,40,42,-1,44,46,48,50,52,-1,54,56,58,60,62,-1,-1,64,66,68,70,72,-1,74,76,-1,-1,78,80,82,84,-1,86,-1,88,90,92,-1,94,96,98,-1,-1,-1,-1,-1,-1,-1,-1,-1,-1,-1,-1,-1,-1,-1,-1,-1,-1,-1,-1,-1,-1,-1,-1,-1,-1,-1,-1,-1,-1,-1,-1,-1,-1,-1,-1,-1,-1,-1,-1],"split_conditions":[6.9777E0,6.062E0,8.2565E0,5.4912E0,7.0341E0,8.2565E0,8.23E0,5.5489E0,6.048E0,6.5778E0,6.9214E0,8.23E0,8.2565E0,8.2565E0,8.3374E0,5.5254E0,5.397E0,6.1055E0,6.0431E0,6.6523E0,6.5188E0,2.3859502E-3,6.94E0,8.1995E0,8.13E0,8.169E0,8.28E0,9.853458E-3,8.3155E0,8.1995E0,8.41E0,4.78E0,5.4553E0,-2.4238372E-2,1.2664319E-3,6.0248E0,6.1413E0,5.8865E0,6.1413E0,6.6914E0,-1.3477278E-2,6.5392E0,6.5778E0,-3.3839466E-3,-1.3944769E-2,8.169E0,8.13E0,8.13E0,8.23E0,-1.2103272E-2,8.048E0,-2.0840265E-2,8.3374E0,8.169E0,8.28E0,-4.035044E-3,8.169E0,8.4555E0,8.28E0,-4.8033833E-3,-2.293458E-3,1.3494111E-2,-7.591367E-4,-1.0409018E-3,2.195826E-3,-1.4907074E-2,-2.7123357E-3,-1.264E-2,2.494812E-5,-8.487151E-3,3.8802626E-3,3.345249E-5,7.946532E-3,-5.4884437E-3,3.057623E-3,2.8342435E-3,9.540424E-4,2.7007526E-3,1.2086132E-2,9.243965E-3,-6.4683254E-3,-3.8412095E-3,3.53508E-3,1.1090279E-2,2.3306418E-2,-2.9752732E-3,6.1612134E-3,-6.2498334E-3,2.8574467E-3,2.3923875E-3,-9.429891E-3,1.1246681E-2,-2.1109201E-3,-2.6919367E-3,1.23752495E-2,3.9320174E-3,-9.167642E-3,1.6550876E-2,5.652069E-3],"split_indices":[2,4,1,1,5,0,5,2,3,0,1,0,3,0,4,2,0,1,6,1,4,0,1,2,2,1,0,0,0,2,5,5,1,0,0,0,0,6,2,5,0,5,5,0,0,3,6,1,5,0,6,0,2,4,1,0,0,2,0,0,0,0,0,0,0,0,0,0,0,0,0,0,0,0,0,0,0,0,0,0,0,0,0,0,0,0,0,0,0,0,0,0,0,0,0,0,0,0,0],"split_type":[0,0,0,0,0,0,0,0,0,0,0,0,0,0,0,0,0,0,0,0,0,0,0,0,0,0,0,0,0,0,0,0,0,0,0,0,0,0,0,0,0,0,0,0,0,0,0,0,0,0,0,0,0,0,0,0,0,0,0,0,0,0,0,0,0,0,0,0,0,0,0,0,0,0,0,0,0,0,0,0,0,0,0,0,0,0,0,0,0,0,0,0,0,0,0,0,0,0,0],"sum_hessian":[4.952E3,4.099E3,8.53E2,2.477E3,1.622E3,5.23E2,3.3E2,9.48E2,1.529E3,1.615E3,7E0,5.07E2,1.6E1,2.2E1,3.08E2,9.46E2,2E0,1.47E3,5.9E1,9.07E2,7.08E2,3E0,4E0,4.95E2,1.2E1,9E0,7E0,2E0,2E1,4.4E1,2.64E2,9.41E2,5E0,1E0,1E0,1.463E3,7E0,3E1,2.9E1,9.04E2,3E0,1E1,6.98E2,1E0,3E0,4.68E2,2.7E1,2E0,1E1,1E0,8E0,3E0,4E0,8E0,1.2E1,1E0,4.3E1,5.4E1,2.1E2,5.9E1,8.82E2,2E0,3E0,1.387E3,7.6E1,3E0,4E0,1E0,2.9E1,2.6E1,3E0,8.98E2,6E0,8E0,2E0,7.8E1,6.2E2,4.47E2,2.1E1,5E0,2.2E1,1E0,1E0,5E0,5E0,2E0,6E0,3E0,1E0,2E0,6E0,3E0,9E0,1E0,4.2E1,4.2E1,1.2E1,5E0,2.05E2],"tree_param":{"num_deleted":"0","num_feature":"7","num_nodes":"99","size_leaf_vector":"1"}},{"base_weights":[7.596315E-5,-2.2892468E-3,7.4669346E-3,-5.079627E-3,-6.021155E-4,4.9138633E-3,1.2398765E-2,-4.828449E-3,-4.862064E-2,-5.3067715E-4,-1.682272E-2,5.3755655E-3,-1.231516E-2,6.801224E-2,1.1958374E-2,-5.0817872E-3,9.981911E-3,3.9013627E-3,-5.928203E-2,-1.657157E-2,-4.6019154E-4,5.038064E-3,3.3465914E-2,7.942359E-3,-2.5392275E-2,4.2497637E-3,2.6355745E-2,1.081639E-2,3.145144E-2,-4.8794025E-3,-2.453804E-2,3.8540076E-2,2.3432733E-3,-3.0333998E-3,-6.579193E-2,1.5383864E-2,-5.264979E-4,-1.0858962E-2,5.4356614E-3,4.7836304E-3,5.5455018E-2,-3.1588078E-2,9.891678E-3,1.0505534E-2,-3.3344705E-2,1.1910677E-2,-8.770534E-3,1.4515604E-2,5.4301474E-2,-1.504E-3,9.81391E-3,2.2716047E-3,-9.156215E-3,1.4265705E-2,3.7364961E-4,-2.2665435E-3,6.541607E-3,-2.6185846E-2,-9.966982E-3,6.05793E-3,-1.8730252E-4,2.0074656E-3,-1.8401613E-2,3.7621714E-3,1.3622128E-3,-5.3033354E-3,7.6951506E-3,1.8839264E-2,3.9127353E-3,-1.2298489E-2,-5.051136E-4,-1.0948524E-2,1.9640924E-4,2.8968896E-3,6.660488E-3,-5.497109E-3,1.6396904E-2,3.2572748E-4,8.337103E-3,2.998457E-2,8.094325E-3],"categories":[],"categories_nodes":[],"categories_segments":[],"categories_sizes":[],"default_left":[0,0,0,0,0,0,0,0,0,0,0,0,0,0,0,0,0,0,0,0,0,0,0,0,0,0,0,0,0,0,0,0,0,0,0,0,0,0,0,0,0,0,0,0,0,0,0,0,0,0,0,0,0,0,0,0,0,0,0,0,0,0,0,0,0,0,0,0,0,0,0,0,0,0,0,0,0,0,0,0,0],"id":15,"left_children":[1,3,5,7,9,11,13,15,17,19,-1,21,23,25,27,29,31,-1,33,-1,35,37,39,41,43,-1,-1,45,47,49,51,53,55,-1,57,-1,59,61,63,65,67,69,-1,-1,71,73,75,77,79,-1,-1,-1,-1,-1,-1,-1,-1,-1,-1,-1,-1,-1,-1,-1,-1,-1,-1,-1,-1,-1,-1,-1,-1,-1,-1,-1,-1,-1,-1,-1,-1],"loss_changes":[8.660147E-2,1.766508E-2,1.5061244E-2,1.5229527E-2,9.243536E-3,6.3742567E-3,9.203784E-3,5.3298324E-3,6.027017E-3,8.990183E-3,0E0,7.1598534E-3,5.764783E-3,1.9604675E-3,8.71994E-3,5.3299703E-3,5.145182E-3,0E0,1.5754271E-3,0E0,8.041051E-3,4.8942994E-3,5.411003E-3,9.946515E-3,7.4130353E-3,0E0,0E0,8.37788E-3,7.72544E-3,7.066667E-3,2.9205605E-3,1.6213176E-3,4.0176185E-3,0E0,1.3002958E-3,0E0,4.744291E-3,1.7243415E-2,4.692897E-3,2.7969412E-3,7.380424E-4,1.0562041E-3,0E0,0E0,1.3092225E-3,8.276697E-3,1.3725981E-2,2.465714E-3,8.5271485E-3,0E0,0E0,0E0,0E0,0E0,0E0,0E0,0E0,0E0,0E0,0E0,0E0,0E0,0E0,0E0,0E0,0E0,0E0,0E0,0E0,0E0,0E0,0E0,0E0,0E0,0E0,0E0,0E0,0E0,0E0,0E0,0E0],"parents":[2147483647,0,0,1,1,2,2,3,3,4,4,5,5,6,6,7,7,8,8,9,9,11,11,12,12,13,13,14,14,15,15,16,16,18,18,20,20,21,21,22,22,23,23,24,24,27,27,28,28,29,29,30,30,31,31,32,32,34,34,36,36,37,37,38,38,39,39,40,40,41,41,44,44,45,45,46,46,47,47,48,48],"right_children":[2,4,6,8,10,12,14,16,18,20,-1,22,24,26,28,30,32,-1,34,-1,36,38,40,42,44,-1,-1,46,48,50,52,54,56,-1,58,-1,60,62,64,66,68,70,-1,-1,72,74,76,78,80,-1,-1,-1,-1,-1,-1,-1,-1,-1,-1,-1,-1,-1,-1,-1,-1,-1,-1,-1,-1,-1,-1,-1,-1,-1,-1,-1,-1,-1,-1,-1,-1],"split_conditions":[6.7149E0,5.6455E0,8.13E0,5.7111E0,6.7934E0,8.13E0,7.956E0,5.6762E0,5.435E0,5.5254E0,-1.682272E-2,8.093E0,8.048E0,8.1995E0,8.7911E0,5.6605E0,5.6399E0,3.9013627E-3,5.6951E0,-1.657157E-2,5.5381E0,6.6849E0,8.093E0,8.006E0,8.048E0,4.2497637E-3,2.6355745E-2,8.733E0,8.7911E0,5.653E0,5.567E0,5.6901E0,5.653E0,-3.0333998E-3,5.7274E0,1.5383864E-2,5.62E0,6.7529E0,6.7742E0,8.093E0,8.169E0,8.093E0,9.891678E-3,1.0505534E-2,8.169E0,8.572E0,8.7911E0,8.687E0,8.635E0,-1.504E-3,9.81391E-3,2.2716047E-3,-9.156215E-3,1.4265705E-2,3.7364961E-4,-2.2665435E-3,6.541607E-3,-2.6185846E-2,-9.966982E-3,6.05793E-3,-1.8730252E-4,2.0074656E-3,-1.8401613E-2,3.7621714E-3,1.3622128E-3,-5.3033354E-3,7.6951506E-3,1.8839264E-2,3.9127353E-3,-1.2298489E-2,-5.051136E-4,-1.0948524E-2,1.9640924E-4,2.8968896E-3,6.660488E-3,-5.497109E-3,1.6396904E-2,3.2572748E-4,8.337103E-3,2.998457E-2,8.094325E-3],"split_indices":[6,2,2,4,4,4,6,0,2,4,0,4,0,0,5,1,1,0,5,0,5,4,1,1,5,0,0,6,2,1,4,0,5,0,4,0,3,5,4,5,3,3,0,0,1,0,0,0,0,0,0,0,0,0,0,0,0,0,0,0,0,0,0,0,0,0,0,0,0,0,0,0,0,0,0,0,0,0,0,0,0],"split_type":[0,0,0,0,0,0,0,0,0,0,0,0,0,0,0,0,0,0,0,0,0,0,0,0,0,0,0,0,0,0,0,0,0,0,0,0,0,0,0,0,0,0,0,0,0,0,0,0,0,0,0,0,0,0,0,0,0,0,0,0,0,0,0,0,0,0,0,0,0,0,0,0,0,0,0,0,0,0,0,0,0],"sum_hessian":[4.952E3,3.752E3,1.2E3,1.413E3,2.339E3,7.92E2,4.08E2,1.406E3,7E0,2.337E3,2E0,7.72E2,2E1,2E0,4.06E2,1.383E3,2.3E1,1E0,6E0,2E0,2.335E3,7.64E2,8E0,8E0,1.2E1,1E0,1E0,3.85E2,2.1E1,1.37E3,1.3E1,4E0,1.9E1,1E0,5E0,2E0,2.333E3,1.8E1,7.46E2,4E0,4E0,3E0,5E0,1E0,1.1E1,3.65E2,2E1,1.3E1,8E0,1.366E3,4E0,2E0,1.1E1,3E0,1E0,1.3E1,6E0,2E0,3E0,1E1,2.323E3,1.4E1,4E0,8.2E1,6.64E2,2E0,2E0,3E0,1E0,2E0,1E0,1E1,1E0,3.01E2,6.4E1,1.8E1,2E0,7E0,6E0,2E0,6E0],"tree_param":{"num_deleted":"0","num_feature":"7","num_nodes":"81","size_leaf_vector":"1"}},{"base_weights":[6.960831E-5,-1.2622712E-3,7.4537946E-3,-3.0365963E-3,6.332947E-4,6.9448827E-3,2.41404E-2,-7.6259254E-3,-2.6794318E-3,3.1046186E-2,5.277989E-4,7.272251E-3,-1.5292775E-2,-8.221435E-3,3.1788666E-2,-5.938704E-3,-1.8802095E-2,-2.6025856E-3,-2.4329593E-2,-1.3582706E-2,2.037406E-2,1.2816763E-2,4.0495247E-4,6.6434136E-3,1.4823272E-2,-4.8394065E-2,3.410759E-2,-6.5612793E-4,-3.9138794E-3,1.5812008E-2,4.978299E-2,-8.03684E-3,4.2748847E-3,-2.1722794E-2,4.9894652E-3,-2.483364E-3,-1.6412454E-2,-2.0006347E-2,-6.1552525E-3,2.8291226E-3,-7.319165E-3,7.5494323E-4,3.0815125E-2,-1.7080659E-2,5.7194877E-4,7.5034127E-3,-2.6933221E-2,2.3061652E-2,-3.3923786E-3,4.8522948E-4,-1.137282E-1,3.7224293E-3,2.3347236E-2,3.0798913E-4,-6.0324674E-4,2.5650024E-2,3.3386548E-3,2.3987675E-2,2.6397863E-2,-1.5114043E-3,-4.318305E-3,1.8422625E-3,-5.7964325E-3,6.286383E-4,-6.9741393E-3,-2.0534993E-4,2.4506093E-3,-7.84131E-4,4.1330964E-3,-1.7121678E-2,1.465284E-4,3.6854984E-3,-8.607149E-3,-4.687684E-3,5.108295E-3,1.0164029E-2,1.404047E-3,5.084839E-3,-8.185596E-3,3.1240538E-3,1.2319477E-4,2.1003706E-3,1.1773196E-2,3.2185938E-3,-1.1804031E-2,8.032306E-3,-4.556966E-3,-1.0174763E-2,5.7344786E-3,-9.49688E-3,9.739495E-3,2.6082518E-3,-5.3785946E-2,-6.1311726E-3,5.57642E-3,1.0057241E-2,-2.058077E-3,-3.0077936E-3,6.0135843E-3,1.3716317E-2,1.5918018E-3],"categories":[],"categories_nodes":[],"categories_segments":[],"categories_sizes":[],"default_left":[0,0,0,0,0,0,0,0,0,0,0,0,0,0,0,0,0,0,0,0,0,0,0,0,0,0,0,0,0,0,0,0,0,0,0,0,0,0,0,0,0,0,0,0,0,0,0,0,0,0,0,0,0,0,0,0,0,0,0,0,0,0,0,0,0,0,0,0,0,0,0,0,0,0,0,0,0,0,0,0,0,0,0,0,0,0,0,0,0,0,0,0,0,0,0,0,0,0,0,0,0],"id":16,"left_children":[1,3,5,7,9,11,13,15,17,19,21,23,25,27,29,31,33,35,37,39,-1,41,43,45,47,49,51,53,-1,55,57,59,61,63,65,67,69,-1,71,-1,-1,73,75,77,79,81,83,85,87,89,91,93,-1,-1,-1,95,97,-1,99,-1,-1,-1,-1,-1,-1,-1,-1,-1,-1,-1,-1,-1,-1,-1,-1,-1,-1,-1,-1,-1,-1,-1,-1,-1,-1,-1,-1,-1,-1,-1,-1,-1,-1,-1,-1,-1,-1,-1,-1,-1,-1],"loss_changes":[4.8721403E-2,1.4117903E-2,6.260805E-3,3.533233E-3,6.4967326E-3,5.4692216E-3,5.706611E-3,2.82998E-3,3.2857796E-3,1.2439892E-2,3.050352E-3,3.348831E-3,1.963798E-2,1.7394655E-4,4.3876357E-3,2.9701972E-3,1.4981455E-3,3.2636384E-3,4.97835E-3,1.2255778E-3,0E0,4.318596E-3,5.864434E-3,1.9606678E-2,8.331943E-3,2.2409592E-2,6.351973E-3,8.90324E-6,0E0,1.2642071E-3,3.5345983E-3,2.1008975E-3,1.1753828E-3,7.022396E-4,5.9708036E-5,4.2578215E-3,1.1710048E-2,0E0,2.8457954E-3,0E0,0E0,3.7312955E-3,4.8225978E-4,7.0605245E-3,3.1499672E-3,1.0181498E-2,8.369933E-3,5.803326E-3,1.3014331E-2,6.1671054E-3,2.5636148E-2,1.8164843E-3,0E0,0E0,0E0,1.7659208E-3,1.5406411E-3,0E0,2.2027758E-3,0E0,0E0,0E0,0E0,0E0,0E0,0E0,0E0,0E0,0E0,0E0,0E0,0E0,0E0,0E0,0E0,0E0,0E0,0E0,0E0,0E0,0E0,0E0,0E0,0E0,0E0,0E0,0E0,0E0,0E0,0E0,0E0,0E0,0E0,0E0,0E0,0E0,0E0,0E0,0E0,0E0,0E0],"parents":[2147483647,0,0,1,1,2,2,3,3,4,4,5,5,6,6,7,7,8,8,9,9,10,10,11,11,12,12,13,13,14,14,15,15,16,16,17,17,18,18,19,19,21,21,22,22,23,23,24,24,25,25,26,26,27,27,29,29,30,30,31,31,32,32,33,33,34,34,35,35,36,36,38,38,41,41,42,42,43,43,44,44,45,45,46,46,47,47,48,48,49,49,50,50,51,51,55,55,56,56,58,58],"right_children":[2,4,6,8,10,12,14,16,18,20,22,24,26,28,30,32,34,36,38,40,-1,42,44,46,48,50,52,54,-1,56,58,60,62,64,66,68,70,-1,72,-1,-1,74,76,78,80,82,84,86,88,90,92,94,-1,-1,-1,96,98,-1,100,-1,-1,-1,-1,-1,-1,-1,-1,-1,-1,-1,-1,-1,-1,-1,-1,-1,-1,-1,-1,-1,-1,-1,-1,-1,-1,-1,-1,-1,-1,-1,-1,-1,-1,-1,-1,-1,-1,-1,-1,-1,-1],"split_conditions":[7.1135E0,5.9082E0,8.7911E0,5.0162E0,5.8628E0,8.7911E0,8.635E0,4.9936E0,5.9475E0,5.8366E0,5.88E0,8.635E0,8.7911E0,8.475E0,8.7911E0,4.9337E0,5.0719E0,5.9475E0,5.9082E0,5.8571E0,2.037406E-2,5.938E0,5.8865E0,8.572E0,8.733E0,8.7911E0,8.733E0,8.475E0,-3.9138794E-3,8.687E0,8.635E0,4.8064E0,5.0162E0,4.9337E0,5.0162E0,5.9082E0,5.8719E0,-2.0006347E-2,5.8719E0,2.8291226E-3,-7.319165E-3,5.938E0,5.8719E0,5.88E0,5.9279E0,8.572E0,8.4335E0,8.733E0,8.733E0,8.687E0,8.687E0,8.7911E0,2.3347236E-2,3.0798913E-4,-6.0324674E-4,8.733E0,8.733E0,2.3987675E-2,8.7911E0,-1.5114043E-3,-4.318305E-3,1.8422625E-3,-5.7964325E-3,6.286383E-4,-6.9741393E-3,-2.0534993E-4,2.4506093E-3,-7.84131E-4,4.1330964E-3,-1.7121678E-2,1.465284E-4,3.6854984E-3,-8.607149E-3,-4.687684E-3,5.108295E-3,1.0164029E-2,1.404047E-3,5.084839E-3,-8.185596E-3,3.1240538E-3,1.2319477E-4,2.1003706E-3,1.1773196E-2,3.2185938E-3,-1.1804031E-2,8.032306E-3,-4.556966E-3,-1.0174763E-2,5.7344786E-3,-9.49688E-3,9.739495E-3,2.6082518E-3,-5.3785946E-2,-6.1311726E-3,5.57642E-3,1.0057241E-2,-2.058077E-3,-3.0077936E-3,6.0135843E-3,1.3716317E-2,1.5918018E-3],"split_indices":[0,3,5,5,4,3,1,5,4,6,5,0,0,1,2,2,6,1,6,0,0,3,6,1,2,4,6,0,0,1,0,4,6,0,0,2,3,0,3,0,0,0,5,0,6,0,5,4,3,0,0,1,0,0,0,2,0,0,6,0,0,0,0,0,0,0,0,0,0,0,0,0,0,0,0,0,0,0,0,0,0,0,0,0,0,0,0,0,0,0,0,0,0,0,0,0,0,0,0,0,0],"split_type":[0,0,0,0,0,0,0,0,0,0,0,0,0,0,0,0,0,0,0,0,0,0,0,0,0,0,0,0,0,0,0,0,0,0,0,0,0,0,0,0,0,0,0,0,0,0,0,0,0,0,0,0,0,0,0,0,0,0,0,0,0,0,0,0,0,0,0,0,0,0,0,0,0,0,0,0,0,0,0,0,0,0,0,0,0,0,0,0,0,0,0,0,0,0,0,0,0,0,0,0,0],"sum_hessian":[4.952E3,4.196E3,7.56E2,2.167E3,2.029E3,7.35E2,2.1E1,1.55E2,2.012E3,6E0,2.023E3,7.25E2,1E1,4E0,1.7E1,1.36E2,1.9E1,2.006E3,6E0,3E0,3E0,1.9E1,2.004E3,6.71E2,5.4E1,6E0,4E0,2E0,2E0,1E1,7E0,1.13E2,2.3E1,1.7E1,2E0,1.99E3,1.6E1,1E0,5E0,1E0,2E0,1.2E1,7E0,1.8E1,1.986E3,6.55E2,1.6E1,3.7E1,1.7E1,4E0,2E0,3E0,1E0,1E0,1E0,5E0,5E0,2E0,5E0,7.8E1,3.5E1,2.2E1,1E0,1E0,1.6E1,1E0,1E0,1.975E3,1.5E1,4E0,1.2E1,3E0,2E0,6E0,6E0,6E0,1E0,4E0,1.4E1,3.1E1,1.955E3,6.46E2,9E0,4E0,1.2E1,3.4E1,3E0,7E0,1E1,2E0,2E0,1E0,1E0,1E0,2E0,4E0,1E0,3E0,2E0,2E0,3E0],"tree_param":{"num_deleted":"0","num_feature":"7","num_nodes":"101","size_leaf_vector":"1"}},{"base_weights":[4.829928E-5,-1.5524867E-3,3.262477E-3,-1.6128052E-3,2.0730125E-2,2.002992E-3,6.639164E-3,-3.4247704E-3,-1.0003286E-3,-3.584075E-3,2.630812E-2,2.149995E-3,-2.7633429E-2,3.8279414E-2,6.0487976E-3,-2.4910802E-3,-1.1010563E-2,-2.7218247E-2,-9.466989E-4,2.974224E-2,3.4039022E-4,1.9447759E-3,3.6730085E-2,-9.263964E-3,-1.7101766E-3,5.6871254E-2,-3.499222E-3,-5.739199E-3,7.113419E-3,-2.9272812E-3,3.7950814E-2,-1.3612661E-2,1.420996E-2,-9.591937E-3,-1.2298108E-3,-8.9052774E-4,-2.3800373E-2,1.042223E-2,1.061574E-2,2.2179817E-3,-1.2660786E-2,1.8383123E-2,1.4655876E-2,6.966476E-2,-1.0644436E-3,-6.5962475E-4,-1.1434966E-2,3.0473363E-2,5.7530217E-3,-1.019162E-3,3.3466162E-3,3.336382E-3,1.20584555E-2,-3.7297693E-3,-1.6557097E-2,7.882286E-3,-2.2317052E-3,2.2140455E-3,-3.0807647E-4,-9.025011E-3,1.1421919E-3,4.4189934E-3,2.7101042E-4,5.757606E-4,4.4352533E-3,-7.3081874E-3,2.083715E-3,-7.4429513E-4,5.8681015E-3,5.971527E-3,2.3138523E-2,-1.643341E-3,6.5805437E-3,1.5845697E-2,2.2351267E-3,1.6923143E-2,1.6017134E-3],"categories":[],"categories_nodes":[],"categories_segments":[],"categories_sizes":[],"default_left":[0,0,0,0,0,0,0,0,0,0,0,0,0,0,0,0,0,0,0,0,0,0,0,0,0,0,0,0,0,0,0,0,0,0,0,0,0,0,0,0,0,0,0,0,0,0,0,0,0,0,0,0,0,0,0,0,0,0,0,0,0,0,0,0,0,0,0,0,0,0,0,0,0,0,0,0,0],"id":17,"left_children":[1,3,5,7,9,11,13,15,17,-1,19,21,23,25,27,29,31,33,35,37,-1,39,41,-1,-1,43,-1,45,47,49,51,53,55,-1,-1,57,59,61,-1,63,65,-1,67,69,-1,71,-1,73,75,-1,-1,-1,-1,-1,-1,-1,-1,-1,-1,-1,-1,-1,-1,-1,-1,-1,-1,-1,-1,-1,-1,-1,-1,-1,-1,-1,-1],"loss_changes":[2.5489291E-2,4.4782264E-3,6.9912057E-3,3.6577582E-3,1.9547523E-3,5.291738E-3,8.118119E-3,5.872529E-3,3.4429792E-3,0E0,6.578439E-4,8.415973E-3,2.511898E-4,8.091681E-3,5.562717E-3,1.3218208E-2,6.165426E-3,4.1856756E-4,3.1406018E-3,3.9443653E-4,0E0,4.776567E-3,2.8949175E-3,0E0,0E0,4.8850384E-3,0E0,6.059995E-3,1.2663323E-2,4.9086004E-3,3.4634955E-5,3.3862945E-3,2.5460771E-3,0E0,0E0,2.7803744E-3,1.1552905E-3,1.09707966E-4,0E0,4.360665E-3,5.215845E-3,0E0,4.6876422E-4,3.2169558E-4,0E0,3.7127223E-3,0E0,1.0924641E-2,7.73073E-3,0E0,0E0,0E0,0E0,0E0,0E0,0E0,0E0,0E0,0E0,0E0,0E0,0E0,0E0,0E0,0E0,0E0,0E0,0E0,0E0,0E0,0E0,0E0,0E0,0E0,0E0,0E0,0E0],"parents":[2147483647,0,0,1,1,2,2,3,3,4,4,5,5,6,6,7,7,8,8,10,10,11,11,12,12,13,13,14,14,15,15,16,16,17,17,18,18,19,19,21,21,22,22,25,25,27,27,28,28,29,29,30,30,31,31,32,32,35,35,36,36,37,37,39,39,40,40,42,42,43,43,45,45,47,47,48,48],"right_children":[2,4,6,8,10,12,14,16,18,-1,20,22,24,26,28,30,32,34,36,38,-1,40,42,-1,-1,44,-1,46,48,50,52,54,56,-1,-1,58,60,62,-1,64,66,-1,68,70,-1,72,-1,74,76,-1,-1,-1,-1,-1,-1,-1,-1,-1,-1,-1,-1,-1,-1,-1,-1,-1,-1,-1,-1,-1,-1,-1,-1,-1,-1,-1,-1],"split_conditions":[6.5525E0,6.6006E0,8.048E0,5.4599E0,6.5472E0,8.13E0,7.956E0,5.449E0,5.4106E0,-3.584075E-3,6.6849E0,8.093E0,8.13E0,8.093E0,8.13E0,5.4599E0,5.4857E0,5.397E0,6.6203E0,6.5472E0,3.4039022E-4,8.006E0,8.13E0,-9.263964E-3,-1.7101766E-3,8.093E0,-3.499222E-3,8.23E0,8.169E0,5.435E0,5.3746E0,5.5299E0,5.4796E0,-9.591937E-3,-1.2298108E-3,5.4553E0,6.6642E0,6.5188E0,1.061574E-2,7.9035E0,8.048E0,1.8383123E-2,8.006E0,7.956E0,-1.0644436E-3,8.13E0,-1.1434966E-2,8.1995E0,7.956E0,-1.019162E-3,3.3466162E-3,3.336382E-3,1.20584555E-2,-3.7297693E-3,-1.6557097E-2,7.882286E-3,-2.2317052E-3,2.2140455E-3,-3.0807647E-4,-9.025011E-3,1.1421919E-3,4.4189934E-3,2.7101042E-4,5.757606E-4,4.4352533E-3,-7.3081874E-3,2.083715E-3,-7.4429513E-4,5.8681015E-3,5.971527E-3,2.3138523E-2,-1.643341E-3,6.5805437E-3,1.5845697E-2,2.2351267E-3,1.6923143E-2,1.6017134E-3],"split_indices":[6,4,0,1,5,2,4,5,2,0,0,3,1,1,2,3,0,3,2,1,0,3,4,0,0,0,0,5,1,5,0,2,3,0,0,3,1,0,0,3,3,0,1,1,0,3,0,4,6,0,0,0,0,0,0,0,0,0,0,0,0,0,0,0,0,0,0,0,0,0,0,0,0,0,0,0,0],"split_type":[0,0,0,0,0,0,0,0,0,0,0,0,0,0,0,0,0,0,0,0,0,0,0,0,0,0,0,0,0,0,0,0,0,0,0,0,0,0,0,0,0,0,0,0,0,0,0,0,0,0,0,0,0,0,0,0,0,0,0,0,0,0,0,0,0,0,0,0,0,0,0,0,0,0,0,0,0],"sum_hessian":[4.952E3,3.306E3,1.646E3,3.298E3,8E0,1.2E3,4.46E2,8.32E2,2.466E3,1E0,7E0,1.195E3,5E0,7E0,4.39E2,7.42E2,9E1,4E0,2.462E3,6E0,1E0,1.189E3,6E0,4E0,1E0,5E0,2E0,3.6E1,4.03E2,7.35E2,7E0,8.2E1,8E0,3E0,1E0,2.457E3,5E0,2E0,4E0,1.168E3,2.1E1,2E0,4E0,4E0,1E0,3.2E1,4E0,2.1E1,3.82E2,7.12E2,2.3E1,1E0,6E0,8.1E1,1E0,5E0,3E0,3.9E1,2.418E3,4E0,1E0,1E0,1E0,1.142E3,2.6E1,1.3E1,8E0,1E0,3E0,1E0,3E0,2.7E1,5E0,1E1,1.1E1,2E0,3.8E2],"tree_param":{"num_deleted":"0","num_feature":"7","num_nodes":"77","size_leaf_vector":"1"}},{"base_weights":[4.6971494E-5,-7.8979396E-4,3.3225962E-3,-6.392109E-4,-1.2510443E-2,-9.659279E-3,3.4606638E-3,-1.4869624E-3,1.0437991E-3,-2.2956196E-2,3.007798E-3,3.1440656E-3,1.7463945E-2,-1.3549585E-3,-8.170938E-3,1.2198112E-3,-2.445703E-2,-2.5862956E-2,9.200979E-3,1.0504354E-2,-4.2719045E-3,1.9749165E-2,2.9014132E-3,-7.878494E-3,2.3533292E-2,-1.4911741E-3,8.448465E-3,-1.12261325E-2,9.272099E-3,9.021153E-4,9.474347E-3,-3.2858986E-2,3.2998722E-3,-4.4940352E-2,-1.7750133E-2,5.178337E-3,-1.1657136E-2,2.2223106E-2,-1.8618108E-3,-2.9244721E-2,3.1651764E-3,-1.6256968E-3,-3.4515383E-3,1.0612228E-2,3.8358092E-2,-4.0989264E-4,-3.5291004E-3,-5.370477E-4,5.149405E-3,3.462267E-3,-3.9666547E-3,-5.0620083E-3,4.6252934E-3,3.0688173E-4,-1.1106133E-2,4.4460017E-3,-1.8173439E-3,-1.4561511E-2,-5.0638677E-3,-1.8507243E-3,3.3356668E-3,-3.0947686E-3,-1.4523902E-2,1.3087464E-3,-6.8719233E-3,-5.631985E-3,-1.1920095E-3,9.1886526E-4,7.628502E-3,-1.3889337E-2,-2.9259967E-3,5.9107854E-3,8.1117E-4,2.1457672E-5,-7.530213E-4,5.189691E-3,-2.614975E-4,-2.1357536E-3,1.3761562E-2],"categories":[],"categories_nodes":[],"categories_segments":[],"categories_sizes":[],"default_left":[0,0,0,0,0,0,0,0,0,0,0,0,0,0,0,0,0,0,0,0,0,0,0,0,0,0,0,0,0,0,0,0,0,0,0,0,0,0,0,0,0,0,0,0,0,0,0,0,0,0,0,0,0,0,0,0,0,0,0,0,0,0,0,0,0,0,0,0,0,0,0,0,0,0,0,0,0,0,0],"id":18,"left_children":[1,3,5,7,9,-1,11,13,15,17,19,21,23,25,27,29,31,33,-1,-1,35,37,39,41,43,45,47,49,51,53,55,57,59,61,63,-1,65,67,-1,69,71,73,-1,75,77,-1,-1,-1,-1,-1,-1,-1,-1,-1,-1,-1,-1,-1,-1,-1,-1,-1,-1,-1,-1,-1,-1,-1,-1,-1,-1,-1,-1,-1,-1,-1,-1,-1,-1],"loss_changes":[1.3578448E-2,6.9564222E-3,5.054854E-3,5.5616912E-3,8.174034E-3,0E0,4.4006743E-3,2.2758776E-3,5.891754E-3,5.4695625E-3,5.042565E-3,3.907499E-3,3.5692728E-3,3.408466E-3,2.7686837E-3,3.3953693E-3,2.2073407E-3,3.6906768E-3,0E0,0E0,3.0636904E-3,1.036881E-3,8.32564E-3,9.4679155E-5,3.0408744E-3,3.2021669E-3,3.1542005E-3,2.1066912E-3,1.5455722E-3,5.769887E-3,4.0752E-3,9.3452586E-4,2.9070704E-4,4.6248734E-4,2.608343E-3,0E0,6.9091097E-4,7.204842E-4,0E0,2.207548E-3,7.30044E-3,4.6824725E-6,0E0,8.597665E-4,3.0602189E-3,0E0,0E0,0E0,0E0,0E0,0E0,0E0,0E0,0E0,0E0,0E0,0E0,0E0,0E0,0E0,0E0,0E0,0E0,0E0,0E0,0E0,0E0,0E0,0E0,0E0,0E0,0E0,0E0,0E0,0E0,0E0,0E0,0E0,0E0],"parents":[2147483647,0,0,1,1,2,2,3,3,4,4,6,6,7,7,8,8,9,9,10,10,11,11,12,12,13,13,14,14,15,15,16,16,17,17,20,20,21,21,22,22,23,23,24,24,25,25,26,26,27,27,28,28,29,29,30,30,31,31,32,32,33,33,34,34,36,36,37,37,39,39,40,40,41,41,43,43,44,44],"right_children":[2,4,6,8,10,-1,12,14,16,18,20,22,24,26,28,30,32,34,-1,-1,36,38,40,42,44,46,48,50,52,54,56,58,60,62,64,-1,66,68,-1,70,72,74,-1,76,78,-1,-1,-1,-1,-1,-1,-1,-1,-1,-1,-1,-1,-1,-1,-1,-1,-1,-1,-1,-1,-1,-1,-1,-1,-1,-1,-1,-1,-1,-1,-1,-1,-1,-1],"split_conditions":[6.846E0,6.8346E0,6.6757E0,6.115E0,6.8885E0,-9.659279E-3,8.7911E0,6.1055E0,6.8353E0,6.9975E0,6.8713E0,6.7398E0,8.635E0,6.1055E0,6.1752E0,6.8195E0,6.7934E0,6.7658E0,9.200979E-3,1.0504354E-2,6.794E0,6.9422E0,6.7742E0,8.475E0,8.7911E0,6.0755E0,6.055E0,6.0356E0,6.062E0,6.8436E0,6.7742E0,6.7742E0,6.8195E0,6.6404E0,6.8195E0,5.178337E-3,6.9557E0,6.6914E0,-1.8618108E-3,6.8762E0,6.8436E0,8.475E0,-3.4515383E-3,8.733E0,8.7911E0,-4.0989264E-4,-3.5291004E-3,-5.370477E-4,5.149405E-3,3.462267E-3,-3.9666547E-3,-5.0620083E-3,4.6252934E-3,3.0688173E-4,-1.1106133E-2,4.4460017E-3,-1.8173439E-3,-1.4561511E-2,-5.0638677E-3,-1.8507243E-3,3.3356668E-3,-3.0947686E-3,-1.4523902E-2,1.3087464E-3,-6.8719233E-3,-5.631985E-3,-1.1920095E-3,9.1886526E-4,7.628502E-3,-1.3889337E-2,-2.9259967E-3,5.9107854E-3,8.1117E-4,2.1457672E-5,-7.530213E-4,5.189691E-3,-2.614975E-4,-2.1357536E-3,1.3761562E-2],"split_indices":[6,4,2,0,3,0,5,2,6,0,1,0,1,4,3,0,0,6,0,0,6,6,1,1,2,2,1,5,0,1,6,5,0,0,3,0,1,2,0,6,2,0,0,2,4,0,0,0,0,0,0,0,0,0,0,0,0,0,0,0,0,0,0,0,0,0,0,0,0,0,0,0,0,0,0,0,0,0,0],"split_type":[0,0,0,0,0,0,0,0,0,0,0,0,0,0,0,0,0,0,0,0,0,0,0,0,0,0,0,0,0,0,0,0,0,0,0,0,0,0,0,0,0,0,0,0,0,0,0,0,0,0,0,0,0,0,0,0,0,0,0,0,0,0,0,0,0,0,0,0,0,0,0,0,0,0,0,0,0,0,0],"sum_hessian":[4.952E3,3.945E3,1.007E3,3.896E3,4.9E1,3E0,1.004E3,2.591E3,1.305E3,2.9E1,2E1,9.83E2,2.1E1,2.542E3,4.9E1,1.297E3,8E0,2.8E1,1E0,3E0,1.7E1,1.3E1,9.7E2,4E0,1.7E1,2.508E3,3.4E1,4.2E1,7E0,1.25E3,4.7E1,6E0,2E0,7E0,2.1E1,4E0,1.3E1,1.2E1,1E0,7E0,9.63E2,2E0,2E0,1E1,7E0,2.479E3,2.9E1,1.6E1,1.8E1,3E0,3.9E1,1E0,6E0,1.247E3,3E0,3.5E1,1.2E1,2E0,4E0,1E0,1E0,1E0,6E0,4E0,1.7E1,6E0,7E0,2E0,1E1,3E0,4E0,2.5E1,9.38E2,1E0,1E0,6E0,4E0,1E0,6E0],"tree_param":{"num_deleted":"0","num_feature":"7","num_nodes":"79","size_leaf_vector":"1"}},{"base_weights":[2.6350524E-5,-4.7816272E-4,3.3087044E-3,-5.0484866E-4,2.8268695E-2,1.0818415E-2,3.0540214E-3,-3.9645625E-4,-8.549356E-3,1.0783244E-2,7.863522E-4,1.4163991E-2,2.6461612E-3,-4.7281347E-4,4.000789E-2,-1.4530403E-2,6.378426E-3,6.18428E-4,3.948462E-2,-1.7761817E-2,3.0684401E-3,-4.4531468E-4,-1.7506529E-2,4.447174E-2,5.323267E-3,-1.6772438E-2,4.966736E-3,3.4304354E-2,-2.2256216E-2,-1.886487E-2,1.1189461E-2,1.94286E-2,1.13657955E-2,5.7795052E-3,-2.6245333E-2,2.29234E-2,2.8378344E-3,-6.1051466E-4,1.1878059E-5,5.4901126E-3,1.58947E-2,-3.138854E-3,-9.828616E-3,6.893313E-3,-1.0061574E-2,2.0034743E-2,4.645361E-3,-9.247092E-3,1.5459538E-3,-7.2806454E-3,1.2232304E-3,-1.0418058E-3,5.1365555E-3,-1.3041498E-4,5.8133127E-3,-1.7534137E-2,-2.0591319E-3,1.0830998E-2,-8.423424E-3,-1.8599549E-3,1.027824E-3],"categories":[],"categories_nodes":[],"categories_segments":[],"categories_sizes":[],"default_left":[0,0,0,0,0,0,0,0,0,0,0,0,0,0,0,0,0,0,0,0,0,0,0,0,0,0,0,0,0,0,0,0,0,0,0,0,0,0,0,0,0,0,0,0,0,0,0,0,0,0,0,0,0,0,0,0,0,0,0,0,0],"id":19,"left_children":[1,3,5,7,9,-1,11,13,15,-1,-1,17,19,21,23,25,27,29,31,33,35,37,-1,39,-1,41,43,45,47,49,51,-1,53,-1,55,57,59,-1,-1,-1,-1,-1,-1,-1,-1,-1,-1,-1,-1,-1,-1,-1,-1,-1,-1,-1,-1,-1,-1,-1,-1],"loss_changes":[8.203705E-3,3.3083544E-3,5.3952937E-3,3.738205E-3,6.9320924E-4,0E0,2.9350622E-3,1.3084583E-2,5.181857E-3,0E0,0E0,7.864172E-3,5.5182255E-3,6.7036897E-3,5.9371814E-6,1.8755477E-3,1.4357517E-2,3.5064248E-3,4.9500884E-3,4.589148E-3,2.7828794E-3,3.2585696E-3,0E0,3.6680605E-4,0E0,3.3900691E-3,4.238231E-3,4.4669947E-3,2.272291E-3,8.4282877E-4,1.016256E-3,0E0,4.8114714E-4,0E0,6.4641624E-3,5.719083E-3,3.296129E-3,0E0,0E0,0E0,0E0,0E0,0E0,0E0,0E0,0E0,0E0,0E0,0E0,0E0,0E0,0E0,0E0,0E0,0E0,0E0,0E0,0E0,0E0,0E0,0E0],"parents":[2147483647,0,0,1,1,2,2,3,3,4,4,6,6,7,7,8,8,11,11,12,12,13,13,14,14,15,15,16,16,17,17,18,18,19,19,20,20,21,21,23,23,25,25,26,26,27,27,28,28,29,29,30,30,32,32,34,34,35,35,36,36],"right_children":[2,4,6,8,10,-1,12,14,16,-1,-1,18,20,22,24,26,28,30,32,34,36,38,-1,40,-1,42,44,46,48,50,52,-1,54,-1,56,58,60,-1,-1,-1,-1,-1,-1,-1,-1,-1,-1,-1,-1,-1,-1,-1,-1,-1,-1,-1,-1,-1,-1,-1,-1],"split_conditions":[7.545E0,7.632E0,7.439E0,7.367E0,7.632E0,1.0818415E-2,7.545E0,7.367E0,7.565E0,1.0783244E-2,7.863522E-4,7.565E0,7.565E0,7.367E0,7.439E0,7.565E0,7.505E0,7.593E0,7.565E0,7.505E0,7.545E0,5.5034E0,-1.7506529E-2,7.367E0,5.323267E-3,7.505E0,7.593E0,7.439E0,7.632E0,7.565E0,7.439E0,1.94286E-2,7.632E0,5.7795052E-3,7.593E0,7.673E0,7.673E0,-6.1051466E-4,1.1878059E-5,5.4901126E-3,1.58947E-2,-3.138854E-3,-9.828616E-3,6.893313E-3,-1.0061574E-2,2.0034743E-2,4.645361E-3,-9.247092E-3,1.5459538E-3,-7.2806454E-3,1.2232304E-3,-1.0418058E-3,5.1365555E-3,-1.3041498E-4,5.8133127E-3,-1.7534137E-2,-2.0591319E-3,1.0830998E-2,-8.423424E-3,-1.8599549E-3,1.027824E-3],"split_indices":[0,2,3,5,4,0,6,3,5,0,0,5,6,4,1,3,0,1,2,2,5,5,0,0,0,4,3,1,4,4,5,0,0,0,2,0,3,0,0,0,0,0,0,0,0,0,0,0,0,0,0,0,0,0,0,0,0,0,0,0,0],"split_type":[0,0,0,0,0,0,0,0,0,0,0,0,0,0,0,0,0,0,0,0,0,0,0,0,0,0,0,0,0,0,0,0,0,0,0,0,0,0,0,0,0,0,0,0,0,0,0,0,0,0,0,0,0,0,0,0,0,0,0,0,0],"sum_hessian":[4.952E3,4.293E3,6.59E2,4.29E3,3E0,4E0,6.55E2,4.234E3,5.6E1,2E0,1E0,2.2E1,6.33E2,4.227E3,7E0,4E1,1.6E1,1.5E1,7E0,1.2E1,6.21E2,4.226E3,1E0,5E0,2E0,3.6E1,4E0,8E0,8E0,5E0,1E1,3E0,4E0,2E0,1E1,6E0,6.15E2,9.87E2,3.239E3,2E0,3E0,2.7E1,9E0,3E0,1E0,2E0,6E0,6E0,2E0,4E0,1E0,3E0,7E0,2E0,2E0,3E0,7E0,5E0,1E0,3.7E1,5.78E2],"tree_param":{"num_deleted":"0","num_feature":"7","num_nodes":"61","size_leaf_vector":"1"}},{"base_weights":[2.6989965E-5,-7.169168E-4,1.2644203E-3,-6.3573616E-4,-1.1528658E-2,3.244078E-2,1.1965852E-3,-7.7133137E-4,4.138313E-3,-2.6740551E-2,-1.6329448E-3,4.2886734E-3,1.3031459E-2,1.0688094E-3,1.1805665E-2,-6.9562776E-4,-1.3960727E-2,1.1035162E-2,-6.0296194E-3,-8.595944E-4,-2.9366791E-2,1.9226551E-2,-1.0966084E-2,1.1734114E-3,-1.6392274E-2,-7.1739196E-3,1.6421901E-2,-7.484098E-4,1.6764535E-2,-2.009209E-2,6.2878925E-4,2.4343332E-2,6.766832E-3,-2.3212671E-2,-2.3920217E-3,-3.13094E-2,-2.3652792E-3,9.982919E-3,-1.2321472E-3,-2.1892388E-3,-1.7915249E-2,8.1162207E-4,5.926472E-3,-4.410253E-2,2.5680542E-2,-2.06693E-3,-2.966881E-3,3.6749125E-2,9.906515E-3,-1.6356459E-4,-1.4529715E-3,7.132352E-3,-5.897284E-3,-1.235218E-3,-8.269429E-3,3.940773E-3,-1.3499451E-3,4.0057182E-4,1.0704142E-2,-4.231167E-3,3.0453994E-3,-2.0110847E-3,-7.552128E-3,1.2103695E-3,-4.694596E-3,-1.003654E-2,-2.7652504E-3,6.3779356E-4,-1.1922598E-3,7.9288485E-4,-1.5798212E-3,-1.4749289E-3,-5.8595184E-3,3.1271507E-4,-3.7515115E-3,6.127653E-3,-1.7501831E-4,-7.096481E-4,-2.9689027E-2,-3.4260753E-5,1.932893E-2,-1.3589859E-4,-7.9422E-4,-1.8181802E-3,1.5911771E-2,-4.901505E-4,4.2754607E-3],"categories":[],"categories_nodes":[],"categories_segments":[],"categories_sizes":[],"default_left":[0,0,0,0,0,0,0,0,0,0,0,0,0,0,0,0,0,0,0,0,0,0,0,0,0,0,0,0,0,0,0,0,0,0,0,0,0,0,0,0,0,0,0,0,0,0,0,0,0,0,0,