{"learner":{"attributes":{},"feature_names":[],"feature_types":[],"gradient_booster":{"model":{"gbtree_model_param":{"num_parallel_tree":"1","num_trees":"100"},"iteration_indptr":[0,1,2,3,4,5,6,7,8,9,10,11,12,13,14,15,16,17,18,19,20,21,22,23,24,25,26,27,28,29,30,31,32,33,34,35,36,37,38,39,40,41,42,43,44,45,46,47,48,49,50,51,52,53,54,55,56,57,58,59,60,61,62,63,64,65,66,67,68,69,70,71,72,73,74,75,76,77,78,79,80,81,82,83,84,85,86,87,88,89,90,91,92,93,94,95,96,97,98,99,100],"tree_info":[0,0,0,0,0,0,0,0,0,0,0,0,0,0,0,0,0,0,0,0,0,0,0,0,0,0,0,0,0,0,0,0,0,0,0,0,0,0,0,0,0,0,0,0,0,0,0,0,0,0,0,0,0,0,0,0,0,0,0,0,0,0,0,0,0,0,0,0,0,0,0,0,0,0,0,0,0,0,0,0,0,0,0,0,0,0,0,0,0,0,0,0,0,0,0,0,0,0,0,0],"trees":[{"base_weights":[-2.9712067E-8,-5.076211E-2,2.1394879E-1,-1.0328379E-1,1.8899774E-2,1.3307852E-1,2.7405953E-1,-1.5400445E-1,-8.198628E-2,-1.3363469E-2,4.9005408E-2,9.6033216E-2,1.7286092E-1,2.4219733E-1,9.015836E-2,-1.8213314E-1,-1.3677563E-1,-9.878473E-2,-6.292701E-2,-2.6049266E-2,2.7024513E-3,3.9501533E-2,6.6429496E-2,2.6113134E-2,3.083996E-2,4.5347475E-2,5.4283675E-2,6.5569565E-2,7.667291E-2,-6.007027E-2,-4.9526572E-2,-4.314331E-2,-3.699973E-2,-3.2320976E-2,-8.864146E-2,-7.1205035E-2,-5.3097405E-2,-3.1830218E-2,-1.7881637E-2,-4.5590727E-3,9.168106E-3,2.6749281E-2,4.405941E-2,1.724685E-2,2.1463357E-2,-2.778286E-2,-2.5120914E-2,-2.2357427E-2,-1.9711189E-2,-1.72968E-2,-1.4117641E-2,-1.0470342E-2,-8.543408E-3,-6.3910494E-3,-4.655168E-3,-2.3955829E-3,-1.013626E-4,1.8402393E-3,3.6510364E-3,6.4816778E-3,9.427246E-3,1.1741355E-2,1.44069735E-2],"categories":[],"categories_nodes":[],"categories_segments":[],"categories_sizes":[],"default_left":[0,0,0,0,0,0,0,0,0,0,0,0,0,0,0,0,0,0,0,0,0,0,0,0,0,0,0,0,0,0,0,0,0,0,0,0,0,0,0,0,0,0,0,0,0,0,0,0,0,0,0,0,0,0,0,0,0,0,0,0,0,0,0],"id":0,"left_children":[1,3,5,7,9,11,13,15,17,19,21,23,25,27,-1,29,31,33,35,37,39,41,43,-1,-1,-1,-1,-1,-1,-1,-1,-1,-1,-1,45,47,49,51,53,55,57,59,61,-1,-1,-1,-1,-1,-1,-1,-1,-1,-1,-1,-1,-1,-1,-1,-1,-1,-1,-1,-1],"loss_changes":[5.3802853E1,1.4651625E1,4.581646E0,2.4535275E0,1.6732429E0,5.832162E-1,3.8598633E-1,3.017254E-1,5.092516E-1,1.6963947E-1,1.4492226E-1,4.0084124E-3,6.863117E-3,2.3816109E-2,0E0,4.5000076E-2,2.2174835E-2,6.799412E-2,5.781603E-2,2.1386594E-2,1.7319584E-2,3.2474756E-2,1.0199785E-2,0E0,0E0,0E0,0E0,0E0,0E0,0E0,0E0,0E0,0E0,0E0,1.475811E-4,2.5541782E-3,6.9214106E-3,1.7958581E-3,1.2471117E-3,2.513808E-3,1.7014127E-3,3.048204E-3,6.411493E-3,0E0,0E0,0E0,0E0,0E0,0E0,0E0,0E0,0E0,0E0,0E0,0E0,0E0,0E0,0E0,0E0,0E0,0E0,0E0,0E0],"parents":[2147483647,0,0,1,1,2,2,3,3,4,4,5,5,6,6,7,7,8,8,9,9,10,10,11,11,12,12,13,13,15,15,16,16,17,17,18,18,19,19,20,20,21,21,22,22,34,34,35,35,36,36,37,37,38,38,39,39,40,40,41,41,42,42],"right_children":[2,4,6,8,10,12,14,16,18,20,22,24,26,28,-1,30,32,34,36,38,40,42,44,-1,-1,-1,-1,-1,-1,-1,-1,-1,-1,-1,46,48,50,52,54,56,58,60,62,-1,-1,-1,-1,-1,-1,-1,-1,-1,-1,-1,-1,-1,-1,-1,-1,-1,-1,-1,-1],"split_conditions":[9.251E-1,8.023E-1,1.047E0,7.25E-1,8.602E-1,9.752E-1,1.1154E0,6.833E-1,7.631E-1,8.316E-1,8.965E-1,9.381E-1,1.0097E0,1.0793E0,9.015836E-2,6.631E-1,7.113E-1,7.447E-1,7.808E-1,8.185E-1,8.462E-1,8.775E-1,9.063E-1,2.6113134E-2,3.083996E-2,4.5347475E-2,5.4283675E-2,6.5569565E-2,7.667291E-2,-6.007027E-2,-4.9526572E-2,-4.314331E-2,-3.699973E-2,-3.2320976E-2,7.546E-1,7.73E-1,7.908E-1,8.116E-1,8.244E-1,8.393E-1,8.521E-1,8.698E-1,8.865E-1,1.724685E-2,2.1463357E-2,-2.778286E-2,-2.5120914E-2,-2.2357427E-2,-1.9711189E-2,-1.72968E-2,-1.4117641E-2,-1.0470342E-2,-8.543408E-3,-6.3910494E-3,-4.655168E-3,-2.3955829E-3,-1.013626E-4,1.8402393E-3,3.6510364E-3,6.4816778E-3,9.427246E-3,1.1741355E-2,1.44069735E-2],"split_indices":[0,0,0,0,0,0,0,0,0,0,0,0,0,0,0,0,0,0,0,0,0,0,0,0,0,0,0,0,0,0,0,0,0,0,0,0,0,0,0,0,0,0,0,0,0,0,0,0,0,0,0,0,0,0,0,0,0,0,0,0,0,0,0],"split_type":[0,0,0,0,0,0,0,0,0,0,0,0,0,0,0,0,0,0,0,0,0,0,0,0,0,0,0,0,0,0,0,0,0,0,0,0,0,0,0,0,0,0,0,0,0,0,0,0,0,0,0,0,0,0,0,0,0,0,0,0,0,0,0],"sum_hessian":[4.952E3,4.003E3,9.49E2,2.282E3,1.721E3,4.06E2,5.43E2,6.73E2,1.609E3,8.31E2,8.9E2,2.12E2,1.94E2,2.51E2,2.92E2,2.52E2,4.21E2,8.53E2,7.56E2,4.64E2,3.67E2,5.78E2,3.12E2,9.7E1,1.15E2,5.8E1,1.36E2,9.7E1,1.54E2,1.17E2,1.35E2,2.7E2,1.51E2,4.48E2,4.05E2,4.07E2,3.49E2,2.7E2,1.94E2,1.73E2,1.94E2,1.54E2,4.24E2,1.18E2,1.94E2,2.14E2,1.91E2,2.46E2,1.61E2,1.94E2,1.55E2,1.36E2,1.34E2,7.6E1,1.18E2,9.5E1,7.8E1,9.8E1,9.6E1,7.6E1,7.8E1,1.94E2,2.3E2],"tree_param":{"num_deleted":"0","num_feature":"7","num_nodes":"63","size_leaf_vector":"1"}},{"base_weights":[1.9008057E-5,-3.7007477E-2,1.4460558E-1,-7.3216505E-2,1.0732747E-2,8.6061575E-2,1.9056314E-1,-1.03696465E-1,-5.5948738E-2,-1.0311463E-2,3.2802325E-2,6.492009E-2,3.5621166E-2,1.7260994E-1,2.1877174E-1,-1.2605044E-1,-9.091986E-2,-6.578021E-2,-4.3614153E-2,-1.9644393E-2,1.4356057E-3,2.5095915E-2,4.076896E-2,1.7178876E-2,2.1113997E-2,4.619183E-2,5.5162314E-2,6.1019246E-2,7.0371576E-2,-4.2264525E-2,-3.4598887E-2,-2.9437717E-2,-2.5157457E-2,-2.1456733E-2,-1.7848695E-2,-4.8016492E-2,-3.741978E-2,-2.4779188E-2,-1.4856787E-2,-4.9146987E-3,5.653896E-3,1.709775E-2,2.8078666E-2,1.0734848E-2,1.3817694E-2,-1.5111931E-2,-1.33267995E-2,-1.2260123E-2,-1.0584888E-2,-8.57797E-3,-6.8139974E-3,-5.41593E-3,-3.6247438E-3,-1.967775E-3,-6.1537157E-4,1.0671989E-3,2.5670214E-3,4.1731386E-3,5.8978517E-3,7.781191E-3,9.189198E-3],"categories":[],"categories_nodes":[],"categories_segments":[],"categories_sizes":[],"default_left":[0,0,0,0,0,0,0,0,0,0,0,0,0,0,0,0,0,0,0,0,0,0,0,0,0,0,0,0,0,0,0,0,0,0,0,0,0,0,0,0,0,0,0,0,0,0,0,0,0,0,0,0,0,0,0,0,0,0,0,0,0],"id":1,"left_children":[1,3,5,7,9,11,13,15,17,19,21,23,-1,25,27,29,31,33,35,37,39,41,43,-1,-1,-1,-1,-1,-1,-1,-1,-1,-1,-1,-1,45,47,49,51,53,55,57,59,-1,-1,-1,-1,-1,-1,-1,-1,-1,-1,-1,-1,-1,-1,-1,-1,-1,-1],"loss_changes":[2.6521399E1,6.818491E0,2.701048E0,1.174736E0,7.9080963E-1,3.0039358E-1,2.4837303E-1,2.1988201E-1,1.7102814E-1,9.562954E-2,4.9995422E-2,7.3832273E-3,0E0,4.516697E-2,4.757881E-3,3.0181885E-2,1.8180847E-2,2.447033E-2,1.5628576E-2,1.1579394E-2,1.039452E-2,9.658933E-3,9.087265E-3,0E0,0E0,0E0,0E0,0E0,0E0,0E0,0E0,0E0,0E0,0E0,0E0,8.958578E-4,5.46962E-4,1.1864305E-3,2.034232E-3,7.1645714E-4,1.3875989E-3,6.90002E-4,8.8866055E-4,0E0,0E0,0E0,0E0,0E0,0E0,0E0,0E0,0E0,0E0,0E0,0E0,0E0,0E0,0E0,0E0,0E0,0E0],"parents":[2147483647,0,0,1,1,2,2,3,3,4,4,5,5,6,6,7,7,8,8,9,9,10,10,11,11,13,13,14,14,15,15,16,16,17,17,18,18,19,19,20,20,21,21,22,22,35,35,36,36,37,37,38,38,39,39,40,40,41,41,42,42],"right_children":[2,4,6,8,10,12,14,16,18,20,22,24,-1,26,28,30,32,34,36,38,40,42,44,-1,-1,-1,-1,-1,-1,-1,-1,-1,-1,-1,-1,46,48,50,52,54,56,58,60,-1,-1,-1,-1,-1,-1,-1,-1,-1,-1,-1,-1,-1,-1,-1,-1,-1,-1],"split_conditions":[9.189E-1,7.986E-1,1.0396E0,7.319E-1,8.602E-1,9.754E-1,1.1292E0,6.893E-1,7.663E-1,8.305E-1,8.9E-1,9.323E-1,3.5621166E-2,1.0855E0,1.1514E0,6.631E-1,7.136E-1,7.492E-1,7.827E-1,8.142E-1,8.427E-1,8.75E-1,9.006E-1,1.7178876E-2,2.1113997E-2,4.619183E-2,5.5162314E-2,6.1019246E-2,7.0371576E-2,-4.2264525E-2,-3.4598887E-2,-2.9437717E-2,-2.5157457E-2,-2.1456733E-2,-1.7848695E-2,7.753E-1,7.872E-1,8.053E-1,8.212E-1,8.384E-1,8.521E-1,8.678E-1,8.837E-1,1.0734848E-2,1.3817694E-2,-1.5111931E-2,-1.33267995E-2,-1.2260123E-2,-1.0584888E-2,-8.57797E-3,-6.8139974E-3,-5.41593E-3,-3.6247438E-3,-1.967775E-3,-6.1537157E-4,1.0671989E-3,2.5670214E-3,4.1731386E-3,5.8978517E-3,7.781191E-3,9.189198E-3],"split_indices":[0,0,0,0,0,1,0,0,0,0,0,0,0,0,0,1,0,0,0,0,0,0,0,0,0,0,0,0,0,0,0,0,0,0,0,0,0,0,0,0,0,1,0,0,0,0,0,0,0,0,0,0,0,0,0,0,0,0,0,0,0],"split_type":[0,0,0,0,0,0,0,0,0,0,0,0,0,0,0,0,0,0,0,0,0,0,0,0,0,0,0,0,0,0,0,0,0,0,0,0,0,0,0,0,0,0,0,0,0,0,0,0,0,0,0,0,0,0,0,0,0,0,0,0,0],"sum_hessian":[4.952E3,3.943E3,1.009E3,2.242E3,1.701E3,4.45E2,5.64E2,8.09E2,1.433E3,8.71E2,8.3E2,2.72E2,1.73E2,3.49E2,2.15E2,2.91E2,5.18E2,7.95E2,6.38E2,4.85E2,3.86E2,4.24E2,4.06E2,1.18E2,1.54E2,1.37E2,2.12E2,1.16E2,9.9E1,1.17E2,1.74E2,2.5E2,2.68E2,4.1E2,3.85E2,3.69E2,2.69E2,2.32E2,2.53E2,1.54E2,2.32E2,1.17E2,3.07E2,2.13E2,1.93E2,2.15E2,1.54E2,9.6E1,1.73E2,7.7E1,1.55E2,1.15E2,1.38E2,9.7E1,5.7E1,1.36E2,9.6E1,5.5E1,6.2E1,1.73E2,1.34E2],"tree_param":{"num_deleted":"0","num_feature":"7","num_nodes":"61","size_leaf_vector":"1"}},{"base_weights":[3.6081485E-5,-2.6862916E-2,9.814421E-2,-5.1878728E-2,5.839753E-3,5.4655183E-2,1.315732E-1,-7.695237E-2,-4.1607846E-2,-8.972406E-3,2.0946482E-2,4.2806506E-2,7.785028E-2,1.1078717E-1,1.4612165E-1,-9.472644E-2,-7.004464E-2,-5.023204E-2,-3.3148684E-2,-1.5045789E-2,-9.052766E-4,1.4318566E-2,2.5699994E-2,1.1587106E-2,1.4006436E-2,2.0017805E-2,2.5125947E-2,2.9266628E-2,3.553149E-2,4.1073333E-2,4.8878357E-2,-3.0340513E-2,-2.567324E-2,-2.3090476E-2,-1.9174375E-2,-1.6611405E-2,-1.3774748E-2,-3.702912E-2,-2.8497022E-2,-1.9770445E-2,-1.232365E-2,-4.6534464E-3,2.46115E-3,8.429712E-3,1.7226968E-2,2.3194281E-2,8.990233E-3,-1.1639663E-2,-1.0287082E-2,-9.030802E-3,-7.651327E-3,-6.4142146E-3,-5.2111037E-3,-4.2232485E-3,-2.7762058E-3,-1.854806E-3,-8.076118E-4,4.037589E-5,1.0430844E-3,2.1468818E-3,2.8871037E-3,4.399029E-3,5.5244225E-3,6.5323836E-3,7.455156E-3],"categories":[],"categories_nodes":[],"categories_segments":[],"categories_sizes":[],"default_left":[0,0,0,0,0,0,0,0,0,0,0,0,0,0,0,0,0,0,0,0,0,0,0,0,0,0,0,0,0,0,0,0,0,0,0,0,0,0,0,0,0,0,0,0,0,0,0,0,0,0,0,0,0,0,0,0,0,0,0,0,0,0,0,0,0],"id":2,"left_children":[1,3,5,7,9,11,13,15,17,19,21,23,25,27,29,31,33,35,37,39,41,43,45,-1,-1,-1,-1,-1,-1,-1,-1,-1,-1,-1,-1,-1,-1,47,49,51,53,55,57,59,61,63,-1,-1,-1,-1,-1,-1,-1,-1,-1,-1,-1,-1,-1,-1,-1,-1,-1,-1,-1],"loss_changes":[1.3073654E1,3.181013E0,1.5425539E0,5.6413364E-1,3.7745282E-1,1.24463916E-1,1.6585922E-1,7.182026E-2,1.1250687E-1,4.172992E-2,2.5939435E-2,3.229916E-3,4.655242E-3,1.3957739E-2,3.2025814E-2,1.6642809E-3,1.4773846E-2,1.46045685E-2,1.3258815E-2,6.0068816E-3,4.642236E-3,5.8664083E-3,4.491031E-3,0E0,0E0,0E0,0E0,0E0,0E0,0E0,0E0,0E0,0E0,0E0,0E0,0E0,0E0,7.4893236E-4,9.86129E-4,3.0881912E-4,1.5440471E-3,5.0526275E-4,4.5801594E-4,1.105424E-4,4.4248998E-4,1.8781424E-4,0E0,0E0,0E0,0E0,0E0,0E0,0E0,0E0,0E0,0E0,0E0,0E0,0E0,0E0,0E0,0E0,0E0,0E0,0E0],"parents":[2147483647,0,0,1,1,2,2,3,3,4,4,5,5,6,6,7,7,8,8,9,9,10,10,11,11,12,12,13,13,14,14,15,15,16,16,17,17,18,18,19,19,20,20,21,21,22,22,37,37,38,38,39,39,40,40,41,41,42,42,43,43,44,44,45,45],"right_children":[2,4,6,8,10,12,14,16,18,20,22,24,26,28,30,32,34,36,38,40,42,44,46,-1,-1,-1,-1,-1,-1,-1,-1,-1,-1,-1,-1,-1,-1,48,50,52,54,56,58,60,62,64,-1,-1,-1,-1,-1,-1,-1,-1,-1,-1,-1,-1,-1,-1,-1,-1,-1,-1,-1],"split_conditions":[9.133E-1,7.957E-1,1.0265E0,7.226E-1,8.551E-1,9.57E-1,1.1041E0,6.757E-1,7.58E-1,8.275E-1,8.837E-1,9.299E-1,1.0016E0,1.0602E0,1.1459E0,6.486E-1,6.993E-1,7.387E-1,7.763E-1,8.089E-1,8.407E-1,8.678E-1,8.977E-1,1.1587106E-2,1.4006436E-2,2.0017805E-2,2.5125947E-2,2.9266628E-2,3.553149E-2,4.1073333E-2,4.8878357E-2,-3.0340513E-2,-2.567324E-2,-2.3090476E-2,-1.9174375E-2,-1.6611405E-2,-1.3774748E-2,7.686E-1,7.872E-1,8.043E-1,8.197E-1,8.347E-1,8.462E-1,8.602E-1,8.764E-1,8.919E-1,8.990233E-3,-1.1639663E-2,-1.0287082E-2,-9.030802E-3,-7.651327E-3,-6.4142146E-3,-5.2111037E-3,-4.2232485E-3,-2.7762058E-3,-1.854806E-3,-8.076118E-4,4.037589E-5,1.0430844E-3,2.1468818E-3,2.8871037E-3,4.399029E-3,5.5244225E-3,6.5323836E-3,7.455156E-3],"split_indices":[0,0,0,0,0,0,0,0,0,0,0,0,0,0,0,0,0,0,0,0,0,0,0,0,0,0,0,0,0,0,0,0,0,0,0,0,0,0,0,0,0,0,0,0,0,0,0,0,0,0,0,0,0,0,0,0,0,0,0,0,0,0,0,0,0],"split_type":[0,0,0,0,0,0,0,0,0,0,0,0,0,0,0,0,0,0,0,0,0,0,0,0,0,0,0,0,0,0,0,0,0,0,0,0,0,0,0,0,0,0,0,0,0,0,0,0,0,0,0,0,0,0,0,0,0,0,0,0,0,0,0,0,0],"sum_hessian":[4.952E3,3.887E3,1.065E3,2.202E3,1.685E3,4.64E2,6.01E2,6.38E2,1.564E3,8.51E2,8.34E2,3.09E2,1.55E2,2.51E2,3.5E2,1.75E2,4.63E2,7.72E2,7.92E2,4.85E2,3.66E2,3.5E2,4.84E2,1.54E2,1.55E2,5.8E1,9.7E1,9.7E1,1.54E2,2.32E2,1.18E2,9.7E1,7.8E1,2.12E2,2.51E2,3.47E2,4.25E2,4.28E2,3.64E2,1.75E2,3.1E2,1.73E2,1.93E2,1.17E2,2.33E2,3.09E2,1.75E2,2.52E2,1.76E2,2.31E2,1.33E2,1E2,7.5E1,1.95E2,1.15E2,9.6E1,7.7E1,5.9E1,1.34E2,6E1,5.7E1,7.8E1,1.55E2,1.74E2,1.35E2],"tree_param":{"num_deleted":"0","num_feature":"7","num_nodes":"65","size_leaf_vector":"1"}},{"base_weights":[4.059358E-5,-1.777406E-2,7.311549E-2,-3.602467E-2,5.749139E-3,4.6128124E-2,9.585932E-2,-5.2362997E-2,-2.8010488E-2,-5.607119E-3,1.610183E-2,3.391664E-2,6.181563E-2,8.79109E-2,1.1090503E-1,-6.1510764E-2,-4.483573E-2,-3.3698346E-2,-2.2285478E-2,-9.701207E-3,1.5974337E-4,1.257506E-2,2.1797862E-2,9.272289E-3,1.2986047E-2,1.657019E-2,1.9729525E-2,2.3627006E-2,2.76564E-2,3.164083E-2,3.794864E-2,-2.1331245E-2,-1.7163536E-2,-1.46386875E-2,-1.2822944E-2,-1.1133872E-2,-3.0695977E-2,-2.4881156E-2,-1.8875027E-2,-1.1957956E-2,-6.801037E-3,-2.3911188E-3,2.218201E-3,7.175562E-3,1.4286638E-2,5.863556E-3,7.557185E-3,-9.219381E-3,-2.4550618E-3,-7.864935E-3,-6.9372533E-3,-5.9732E-3,-4.8429756E-3,-4.102952E-3,-3.1777169E-3,-2.341525E-3,-1.6705001E-3,-9.641407E-4,-2.8795243E-4,1.4212188E-4,9.260193E-4,1.7799697E-3,2.607511E-3,3.8268405E-3,4.7272607E-3],"categories":[],"categories_nodes":[],"categories_segments":[],"categories_sizes":[],"default_left":[0,0,0,0,0,0,0,0,0,0,0,0,0,0,0,0,0,0,0,0,0,0,0,0,0,0,0,0,0,0,0,0,0,0,0,0,0,0,0,0,0,0,0,0,0,0,0,0,0,0,0,0,0,0,0,0,0,0,0,0,0,0,0,0,0],"id":3,"left_children":[1,3,5,7,9,11,13,15,17,19,21,23,25,27,29,31,33,35,37,39,41,43,45,-1,-1,-1,-1,-1,-1,-1,-1,-1,-1,-1,-1,-1,47,49,51,53,55,57,59,61,63,-1,-1,-1,-1,-1,-1,-1,-1,-1,-1,-1,-1,-1,-1,-1,-1,-1,-1,-1,-1],"loss_changes":[6.4491353E0,1.7101597E0,5.915737E-1,2.9222775E-1,2.0477588E-1,8.334267E-2,5.315447E-2,4.7990322E-2,4.8321605E-2,1.9621497E-2,1.8026575E-2,5.795419E-3,1.4103055E-3,6.4041615E-3,1.7428398E-3,9.54175E-3,1.2952089E-3,6.590605E-3,6.2051117E-3,3.0995235E-3,1.8220954E-3,5.119033E-3,2.159685E-3,0E0,0E0,0E0,0E0,0E0,0E0,0E0,0E0,0E0,0E0,0E0,0E0,0E0,7.18534E-5,3.9085746E-4,6.121844E-4,4.934594E-4,2.226429E-4,1.7942593E-4,2.894401E-4,2.0835968E-4,7.6251477E-4,0E0,0E0,0E0,0E0,0E0,0E0,0E0,0E0,0E0,0E0,0E0,0E0,0E0,0E0,0E0,0E0,0E0,0E0,0E0,0E0],"parents":[2147483647,0,0,1,1,2,2,3,3,4,4,5,5,6,6,7,7,8,8,9,9,10,10,11,11,12,12,13,13,14,14,15,15,16,16,17,17,18,18,19,19,20,20,21,21,22,22,36,36,37,37,38,38,39,39,40,40,41,41,42,42,43,43,44,44],"right_children":[2,4,6,8,10,12,14,16,18,20,22,24,26,28,30,32,34,36,38,40,42,44,46,-1,-1,-1,-1,-1,-1,-1,-1,-1,-1,-1,-1,-1,48,50,52,54,56,58,60,62,64,-1,-1,-1,-1,-1,-1,-1,-1,-1,-1,-1,-1,-1,-1,-1,-1,-1,-1,-1,-1],"split_conditions":[9.22E-1,7.986E-1,1.0542E0,7.281E-1,8.565E-1,9.918E-1,1.1357E0,6.942E-1,7.616E-1,8.305E-1,8.941E-1,9.477E-1,1.0179E0,1.0927E0,1.1723E0,6.486E-1,7.056E-1,7.427E-1,7.799E-1,8.158E-1,8.427E-1,8.727E-1,9.093E-1,9.272289E-3,1.2986047E-2,1.657019E-2,1.9729525E-2,2.3627006E-2,2.76564E-2,3.164083E-2,3.794864E-2,-2.1331245E-2,-1.7163536E-2,-1.46386875E-2,-1.2822944E-2,-1.1133872E-2,7.781E-1,7.716E-1,7.919E-1,8.077E-1,8.244E-1,8.384E-1,8.474E-1,8.645E-1,8.846E-1,5.863556E-3,7.557185E-3,-9.219381E-3,-2.4550618E-3,-7.864935E-3,-6.9372533E-3,-5.9732E-3,-4.8429756E-3,-4.102952E-3,-3.1777169E-3,-2.341525E-3,-1.6705001E-3,-9.641407E-4,-2.8795243E-4,1.4212188E-4,9.260193E-4,1.7799697E-3,2.607511E-3,3.8268405E-3,4.7272607E-3],"split_indices":[0,0,0,0,0,0,0,0,0,0,0,0,0,0,0,0,0,0,0,0,0,0,0,0,0,0,0,0,0,0,0,0,0,0,0,0,3,0,0,0,0,0,1,1,0,0,0,0,0,0,0,0,0,0,0,0,0,0,0,0,0,0,0,0,0],"split_type":[0,0,0,0,0,0,0,0,0,0,0,0,0,0,0,0,0,0,0,0,0,0,0,0,0,0,0,0,0,0,0,0,0,0,0,0,0,0,0,0,0,0,0,0,0,0,0,0,0,0,0,0,0,0,0,0,0,0,0,0,0,0,0,0,0],"sum_hessian":[4.952E3,3.982E3,9.7E2,2.242E3,1.74E3,4.45E2,5.25E2,7.36E2,1.506E3,8.3E2,9.1E2,2.52E2,1.93E2,3.48E2,1.77E2,3.29E2,4.07E2,7.53E2,7.53E2,4.85E2,3.45E2,5.64E2,3.46E2,1.94E2,5.8E1,7.8E1,1.15E2,1.17E2,2.31E2,1.37E2,4E1,9.7E1,2.32E2,1.33E2,2.74E2,3.47E2,4.06E2,4.24E2,3.29E2,2.71E2,2.14E2,1.54E2,1.91E2,1.37E2,4.27E2,2.12E2,1.34E2,4.05E2,1E0,2.33E2,1.91E2,2.34E2,9.5E1,1.16E2,1.55E2,1.15E2,9.9E1,9.7E1,5.7E1,6.4E1,1.27E2,7.8E1,5.9E1,2.14E2,2.13E2],"tree_param":{"num_deleted":"0","num_feature":"7","num_nodes":"65","size_leaf_vector":"1"}},{"base_weights":[4.45491E-5,-1.1203973E-2,5.7170425E-2,-2.4886964E-2,5.9561427E-3,3.9975017E-2,6.866964E-2,-3.537169E-2,-1.8496813E-2,-2.6995656E-3,1.3429477E-2,2.9566864E-2,4.5504496E-2,6.526252E-2,2.555628E-2,-4.3174196E-2,-3.055583E-2,-2.1962613E-2,-1.4392882E-2,-5.871128E-3,1.4281769E-3,1.03188455E-2,1.8602757E-2,7.4491627E-3,1.01406155E-2,1.2552304E-2,1.4836268E-2,1.847663E-2,2.1240678E-2,-1.463351E-2,-1.1713273E-2,-9.90663E-3,-8.489657E-3,-7.180512E-3,-1.9511778E-2,-1.6168639E-2,-1.2105649E-2,-7.3967315E-3,-3.8932513E-3,-1.889076E-4,3.2016418E-3,7.2767204E-3,1.1304154E-2,4.7834003E-3,2.043253E-2,-5.8796215E-3,-8.6749793E-4,-4.2080285E-4,-4.861516E-3,-3.7722543E-3,-2.8576497E-3,-3.608178E-3,-2.1293059E-3,-1.3512652E-3,-4.957609E-4,-3.4691833E-4,3.6489285E-4,6.6086964E-4,1.1794083E-3,-1.5501381E-4,2.1993106E-3,2.9832881E-3,3.6697485E-3,6.1607813E-3,2.9531794E-3],"categories":[],"categories_nodes":[],"categories_segments":[],"categories_sizes":[],"default_left":[0,0,0,0,0,0,0,0,0,0,0,0,0,0,0,0,0,0,0,0,0,0,0,0,0,0,0,0,0,0,0,0,0,0,0,0,0,0,0,0,0,0,0,0,0,0,0,0,0,0,0,0,0,0,0,0,0,0,0,0,0,0,0,0,0],"id":4,"left_children":[1,3,5,7,9,11,13,15,17,19,21,23,25,27,-1,29,31,33,35,37,39,41,43,-1,-1,-1,-1,-1,-1,-1,-1,-1,-1,-1,45,47,49,51,53,55,57,59,61,-1,63,-1,-1,-1,-1,-1,-1,-1,-1,-1,-1,-1,-1,-1,-1,-1,-1,-1,-1,-1,-1],"loss_changes":[3.1833477E0,9.7199255E-1,1.5840793E-1,1.5364444E-1,1.1886626E-1,1.7589033E-2,2.1847963E-2,3.1409264E-2,2.0066053E-2,1.1162249E-2,1.5674919E-2,1.5076026E-3,1.0128915E-3,3.9428473E-3,0E0,5.7332516E-3,2.082467E-3,3.279388E-3,2.4808347E-3,1.4256183E-3,1.0645746E-3,1.7701536E-3,1.4689118E-3,0E0,0E0,0E0,0E0,0E0,0E0,0E0,0E0,0E0,0E0,0E0,4.506111E-4,1.7513335E-4,2.3321807E-4,2.8989743E-4,2.8278492E-4,2.6651466E-4,1.2033747E-4,6.897561E-5,4.653819E-4,0E0,3.325194E-5,0E0,0E0,0E0,0E0,0E0,0E0,0E0,0E0,0E0,0E0,0E0,0E0,0E0,0E0,0E0,0E0,0E0,0E0,0E0,0E0],"parents":[2147483647,0,0,1,1,2,2,3,3,4,4,5,5,6,6,7,7,8,8,9,9,10,10,11,11,12,12,13,13,15,15,16,16,17,17,18,18,19,19,20,20,21,21,22,22,34,34,35,35,36,36,37,37,38,38,39,39,40,40,41,41,42,42,44,44],"right_children":[2,4,6,8,10,12,14,16,18,20,22,24,26,28,-1,30,32,34,36,38,40,42,44,-1,-1,-1,-1,-1,-1,-1,-1,-1,-1,-1,46,48,50,52,54,56,58,60,62,-1,64,-1,-1,-1,-1,-1,-1,-1,-1,-1,-1,-1,-1,-1,-1,-1,-1,-1,-1,-1,-1],"split_conditions":[9.429E-1,8.043E-1,1.0668E0,7.342E-1,8.645E-1,1.0016E0,1.1597E0,6.942E-1,7.679E-1,8.347E-1,9.029E-1,9.575E-1,1.0314E0,1.1254E0,2.555628E-2,6.709E-1,7.18E-1,7.526E-1,7.845E-1,8.197E-1,8.496E-1,8.792E-1,9.171E-1,7.4491627E-3,1.01406155E-2,1.2552304E-2,1.4836268E-2,1.847663E-2,2.1240678E-2,-1.463351E-2,-1.1713273E-2,-9.90663E-3,-8.489657E-3,-7.180512E-3,7.837E-1,7.435E-1,8.008E-1,7.932E-1,8.347E-1,8.445E-1,8.551E-1,8.579E-1,8.884E-1,4.7834003E-3,9.492E-1,-5.8796215E-3,-8.6749793E-4,-4.2080285E-4,-4.861516E-3,-3.7722543E-3,-2.8576497E-3,-3.608178E-3,-2.1293059E-3,-1.3512652E-3,-4.957609E-4,-3.4691833E-4,3.6489285E-4,6.6086964E-4,1.1794083E-3,-1.5501381E-4,2.1993106E-3,2.9832881E-3,3.6697485E-3,6.1607813E-3,2.9531794E-3],"split_indices":[1,0,0,0,0,0,0,0,0,0,0,2,2,0,0,0,0,0,0,0,0,0,0,0,0,0,0,0,0,0,0,0,0,0,2,4,1,6,5,2,0,1,0,0,5,0,0,0,0,0,0,0,0,0,0,0,0,0,0,0,0,0,0,0,0],"split_type":[0,0,0,0,0,0,0,0,0,0,0,0,0,0,0,0,0,0,0,0,0,0,0,0,0,0,0,0,0,0,0,0,0,0,0,0,0,0,0,0,0,0,0,0,0,0,0,0,0,0,0,0,0,0,0,0,0,0,0,0,0,0,0,0,0],"sum_hessian":[4.952E3,4.138E3,8.14E2,2.302E3,1.836E3,3.28E2,4.86E2,8.7E2,1.432E3,8.51E2,9.85E2,1.16E2,2.12E2,4.07E2,7.9E1,3.29E2,5.41E2,7.74E2,6.58E2,4.81E2,3.7E2,6.17E2,3.68E2,5.8E1,5.8E1,1.16E2,9.6E1,2.52E2,1.55E2,1.35E2,1.94E2,2.52E2,2.89E2,4.24E2,3.5E2,3.67E2,2.91E2,2.7E2,2.11E2,1.94E2,1.76E2,1.53E2,4.64E2,1.54E2,2.14E2,3.48E2,2E0,1E0,3.66E2,2.43E2,4.8E1,1.4E1,2.56E2,1.65E2,4.6E1,1.15E2,7.9E1,7.6E1,1E2,1E0,1.52E2,1.93E2,2.71E2,2.11E2,3E0],"tree_param":{"num_deleted":"0","num_feature":"7","num_nodes":"65","size_leaf_vector":"1"}},{"base_weights":[4.2602616E-5,-8.195559E-3,3.855336E-2,-1.7451514E-2,3.7913204E-3,2.5787579E-2,4.780489E-2,-2.4464328E-2,-1.2692147E-2,-2.0343198E-3,8.900119E-3,1.8396044E-2,3.0996416E-2,4.437206E-2,5.652463E-2,-2.9468833E-2,-2.0513462E-2,-1.49057945E-2,-9.853798E-3,-4.4346373E-3,4.830501E-4,7.033645E-3,1.2358068E-2,1.61054E-2,6.5847808E-3,8.259955E-3,1.0082994E-2,1.1909569E-2,1.4066832E-2,5.263442E-2,1.9361826E-2,-1.1537486E-2,-2.7869271E-2,-2.1712199E-2,-5.849512E-3,-1.6172318E-2,-1.3331642E-2,-1.0689965E-2,-7.7549014E-3,-5.8008637E-3,-3.4866377E-3,-9.2545815E-4,1.7451852E-3,4.9613644E-3,7.828124E-3,1.0429974E-2,1.3363475E-2,4.856092E-3,1.2289435E-3,1.5866708E-2,4.152471E-3,-9.111426E-3,-7.84116E-3,-3.9613317E-3,-6.564116E-3,-4.9044974E-3,-3.6098796E-3,-4.0157754E-3,-1.5911983E-3,-3.5203355E-3,-2.973857E-3,-5.9831404E-4,-2.3839446E-3,-1.8069692E-3,9.9857374E-5,-1.2136468E-3,-8.424763E-4,-5.8301236E-4,-5.158048E-5,-1.7441273E-3,5.5303675E-4,6.088389E-4,1.5859954E-3,2.0908383E-3,2.5356633E-3,3.2405714E-3,2.146777E-3,4.0208446E-3,7.475943E-4],"categories":[],"categories_nodes":[],"categories_segments":[],"categories_sizes":[],"default_left":[0,0,0,0,0,0,0,0,0,0,0,0,0,0,0,0,0,0,0,0,0,0,0,0,0,0,0,0,0,0,0,0,0,0,0,0,0,0,0,0,0,0,0,0,0,0,0,0,0,0,0,0,0,0,0,0,0,0,0,0,0,0,0,0,0,0,0,0,0,0,0,0,0,0,0,0,0,0,0],"id":5,"left_children":[1,3,5,7,9,11,13,15,17,19,21,23,25,27,29,31,33,35,37,39,41,43,45,47,-1,-1,-1,-1,-1,49,-1,-1,51,53,-1,55,57,59,61,63,65,67,69,71,73,75,77,-1,-1,-1,-1,-1,-1,-1,-1,-1,-1,-1,-1,-1,-1,-1,-1,-1,-1,-1,-1,-1,-1,-1,-1,-1,-1,-1,-1,-1,-1,-1,-1],"loss_changes":[1.5716941E0,4.528531E-1,1.0187113E-1,7.655567E-2,5.296475E-2,1.3636768E-2,1.26081705E-2,1.7783582E-2,8.486107E-3,5.02949E-3,6.031625E-3,9.080693E-4,1.0206699E-3,2.4563074E-3,9.369254E-4,4.7948956E-3,2.130419E-4,1.3195425E-3,9.788945E-4,5.3152256E-4,7.251503E-4,9.786282E-4,5.022697E-4,2.9690564E-5,0E0,0E0,0E0,0E0,0E0,2.4572015E-4,0E0,0E0,7.2303414E-4,4.1618943E-5,0E0,1.1073053E-4,8.105859E-5,2.3270398E-4,1.7838646E-4,2.3796549E-4,8.4934756E-5,1.4770144E-4,1.7042411E-4,1.5521608E-4,1.7955899E-4,6.6393055E-5,5.812943E-5,0E0,0E0,0E0,0E0,0E0,0E0,0E0,0E0,0E0,0E0,0E0,0E0,0E0,0E0,0E0,0E0,0E0,0E0,0E0,0E0,0E0,0E0,0E0,0E0,0E0,0E0,0E0,0E0,0E0,0E0,0E0,0E0],"parents":[2147483647,0,0,1,1,2,2,3,3,4,4,5,5,6,6,7,7,8,8,9,9,10,10,11,11,12,12,13,13,14,14,15,15,16,16,17,17,18,18,19,19,20,20,21,21,22,22,23,23,29,29,32,32,33,33,35,35,36,36,37,37,38,38,39,39,40,40,41,41,42,42,43,43,44,44,45,45,46,46],"right_children":[2,4,6,8,10,12,14,16,18,20,22,24,26,28,30,32,34,36,38,40,42,44,46,48,-1,-1,-1,-1,-1,50,-1,-1,52,54,-1,56,58,60,62,64,66,68,70,72,74,76,78,-1,-1,-1,-1,-1,-1,-1,-1,-1,-1,-1,-1,-1,-1,-1,-1,-1,-1,-1,-1,-1,-1,-1,-1,-1,-1,-1,-1,-1,-1,-1,-1],"split_conditions":[9.35E-1,8.043E-1,1.0602E0,7.36E-1,8.624E-1,9.918E-1,1.1409E0,7.011E-1,7.705E-1,8.305E-1,9.006E-1,9.483E-1,1.0219E0,1.1002E0,1.1723E0,6.409E-1,7.226E-1,7.552E-1,7.908E-1,8.142E-1,8.462E-1,8.792E-1,9.111E-1,9.601E-1,6.5847808E-3,8.259955E-3,1.0082994E-2,1.1909569E-2,1.4066832E-2,1.1813E0,1.9361826E-2,-1.1537486E-2,6.784E-1,6.856E-1,-5.849512E-3,7.598E-1,7.861E-1,7.781E-1,7.861E-1,8.269E-1,8.229E-1,8.347E-1,8.407E-1,8.602E-1,8.884E-1,9.207E-1,9.492E-1,4.856092E-3,1.2289435E-3,1.5866708E-2,4.152471E-3,-9.111426E-3,-7.84116E-3,-3.9613317E-3,-6.564116E-3,-4.9044974E-3,-3.6098796E-3,-4.0157754E-3,-1.5911983E-3,-3.5203355E-3,-2.973857E-3,-5.9831404E-4,-2.3839446E-3,-1.8069692E-3,9.9857374E-5,-1.2136468E-3,-8.424763E-4,-5.8301236E-4,-5.158048E-5,-1.7441273E-3,5.5303675E-4,6.088389E-4,1.5859954E-3,2.0908383E-3,2.5356633E-3,3.2405714E-3,2.146777E-3,4.0208446E-3,7.475943E-4],"split_indices":[0,0,2,0,0,2,0,0,0,0,1,3,0,0,0,0,2,0,0,0,1,0,0,6,0,0,0,0,0,1,0,0,0,5,0,1,2,0,1,4,0,5,2,3,0,6,5,0,0,0,0,0,0,0,0,0,0,0,0,0,0,0,0,0,0,0,0,0,0,0,0,0,0,0,0,0,0,0,0],"split_type":[0,0,0,0,0,0,0,0,0,0,0,0,0,0,0,0,0,0,0,0,0,0,0,0,0,0,0,0,0,0,0,0,0,0,0,0,0,0,0,0,0,0,0,0,0,0,0,0,0,0,0,0,0,0,0,0,0,0,0,0,0,0,0,0,0,0,0,0,0,0,0,0,0,0,0,0,0,0,0],"sum_hessian":[4.952E3,4.08E3,8.72E2,2.302E3,1.778E3,3.68E2,5.04E2,9.29E2,1.373E3,8.31E2,9.47E2,1.54E2,2.14E2,3.66E2,1.38E2,4.07E2,5.22E2,7.69E2,6.04E2,4.25E2,4.06E2,6.17E2,3.3E2,9.7E1,5.7E1,9.7E1,1.17E2,1.34E2,2.32E2,9.8E1,4E1,5.8E1,3.49E2,2.3E2,2.92E2,4.21E2,3.48E2,4.29E2,1.75E2,1.72E2,2.53E2,1.92E2,2.14E2,1.73E2,4.44E2,1.17E2,2.13E2,9.6E1,1E0,9.7E1,1E0,1.36E2,2.13E2,6E0,2.24E2,4.01E2,2E1,3.45E2,3E0,1.77E2,2.52E2,6E0,1.69E2,1.66E2,6E0,1.36E2,1.17E2,8.1E1,1.11E2,2E0,2.12E2,1.8E1,1.55E2,1.92E2,2.52E2,1.03E2,1.4E1,2.12E2,1E0],"tree_param":{"num_deleted":"0","num_feature":"7","num_nodes":"79","size_leaf_vector":"1"}},{"base_weights":[3.775932E-5,-5.9875986E-3,2.6074255E-2,-1.2636575E-2,1.9156092E-3,1.7420534E-2,3.392812E-2,-1.894209E-2,-1.0148914E-2,-2.1491137E-3,5.7133203E-3,1.2307458E-2,2.2019954E-2,3.2128673E-2,1.2804355E-2,-2.3994667E-2,-1.7195024E-2,-1.2646096E-2,-8.4149605E-3,-3.811603E-3,-3.086134E-4,4.406336E-3,7.955148E-3,3.4049258E-3,4.886783E-3,5.9371693E-3,2.4097957E-2,2.8868767E-2,1.0203524E-2,-8.544906E-3,-6.676532E-3,-1.8641023E-2,-1.510137E-2,-1.3370803E-2,-1.1105836E-2,-9.28294E-3,-6.9391592E-3,-6.3128294E-3,-3.523315E-3,-1.3006948E-3,6.756016E-4,2.6292345E-3,5.031399E-3,7.1574408E-3,8.896174E-3,7.2869817E-3,2.6310205E-3,8.687513E-3,2.2468865E-3,-5.601816E-3,-1.5219838E-3,-3.009065E-3,-4.5796675E-3,-3.8463477E-4,-4.0272516E-3,-6.901056E-4,-3.341044E-3,-2.9808497E-3,-2.6069393E-3,2.706975E-4,-2.1029885E-3,4.588813E-5,-2.0271465E-3,-1.1954205E-3,-7.343914E-4,-1.9235492E-3,-3.6633175E-4,-5.006497E-4,2.509002E-4,6.5262406E-4,1.1408712E-3,1.0325095E-3,1.5810615E-3,2.9347122E-3,2.0696798E-3,3.2106119E-3,2.3589118E-3],"categories":[],"categories_nodes":[],"categories_segments":[],"categories_sizes":[],"default_left":[0,0,0,0,0,0,0,0,0,0,0,0,0,0,0,0,0,0,0,0,0,0,0,0,0,0,0,0,0,0,0,0,0,0,0,0,0,0,0,0,0,0,0,0,0,0,0,0,0,0,0,0,0,0,0,0,0,0,0,0,0,0,0,0,0,0,0,0,0,0,0,0,0,0,0,0,0],"id":6,"left_children":[1,3,5,7,9,11,13,15,17,19,21,23,25,27,-1,29,31,33,35,37,39,41,43,-1,-1,-1,45,47,-1,-1,-1,49,51,53,55,57,59,61,63,65,67,69,71,73,75,-1,-1,-1,-1,-1,-1,-1,-1,-1,-1,-1,-1,-1,-1,-1,-1,-1,-1,-1,-1,-1,-1,-1,-1,-1,-1,-1,-1,-1,-1,-1,-1],"loss_changes":[7.7717894E-1,2.1142575E-1,6.268442E-2,3.4081608E-2,2.8400265E-2,1.0194138E-2,6.2992573E-3,5.033776E-3,6.687343E-3,2.7189967E-3,2.7514063E-3,6.2737614E-4,6.0249865E-4,1.52269E-3,0E0,5.8411807E-4,1.1171699E-3,5.6701154E-4,1.1256039E-3,3.144988E-4,4.1390499E-4,6.5658335E-4,1.9830838E-4,0E0,0E0,0E0,1.2832135E-4,8.198619E-5,0E0,0E0,0E0,2.0943582E-5,8.4117055E-6,2.6085973E-4,3.193319E-5,1.391545E-4,1.9953214E-4,1.3606064E-4,1.9913958E-4,7.800324E-5,8.165972E-5,7.641618E-5,1.5079789E-4,6.4153224E-5,2.068989E-4,0E0,0E0,0E0,0E0,0E0,0E0,0E0,0E0,0E0,0E0,0E0,0E0,0E0,0E0,0E0,0E0,0E0,0E0,0E0,0E0,0E0,0E0,0E0,0E0,0E0,0E0,0E0,0E0,0E0,0E0,0E0,0E0],"parents":[2147483647,0,0,1,1,2,2,3,3,4,4,5,5,6,6,7,7,8,8,9,9,10,10,11,11,12,12,13,13,15,15,16,16,17,17,18,18,19,19,20,20,21,21,22,22,26,26,27,27,31,31,32,32,33,33,34,34,35,35,36,36,37,37,38,38,39,39,40,40,41,41,42,42,43,43,44,44],"right_children":[2,4,6,8,10,12,14,16,18,20,22,24,26,28,-1,30,32,34,36,38,40,42,44,-1,-1,-1,46,48,-1,-1,-1,50,52,54,56,58,60,62,64,66,68,70,72,74,76,-1,-1,-1,-1,-1,-1,-1,-1,-1,-1,-1,-1,-1,-1,-1,-1,-1,-1,-1,-1,-1,-1,-1,-1,-1,-1,-1,-1,-1,-1,-1,-1],"split_conditions":[9.276E-1,7.947E-1,1.0668E0,7.21E-1,8.565E-1,9.918E-1,1.1597E0,6.738E-1,7.51E-1,8.26E-1,8.958E-1,9.599E-1,1.0265E0,1.1077E0,1.2804355E-2,6.364E-1,7.028E-1,7.411E-1,7.763E-1,7.947E-1,8.407E-1,8.75E-1,9.111E-1,3.4049258E-3,4.886783E-3,5.9371693E-3,1.1002E0,1.1409E0,1.0203524E-2,-8.544906E-3,-6.676532E-3,7.136E-1,6.833E-1,7.07E-1,7.18E-1,7.631E-1,7.552E-1,7.791E-1,8.174E-1,8.104E-1,8.328E-1,8.75E-1,8.764E-1,8.821E-1,9.158E-1,7.2869817E-3,2.6310205E-3,8.687513E-3,2.2468865E-3,-5.601816E-3,-1.5219838E-3,-3.009065E-3,-4.5796675E-3,-3.8463477E-4,-4.0272516E-3,-6.901056E-4,-3.341044E-3,-2.9808497E-3,-2.6069393E-3,2.706975E-4,-2.1029885E-3,4.588813E-5,-2.0271465E-3,-1.1954205E-3,-7.343914E-4,-1.9235492E-3,-3.6633175E-4,-5.006497E-4,2.509002E-4,6.5262406E-4,1.1408712E-3,1.0325095E-3,1.5810615E-3,2.9347122E-3,2.0696798E-3,3.2106119E-3,2.3589118E-3],"split_indices":[0,2,0,2,0,0,0,0,0,1,0,5,0,1,0,0,0,0,1,0,0,0,0,0,0,0,6,6,0,0,0,2,6,1,6,0,4,5,4,3,5,4,6,6,2,0,0,0,0,0,0,0,0,0,0,0,0,0,0,0,0,0,0,0,0,0,0,0,0,0,0,0,0,0,0,0,0],"split_type":[0,0,0,0,0,0,0,0,0,0,0,0,0,0,0,0,0,0,0,0,0,0,0,0,0,0,0,0,0,0,0,0,0,0,0,0,0,0,0,0,0,0,0,0,0,0,0,0,0,0,0,0,0,0,0,0,0,0,0,0,0,0,0,0,0,0,0,0,0,0,0,0,0,0,0,0,0],"sum_hessian":[4.952E3,4.022E3,9.3E2,2.184E3,1.838E3,4.44E2,4.86E2,6.16E2,1.568E3,8.88E2,9.5E2,2.12E2,2.32E2,4.07E2,7.9E1,1.55E2,4.61E2,6.4E2,9.28E2,4.66E2,4.22E2,6.02E2,3.48E2,1.74E2,3.8E1,1.17E2,1.15E2,1.55E2,2.52E2,3.9E1,1.16E2,2.68E2,1.93E2,4.3E2,2.1E2,5.81E2,3.47E2,4.6E1,4.2E2,2.1E2,2.12E2,1.58E2,4.44E2,1.93E2,1.55E2,1.13E2,2E0,1.54E2,1E0,2.67E2,1E0,8E0,1.85E2,2E0,4.28E2,1E0,2.09E2,2.69E2,3.12E2,3E0,3.44E2,3E0,4.3E1,2.92E2,1.28E2,2E0,2.08E2,1.3E1,1.99E2,1.16E2,4.2E1,6E1,3.84E2,1.4E1,1.79E2,5.3E1,1.02E2],"tree_param":{"num_deleted":"0","num_feature":"7","num_nodes":"77","size_leaf_vector":"1"}},{"base_weights":[3.0634754E-5,-4.3166676E-3,1.786305E-2,-8.7748505E-3,1.3307906E-3,1.0438808E-2,2.278615E-2,-1.2886825E-2,-6.8205497E-3,-1.4587679E-3,3.8159662E-3,7.81877E-3,1.3598062E-2,2.0211529E-2,2.7067048E-2,-1.6211541E-2,-1.1456168E-2,-8.350487E-3,-5.5686096E-3,-2.4956323E-3,-1.4670538E-4,2.9009138E-3,5.19307E-3,1.2111562E-2,7.5724265E-3,1.1736772E-2,4.326132E-3,1.7374048E-2,6.4346185E-3,2.5891744E-2,1.0876259E-2,-5.7953787E-3,-4.4773556E-3,-1.26584815E-2,-1.0532624E-2,-9.051703E-3,-7.583594E-3,-6.116888E-3,-4.313849E-3,-3.0658722E-3,-1.6891354E-3,-6.1075337E-4,6.100778E-4,1.970328E-3,3.5463534E-3,4.8947716E-3,7.2386754E-3,3.2948257E-4,3.963969E-3,6.6572E-3,8.532247E-3,3.9283247E-3,9.211275E-3,1.7471919E-2,9.031713E-4,1.8555344E-3,7.7884328E-3,-3.8201944E-3,-9.311021E-4,-3.1328693E-3,-5.4830257E-3,-1.5357435E-4,-2.7224317E-3,-2.2806788E-3,-2.1624863E-4,-1.8905998E-4,-1.8490996E-3,-2.2315925E-3,-1.2391309E-3,6.002283E-4,-9.4487524E-4,-5.3171837E-4,1.2607456E-3,-2.4338186E-4,2.069056E-4,1.4050842E-3,1.3674887E-4,1.4142587E-3,5.397703E-4,1.0366424E-3,2.363369E-3,1.5928975E-3,7.8195886E-4,2.9332703E-3,1.8701756E-3,2.055844E-3,1.2047357E-3,3.397798E-3,2.3649223E-3,1.4968897E-3,3.1023861E-3,5.2683856E-3,1.0792315E-3],"categories":[],"categories_nodes":[],"categories_segments":[],"categories_sizes":[],"default_left":[0,0,0,0,0,0,0,0,0,0,0,0,0,0,0,0,0,0,0,0,0,0,0,0,0,0,0,0,0,0,0,0,0,0,0,0,0,0,0,0,0,0,0,0,0,0,0,0,0,0,0,0,0,0,0,0,0,0,0,0,0,0,0,0,0,0,0,0,0,0,0,0,0,0,0,0,0,0,0,0,0,0,0,0,0,0,0,0,0,0,0,0,0],"id":7,"left_children":[1,3,5,7,9,11,13,15,17,19,21,23,25,27,29,31,33,35,37,39,41,43,45,47,49,51,-1,53,-1,55,-1,-1,-1,57,59,61,63,65,67,69,71,73,75,77,79,81,83,-1,-1,85,87,-1,89,91,-1,-1,-1,-1,-1,-1,-1,-1,-1,-1,-1,-1,-1,-1,-1,-1,-1,-1,-1,-1,-1,-1,-1,-1,-1,-1,-1,-1,-1,-1,-1,-1,-1,-1,-1,-1,-1,-1,-1],"loss_changes":[3.8404804E-1,1.0029328E-1,3.5252452E-2,1.7800301E-2,1.2192977E-2,3.1135753E-3,5.8785677E-3,3.2199547E-3,2.8476566E-3,1.1274313E-3,1.1568489E-3,1.3564713E-4,9.861961E-5,9.1922283E-4,1.3936162E-3,5.6326017E-4,4.2630732E-4,2.959557E-4,5.4736994E-4,2.0775339E-4,1.2925702E-4,3.2996945E-4,1.9034278E-4,1.0681816E-4,1.2416113E-4,8.167792E-5,0E0,1.1187419E-4,0E0,1.0727346E-4,0E0,0E0,0E0,1.14854425E-4,1.1339784E-5,6.410666E-5,3.6798418E-5,1.444593E-4,1.16568524E-4,1.2081838E-4,1.02611375E-4,6.0013546E-5,8.5832056E-5,1.0043249E-4,1.0268157E-4,2.9565208E-4,5.3841155E-5,0E0,0E0,2.9317569E-5,8.6638145E-5,0E0,6.289291E-5,8.0652535E-5,0E0,0E0,0E0,0E0,0E0,0E0,0E0,0E0,0E0,0E0,0E0,0E0,0E0,0E0,0E0,0E0,0E0,0E0,0E0,0E0,0E0,0E0,0E0,0E0,0E0,0E0,0E0,0E0,0E0,0E0,0E0,0E0,0E0,0E0,0E0,0E0,0E0,0E0,0E0],"parents":[2147483647,0,0,1,1,2,2,3,3,4,4,5,5,6,6,7,7,8,8,9,9,10,10,11,11,12,12,13,13,14,14,15,15,16,16,17,17,18,18,19,19,20,20,21,21,22,22,23,23,24,24,25,25,27,27,29,29,33,33,34,34,35,35,36,36,37,37,38,38,39,39,40,40,41,41,42,42,43,43,44,44,45,45,46,46,49,49,50,50,52,52,53,53],"right_children":[2,4,6,8,10,12,14,16,18,20,22,24,26,28,30,32,34,36,38,40,42,44,46,48,50,52,-1,54,-1,56,-1,-1,-1,58,60,62,64,66,68,70,72,74,76,78,80,82,84,-1,-1,86,88,-1,90,92,-1,-1,-1,-1,-1,-1,-1,-1,-1,-1,-1,-1,-1,-1,-1,-1,-1,-1,-1,-1,-1,-1,-1,-1,-1,-1,-1,-1,-1,-1,-1,-1,-1,-1,-1,-1,-1,-1,-1],"split_conditions":[9.22E-1,7.972E-1,1.0314E0,7.268E-1,8.551E-1,9.592E-1,1.1292E0,6.804E-1,7.572E-1,8.275E-1,8.932E-1,9.111E-1,1.0016E0,1.0738E0,1.1813E0,6.409E-1,7.028E-1,7.417E-1,7.827E-1,8.149E-1,8.462E-1,8.781E-1,9.225E-1,9.158E-1,9.381E-1,9.918E-1,4.326132E-3,1.0855E0,6.4346185E-3,1.112E0,1.0876259E-2,-5.7953787E-3,-4.4773556E-3,7.18E-1,7.411E-1,7.028E-1,7.741E-1,7.393E-1,7.679E-1,7.861E-1,8.445E-1,8.445E-1,8.384E-1,8.474E-1,9.093E-1,9.161E-1,9.257E-1,3.2948257E-4,3.963969E-3,9.455E-1,9.308E-1,3.9283247E-3,9.918E-1,1.1002E0,9.031713E-4,1.8555344E-3,7.7884328E-3,-3.8201944E-3,-9.311021E-4,-3.1328693E-3,-5.4830257E-3,-1.5357435E-4,-2.7224317E-3,-2.2806788E-3,-2.1624863E-4,-1.8905998E-4,-1.8490996E-3,-2.2315925E-3,-1.2391309E-3,6.002283E-4,-9.4487524E-4,-5.3171837E-4,1.2607456E-3,-2.4338186E-4,2.069056E-4,1.4050842E-3,1.3674887E-4,1.4142587E-3,5.397703E-4,1.0366424E-3,2.363369E-3,1.5928975E-3,7.8195886E-4,2.9332703E-3,1.8701756E-3,2.055844E-3,1.2047357E-3,3.397798E-3,2.3649223E-3,1.4968897E-3,3.1023861E-3,5.2683856E-3,1.0792315E-3],"split_indices":[0,3,1,0,0,3,0,1,0,0,0,3,0,1,0,0,0,0,0,0,4,3,5,1,1,4,0,0,0,2,0,0,0,2,2,4,3,4,5,5,6,2,6,4,4,4,5,0,0,5,5,0,2,4,0,0,0,0,0,0,0,0,0,0,0,0,0,0,0,0,0,0,0,0,0,0,0,0,0,0,0,0,0,0,0,0,0,0,0,0,0,0,0],"split_type":[0,0,0,0,0,0,0,0,0,0,0,0,0,0,0,0,0,0,0,0,0,0,0,0,0,0,0,0,0,0,0,0,0,0,0,0,0,0,0,0,0,0,0,0,0,0,0,0,0,0,0,0,0,0,0,0,0,0,0,0,0,0,0,0,0,0,0,0,0,0,0,0,0,0,0,0,0,0,0,0,0,0,0,0,0,0,0,0,0,0,0,0,0],"sum_hessian":[4.952E3,3.982E3,9.7E2,2.225E3,1.757E3,3.88E2,5.82E2,7.15E2,1.51E3,8.28E2,9.29E2,2.14E2,1.74E2,3.67E2,2.15E2,2.12E2,5.03E2,6.77E2,8.33E2,4.62E2,3.66E2,5.6E2,3.69E2,9E0,2.05E2,5.8E1,1.16E2,1.16E2,2.51E2,1.94E2,2.1E1,5.8E1,1.54E2,2.13E2,2.9E2,3.48E2,3.29E2,5.77E2,2.56E2,2.69E2,1.93E2,2.27E2,1.39E2,2.31E2,3.29E2,3.25E2,4.4E1,1E0,8E0,1.09E2,9.6E1,3.5E1,2.3E1,1.15E2,1E0,1E0,1.93E2,2.11E2,2E0,2.89E2,1E0,1E0,3.47E2,3.28E2,1E0,5E0,5.72E2,1.2E1,2.44E2,4E0,2.65E2,1.91E2,2E0,1.97E2,3E1,4E0,1.35E2,1.2E1,2.19E2,3.24E2,5E0,2.74E2,5.1E1,1E1,3.4E1,1E2,9E0,1.5E1,8.1E1,6E0,1.7E1,1.14E2,1E0],"tree_param":{"num_deleted":"0","num_feature":"7","num_nodes":"93","size_leaf_vector":"1"}},{"base_weights":[2.9582774E-5,-2.7992404E-3,1.35913575E-2,-5.9532137E-3,1.4759011E-3,9.5566735E-3,1.692305E-2,-8.753522E-3,-4.424542E-3,-4.5634835E-4,3.2409073E-3,7.450977E-3,1.1634817E-2,1.6011752E-2,6.78529E-3,-1.1573904E-2,-7.877773E-3,-5.3162705E-3,-3.2927834E-3,-1.215899E-3,5.1405194E-4,2.5662503E-3,4.544799E-3,6.0415636E-3,8.798742E-3,1.1668583E-2,7.677019E-4,1.4173164E-2,1.6875353E-2,-1.4501244E-2,-1.0749113E-2,-8.776629E-3,-7.1035055E-3,-5.979225E-3,-4.8906924E-3,-3.61868E-3,-2.464429E-3,-4.126701E-3,-1.1561754E-3,1.01041456E-4,8.878165E-4,1.9192955E-3,2.752731E-3,4.6347934E-3,1.3905049E-3,6.834695E-3,5.282791E-3,9.175566E-3,2.5892344E-3,1.0501459E-2,1.2368881E-2,1.612373E-2,1.1923719E-2,2.5764306E-3,1.6972087E-2,-4.7481465E-3,-3.2724983E-3,-3.241068E-3,-1.3113439E-3,-2.6678978E-3,-8.355618E-4,-5.477697E-4,-2.1619468E-3,-1.8184938E-3,-1.1549318E-3,-1.4337027E-3,-2.5877403E-3,-1.103395E-3,5.126775E-4,-2.5915182E-3,-6.866957E-4,-7.636697E-5,-1.8061042E-3,8.108654E-4,-3.6657584E-4,6.7104316E-5,-5.243215E-4,6.1682856E-4,1.4523356E-4,5.0556427E-4,1.3406007E-3,9.109988E-4,6.512588E-4,9.377341E-4,1.4486184E-3,-7.2130864E-4,6.237924E-4,9.4165467E-4,2.1968412E-3,6.391498E-4,1.8338863E-3,2.781231E-3,7.6800585E-5,-9.4228686E-4,2.301635E-3,3.5373445E-3,2.5039213E-3,4.1811345E-3,3.176218E-3,4.3266825E-3,5.635178E-3,2.186358E-4,3.7311283E-3,-8.150339E-5,1.2408972E-3,3.993346E-3,5.187789E-3],"categories":[],"categories_nodes":[],"categories_segments":[],"categories_sizes":[],"default_left":[0,0,0,0,0,0,0,0,0,0,0,0,0,0,0,0,0,0,0,0,0,0,0,0,0,0,0,0,0,0,0,0,0,0,0,0,0,0,0,0,0,0,0,0,0,0,0,0,0,0,0,0,0,0,0,0,0,0,0,0,0,0,0,0,0,0,0,0,0,0,0,0,0,0,0,0,0,0,0,0,0,0,0,0,0,0,0,0,0,0,0,0,0,0,0,0,0,0,0,0,0,0,0,0,0,0,0],"id":8,"left_children":[1,3,5,7,9,11,13,15,17,19,21,23,25,27,-1,29,31,33,35,37,39,41,43,45,47,49,-1,51,53,55,57,59,61,63,65,67,69,71,73,75,77,79,81,83,85,87,89,91,93,95,97,99,101,103,105,-1,-1,-1,-1,-1,-1,-1,-1,-1,-1,-1,-1,-1,-1,-1,-1,-1,-1,-1,-1,-1,-1,-1,-1,-1,-1,-1,-1,-1,-1,-1,-1,-1,-1,-1,-1,-1,-1,-1,-1,-1,-1,-1,-1,-1,-1,-1,-1,-1,-1,-1,-1],"loss_changes":[1.9005425E-1,5.52784E-2,1.1331454E-2,1.0059558E-2,5.9390413E-3,1.6155504E-3,2.0613372E-3,1.963824E-3,1.5245844E-3,6.138658E-4,7.888451E-4,3.1915586E-4,2.9591843E-5,4.0546805E-4,0E0,3.1494163E-4,3.8167462E-4,2.1142326E-4,1.7357338E-4,7.641374E-5,5.6409226E-5,6.734533E-5,8.127047E-5,2.3473054E-5,2.0555174E-4,2.7853996E-5,0E0,4.0446967E-4,3.311187E-4,1.790747E-5,6.9476664E-6,1.7810985E-4,1.7598085E-4,3.440678E-5,1.7778203E-4,1.5888596E-4,1.903642E-4,6.445973E-5,1.19755685E-4,4.0069317E-5,8.95594E-5,7.482228E-5,7.023057E-5,7.270137E-5,3.1138574E-5,5.819346E-5,1.309067E-4,7.5750984E-5,2.2797895E-4,1.21155754E-4,1.7372705E-4,4.5929104E-5,3.759982E-4,1.4451985E-5,8.548051E-5,0E0,0E0,0E0,0E0,0E0,0E0,0E0,0E0,0E0,0E0,0E0,0E0,0E0,0E0,0E0,0E0,0E0,0E0,0E0,0E0,0E0,0E0,0E0,0E0,0E0,0E0,0E0,0E0,0E0,0E0,0E0,0E0,0E0,0E0,0E0,0E0,0E0,0E0,0E0,0E0,0E0,0E0,0E0,0E0,0E0,0E0,0E0,0E0,0E0,0E0,0E0,0E0],"parents":[2147483647,0,0,1,1,2,2,3,3,4,4,5,5,6,6,7,7,8,8,9,9,10,10,11,11,12,12,13,13,15,15,16,16,17,17,18,18,19,19,20,20,21,21,22,22,23,23,24,24,25,25,27,27,28,28,29,29,30,30,31,31,32,32,33,33,34,34,35,35,36,36,37,37,38,38,39,39,40,40,41,41,42,42,43,43,44,44,45,45,46,46,47,47,48,48,49,49,50,50,51,51,52,52,53,53,54,54],"right_children":[2,4,6,8,10,12,14,16,18,20,22,24,26,28,-1,30,32,34,36,38,40,42,44,46,48,50,-1,52,54,56,58,60,62,64,66,68,70,72,74,76,78,80,82,84,86,88,90,92,94,96,98,100,102,104,106,-1,-1,-1,-1,-1,-1,-1,-1,-1,-1,-1,-1,-1,-1,-1,-1,-1,-1,-1,-1,-1,-1,-1,-1,-1,-1,-1,-1,-1,-1,-1,-1,-1,-1,-1,-1,-1,-1,-1,-1,-1,-1,-1,-1,-1,-1,-1,-1,-1,-1,-1,-1],"split_conditions":[9.381E-1,8.077E-1,1.0738E0,7.328E-1,8.698E-1,1.0143E0,1.1659E0,6.784E-1,7.697E-1,8.384E-1,9.045E-1,9.575E-1,1.0855E0,1.1077E0,6.78529E-3,6.364E-1,7.07E-1,7.47E-1,7.932E-1,7.932E-1,8.512E-1,8.801E-1,9.43E-1,9.413E-1,1.0265E0,1.0314E0,7.677019E-4,1.0971E0,1.0927E0,6.409E-1,6.893E-1,7.18E-1,6.942E-1,7.546E-1,7.817E-1,8.023E-1,7.686E-1,7.932E-1,7.957E-1,8.579E-1,8.512E-1,8.837E-1,8.941E-1,9.063E-1,9.201E-1,9.381E-1,9.431E-1,1.0265E0,1.0179E0,1.0219E0,1.0542E0,1.0927E0,1.0793E0,1.1198E0,1.1041E0,-4.7481465E-3,-3.2724983E-3,-3.241068E-3,-1.3113439E-3,-2.6678978E-3,-8.355618E-4,-5.477697E-4,-2.1619468E-3,-1.8184938E-3,-1.1549318E-3,-1.4337027E-3,-2.5877403E-3,-1.103395E-3,5.126775E-4,-2.5915182E-3,-6.866957E-4,-7.636697E-5,-1.8061042E-3,8.108654E-4,-3.6657584E-4,6.7104316E-5,-5.243215E-4,6.1682856E-4,1.4523356E-4,5.0556427E-4,1.3406007E-3,9.109988E-4,6.512588E-4,9.377341E-4,1.4486184E-3,-7.2130864E-4,6.237924E-4,9.4165467E-4,2.1968412E-3,6.391498E-4,1.8338863E-3,2.781231E-3,7.6800585E-5,-9.4228686E-4,2.301635E-3,3.5373445E-3,2.5039213E-3,4.1811345E-3,3.176218E-3,4.3266825E-3,5.635178E-3,2.186358E-4,3.7311283E-3,-8.150339E-5,1.2408972E-3,3.993346E-3,5.187789E-3],"split_indices":[2,0,1,0,0,0,0,0,0,0,1,2,0,0,0,0,2,0,0,6,0,0,4,6,5,2,0,5,4,6,6,6,6,4,5,3,6,4,5,4,4,1,3,0,0,1,5,1,3,4,5,3,2,0,5,0,0,0,0,0,0,0,0,0,0,0,0,0,0,0,0,0,0,0,0,0,0,0,0,0,0,0,0,0,0,0,0,0,0,0,0,0,0,0,0,0,0,0,0,0,0,0,0,0,0,0,0],"split_type":[0,0,0,0,0,0,0,0,0,0,0,0,0,0,0,0,0,0,0,0,0,0,0,0,0,0,0,0,0,0,0,0,0,0,0,0,0,0,0,0,0,0,0,0,0,0,0,0,0,0,0,0,0,0,0,0,0,0,0,0,0,0,0,0,0,0,0,0,0,0,0,0,0,0,0,0,0,0,0,0,0,0,0,0,0,0,0,0,0,0,0,0,0,0,0,0,0,0,0,0,0,0,0,0,0,0,0],"sum_hessian":[4.952E3,4.098E3,8.54E2,2.358E3,1.74E3,3.88E2,4.66E2,8.31E2,1.527E3,8.31E2,9.09E2,1.95E2,1.93E2,4.05E2,6.1E1,1.94E2,6.37E2,8.52E2,6.75E2,4.66E2,3.65E2,6.01E2,3.08E2,9.8E1,9.7E1,1.92E2,1E0,1.35E2,2.7E2,3.9E1,1.55E2,2.9E2,3.47E2,3.28E2,5.24E2,4.82E2,1.93E2,8E0,4.58E2,1.74E2,1.91E2,1.37E2,4.64E2,2.99E2,9E0,4.4E1,5.4E1,9.1E1,6E0,7.8E1,1.14E2,6.9E1,6.6E1,2E0,2.68E2,2.6E1,1.3E1,1.53E2,2E0,2.84E2,6E0,7E0,3.4E2,3.14E2,1.4E1,5.11E2,1.3E1,4.77E2,5E0,4E0,1.89E2,3E0,5E0,7E0,4.51E2,1.64E2,1E1,4.8E1,1.43E2,1.27E2,1E1,3.09E2,1.55E2,3.6E1,2.63E2,1E0,8E0,6E0,3.8E1,1.2E1,4.2E1,9E1,1E0,3E0,3E0,4.6E1,3.2E1,5.7E1,5.7E1,4.6E1,2.3E1,3E0,6.3E1,1E0,1E0,2.5E1,2.43E2],"tree_param":{"num_deleted":"0","num_feature":"7","num_nodes":"107","size_leaf_vector":"1"}},{"base_weights":[2.675553E-5,-2.1286306E-3,8.868029E-3,-4.3962323E-3,5.742044E-4,5.7584867E-3,1.17260255E-2,-6.7866477E-3,-3.5544618E-3,-7.203643E-4,1.9856659E-3,3.933372E-3,7.2867125E-3,1.1204236E-2,1.7357882E-2,-8.713473E-3,-6.158529E-3,-4.2811534E-3,-2.8058763E-3,-1.6043718E-3,-1.5017194E-4,1.6083005E-3,2.8006346E-3,7.6036872E-3,3.7361074E-3,6.3055693E-3,8.071436E-3,9.855966E-3,1.1969286E-2,3.2962665E-3,1.8136008E-2,-1.1331417E-2,-2.4493258E-3,-6.3124965E-3,-4.2493395E-3,-4.2120665E-3,-8.929047E-3,-3.115202E-3,-2.316455E-3,-6.565201E-3,-1.5326096E-3,-8.9143934E-5,-3.6076487E-3,1.6955347E-3,-2.1454904E-3,2.6472316E-3,5.272909E-3,6.276369E-5,8.40205E-3,1.9824668E-3,3.6169027E-3,6.692544E-3,9.182559E-4,8.856823E-3,5.100216E-3,1.09235775E-2,8.0311075E-3,4.500258E-3,1.2190916E-2,1.5053273E-3,5.512277E-3,-3.4970792E-3,-7.2316825E-4,-6.1654154E-4,-1.9085805E-3,7.7973865E-4,-1.7267668E-3,-1.415795E-3,-1.1197275E-3,-3.6852763E-3,-7.3378446E-4,-5.7943864E-4,-1.0257689E-3,-1.5038907E-3,-6.6026184E-4,-2.5471733E-3,1.7044545E-4,-3.295418E-4,-6.9852767E-4,-1.12477836E-4,1.785668E-4,-4.168904E-4,-1.4564156E-3,4.599115E-4,9.2673575E-4,2.614643E-4,-1.3551638E-3,8.4472063E-4,-1.5442245E-4,2.3559078E-3,2.8169157E-5,2.7148873E-3,4.8321785E-4,4.064414E-4,1.1540627E-3,1.7985223E-3,2.7534647E-3,-1.7768563E-3,7.541255E-4,2.3640709E-3,3.2698319E-3,1.6894342E-3,-5.2052736E-4,2.2292734E-4,3.3037828E-3,6.943941E-5,2.479186E-3,2.1686268E-3,4.4294E-4,4.65146E-3,3.4935414E-3],"categories":[],"categories_nodes":[],"categories_segments":[],"categories_sizes":[],"default_left":[0,0,0,0,0,0,0,0,0,0,0,0,0,0,0,0,0,0,0,0,0,0,0,0,0,0,0,0,0,0,0,0,0,0,0,0,0,0,0,0,0,0,0,0,0,0,0,0,0,0,0,0,0,0,0,0,0,0,0,0,0,0,0,0,0,0,0,0,0,0,0,0,0,0,0,0,0,0,0,0,0,0,0,0,0,0,0,0,0,0,0,0,0,0,0,0,0,0,0,0,0,0,0,0,0,0,0,0,0,0,0],"id":9,"left_children":[1,3,5,7,9,11,13,15,17,19,21,23,25,27,29,31,33,35,37,39,41,43,45,47,49,51,53,55,57,-1,59,61,-1,63,65,67,69,71,73,75,77,79,81,83,85,87,89,-1,91,-1,93,95,97,99,101,103,105,107,109,-1,-1,-1,-1,-1,-1,-1,-1,-1,-1,-1,-1,-1,-1,-1,-1,-1,-1,-1,-1,-1,-1,-1,-1,-1,-1,-1,-1,-1,-1,-1,-1,-1,-1,-1,-1,-1,-1,-1,-1,-1,-1,-1,-1,-1,-1,-1,-1,-1,-1,-1,-1],"loss_changes":[9.440502E-2,2.4414146E-2,8.561812E-3,4.33426E-3,3.323341E-3,1.2738891E-3,1.2895316E-3,6.277226E-4,8.605495E-4,4.781066E-4,2.6305648E-4,1.2725685E-4,1.4389493E-4,3.6168098E-4,3.9627776E-6,1.0297075E-4,9.8988414E-5,2.2313185E-4,1.12836715E-4,1.2237026E-4,1.2163809E-4,1.9913074E-4,8.995691E-5,5.7276862E-5,4.6626432E-5,2.3777084E-4,2.745269E-4,2.5126524E-4,4.284978E-4,0E0,1.7193146E-5,3.2881508E-5,0E0,6.985292E-5,3.760748E-4,1.7751195E-4,2.0922674E-4,1.672227E-4,8.5896E-5,7.3495845E-5,1.245839E-4,1.1150806E-4,2.091391E-5,1.275125E-4,1.04115024E-4,1.3997848E-4,1.996994E-4,0E0,2.5004556E-5,0E0,9.883265E-5,1.3394747E-4,1.1312322E-4,1.2755208E-4,1.2233597E-4,8.8800676E-5,1.2158323E-4,7.183108E-5,3.3129752E-4,0E0,0E0,0E0,0E0,0E0,0E0,0E0,0E0,0E0,0E0,0E0,0E0,0E0,0E0,0E0,0E0,0E0,0E0,0E0,0E0,0E0,0E0,0E0,0E0,0E0,0E0,0E0,0E0,0E0,0E0,0E0,0E0,0E0,0E0,0E0,0E0,0E0,0E0,0E0,0E0,0E0,0E0,0E0,0E0,0E0,0E0,0E0,0E0,0E0,0E0,0E0,0E0],"parents":[2147483647,0,0,1,1,2,2,3,3,4,4,5,5,6,6,7,7,8,8,9,9,10,10,11,11,12,12,13,13,14,14,15,15,16,16,17,17,18,18,19,19,20,20,21,21,22,22,23,23,24,24,25,25,26,26,27,27,28,28,30,30,31,31,33,33,34,34,35,35,36,36,37,37,38,38,39,39,40,40,41,41,42,42,43,43,44,44,45,45,46,46,48,48,50,50,51,51,52,52,53,53,54,54,55,55,56,56,57,57,58,58],"right_children":[2,4,6,8,10,12,14,16,18,20,22,24,26,28,30,32,34,36,38,40,42,44,46,48,50,52,54,56,58,-1,60,62,-1,64,66,68,70,72,74,76,78,80,82,84,86,88,90,-1,92,-1,94,96,98,100,102,104,106,108,110,-1,-1,-1,-1,-1,-1,-1,-1,-1,-1,-1,-1,-1,-1,-1,-1,-1,-1,-1,-1,-1,-1,-1,-1,-1,-1,-1,-1,-1,-1,-1,-1,-1,-1,-1,-1,-1,-1,-1,-1,-1,-1,-1,-1,-1,-1,-1,-1,-1,-1,-1,-1],"split_conditions":[9.22E-1,7.932E-1,1.0602E0,7.159E-1,8.602E-1,9.575E-1,1.1723E0,6.709E-1,7.562E-1,8.174E-1,8.977E-1,9.111E-1,1.0179E0,1.1077E0,1.1659E0,6.336E-1,7.159E-1,7.716E-1,7.772E-1,7.686E-1,8.678E-1,8.99E-1,9.362E-1,9.158E-1,9.063E-1,1.0265E0,1.0542E0,1.0971E0,1.1041E0,3.2962665E-3,1.1659E0,6.444E-1,-2.4493258E-3,6.631E-1,7.136E-1,7.37E-1,7.526E-1,7.598E-1,7.639E-1,8.023E-1,8.116E-1,8.474E-1,8.645E-1,8.977E-1,8.965E-1,9.22E-1,9.432E-1,6.276369E-5,9.381E-1,1.9824668E-3,9.195E-1,1.0179E0,1.0097E0,1.0396E0,1.0602E0,1.047E0,1.0738E0,1.112E0,1.1154E0,1.5053273E-3,5.512277E-3,-3.4970792E-3,-7.2316825E-4,-6.1654154E-4,-1.9085805E-3,7.7973865E-4,-1.7267668E-3,-1.415795E-3,-1.1197275E-3,-3.6852763E-3,-7.3378446E-4,-5.7943864E-4,-1.0257689E-3,-1.5038907E-3,-6.6026184E-4,-2.5471733E-3,1.7044545E-4,-3.295418E-4,-6.9852767E-4,-1.12477836E-4,1.785668E-4,-4.168904E-4,-1.4564156E-3,4.599115E-4,9.2673575E-4,2.614643E-4,-1.3551638E-3,8.4472063E-4,-1.5442245E-4,2.3559078E-3,2.8169157E-5,2.7148873E-3,4.8321785E-4,4.064414E-4,1.1540627E-3,1.7985223E-3,2.7534647E-3,-1.7768563E-3,7.541255E-4,2.3640709E-3,3.2698319E-3,1.6894342E-3,-5.2052736E-4,2.2292734E-4,3.3037828E-3,6.943941E-5,2.479186E-3,2.1686268E-3,4.4294E-4,4.65146E-3,3.4935414E-3],"split_indices":[0,0,2,4,3,2,0,4,0,4,6,3,1,2,2,0,1,5,0,6,6,5,6,1,6,5,6,6,1,0,1,6,0,0,2,0,1,1,4,0,6,6,5,0,6,1,6,0,0,0,5,5,1,6,1,4,3,4,1,0,0,0,0,0,0,0,0,0,0,0,0,0,0,0,0,0,0,0,0,0,0,0,0,0,0,0,0,0,0,0,0,0,0,0,0,0,0,0,0,0,0,0,0,0,0,0,0,0,0,0,0],"split_type":[0,0,0,0,0,0,0,0,0,0,0,0,0,0,0,0,0,0,0,0,0,0,0,0,0,0,0,0,0,0,0,0,0,0,0,0,0,0,0,0,0,0,0,0,0,0,0,0,0,0,0,0,0,0,0,0,0,0,0,0,0,0,0,0,0,0,0,0,0,0,0,0,0,0,0,0,0,0,0,0,0,0,0,0,0,0,0,0,0,0,0,0,0,0,0,0,0,0,0,0,0,0,0,0,0,0,0,0,0,0,0],"sum_hessian":[4.952E3,3.982E3,9.7E2,2.165E3,1.817E3,4.66E2,5.04E2,5.62E2,1.603E3,9.48E2,8.69E2,2.14E2,2.52E2,4.64E2,4E1,1.35E2,4.27E2,8.11E2,7.92E2,3.71E2,5.77E2,5.96E2,2.73E2,9E0,2.05E2,1.16E2,1.36E2,1.73E2,2.91E2,6E0,3.4E1,2E1,1.15E2,3.93E2,3.4E1,8.01E2,1E1,4.82E2,3.1E2,4E0,3.67E2,5.68E2,9E0,5.83E2,1.3E1,2.59E2,1.4E1,1E0,8E0,6E0,1.99E2,1.08E2,8E0,1.06E2,3E1,1.06E2,6.7E1,9E0,2.82E2,1E0,3.3E1,1.9E1,1E0,5E0,3.88E2,6E0,2.8E1,3.85E2,4.16E2,6E0,4E0,1E2,3.82E2,1.1E1,2.99E2,3E0,1E0,2.39E2,1.28E2,4.01E2,1.67E2,4E0,5E0,5.24E2,5.9E1,6E0,7E0,2.46E2,1.3E1,9E0,5E0,7E0,1E0,1.9E1,1.8E2,8.7E1,2.1E1,1E0,7E0,7.5E1,3.1E1,2.8E1,2E0,1E0,1.05E2,2E0,6.5E1,4E0,5E0,3.6E1,2.46E2],"tree_param":{"num_deleted":"0","num_feature":"7","num_nodes":"111","size_leaf_vector":"1"}},{"base_weights":[2.3086937E-5,-1.5551194E-3,6.042948E-3,-3.002541E-3,4.570645E-4,3.5213905E-3,7.9659205E-3,-4.9726865E-3,-2.469732E-3,-3.614108E-4,1.3369685E-3,2.6156325E-3,4.6891286E-3,7.1731587E-3,1.044659E-2,-6.772438E-3,-4.611131E-3,-2.9870179E-3,-1.7537493E-3,-8.275399E-4,6.2772226E-5,1.1515903E-3,2.0398095E-3,5.993036E-3,2.4233933E-3,4.7418643E-3,-8.233309E-4,6.3621043E-3,7.7746827E-3,9.670625E-3,1.413374E-2,-8.132969E-3,-1.8520184E-3,-4.4935015E-3,-7.5922012E-3,-2.951461E-3,-1.1485055E-2,4.2855293E-3,-1.8158299E-3,1.5011033E-3,-9.5208385E-4,1.0827483E-4,-1.9365192E-3,1.1909237E-3,-3.9954064E-3,3.7172385E-3,1.3543944E-3,1.1054635E-3,2.4127385E-3,2.1497405E-3,3.1509008E-3,4.4760276E-3,8.378565E-3,6.496678E-3,1.04026E-3,3.0801196E-3,7.977016E-3,1.0688058E-2,6.952483E-3,8.264754E-3,1.6897108E-2,-2.5986999E-3,-1.115276E-3,-1.5429448E-3,-1.2416705E-3,-2.6068524E-3,-2.0167232E-4,-1.0162452E-3,-7.774727E-4,4.2842032E-4,-4.8796358E-3,-2.2442937E-4,1.5334471E-3,-7.698768E-4,-5.027654E-4,-1.7031134E-4,1.1500687E-3,-1.2735057E-3,-2.5866381E-4,2.820885E-4,2.4723308E-6,-1.1482537E-3,-2.9559957E-4,2.6800425E-4,4.5126348E-4,6.0218576E-5,-2.057922E-3,1.2512573E-3,-2.7819874E-4,-1.186105E-3,4.7259725E-4,1.8304587E-5,5.344272E-4,3.6027076E-4,7.3502876E-4,1.2478542E-3,5.8291154E-4,1.4008415E-3,6.033159E-4,5.913735E-4,2.6345535E-3,1.9713028E-3,-9.809733E-5,-8.5940363E-4,1.1126697E-3,1.064034E-3,-3.0797126E-4,5.1716687E-3,2.2750008E-3,4.5889022E-4,3.2339916E-3,1.9148827E-4,2.3239881E-3,2.6267767E-3,6.5031054E-4,1.6970634E-3,5.489722E-3],"categories":[],"categories_nodes":[],"categories_segments":[],"categories_sizes":[],"default_left":[0,0,0,0,0,0,0,0,0,0,0,0,0,0,0,0,0,0,0,0,0,0,0,0,0,0,0,0,0,0,0,0,0,0,0,0,0,0,0,0,0,0,0,0,0,0,0,0,0,0,0,0,0,0,0,0,0,0,0,0,0,0,0,0,0,0,0,0,0,0,0,0,0,0,0,0,0,0,0,0,0,0,0,0,0,0,0,0,0,0,0,0,0,0,0,0,0,0,0,0,0,0,0,0,0,0,0,0,0,0,0,0,0,0,0,0,0],"id":10,"left_children":[1,3,5,7,9,11,13,15,17,19,21,23,25,27,29,31,33,35,37,39,41,43,45,47,49,51,-1,53,55,57,59,61,-1,63,65,67,69,71,73,75,77,79,81,83,85,87,89,91,-1,93,95,97,99,101,103,105,107,109,111,113,115,-1,-1,-1,-1,-1,-1,-1,-1,-1,-1,-1,-1,-1,-1,-1,-1,-1,-1,-1,-1,-1,-1,-1,-1,-1,-1,-1,-1,-1,-1,-1,-1,-1,-1,-1,-1,-1,-1,-1,-1,-1,-1,-1,-1,-1,-1,-1,-1,-1,-1,-1,-1,-1,-1,-1,-1],"loss_changes":[4.7065783E-2,1.1432848E-2,4.9614534E-3,2.3842081E-3,1.1837383E-3,4.6052178E-4,1.0715835E-3,2.8436538E-4,6.610537E-4,1.6851282E-4,1.00841746E-4,1.503909E-4,8.906424E-5,1.6763806E-4,2.6100967E-4,1.4178455E-5,1.0860525E-4,2.8125942E-4,2.9159803E-4,1.19176664E-4,4.087459E-5,1.3209874E-4,1.83522E-4,1.2132665E-4,4.1404855E-5,1.4908379E-4,0E0,1.3289694E-4,2.138475E-4,2.5202334E-4,2.171495E-4,1.688127E-5,0E0,6.9476664E-5,1.0046497E-4,1.5441515E-4,2.7014752E-4,3.7084523E-5,7.44632E-5,1.0350993E-4,1.1057273E-4,3.6447025E-5,1.4215515E-5,5.6923076E-5,6.14726E-5,1.0289025E-4,1.4460836E-4,3.4213335E-6,0E0,4.8070622E-5,6.988685E-5,7.739314E-5,1.3696088E-5,9.851903E-5,7.315003E-5,2.6638176E-5,7.443642E-4,5.4219738E-5,1.7055846E-4,7.971888E-6,1.1710171E-4,0E0,0E0,0E0,0E0,0E0,0E0,0E0,0E0,0E0,0E0,0E0,0E0,0E0,0E0,0E0,0E0,0E0,0E0,0E0,0E0,0E0,0E0,0E0,0E0,0E0,0E0,0E0,0E0,0E0,0E0,0E0,0E0,0E0,0E0,0E0,0E0,0E0,0E0,0E0,0E0,0E0,0E0,0E0,0E0,0E0,0E0,0E0,0E0,0E0,0E0,0E0,0E0,0E0,0E0,0E0,0E0],"parents":[2147483647,0,0,1,1,2,2,3,3,4,4,5,5,6,6,7,7,8,8,9,9,10,10,11,11,12,12,13,13,14,14,15,15,16,16,17,17,18,18,19,19,20,20,21,21,22,22,23,23,24,24,25,25,27,27,28,28,29,29,30,30,31,31,33,33,34,34,35,35,36,36,37,37,38,38,39,39,40,40,41,41,42,42,43,43,44,44,45,45,46,46,47,47,49,49,50,50,51,51,52,52,53,53,54,54,55,55,56,56,57,57,58,58,59,59,60,60],"right_children":[2,4,6,8,10,12,14,16,18,20,22,24,26,28,30,32,34,36,38,40,42,44,46,48,50,52,-1,54,56,58,60,62,-1,64,66,68,70,72,74,76,78,80,82,84,86,88,90,92,-1,94,96,98,100,102,104,106,108,110,112,114,116,-1,-1,-1,-1,-1,-1,-1,-1,-1,-1,-1,-1,-1,-1,-1,-1,-1,-1,-1,-1,-1,-1,-1,-1,-1,-1,-1,-1,-1,-1,-1,-1,-1,-1,-1,-1,-1,-1,-1,-1,-1,-1,-1,-1,-1,-1,-1,-1,-1,-1,-1,-1,-1,-1,-1,-1],"split_conditions":[9.171E-1,8.023E-1,1.0314E0,7.07E-1,8.624E-1,9.483E-1,1.1409E0,6.444E-1,7.631E-1,8.275E-1,9.029E-1,9.093E-1,1.047E0,1.0971E0,1.1813E0,6.336E-1,7.09E-1,7.817E-1,7.58E-1,8.043E-1,8.727E-1,9.134E-1,9.078E-1,9.029E-1,9.407E-1,1.0314E0,-8.233309E-4,1.1225E0,1.0927E0,1.1723E0,1.1813E0,6.409E-1,-1.8520184E-3,6.804E-1,7.18E-1,7.37E-1,7.671E-1,7.349E-1,7.679E-1,8.023E-1,7.932E-1,8.26E-1,8.521E-1,8.865E-1,8.865E-1,9.133E-1,9.006E-1,9.029E-1,2.4127385E-3,9.195E-1,9.429E-1,1.0265E0,1.0219E0,1.1077E0,1.0855E0,1.1041E0,1.0971E0,1.1041E0,1.1514E0,1.1813E0,1.1723E0,-2.5986999E-3,-1.115276E-3,-1.5429448E-3,-1.2416705E-3,-2.6068524E-3,-2.0167232E-4,-1.0162452E-3,-7.774727E-4,4.2842032E-4,-4.8796358E-3,-2.2442937E-4,1.5334471E-3,-7.698768E-4,-5.027654E-4,-1.7031134E-4,1.1500687E-3,-1.2735057E-3,-2.5866381E-4,2.820885E-4,2.4723308E-6,-1.1482537E-3,-2.9559957E-4,2.6800425E-4,4.5126348E-4,6.0218576E-5,-2.057922E-3,1.2512573E-3,-2.7819874E-4,-1.186105E-3,4.7259725E-4,1.8304587E-5,5.344272E-4,3.6027076E-4,7.3502876E-4,1.2478542E-3,5.8291154E-4,1.4008415E-3,6.033159E-4,5.913735E-4,2.6345535E-3,1.9713028E-3,-9.809733E-5,-8.5940363E-4,1.1126697E-3,1.064034E-3,-3.0797126E-4,5.1716687E-3,2.2750008E-3,4.5889022E-4,3.2339916E-3,1.9148827E-4,2.3239881E-3,2.6267767E-3,6.5031054E-4,1.6970634E-3,5.489722E-3],"split_indices":[0,2,6,5,0,3,5,0,0,0,4,2,0,0,0,0,6,5,1,2,6,6,4,3,0,1,0,6,2,6,1,5,0,1,2,0,2,4,1,0,6,5,0,0,0,5,3,2,0,5,2,5,0,3,0,5,1,0,3,4,3,0,0,0,0,0,0,0,0,0,0,0,0,0,0,0,0,0,0,0,0,0,0,0,0,0,0,0,0,0,0,0,0,0,0,0,0,0,0,0,0,0,0,0,0,0,0,0,0,0,0,0,0,0,0,0,0],"split_type":[0,0,0,0,0,0,0,0,0,0,0,0,0,0,0,0,0,0,0,0,0,0,0,0,0,0,0,0,0,0,0,0,0,0,0,0,0,0,0,0,0,0,0,0,0,0,0,0,0,0,0,0,0,0,0,0,0,0,0,0,0,0,0,0,0,0,0,0,0,0,0,0,0,0,0,0,0,0,0,0,0,0,0,0,0,0,0,0,0,0,0,0,0,0,0,0,0,0,0,0,0,0,0,0,0,0,0,0,0,0,0,0,0,0,0,0,0],"sum_hessian":[4.952E3,3.924E3,1.028E3,2.282E3,1.642E3,4.46E2,5.82E2,4.84E2,1.798E3,8.51E2,7.91E2,2.53E2,1.93E2,4.44E2,1.38E2,7.8E1,4.06E2,1.042E3,7.56E2,4.05E2,4.46E2,6.28E2,1.63E2,1.2E1,2.41E2,1.92E2,1E0,1.94E2,2.5E2,1.17E2,2.1E1,2E1,5.8E1,3.93E2,1.3E1,1.039E3,3E0,7E0,7.49E2,2E1,3.85E2,4.37E2,9E0,6.24E2,4E0,4.6E1,1.17E2,4E0,8E0,1.78E2,6.3E1,1.81E2,1.1E1,1.89E2,5E0,1.1E1,2.39E2,8.3E1,3.4E1,8E0,1.3E1,1.7E1,3E0,1.34E2,2.59E2,1.1E1,2E0,4.66E2,5.73E2,1E0,2E0,1E0,6E0,1.15E2,6.34E2,1.1E1,9E0,9E0,3.76E2,4.6E1,3.91E2,2E0,7E0,3.22E2,3.02E2,2E0,2E0,4.2E1,4E0,4E0,1.13E2,2E0,2E0,4.4E1,1.34E2,3.3E1,3E1,1.67E2,1.4E1,1E0,1E1,1.87E2,2E0,2E0,3E0,1E1,1E0,8E0,2.31E2,1E0,8.2E1,4E0,3E1,7E0,1E0,2E0,1.1E1],"tree_param":{"num_deleted":"0","num_feature":"7","num_nodes":"117","size_leaf_vector":"1"}},{"base_weights":[1.964254E-5,-1.107726E-3,4.216358E-3,-2.0547705E-3,3.98985E-4,2.6782802E-3,5.8679148E-3,-3.1801865E-3,-1.574763E-3,-1.0511151E-4,9.872486E-4,2.034216E-3,3.823861E-3,5.2361796E-3,7.493662E-3,-4.318001E-3,-2.8581202E-3,-2.012686E-3,-1.2171668E-3,-4.259351E-4,1.8590452E-4,1.0669559E-3,3.889799E-5,-1.8384577E-3,2.1221912E-3,4.270698E-3,1.9856007E-3,1.0450283E-3,5.326665E-3,6.8940287E-3,1.0369257E-2,-5.440953E-3,-3.8971798E-3,-2.8232487E-3,-2.1024495E-3,-1.8853893E-3,-3.455784E-3,-1.2543505E-3,3.2204017E-3,-1.5829211E-4,-1.9726702E-3,-1.6302407E-3,2.2513796E-4,9.0353115E-4,2.099107E-3,-4.7653783E-3,9.5803814E-4,5.8350735E-3,2.0399916E-3,3.7779312E-3,6.7016794E-3,-2.6221023E-4,3.8366371E-3,2.5017092E-3,-8.106709E-4,7.5395526E-3,5.0795334E-3,7.648306E-3,4.0685646E-3,1.8448354E-3,1.2341329E-2,-1.9479141E-3,-1.0906766E-3,-1.1969369E-3,-8.505285E-5,-8.5266406E-4,1.16103E-3,1.7591716E-4,-5.7778147E-4,-3.6310495E-3,-9.312206E-4,1.9055755E-4,-3.9361898E-4,1.7260589E-3,-2.2533239E-4,-1.0660133E-4,4.1111535E-4,-2.1975697E-3,-4.6189592E-4,3.3059213E-4,2.4233783E-5,2.8170922E-4,-9.588969E-4,8.206925E-4,2.3955108E-4,7.4316864E-4,-1.7941074E-3,-1.086487E-3,4.0577922E-4,1.4525057E-4,1.993859E-3,5.8557425E-4,1.4306903E-3,2.1027834E-3,1.0278734E-3,2.2245748E-3,7.093048E-4,-9.5222E-4,3.9776473E-4,1.7109E-3,3.0801058E-4,1.3143659E-3,2.6209833E-4,9.0312955E-5,2.3947656E-3,8.3586725E-4,1.6063838E-3,1.9422838E-3,2.9576458E-3,-8.866668E-4,1.424615E-3,1.3576508E-3,3.9800527E-3],"categories":[],"categories_nodes":[],"categories_segments":[],"categories_sizes":[],"default_left":[0,0,0,0,0,0,0,0,0,0,0,0,0,0,0,0,0,0,0,0,0,0,0,0,0,0,0,0,0,0,0,0,0,0,0,0,0,0,0,0,0,0,0,0,0,0,0,0,0,0,0,0,0,0,0,0,0,0,0,0,0,0,0,0,0,0,0,0,0,0,0,0,0,0,0,0,0,0,0,0,0,0,0,0,0,0,0,0,0,0,0,0,0,0,0,0,0,0,0,0,0,0,0,0,0,0,0,0,0,0,0,0,0],"id":11,"left_children":[1,3,5,7,9,11,13,15,17,19,21,23,25,27,29,31,33,35,37,39,41,43,45,-1,47,49,51,53,55,57,59,61,63,65,-1,67,69,71,73,75,77,-1,79,81,83,85,87,89,91,93,95,97,99,101,-1,103,105,107,109,-1,111,-1,-1,-1,-1,-1,-1,-1,-1,-1,-1,-1,-1,-1,-1,-1,-1,-1,-1,-1,-1,-1,-1,-1,-1,-1,-1,-1,-1,-1,-1,-1,-1,-1,-1,-1,-1,-1,-1,-1,-1,-1,-1,-1,-1,-1,-1,-1,-1,-1,-1,-1,-1],"loss_changes":[2.343853E-2,5.572951E-3,2.6489776E-3,1.2904117E-3,4.472885E-4,3.943378E-4,4.7941878E-4,2.5003823E-4,2.6110746E-4,7.598477E-5,5.2569434E-5,2.650551E-4,1.5169359E-4,1.3361406E-4,1.681922E-4,5.2515417E-5,6.1401166E-5,1.3217935E-4,1.5732937E-4,1.598952E-4,9.5374184E-5,1.0639528E-4,2.474346E-4,0E0,9.430561E-5,1.615549E-4,1.674372E-4,5.5887325E-5,1.5803054E-4,2.203621E-4,1.0718615E-4,5.237048E-5,3.8024154E-5,8.1831124E-5,0E0,7.088785E-5,1.4492206E-4,1.0137807E-4,8.480425E-5,1.0019047E-4,1.2083346E-4,0E0,5.3706997E-5,8.392328E-5,6.9841015E-5,9.4011266E-5,8.982513E-5,2.7163784E-5,7.2894734E-5,1.2599234E-4,5.984248E-5,9.207009E-5,1.09520624E-4,1.7591836E-5,0E0,1.0662316E-4,1.907358E-4,1.7492985E-4,1.4302676E-4,0E0,4.123198E-5,0E0,0E0,0E0,0E0,0E0,0E0,0E0,0E0,0E0,0E0,0E0,0E0,0E0,0E0,0E0,0E0,0E0,0E0,0E0,0E0,0E0,0E0,0E0,0E0,0E0,0E0,0E0,0E0,0E0,0E0,0E0,0E0,0E0,0E0,0E0,0E0,0E0,0E0,0E0,0E0,0E0,0E0,0E0,0E0,0E0,0E0,0E0,0E0,0E0,0E0,0E0,0E0],"parents":[2147483647,0,0,1,1,2,2,3,3,4,4,5,5,6,6,7,7,8,8,9,9,10,10,11,11,12,12,13,13,14,14,15,15,16,16,17,17,18,18,19,19,20,20,21,21,22,22,24,24,25,25,26,26,27,27,28,28,29,29,30,30,31,31,32,32,33,33,35,35,36,36,37,37,38,38,39,39,40,40,42,42,43,43,44,44,45,45,46,46,47,47,48,48,49,49,50,50,51,51,52,52,53,53,55,55,56,56,57,57,58,58,60,60],"right_children":[2,4,6,8,10,12,14,16,18,20,22,24,26,28,30,32,34,36,38,40,42,44,46,-1,48,50,52,54,56,58,60,62,64,66,-1,68,70,72,74,76,78,-1,80,82,84,86,88,90,92,94,96,98,100,102,-1,104,106,108,110,-1,112,-1,-1,-1,-1,-1,-1,-1,-1,-1,-1,-1,-1,-1,-1,-1,-1,-1,-1,-1,-1,-1,-1,-1,-1,-1,-1,-1,-1,-1,-1,-1,-1,-1,-1,-1,-1,-1,-1,-1,-1,-1,-1,-1,-1,-1,-1,-1,-1,-1,-1,-1,-1],"split_conditions":[9.158E-1,8.104E-1,1.0602E0,7.268E-1,8.727E-1,1.0016E0,1.1409E0,6.738E-1,7.607E-1,8.347E-1,9.133E-1,9.063E-1,1.047E0,1.0542E0,1.1813E0,6.364E-1,7.319E-1,7.653E-1,8.229E-1,8.305E-1,8.275E-1,9.029E-1,9.133E-1,-1.8384577E-3,9.093E-1,1.0396E0,1.0542E0,1.0542E0,1.0738E0,1.1723E0,1.1813E0,6.364E-1,6.833E-1,7.411E-1,-2.1024495E-3,7.25E-1,7.25E-1,7.591E-1,8.229E-1,8.316E-1,8.244E-1,-1.6302407E-3,8.393E-1,9.134E-1,9.078E-1,8.932E-1,9.093E-1,8.99E-1,1.0016E0,1.0016E0,1.0542E0,1.047E0,1.0602E0,1.0668E0,-8.106709E-4,1.047E0,1.0855E0,1.1597E0,1.1597E0,1.8448354E-3,1.1723E0,-1.9479141E-3,-1.0906766E-3,-1.1969369E-3,-8.505285E-5,-8.5266406E-4,1.16103E-3,1.7591716E-4,-5.7778147E-4,-3.6310495E-3,-9.312206E-4,1.9055755E-4,-3.9361898E-4,1.7260589E-3,-2.2533239E-4,-1.0660133E-4,4.1111535E-4,-2.1975697E-3,-4.6189592E-4,3.3059213E-4,2.4233783E-5,2.8170922E-4,-9.588969E-4,8.206925E-4,2.3955108E-4,7.4316864E-4,-1.7941074E-3,-1.086487E-3,4.0577922E-4,1.4525057E-4,1.993859E-3,5.8557425E-4,1.4306903E-3,2.1027834E-3,1.0278734E-3,2.2245748E-3,7.093048E-4,-9.5222E-4,3.9776473E-4,1.7109E-3,3.0801058E-4,1.3143659E-3,2.6209833E-4,9.0312955E-5,2.3947656E-3,8.3586725E-4,1.6063838E-3,1.9422838E-3,2.9576458E-3,-8.866668E-4,1.424615E-3,1.3576508E-3,3.9800527E-3],"split_indices":[1,0,0,1,4,0,6,0,0,5,4,0,0,3,0,0,2,6,4,5,6,4,5,0,2,3,0,6,3,3,1,2,6,4,0,0,0,1,5,2,6,0,6,6,1,0,3,3,2,3,3,2,4,0,0,5,3,0,6,0,3,0,0,0,0,0,0,0,0,0,0,0,0,0,0,0,0,0,0,0,0,0,0,0,0,0,0,0,0,0,0,0,0,0,0,0,0,0,0,0,0,0,0,0,0,0,0,0,0,0,0,0,0],"split_type":[0,0,0,0,0,0,0,0,0,0,0,0,0,0,0,0,0,0,0,0,0,0,0,0,0,0,0,0,0,0,0,0,0,0,0,0,0,0,0,0,0,0,0,0,0,0,0,0,0,0,0,0,0,0,0,0,0,0,0,0,0,0,0,0,0,0,0,0,0,0,0,0,0,0,0,0,0,0,0,0,0,0,0,0,0,0,0,0,0,0,0,0,0,0,0,0,0,0,0,0,0,0,0,0,0,0,0,0,0,0,0,0,0],"sum_hessian":[4.952E3,3.904E3,1.048E3,2.397E3,1.507E3,5.44E2,5.04E2,7.15E2,1.682E3,8.12E2,6.95E2,3.5E2,1.94E2,3.66E2,1.38E2,1.55E2,5.6E2,7.54E2,9.28E2,3.86E2,4.26E2,6.41E2,5.4E1,3E0,3.47E2,1.55E2,3.9E1,8E0,3.58E2,1.17E2,2.1E1,3.9E1,1.16E2,5.57E2,3E0,6.95E2,5.9E1,9.21E2,7E0,3.3E2,5.6E1,2E0,4.24E2,5.55E2,8.6E1,8E0,4.6E1,6E0,3.41E2,1.31E2,2.4E1,1.8E1,2.1E1,6E0,2E0,3.3E1,3.25E2,9.1E1,2.6E1,8E0,1.3E1,2.3E1,1.6E1,1.13E2,3E0,5.56E2,1E0,1.1E1,6.84E2,1E0,5.8E1,2.7E1,8.94E2,4E0,3E0,2.93E2,3.7E1,3E0,5.3E1,5.9E1,3.65E2,5.51E2,4E0,5.7E1,2.9E1,1E0,7E0,3E0,4.3E1,1E0,5E0,3.32E2,9E0,1.1E1,1.2E2,2E1,4E0,6E0,1.2E1,1.2E1,9E0,2E0,4E0,2E0,3.1E1,3.6E1,2.89E2,6.2E1,2.9E1,2E0,2.4E1,2E0,1.1E1],"tree_param":{"num_deleted":"0","num_feature":"7","num_nodes":"113","size_leaf_vector":"1"}},{"base_weights":[1.6460293E-5,-6.8782986E-4,3.392915E-3,-1.401871E-3,4.444446E-4,2.3225353E-3,4.196975E-3,-2.5200045E-3,-1.1340401E-3,2.3726438E-5,8.256919E-4,1.8833735E-3,2.9167114E-3,4.0280214E-3,7.5849458E-3,-3.6992785E-3,-2.3511588E-3,-1.4061925E-3,-7.0685457E-4,-2.4461085E-3,5.345172E-5,8.688262E-4,-1.0657279E-3,1.7256066E-3,3.7377477E-3,7.3241293E-3,2.658765E-3,3.537607E-3,4.588988E-3,4.509555E-3,9.020201E-3,-3.4515085E-3,-2.152145E-3,-2.2639313E-3,-4.762658E-3,-1.3668316E-3,-4.0002433E-3,2.4975091E-3,-7.3861005E-4,5.7475566E-4,-1.4933252E-3,1.5762363E-3,9.391298E-6,6.499685E-4,1.2599346E-3,5.1949424E-4,-3.310345E-3,2.2073528E-3,6.6740625E-4,4.589099E-3,3.6418438E-5,2.7566599E-3,9.486527E-4,3.2088757E-3,1.3691965E-3,3.7097298E-3,-2.4313421E-3,4.817708E-3,1.6551368E-3,2.1327378E-3,2.7512312E-3,1.0407817E-2,8.8476244E-4,-1.2491101E-3,-5.0313276E-4,-2.7970524E-4,-7.0196256E-4,-2.0119429E-4,-1.8997194E-3,-4.3041428E-4,-8.830389E-5,-3.985167E-3,-6.028634E-4,-3.1381845E-5,1.2239099E-3,-1.9553395E-3,-2.1243135E-4,-2.4988802E-4,9.3084277E-4,6.7174437E-6,7.592179E-4,-2.6652715E-4,2.4392742E-5,2.7252288E-4,1.2016752E-5,5.852934E-4,2.7608845E-4,1.2442456E-3,-3.452003E-4,-1.4882804E-3,3.282845E-4,6.109344E-4,2.2142485E-3,-7.006995E-5,8.948605E-4,6.464175E-4,1.9103665E-3,-1.020062E-3,6.9460867E-4,-4.7675372E-4,1.0106127E-3,-9.589577E-4,5.6404044E-4,1.2595404E-3,5.824883E-4,2.7788281E-3,1.3963673E-3,9.1960764E-4,-2.3921217E-4,-1.0854542E-3,1.3247491E-3,1.9251585E-3,5.6731226E-3],"categories":[],"categories_nodes":[],"categories_segments":[],"categories_sizes":[],"default_left":[0,0,0,0,0,0,0,0,0,0,0,0,0,0,0,0,0,0,0,0,0,0,0,0,0,0,0,0,0,0,0,0,0,0,0,0,0,0,0,0,0,0,0,0,0,0,0,0,0,0,0,0,0,0,0,0,0,0,0,0,0,0,0,0,0,0,0,0,0,0,0,0,0,0,0,0,0,0,0,0,0,0,0,0,0,0,0,0,0,0,0,0,0,0,0,0,0,0,0,0,0,0,0,0,0,0,0,0,0,0,0,0,0],"id":12,"left_children":[1,3,5,7,9,11,13,15,17,19,21,23,25,27,29,31,33,35,37,39,41,43,45,47,49,51,53,55,57,59,61,63,-1,65,67,69,71,73,75,77,-1,79,81,83,85,87,89,91,93,95,97,-1,-1,99,101,103,-1,105,107,-1,109,111,-1,-1,-1,-1,-1,-1,-1,-1,-1,-1,-1,-1,-1,-1,-1,-1,-1,-1,-1,-1,-1,-1,-1,-1,-1,-1,-1,-1,-1,-1,-1,-1,-1,-1,-1,-1,-1,-1,-1,-1,-1,-1,-1,-1,-1,-1,-1,-1,-1,-1,-1],"loss_changes":[1.1780586E-2,3.314626E-3,7.2610844E-4,7.5001176E-4,2.543711E-4,9.0793474E-5,2.482105E-4,8.787331E-5,2.3501297E-4,5.556024E-5,6.880466E-5,5.6450197E-5,1.5674287E-4,1.1196593E-4,5.643023E-5,2.6031805E-5,7.903646E-5,1.2103934E-4,8.243552E-5,7.169071E-5,5.010482E-5,6.88571E-5,6.932582E-5,1.00483594E-4,5.0250994E-5,3.303081E-5,1.0059844E-4,5.3704367E-4,1.3562664E-4,2.1579137E-5,8.724409E-5,6.504869E-5,0E0,3.968412E-5,8.568066E-5,8.8543165E-5,3.059624E-4,3.33631E-5,1.337782E-4,2.037842E-5,0E0,3.1089035E-5,4.701384E-5,8.25599E-5,6.650394E-5,7.748436E-5,6.359051E-5,1.06100924E-4,1.3421146E-4,4.2572006E-5,3.920021E-5,0E0,0E0,8.434302E-5,1.13318834E-4,2.0788307E-4,0E0,1.004776E-4,6.124016E-5,0E0,9.019489E-5,2.5188515E-4,0E0,0E0,0E0,0E0,0E0,0E0,0E0,0E0,0E0,0E0,0E0,0E0,0E0,0E0,0E0,0E0,0E0,0E0,0E0,0E0,0E0,0E0,0E0,0E0,0E0,0E0,0E0,0E0,0E0,0E0,0E0,0E0,0E0,0E0,0E0,0E0,0E0,0E0,0E0,0E0,0E0,0E0,0E0,0E0,0E0,0E0,0E0,0E0,0E0,0E0,0E0],"parents":[2147483647,0,0,1,1,2,2,3,3,4,4,5,5,6,6,7,7,8,8,9,9,10,10,11,11,12,12,13,13,14,14,15,15,16,16,17,17,18,18,19,19,20,20,21,21,22,22,23,23,24,24,25,25,26,26,27,27,28,28,29,29,30,30,31,31,33,33,34,34,35,35,36,36,37,37,38,38,39,39,41,41,42,42,43,43,44,44,45,45,46,46,47,47,48,48,49,49,50,50,53,53,54,54,55,55,57,57,58,58,60,60,61,61],"right_children":[2,4,6,8,10,12,14,16,18,20,22,24,26,28,30,32,34,36,38,40,42,44,46,48,50,52,54,56,58,60,62,64,-1,66,68,70,72,74,76,78,-1,80,82,84,86,88,90,92,94,96,98,-1,-1,100,102,104,-1,106,108,-1,110,112,-1,-1,-1,-1,-1,-1,-1,-1,-1,-1,-1,-1,-1,-1,-1,-1,-1,-1,-1,-1,-1,-1,-1,-1,-1,-1,-1,-1,-1,-1,-1,-1,-1,-1,-1,-1,-1,-1,-1,-1,-1,-1,-1,-1,-1,-1,-1,-1,-1,-1,-1],"split_conditions":[9.381E-1,8.158E-1,1.0668E0,7.07E-1,8.775E-1,1.0179E0,1.1813E0,6.409E-1,7.716E-1,8.053E-1,9.412E-1,1.0179E0,1.0143E0,1.1254E0,1.1813E0,6.486E-1,7.09E-1,7.837E-1,7.481E-1,8.142E-1,8.123E-1,9.045E-1,9.299E-1,9.918E-1,1.0179E0,1.0179E0,1.0542E0,1.1328E0,1.1813E0,1.1597E0,1.1813E0,6.409E-1,-2.152145E-3,6.444E-1,6.993E-1,7.716E-1,7.855E-1,7.697E-1,7.517E-1,8.185E-1,-1.4933252E-3,8.053E-1,8.174E-1,8.941E-1,9.111E-1,9.413E-1,9.429E-1,1.0016E0,1.0219E0,1.0143E0,1.0219E0,2.7566599E-3,9.486527E-4,1.0097E0,1.047E0,1.1154E0,-2.4313421E-3,1.1154E0,1.1813E0,2.1327378E-3,1.1597E0,1.1813E0,8.8476244E-4,-1.2491101E-3,-5.0313276E-4,-2.7970524E-4,-7.0196256E-4,-2.0119429E-4,-1.8997194E-3,-4.3041428E-4,-8.830389E-5,-3.985167E-3,-6.028634E-4,-3.1381845E-5,1.2239099E-3,-1.9553395E-3,-2.1243135E-4,-2.4988802E-4,9.3084277E-4,6.7174437E-6,7.592179E-4,-2.6652715E-4,2.4392742E-5,2.7252288E-4,1.2016752E-5,5.852934E-4,2.7608845E-4,1.2442456E-3,-3.452003E-4,-1.4882804E-3,3.282845E-4,6.109344E-4,2.2142485E-3,-7.006995E-5,8.948605E-4,6.464175E-4,1.9103665E-3,-1.020062E-3,6.9460867E-4,-4.7675372E-4,1.0106127E-3,-9.589577E-4,5.6404044E-4,1.2595404E-3,5.824883E-4,2.7788281E-3,1.3963673E-3,9.1960764E-4,-2.3921217E-4,-1.0854542E-3,1.3247491E-3,1.9251585E-3,5.6731226E-3],"split_indices":[2,0,1,5,0,5,0,5,0,3,5,6,6,0,1,0,6,6,6,1,3,1,0,4,3,2,6,1,5,6,6,0,0,4,2,4,6,1,6,0,0,5,4,3,4,6,3,2,1,2,3,0,0,3,3,0,0,1,3,0,5,4,0,0,0,0,0,0,0,0,0,0,0,0,0,0,0,0,0,0,0,0,0,0,0,0,0,0,0,0,0,0,0,0,0,0,0,0,0,0,0,0,0,0,0,0,0,0,0,0,0,0,0],"split_type":[0,0,0,0,0,0,0,0,0,0,0,0,0,0,0,0,0,0,0,0,0,0,0,0,0,0,0,0,0,0,0,0,0,0,0,0,0,0,0,0,0,0,0,0,0,0,0,0,0,0,0,0,0,0,0,0,0,0,0,0,0,0,0,0,0,0,0,0,0,0,0,0,0,0,0,0,0,0,0,0,0,0,0,0,0,0,0,0,0,0,0,0,0,0,0,0,0,0,0,0,0,0,0,0,0,0,0,0,0,0,0,0,0],"sum_hessian":[4.952E3,4.098E3,8.54E2,2.513E3,1.585E3,3.68E2,4.86E2,4.84E2,2.029E3,7.54E2,8.31E2,2.14E2,1.54E2,4.65E2,2.1E1,5.8E1,4.26E2,1.238E3,7.91E2,8E0,7.46E2,8.13E2,1.8E1,1.99E2,1.5E1,7E0,1.47E2,2.52E2,2.13E2,8E0,1.3E1,5.6E1,2E0,4.13E2,1.3E1,1.221E3,1.7E1,7E0,7.84E2,4E0,4E0,2E1,7.26E2,5.23E2,2.9E2,1.1E1,7E0,1.36E2,6.3E1,1.2E1,3E0,4E0,3E0,1.02E2,4.5E1,2.49E2,3E0,1.97E2,1.6E1,2E0,6E0,1E1,3E0,3.9E1,1.7E1,2.3E1,3.9E2,4E0,9E0,1.148E3,7.3E1,2E0,1.5E1,3E0,4E0,3E0,7.81E2,3E0,1E0,8E0,1.2E1,5.3E1,6.73E2,3.67E2,1.56E2,9.4E1,1.96E2,3E0,8E0,5E0,2E0,1.33E2,3E0,4.6E1,1.7E1,6E0,6E0,1E0,2E0,3E0,9.9E1,4E0,4.1E1,1.94E2,5.5E1,5E0,1.92E2,1E1,6E0,1E0,5E0,8E0,2E0],"tree_param":{"num_deleted":"0","num_feature":"7","num_nodes":"113","size_leaf_vector":"1"}},{"base_weights":[1.40156835E-5,-5.1374815E-4,2.2945527E-3,-1.1408691E-3,1.0250451E-4,1.7080033E-3,3.2589133E-3,-1.8735875E-3,-9.4120123E-4,-2.949467E-4,4.3614107E-4,1.7906019E-3,-1.5280882E-3,1.0048893E-3,3.513326E-3,-2.9321015E-3,-1.759339E-3,-9.3064725E-4,-2.6234686E-3,1.7392123E-3,-3.2762994E-4,4.6154048E-4,-2.3887097E-3,1.271719E-3,2.3292457E-3,-5.0799674E-3,1.4042722E-3,2.502854E-3,-2.3244421E-3,8.053158E-3,3.2912367E-3,-3.6363502E-3,-1.7653914E-3,-1.5977459E-3,-2.5967427E-3,-9.579832E-4,9.4726554E-4,-3.0531655E-3,-2.6388257E-4,4.1130508E-4,2.892963E-3,-4.2412537E-3,1.4504194E-3,2.5074375E-3,1.0762061E-3,5.5900216E-3,2.2240032E-3,-3.2228115E-3,-6.6633226E-4,2.1787407E-3,-2.7352374E-3,-5.7799165E-4,4.464507E-3,3.089875E-3,-4.4725337E-3,3.5064968E-3,2.748234E-3,3.0828833E-3,5.8028754E-3,-6.2505086E-4,-1.2459598E-3,3.691554E-4,-6.7406415E-4,-5.5898604E-4,-1.2981604E-4,-8.833802E-4,1.5221664E-4,-2.792195E-4,-8.166137E-4,4.4056433E-4,-9.0523966E-4,9.4430445E-4,-1.1614662E-3,-8.544538E-5,1.3537646E-3,1.3526762E-4,-2.9440524E-4,3.30171E-4,1.0066194E-3,3.6200883E-5,-1.4965058E-3,-7.6365174E-4,1.089269E-3,6.1287393E-4,3.0239047E-3,-7.4288447E-4,3.606939E-4,3.020382E-3,1.0536126E-3,6.058797E-4,1.1204239E-3,8.996487E-4,-6.996989E-4,-9.6875674E-4,-3.9821865E-5,2.0640672E-3,-6.035507E-4,-3.575802E-4,1.6073126E-3,2.5874377E-5,1.2187004E-3,-6.713867E-5,-1.6963466E-3,-4.0044784E-4,1.394527E-3,-9.2244154E-4,9.4141363E-4,1.9363643E-3,6.888843E-4],"categories":[],"categories_nodes":[],"categories_segments":[],"categories_sizes":[],"default_left":[0,0,0,0,0,0,0,0,0,0,0,0,0,0,0,0,0,0,0,0,0,0,0,0,0,0,0,0,0,0,0,0,0,0,0,0,0,0,0,0,0,0,0,0,0,0,0,0,0,0,0,0,0,0,0,0,0,0,0,0,0,0,0,0,0,0,0,0,0,0,0,0,0,0,0,0,0,0,0,0,0,0,0,0,0,0,0,0,0,0,0,0,0,0,0,0,0,0,0,0,0,0,0,0,0,0,0,0,0],"id":13,"left_children":[1,3,5,7,9,11,13,15,17,19,21,23,25,27,29,31,33,35,-1,-1,37,39,41,43,45,47,49,51,53,55,57,59,61,63,65,67,69,71,73,75,77,79,81,83,85,87,89,-1,91,-1,93,95,97,99,101,-1,103,105,107,-1,-1,-1,-1,-1,-1,-1,-1,-1,-1,-1,-1,-1,-1,-1,-1,-1,-1,-1,-1,-1,-1,-1,-1,-1,-1,-1,-1,-1,-1,-1,-1,-1,-1,-1,-1,-1,-1,-1,-1,-1,-1,-1,-1,-1,-1,-1,-1,-1,-1],"loss_changes":[5.9625353E-3,1.5548655E-3,5.2104937E-4,2.899596E-4,2.6931526E-4,1.5803531E-4,1.9775098E-4,4.6359142E-5,1.2108404E-4,1.8648081E-4,8.031403E-5,1.5551038E-4,1.6336452E-4,1.9034493E-4,2.9109349E-4,2.6446593E-5,4.8219343E-5,8.140004E-5,0E0,0E0,1.595616E-4,1.3255724E-4,7.727315E-5,6.7606714E-5,8.262647E-5,1.6779455E-4,2.381151E-4,1.5971277E-4,1.5338496E-4,2.3785757E-4,1.4014961E-4,1.0608899E-5,2.7287293E-5,1.0035507E-4,6.736163E-5,7.178821E-5,5.1966395E-5,1.18755124E-4,9.1582E-5,5.9653175E-5,1.4542195E-5,2.341345E-5,4.4094555E-5,1.16590265E-4,1.1631954E-4,3.9081147E-5,7.583399E-5,0E0,3.7525006E-5,0E0,7.2844123E-6,1.3147495E-4,8.722345E-5,1.1333257E-5,4.393088E-5,0E0,6.051495E-5,1.0509626E-4,3.5451783E-5,0E0,0E0,0E0,0E0,0E0,0E0,0E0,0E0,0E0,0E0,0E0,0E0,0E0,0E0,0E0,0E0,0E0,0E0,0E0,0E0,0E0,0E0,0E0,0E0,0E0,0E0,0E0,0E0,0E0,0E0,0E0,0E0,0E0,0E0,0E0,0E0,0E0,0E0,0E0,0E0,0E0,0E0,0E0,0E0,0E0,0E0,0E0,0E0,0E0,0E0],"parents":[2147483647,0,0,1,1,2,2,3,3,4,4,5,5,6,6,7,7,8,8,9,9,10,10,11,11,12,12,13,13,14,14,15,15,16,16,17,17,20,20,21,21,22,22,23,23,24,24,25,25,26,26,27,27,28,28,29,29,30,30,31,31,32,32,33,33,34,34,35,35,36,36,37,37,38,38,39,39,40,40,41,41,42,42,43,43,44,44,45,45,46,46,48,48,50,50,51,51,52,52,53,53,54,54,56,56,57,57,58,58],"right_children":[2,4,6,8,10,12,14,16,18,20,22,24,26,28,30,32,34,36,-1,-1,38,40,42,44,46,48,50,52,54,56,58,60,62,64,66,68,70,72,74,76,78,80,82,84,86,88,90,-1,92,-1,94,96,98,100,102,-1,104,106,108,-1,-1,-1,-1,-1,-1,-1,-1,-1,-1,-1,-1,-1,-1,-1,-1,-1,-1,-1,-1,-1,-1,-1,-1,-1,-1,-1,-1,-1,-1,-1,-1,-1,-1,-1,-1,-1,-1,-1,-1,-1,-1,-1,-1,-1,-1,-1,-1,-1,-1],"split_conditions":[9.282E-1,7.837E-1,1.1041E0,7.028E-1,8.462E-1,1.1198E0,1.1041E0,6.364E-1,7.986E-1,7.741E-1,9.306E-1,1.0179E0,1.1198E0,1.1154E0,1.1077E0,6.364E-1,6.993E-1,7.882E-1,-2.6234686E-3,1.7392123E-3,7.781E-1,9.287E-1,9.358E-1,9.308E-1,1.0143E0,1.1077E0,1.1254E0,1.0971E0,1.1077E0,1.1154E0,1.1813E0,6.336E-1,6.336E-1,6.918E-1,7.113E-1,7.891E-1,7.891E-1,7.791E-1,8.541E-1,9.221E-1,9.189E-1,9.288E-1,9.175E-1,9.483E-1,9.306E-1,1.0143E0,1.0971E0,-3.2228115E-3,1.0971E0,2.1787407E-3,1.112E0,1.0738E0,1.1077E0,1.1198E0,1.1154E0,3.5064968E-3,1.112E0,1.0971E0,1.1813E0,-6.2505086E-4,-1.2459598E-3,3.691554E-4,-6.7406415E-4,-5.5898604E-4,-1.2981604E-4,-8.833802E-4,1.5221664E-4,-2.792195E-4,-8.166137E-4,4.4056433E-4,-9.0523966E-4,9.4430445E-4,-1.1614662E-3,-8.544538E-5,1.3537646E-3,1.3526762E-4,-2.9440524E-4,3.30171E-4,1.0066194E-3,3.6200883E-5,-1.4965058E-3,-7.6365174E-4,1.089269E-3,6.1287393E-4,3.0239047E-3,-7.4288447E-4,3.606939E-4,3.020382E-3,1.0536126E-3,6.058797E-4,1.1204239E-3,8.996487E-4,-6.996989E-4,-9.6875674E-4,-3.9821865E-5,2.0640672E-3,-6.035507E-4,-3.575802E-4,1.6073126E-3,2.5874377E-5,1.2187004E-3,-6.713867E-5,-1.6963466E-3,-4.0044784E-4,1.394527E-3,-9.2244154E-4,9.4141363E-4,1.9363643E-3,6.888843E-4],"split_indices":[3,2,0,0,0,6,5,0,5,4,4,5,5,2,4,2,3,0,0,0,5,5,4,5,6,3,6,3,0,0,0,6,6,0,3,6,5,1,2,2,0,6,3,3,4,4,0,0,1,0,1,4,0,2,1,0,1,6,6,0,0,0,0,0,0,0,0,0,0,0,0,0,0,0,0,0,0,0,0,0,0,0,0,0,0,0,0,0,0,0,0,0,0,0,0,0,0,0,0,0,0,0,0,0,0,0,0,0,0],"split_type":[0,0,0,0,0,0,0,0,0,0,0,0,0,0,0,0,0,0,0,0,0,0,0,0,0,0,0,0,0,0,0,0,0,0,0,0,0,0,0,0,0,0,0,0,0,0,0,0,0,0,0,0,0,0,0,0,0,0,0,0,0,0,0,0,0,0,0,0,0,0,0,0,0,0,0,0,0,0,0,0,0,0,0,0,0,0,0,0,0,0,0,0,0,0,0,0,0,0,0,0,0,0,0,0,0,0,0,0,0],"sum_hessian":[4.952E3,4.022E3,9.3E2,1.993E3,2.029E3,5.8E2,3.5E2,4.25E2,1.568E3,9.26E2,1.103E3,5.66E2,1.4E1,3.6E1,3.14E2,3.9E1,3.86E2,1.567E3,1E0,4E0,9.22E2,1.094E3,9E0,2.9E2,2.76E2,6E0,8E0,2.5E1,1.1E1,1.3E1,3.01E2,2.3E1,1.6E1,3.26E2,6E1,1.545E3,2.2E1,2E1,9.02E2,1.073E3,2.1E1,6E0,3E0,3.8E1,2.52E2,7E0,2.69E2,2E0,4E0,3E0,5E0,1E1,1.5E1,3E0,8E0,7E0,6E0,2.8E2,2.1E1,7E0,1.6E1,2E0,1.4E1,2.65E2,6.1E1,5.4E1,6E0,1.523E3,2.2E1,2E1,2E0,2E0,1.8E1,8.99E2,3E0,1.044E3,2.9E1,5E0,1.6E1,1E0,5E0,1E0,2E0,3.7E1,1E0,8E0,2.44E2,1E0,6E0,2.39E2,3E1,1E0,3E0,4E0,1E0,1E0,9E0,2E0,1.3E1,1E0,2E0,2E0,6E0,2E0,4E0,2E0,2.78E2,1.7E1,4E0],"tree_param":{"num_deleted":"0","num_feature":"7","num_nodes":"109","size_leaf_vector":"1"}},{"base_weights":[1.2174655E-5,-4.8493696E-4,1.254243E-3,-1.0313578E-3,-2.1829845E-4,7.171108E-4,2.0204762E-3,-1.5020526E-3,-8.86875E-4,-4.1466692E-4,4.150408E-5,3.4696162E-3,6.693006E-4,1.7239236E-3,2.9553354E-3,-1.2726422E-3,-2.6888654E-3,2.868707E-3,-9.3713676E-4,6.56813E-4,-4.788493E-4,8.623932E-5,-2.1013732E-3,3.973131E-3,-4.614115E-4,-2.8683504E-3,7.3422684E-4,1.8573074E-3,5.6922436E-5,6.715059E-4,3.1082814E-3,-1.5672512E-3,5.900208E-4,-1.7296057E-3,-5.3222016E-3,-2.0959547E-4,5.981942E-3,-8.735946E-4,-2.2833378E-3,2.9736399E-3,9.476193E-5,-3.371362E-3,-4.4648437E-4,4.379433E-5,2.4112065E-3,-9.0479053E-4,-4.3652826E-3,4.4049323E-4,4.988873E-3,-3.839612E-3,2.2875667E-4,5.1444373E-3,7.0031727E-4,1.717647E-3,3.4620985E-3,-2.7809264E-3,9.2951953E-4,-2.8434037E-3,3.4886796E-3,5.9676E-3,2.739574E-3,-4.3258755E-4,-8.706998E-4,-9.3288574E-4,3.2399112E-4,-8.6179783E-4,1.5303791E-4,-6.514013E-4,-1.7343403E-3,8.783221E-4,-6.150234E-4,5.3344964E-4,2.2917867E-3,-2.86553E-4,2.4856743E-4,-1.1953303E-3,-3.8386264E-4,3.2046437E-4,1.4996001E-3,-1.0848575E-3,1.869618E-4,-2.1626553E-5,-2.3275139E-3,2.2082627E-3,-1.3754252E-4,-8.857142E-6,4.440669E-4,1.9392014E-3,1.0656211E-4,-4.864292E-4,2.5583268E-4,-3.8180352E-4,-1.6043365E-3,-2.1594762E-5,2.966881E-4,1.8582881E-3,4.896507E-4,-4.8934226E-4,-1.3183594E-3,2.181423E-3,1.7809868E-4,-7.8542496E-4,2.1858583E-4,5.8897E-4,6.788818E-5,1.2504224E-3,-7.56526E-4,-1.3592839E-3,4.3337466E-4,1.7766953E-4,-1.5993715E-3,1.6207607E-3,-6.780625E-5,7.0905685E-4,2.3121755E-3,6.517313E-4,1.1213596E-3],"categories":[],"categories_nodes":[],"categories_segments":[],"categories_sizes":[],"default_left":[0,0,0,0,0,0,0,0,0,0,0,0,0,0,0,0,0,0,0,0,0,0,0,0,0,0,0,0,0,0,0,0,0,0,0,0,0,0,0,0,0,0,0,0,0,0,0,0,0,0,0,0,0,0,0,0,0,0,0,0,0,0,0,0,0,0,0,0,0,0,0,0,0,0,0,0,0,0,0,0,0,0,0,0,0,0,0,0,0,0,0,0,0,0,0,0,0,0,0,0,0,0,0,0,0,0,0,0,0,0,0,0,0,0,0,0,0],"id":14,"left_children":[1,3,5,7,9,11,13,15,17,19,21,23,25,27,29,31,33,35,37,39,41,43,45,47,-1,49,51,53,55,57,59,61,63,65,67,69,71,73,75,77,79,81,83,85,87,89,91,93,95,97,-1,99,101,103,105,-1,107,109,111,113,115,-1,-1,-1,-1,-1,-1,-1,-1,-1,-1,-1,-1,-1,-1,-1,-1,-1,-1,-1,-1,-1,-1,-1,-1,-1,-1,-1,-1,-1,-1,-1,-1,-1,-1,-1,-1,-1,-1,-1,-1,-1,-1,-1,-1,-1,-1,-1,-1,-1,-1,-1,-1,-1,-1,-1,-1],"loss_changes":[3.0588214E-3,5.152502E-4,5.81332E-4,7.755635E-5,1.21386714E-4,1.0743036E-4,1.565332E-4,7.036247E-5,1.706868E-4,9.349809E-5,9.84399E-5,4.141082E-5,1.9067852E-4,9.8840566E-5,4.6465895E-5,1.2659008E-4,9.941499E-5,1.1625555E-4,7.3195435E-5,9.99857E-5,1.18229655E-4,9.9071025E-5,5.293837E-5,4.444967E-5,0E0,5.5825687E-5,1.1708285E-4,8.6392974E-5,2.8532307E-4,1.0894084E-4,1.20703946E-4,2.893564E-5,6.1362676E-5,8.594985E-5,3.353547E-6,4.6421577E-5,2.8218768E-5,1.17576914E-4,6.149632E-5,5.2538424E-5,1.2579859E-4,2.0207628E-4,1.21892226E-4,1.0409618E-4,1.4768986E-4,2.027585E-5,1.4463498E-5,1.1954921E-6,3.0352268E-5,7.5381977E-6,0E0,5.375946E-5,7.722966E-5,1.3909931E-4,1.4569351E-4,0E0,9.654475E-5,4.5893787E-5,4.387748E-5,6.956147E-5,5.812134E-5,0E0,0E0,0E0,0E0,0E0,0E0,0E0,0E0,0E0,0E0,0E0,0E0,0E0,0E0,0E0,0E0,0E0,0E0,0E0,0E0,0E0,0E0,0E0,0E0,0E0,0E0,0E0,0E0,0E0,0E0,0E0,0E0,0E0,0E0,0E0,0E0,0E0,0E0,0E0,0E0,0E0,0E0,0E0,0E0,0E0,0E0,0E0,0E0,0E0,0E0,0E0,0E0,0E0,0E0,0E0,0E0],"parents":[2147483647,0,0,1,1,2,2,3,3,4,4,5,5,6,6,7,7,8,8,9,9,10,10,11,11,12,12,13,13,14,14,15,15,16,16,17,17,18,18,19,19,20,20,21,21,22,22,23,23,25,25,26,26,27,27,28,28,29,29,30,30,31,31,32,32,33,33,34,34,35,35,36,36,37,37,38,38,39,39,40,40,41,41,42,42,43,43,44,44,45,45,46,46,47,47,48,48,49,49,51,51,52,52,53,53,54,54,56,56,57,57,58,58,59,59,60,60],"right_children":[2,4,6,8,10,12,14,16,18,20,22,24,26,28,30,32,34,36,38,40,42,44,46,48,-1,50,52,54,56,58,60,62,64,66,68,70,72,74,76,78,80,82,84,86,88,90,92,94,96,98,-1,100,102,104,106,-1,108,110,112,114,116,-1,-1,-1,-1,-1,-1,-1,-1,-1,-1,-1,-1,-1,-1,-1,-1,-1,-1,-1,-1,-1,-1,-1,-1,-1,-1,-1,-1,-1,-1,-1,-1,-1,-1,-1,-1,-1,-1,-1,-1,-1,-1,-1,-1,-1,-1,-1,-1,-1,-1,-1,-1,-1,-1,-1,-1],"split_conditions":[8.9E-1,7.47E-1,1.0314E0,6.856E-1,8.158E-1,8.829E-1,1.1409E0,6.833E-1,6.833E-1,7.486E-1,8.925E-1,8.865E-1,8.865E-1,1.1388E0,1.1388E0,6.804E-1,6.833E-1,6.784E-1,7.447E-1,7.387E-1,7.398E-1,8.958E-1,8.895E-1,8.775E-1,-4.614115E-4,8.951E-1,8.801E-1,1.1328E0,1.1198E0,1.1328E0,1.1459E0,6.804E-1,6.709E-1,6.893E-1,6.856E-1,6.738E-1,6.819E-1,7.427E-1,7.435E-1,7.417E-1,7.398E-1,7.526E-1,7.411E-1,8.895E-1,8.811E-1,8.908E-1,8.846E-1,8.951E-1,9.029E-1,8.821E-1,2.2875667E-4,9.045E-1,8.811E-1,1.1225E0,1.1388E0,-2.7809264E-3,1.1292E0,1.1328E0,1.1357E0,1.1409E0,1.1723E0,-4.3258755E-4,-8.706998E-4,-9.3288574E-4,3.2399112E-4,-8.6179783E-4,1.5303791E-4,-6.514013E-4,-1.7343403E-3,8.783221E-4,-6.150234E-4,5.3344964E-4,2.2917867E-3,-2.86553E-4,2.4856743E-4,-1.1953303E-3,-3.8386264E-4,3.2046437E-4,1.4996001E-3,-1.0848575E-3,1.869618E-4,-2.1626553E-5,-2.3275139E-3,2.2082627E-3,-1.3754252E-4,-8.857142E-6,4.440669E-4,1.9392014E-3,1.0656211E-4,-4.864292E-4,2.5583268E-4,-3.8180352E-4,-1.6043365E-3,-2.1594762E-5,2.966881E-4,1.8582881E-3,4.896507E-4,-4.8934226E-4,-1.3183594E-3,2.181423E-3,1.7809868E-4,-7.8542496E-4,2.1858583E-4,5.8897E-4,6.788818E-5,1.2504224E-3,-7.56526E-4,-1.3592839E-3,4.3337466E-4,1.7766953E-4,-1.5993715E-3,1.6207607E-3,-6.780625E-5,7.0905685E-4,2.3121755E-3,6.517313E-4,1.1213596E-3],"split_indices":[2,0,6,0,6,4,6,4,2,2,1,5,4,4,5,0,0,5,0,4,5,5,2,6,0,6,6,5,2,3,6,3,6,4,3,2,3,0,5,2,5,2,5,0,0,3,5,2,1,5,0,1,0,6,2,0,5,1,3,0,0,0,0,0,0,0,0,0,0,0,0,0,0,0,0,0,0,0,0,0,0,0,0,0,0,0,0,0,0,0,0,0,0,0,0,0,0,0,0,0,0,0,0,0,0,0,0,0,0,0,0,0,0,0,0,0,0],"split_type":[0,0,0,0,0,0,0,0,0,0,0,0,0,0,0,0,0,0,0,0,0,0,0,0,0,0,0,0,0,0,0,0,0,0,0,0,0,0,0,0,0,0,0,0,0,0,0,0,0,0,0,0,0,0,0,0,0,0,0,0,0,0,0,0,0,0,0,0,0,0,0,0,0,0,0,0,0,0,0,0,0,0,0,0,0,0,0,0,0,0,0,0,0,0,0,0,0,0,0,0,0,0,0,0,0,0,0,0,0,0,0,0,0,0,0,0,0],"sum_hessian":[4.952E3,3.537E3,1.415E3,1.159E3,2.378E3,8.33E2,5.82E2,2.7E2,8.89E2,1.354E3,1.024E3,1.3E1,8.2E2,4.44E2,1.38E2,2.28E2,4.2E1,1.1E1,8.78E2,7.6E1,1.278E3,1.004E3,2E1,1.2E1,1E0,1.4E1,8.06E2,4.11E2,3.3E1,9E0,1.29E2,1.97E2,3.1E1,3.2E1,1E1,6E0,5E0,8.4E2,3.8E1,1.4E1,6.2E1,1.3E1,1.265E3,9.87E2,1.7E1,1.4E1,6E0,3E0,9E0,1.1E1,3E0,5E0,8.01E2,3.8E2,3.1E1,2E0,3.1E1,4E0,5E0,1.3E1,1.16E2,1.82E2,1.5E1,3E0,2.8E1,2.1E1,1.1E1,2E0,8E0,2E0,4E0,2E0,3E0,8.02E2,3.8E1,1.3E1,2.5E1,8E0,6E0,7E0,5.5E1,8E0,5E0,1E0,1.264E3,9.4E2,4.7E1,5E0,1.2E1,1E1,4E0,2E0,4E0,2E0,1E0,6E0,3E0,3E0,8E0,3E0,2E0,6E0,7.95E2,3.26E2,5.4E1,2.8E1,3E0,2E0,2.9E1,2E0,2E0,3E0,2E0,5E0,8E0,7.6E1,4E1],"tree_param":{"num_deleted":"0","num_feature":"7","num_nodes":"117","size_leaf_vector":"1"}},{"base_weights":[8.964825E-6,-2.3876119E-4,1.3010453E-3,-5.8611005E-4,6.9296184E-5,1.1296719E-3,2.1041674E-3,-5.6486356E-4,-7.3899925E-3,3.2759805E-3,5.171775E-5,1.1480594E-3,-1.6453923E-3,2.7788382E-3,1.5718624E-3,-5.89322E-4,3.79784E-3,-2.6679218E-3,-8.7676645E-4,1.3405747E-3,2.0434947E-3,-1.3906539E-3,6.0255286E-5,1.1065783E-3,4.8477137E-3,2.0964502E-3,4.8712236E-3,-4.409722E-4,1.968994E-3,-5.630907E-4,-3.2104254E-3,1.7515819E-4,6.7875483E-3,-1.3614297E-3,2.307066E-3,3.3930703E-3,4.341069E-5,1.1797325E-3,-5.658482E-4,1.9386578E-3,5.410115E-4,2.6647525E-3,-5.991326E-4,6.6971513E-3,1.3204614E-3,1.1429072E-3,-2.5222064E-3,-3.6959886E-3,2.387342E-3,-2.4503123E-4,-1.1068184E-4,-3.6739649E-3,-4.2809005E-4,-1.0198295E-3,4.7098877E-4,2.3110022E-3,3.3128858E-4,-5.7008566E-4,-4.2557716E-5,9.562314E-4,-4.462749E-4,1.4698174E-3,1.8168212E-4,-1.1997956E-3,1.6922337E-5,1.8475533E-3,3.4615924E-4,-2.2247434E-3,7.3888674E-5,-6.152988E-5,3.0498506E-4,7.691384E-5,9.833993E-4,-7.561237E-4,2.3447277E-4,-1.6754866E-5,2.2644773E-3,-1.9016684E-3,1.2360335E-3,-1.0306434E-3,2.261758E-4,-1.4289201E-3,8.584857E-5,1.3751984E-3,3.029001E-4],"categories":[],"categories_nodes":[],"categories_segments":[],"categories_sizes":[],"default_left":[0,0,0,0,0,0,0,0,0,0,0,0,0,0,0,0,0,0,0,0,0,0,0,0,0,0,0,0,0,0,0,0,0,0,0,0,0,0,0,0,0,0,0,0,0,0,0,0,0,0,0,0,0,0,0,0,0,0,0,0,0,0,0,0,0,0,0,0,0,0,0,0,0,0,0,0,0,0,0,0,0,0,0,0,0],"id":15,"left_children":[1,3,5,7,9,11,13,15,17,19,21,23,-1,25,27,29,31,-1,-1,33,-1,-1,35,37,39,41,43,45,47,49,51,53,55,57,59,61,63,65,67,-1,69,71,73,75,77,-1,79,81,83,-1,-1,-1,-1,-1,-1,-1,-1,-1,-1,-1,-1,-1,-1,-1,-1,-1,-1,-1,-1,-1,-1,-1,-1,-1,-1,-1,-1,-1,-1,-1,-1,-1,-1,-1,-1],"loss_changes":[1.5856765E-3,4.4485374E-4,1.07317115E-4,2.782931E-4,1.2406673E-4,8.644455E-5,4.555122E-5,2.1020591E-4,1.4299032E-5,7.298391E-5,8.803747E-5,9.561598E-5,0E0,7.545689E-5,6.4817126E-5,1.3150793E-4,1.179495E-4,0E0,0E0,2.664408E-5,0E0,0E0,1.2279913E-4,8.043647E-5,4.5175417E-5,7.359614E-5,8.192475E-5,1.3346157E-4,1.6760913E-4,9.431236E-5,2.887201E-4,3.5252102E-5,2.2721273E-5,1.7019452E-6,2.8126495E-5,4.3219858E-5,1.1477097E-4,7.338985E-5,1.575948E-4,0E0,1.2730709E-6,5.675957E-5,2.5844436E-5,5.2149262E-5,1.5477806E-4,0E0,3.250999E-5,2.2609333E-5,1.8602694E-4,0E0,0E0,0E0,0E0,0E0,0E0,0E0,0E0,0E0,0E0,0E0,0E0,0E0,0E0,0E0,0E0,0E0,0E0,0E0,0E0,0E0,0E0,0E0,0E0,0E0,0E0,0E0,0E0,0E0,0E0,0E0,0E0,0E0,0E0,0E0,0E0],"parents":[2147483647,0,0,1,1,2,2,3,3,4,4,5,5,6,6,7,7,8,8,9,9,10,10,11,11,13,13,14,14,15,15,16,16,19,19,22,22,23,23,24,24,25,25,26,26,27,27,28,28,29,29,30,30,31,31,32,32,33,33,34,34,35,35,36,36,37,37,38,38,40,40,41,41,42,42,43,43,44,44,46,46,47,47,48,48],"right_children":[2,4,6,8,10,12,14,16,18,20,22,24,-1,26,28,30,32,-1,-1,34,-1,-1,36,38,40,42,44,46,48,50,52,54,56,58,60,62,64,66,68,-1,70,72,74,76,78,-1,80,82,84,-1,-1,-1,-1,-1,-1,-1,-1,-1,-1,-1,-1,-1,-1,-1,-1,-1,-1,-1,-1,-1,-1,-1,-1,-1,-1,-1,-1,-1,-1,-1,-1,-1,-1,-1,-1],"split_conditions":[9.45E-1,7.817E-1,1.1409E0,7.891E-1,7.781E-1,1.1597E0,1.1597E0,7.882E-1,7.763E-1,7.772E-1,7.741E-1,1.1514E0,-1.6453923E-3,1.1659E0,1.1597E0,7.808E-1,7.827E-1,-2.6679218E-3,-8.7676645E-4,7.73E-1,2.0434947E-3,-1.3906539E-3,7.763E-1,1.1388E0,1.1597E0,1.1514E0,1.1597E0,1.1597E0,1.1597E0,7.328E-1,7.763E-1,7.328E-1,7.861E-1,7.526E-1,7.781E-1,7.827E-1,7.791E-1,9.411E-1,1.1198E0,1.9386578E-3,1.1659E0,1.1388E0,1.1514E0,1.1514E0,1.1723E0,1.1429072E-3,1.1597E0,1.1659E0,1.1723E0,-2.4503123E-4,-1.1068184E-4,-3.6739649E-3,-4.2809005E-4,-1.0198295E-3,4.7098877E-4,2.3110022E-3,3.3128858E-4,-5.7008566E-4,-4.2557716E-5,9.562314E-4,-4.462749E-4,1.4698174E-3,1.8168212E-4,-1.1997956E-3,1.6922337E-5,1.8475533E-3,3.4615924E-4,-2.2247434E-3,7.3888674E-5,-6.152988E-5,3.0498506E-4,7.691384E-5,9.833993E-4,-7.561237E-4,2.3447277E-4,-1.6754866E-5,2.2644773E-3,-1.9016684E-3,1.2360335E-3,-1.0306434E-3,2.261758E-4,-1.4289201E-3,8.584857E-5,1.3751984E-3,3.029001E-4],"split_indices":[1,4,6,5,3,4,6,6,1,3,5,3,0,0,3,4,2,0,0,3,0,0,6,4,3,1,5,5,5,2,3,0,1,0,2,5,3,2,2,0,0,5,4,3,0,0,0,6,4,0,0,0,0,0,0,0,0,0,0,0,0,0,0,0,0,0,0,0,0,0,0,0,0,0,0,0,0,0,0,0,0,0,0,0,0],"split_type":[0,0,0,0,0,0,0,0,0,0,0,0,0,0,0,0,0,0,0,0,0,0,0,0,0,0,0,0,0,0,0,0,0,0,0,0,0,0,0,0,0,0,0,0,0,0,0,0,0,0,0,0,0,0,0,0,0,0,0,0,0,0,0,0,0,0,0,0,0,0,0,0,0,0,0,0,0,0,0,0,0,0,0,0,0],"sum_hessian":[4.952E3,4.156E3,7.96E2,1.953E3,2.203E3,6.58E2,1.38E2,1.948E3,5E0,1.1E1,2.192E3,6.57E2,1E0,5.9E1,7.9E1,1.938E3,1E1,3E0,2E0,8E0,3E0,3E0,2.189E3,6.51E2,6E0,4.6E1,1.3E1,1.3E1,6.6E1,1.92E3,1.8E1,5E0,5E0,2E0,6E0,1E1,2.179E3,6.24E2,2.7E1,4E0,2E0,3.8E1,8E0,8E0,5E0,4E0,9E0,4E0,6.2E1,8.31E2,1.089E3,2E0,1.6E1,1E0,4E0,4E0,1E0,1E0,1E0,5E0,1E0,6E0,4E0,6E0,2.173E3,2E0,6.22E2,2E0,2.5E1,1E0,1E0,8E0,3E1,3E0,5E0,1E0,7E0,1E0,4E0,7E0,2E0,3E0,1E0,2.3E1,3.9E1],"tree_param":{"num_deleted":"0","num_feature":"7","num_nodes":"85","size_leaf_vector":"1"}},{"base_weights":[5.9653503E-6,-2.5443788E-4,6.566014E-4,-5.315078E-4,-1.2571347E-4,4.626127E-4,1.2885928E-3,-4.912203E-4,-1.9816002E-3,2.297178E-3,-1.499506E-4,3.9699823E-3,4.3615483E-4,-3.228888E-3,1.3958274E-3,-5.343969E-4,1.8519282E-3,1.8936307E-3,-2.4852485E-3,2.1369965E-3,1.777636E-3,-1.2717325E-4,-1.6383347E-3,2.3139317E-3,1.7876269E-3,-4.667437E-3,4.5950848E-4,7.829964E-4,-5.792618E-3,3.6651588E-3,1.1526237E-3,-5.047549E-4,-1.7179669E-3,3.919942E-4,4.5072353E-3,-3.626165E-3,4.5302842E-4,3.853807E-4,3.2614253E-3,-1.4124518E-4,2.636835E-3,-3.409644E-3,1.2597599E-4,-6.593466E-5,1.0907203E-3,-6.280939E-4,-2.1452906E-3,5.1909394E-4,-7.71184E-4,-1.3287067E-4,6.691039E-4,-2.1172168E-3,-2.5969744E-3,7.0431405E-3,8.3422E-4,-3.2737255E-3,1.2402288E-3,-1.7185695E-4,6.2313804E-5,1.3515473E-3,-2.0068884E-4,2.7486385E-4,1.4859111E-3,-1.1427284E-3,4.8637394E-6,-1.6663432E-3,8.888867E-4,-4.1631015E-4,3.1682255E-4,1.2334228E-3,-1.12700465E-4,-1.90703E-4,-2.3971788E-5,2.3439862E-3,-2.7841554E-4,-1.6263208E-3,-3.7751914E-4,2.596043E-4,-8.589015E-4,-3.2438638E-4,4.1744115E-5,1.3528911E-4,1.2916644E-3,-7.2412496E-4,1.8168263E-4,-1.9937754E-5,-1.1487007E-3,1.2548317E-3,3.9445106E-3,1.2590218E-3,-1.2788006E-4,-1.4893771E-3,-3.5614372E-4,-1.042387E-3,3.9048592E-4],"categories":[],"categories_nodes":[],"categories_segments":[],"categories_sizes":[],"default_left":[0,0,0,0,0,0,0,0,0,0,0,0,0,0,0,0,0,0,0,0,0,0,0,0,0,0,0,0,0,0,0,0,0,0,0,0,0,0,0,0,0,0,0,0,0,0,0,0,0,0,0,0,0,0,0,0,0,0,0,0,0,0,0,0,0,0,0,0,0,0,0,0,0,0,0,0,0,0,0,0,0,0,0,0,0,0,0,0,0,0,0,0,0,0,0],"id":16,"left_children":[1,3,5,7,9,11,13,15,17,19,21,23,25,27,29,31,33,-1,35,-1,37,39,41,43,-1,45,47,49,51,53,55,57,-1,59,61,63,65,67,69,71,73,75,77,-1,-1,79,-1,81,83,-1,-1,-1,85,87,89,91,93,-1,-1,-1,-1,-1,-1,-1,-1,-1,-1,-1,-1,-1,-1,-1,-1,-1,-1,-1,-1,-1,-1,-1,-1,-1,-1,-1,-1,-1,-1,-1,-1,-1,-1,-1,-1,-1,-1],"loss_changes":[8.393426E-4,1.2611828E-4,1.730044E-4,6.457456E-5,1.4228019E-4,9.895374E-5,1.6533781E-4,1.1156779E-4,1.4100043E-4,4.7514535E-5,8.095171E-5,1.2559918E-5,1.3062877E-4,8.68187E-5,1.7514621E-4,1.6240476E-4,7.576465E-5,0E0,9.8860255E-5,0E0,4.6256828E-5,9.212567E-5,1.1293456E-4,2.0893487E-5,0E0,4.5667686E-5,7.915821E-5,8.085041E-6,1.8809224E-6,2.905731E-4,1.184525E-4,5.1987096E-5,0E0,6.410824E-5,6.668153E-6,1.4054007E-5,1.5216328E-4,1.692506E-5,3.55507E-5,7.115946E-5,2.2869272E-4,7.106543E-5,4.446688E-5,0E0,0E0,1.1935848E-6,0E0,2.6247968E-4,1.1453541E-4,0E0,0E0,0E0,9.098523E-6,1.8948811E-4,7.808033E-5,1.527505E-5,8.846281E-5,0E0,0E0,0E0,0E0,0E0,0E0,0E0,0E0,0E0,0E0,0E0,0E0,0E0,0E0,0E0,0E0,0E0,0E0,0E0,0E0,0E0,0E0,0E0,0E0,0E0,0E0,0E0,0E0,0E0,0E0,0E0,0E0,0E0,0E0,0E0,0E0,0E0,0E0],"parents":[2147483647,0,0,1,1,2,2,3,3,4,4,5,5,6,6,7,7,8,8,9,9,10,10,11,11,12,12,13,13,14,14,15,15,16,16,18,18,20,20,21,21,22,22,23,23,25,25,26,26,27,27,28,28,29,29,30,30,31,31,33,33,34,34,35,35,36,36,37,37,38,38,39,39,40,40,41,41,42,42,45,45,47,47,48,48,52,52,53,53,54,54,55,55,56,56],"right_children":[2,4,6,8,10,12,14,16,18,20,22,24,26,28,30,32,34,-1,36,-1,38,40,42,44,-1,46,48,50,52,54,56,58,-1,60,62,64,66,68,70,72,74,76,78,-1,-1,80,-1,82,84,-1,-1,-1,86,88,90,92,94,-1,-1,-1,-1,-1,-1,-1,-1,-1,-1,-1,-1,-1,-1,-1,-1,-1,-1,-1,-1,-1,-1,-1,-1,-1,-1,-1,-1,-1,-1,-1,-1,-1,-1,-1,-1,-1,-1],"split_conditions":[8.9E-1,7.447E-1,1.1077E0,7.481E-1,7.435E-1,8.846E-1,1.0971E0,7.435E-1,7.305E-1,7.292E-1,8.908E-1,8.99E-1,8.811E-1,1.0971E0,1.112E0,7.526E-1,7.47E-1,1.8936307E-3,7.526E-1,2.1369965E-3,7.427E-1,8.958E-1,8.925E-1,8.811E-1,1.7876269E-3,8.9E-1,1.1002E0,1.112E0,1.1198E0,1.1154E0,1.1041E0,7.393E-1,-1.7179669E-3,7.334E-1,7.447E-1,7.591E-1,7.447E-1,7.398E-1,7.481E-1,7.562E-1,8.829E-1,8.876E-1,9.006E-1,-6.593466E-5,1.0907203E-3,8.801E-1,-2.1452906E-3,1.0971E0,1.1077E0,-1.3287067E-4,6.691039E-4,-2.1172168E-3,1.1254E0,1.112E0,1.112E0,1.112E0,1.0971E0,-1.7185695E-4,6.2313804E-5,1.3515473E-3,-2.0068884E-4,2.7486385E-4,1.4859111E-3,-1.1427284E-3,4.8637394E-6,-1.6663432E-3,8.888867E-4,-4.1631015E-4,3.1682255E-4,1.2334228E-3,-1.12700465E-4,-1.90703E-4,-2.3971788E-5,2.3439862E-3,-2.7841554E-4,-1.6263208E-3,-3.7751914E-4,2.596043E-4,-8.589015E-4,-3.2438638E-4,4.1744115E-5,1.3528911E-4,1.2916644E-3,-7.2412496E-4,1.8168263E-4,-1.9937754E-5,-1.1487007E-3,1.2548317E-3,3.9445106E-3,1.2590218E-3,-1.2788006E-4,-1.4893771E-3,-3.5614372E-4,-1.042387E-3,3.9048592E-4],"split_indices":[2,6,2,4,5,1,4,5,6,5,3,5,0,5,4,2,2,0,4,0,4,5,4,0,0,3,4,2,1,0,1,2,0,0,0,3,5,5,6,0,0,0,4,0,0,0,0,3,6,0,0,0,2,0,2,3,6,0,0,0,0,0,0,0,0,0,0,0,0,0,0,0,0,0,0,0,0,0,0,0,0,0,0,0,0,0,0,0,0,0,0,0,0,0,0],"split_type":[0,0,0,0,0,0,0,0,0,0,0,0,0,0,0,0,0,0,0,0,0,0,0,0,0,0,0,0,0,0,0,0,0,0,0,0,0,0,0,0,0,0,0,0,0,0,0,0,0,0,0,0,0,0,0,0,0,0,0,0,0,0,0,0,0,0,0,0,0,0,0,0,0,0,0,0,0,0,0,0,0,0,0,0,0,0,0,0,0,0,0,0,0,0,0],"sum_hessian":[4.952E3,3.537E3,1.415E3,1.121E3,2.416E3,1.084E3,3.31E2,1.092E3,2.9E1,2.3E1,2.393E3,7E0,1.077E3,7E0,3.24E2,1.073E3,1.9E1,1E0,2.8E1,1E0,2.2E1,2.358E3,3.5E1,5E0,2E0,4E0,1.073E3,3E0,4E0,3E1,2.94E2,1.068E3,5E0,1.3E1,6E0,2E1,8E0,1.2E1,1E1,2.347E3,1.1E1,1.7E1,1.8E1,2E0,3E0,2E0,2E0,1.024E3,4.9E1,2E0,1E0,2E0,2E0,1.3E1,1.7E1,5E0,2.89E2,9.75E2,9.3E1,2E0,1.1E1,1E0,5E0,1.9E1,1E0,2E0,6E0,3E0,9E0,8E0,2E0,2.58E2,2.089E3,4E0,7E0,8E0,9E0,1.5E1,3E0,1E0,1E0,1.007E3,1.7E1,2.2E1,2.7E1,1E0,1E0,1E1,3E0,4E0,1.3E1,2E0,3E0,3E0,2.86E2],"tree_param":{"num_deleted":"0","num_feature":"7","num_nodes":"95","size_leaf_vector":"1"}},{"base_weights":[5.337438E-6,-1.2213789E-4,6.916604E-4,-2.6509084E-4,1.023892E-4,2.5146962E-3,6.7092106E-4,-7.8212674E-4,-2.2671264E-4,1.3998315E-3,9.10785E-5,-1.6612709E-3,6.943411E-4,-6.257716E-4,-1.906378E-3,2.3899477E-3,-2.3988256E-4,-1.9021952E-3,1.0710674E-4,7.3951186E-4,-2.6028922E-3,2.049052E-3,6.3649507E-4,-8.353871E-4,2.5181533E-3,-9.112869E-4,-3.40949E-3,8.9877844E-4,1.1193962E-3,-2.0619626E-4,-6.7958486E-4,2.8243993E-4,-5.4540993E-3,2.6236859E-3,8.499208E-5,-8.9775026E-4,-1.0971935E-3,6.060473E-4,3.0575527E-3,-1.9884645E-3,7.0862676E-4,-2.1992704E-4,-9.351552E-4,-2.305761E-4,1.2109663E-3,-5.9022906E-4,-3.1781197E-5,-1.5668796E-3,-3.8305167E-4,9.1417285E-4,-4.4231417E-4,-7.240312E-5,2.8016866E-4,-5.307243E-4,3.500356E-5,-3.4193057E-4,1.052034E-3,-2.1830143E-3,-5.4403546E-4,1.0682573E-3,-1.8283725E-4,2.3375173E-5,1.1461438E-3,-6.210566E-4,5.49376E-5,5.725153E-4,-2.9067483E-4,-5.990267E-4,1.39328E-3,-7.282038E-4,9.525419E-4,7.79146E-4,1.9442633E-4],"categories":[],"categories_nodes":[],"categories_segments":[],"categories_sizes":[],"default_left":[0,0,0,0,0,0,0,0,0,0,0,0,0,0,0,0,0,0,0,0,0,0,0,0,0,0,0,0,0,0,0,0,0,0,0,0,0,0,0,0,0,0,0,0,0,0,0,0,0,0,0,0,0,0,0,0,0,0,0,0,0,0,0,0,0,0,0,0,0,0,0,0,0],"id":17,"left_children":[1,3,5,7,9,-1,11,13,15,-1,17,19,21,23,25,27,29,31,33,-1,35,37,39,41,43,45,47,49,-1,51,53,55,57,59,61,63,-1,65,67,69,71,-1,-1,-1,-1,-1,-1,-1,-1,-1,-1,-1,-1,-1,-1,-1,-1,-1,-1,-1,-1,-1,-1,-1,-1,-1,-1,-1,-1,-1,-1,-1,-1],"loss_changes":[4.334187E-4,1.3412762E-4,1.18147465E-4,5.0481656E-5,8.3507155E-5,0E0,4.3484062E-5,2.9744748E-5,8.252209E-5,0E0,5.2056395E-5,3.749961E-5,5.8879872E-5,1.0491001E-4,2.830338E-5,2.0648942E-5,3.4919736E-5,1.0241543E-4,8.943443E-5,0E0,9.3021845E-6,4.3260385E-5,1.4114409E-4,3.2027703E-5,5.300834E-5,1.1699479E-5,2.4270666E-5,4.0183324E-5,0E0,8.838236E-5,1.4595076E-4,4.5268065E-5,1.9981526E-5,4.459032E-5,4.1934247E-5,5.4481434E-6,0E0,3.056493E-5,1.5362877E-4,5.3031334E-5,8.0519705E-5,0E0,0E0,0E0,0E0,0E0,0E0,0E0,0E0,0E0,0E0,0E0,0E0,0E0,0E0,0E0,0E0,0E0,0E0,0E0,0E0,0E0,0E0,0E0,0E0,0E0,0E0,0E0,0E0,0E0,0E0,0E0,0E0],"parents":[2147483647,0,0,1,1,2,2,3,3,4,4,6,6,7,7,8,8,10,10,11,11,12,12,13,13,14,14,15,15,16,16,17,17,18,18,20,20,21,21,22,22,23,23,24,24,25,25,26,26,27,27,29,29,30,30,31,31,32,32,33,33,34,34,35,35,37,37,38,38,39,39,40,40],"right_children":[2,4,6,8,10,-1,12,14,16,-1,18,20,22,24,26,28,30,32,34,-1,36,38,40,42,44,46,48,50,-1,52,54,56,58,60,62,64,-1,66,68,70,72,-1,-1,-1,-1,-1,-1,-1,-1,-1,-1,-1,-1,-1,-1,-1,-1,-1,-1,-1,-1,-1,-1,-1,-1,-1,-1,-1,-1,-1,-1,-1,-1],"split_conditions":[9.483E-1,8.185E-1,9.308E-1,6.757E-1,8.116E-1,2.5146962E-3,9.481E-1,6.738E-1,6.757E-1,1.3998315E-3,8.123E-1,9.431E-1,9.779E-1,6.804E-1,6.804E-1,6.757E-1,8.116E-1,8.158E-1,8.158E-1,7.3951186E-4,9.452E-1,9.598E-1,9.918E-1,6.738E-1,6.709E-1,6.738E-1,6.784E-1,6.784E-1,1.1193962E-3,8.089E-1,8.158E-1,8.142E-1,8.244E-1,8.197E-1,9.57E-1,9.381E-1,-1.0971935E-3,9.592E-1,9.592E-1,1.0016E0,1.0016E0,-2.1992704E-4,-9.351552E-4,-2.305761E-4,1.2109663E-3,-5.9022906E-4,-3.1781197E-5,-1.5668796E-3,-3.8305167E-4,9.1417285E-4,-4.4231417E-4,-7.240312E-5,2.8016866E-4,-5.307243E-4,3.500356E-5,-3.4193057E-4,1.052034E-3,-2.1830143E-3,-5.4403546E-4,1.0682573E-3,-1.8283725E-4,2.3375173E-5,1.1461438E-3,-6.210566E-4,5.49376E-5,5.725153E-4,-2.9067483E-4,-5.990267E-4,1.39328E-3,-7.282038E-4,9.525419E-4,7.79146E-4,1.9442633E-4],"split_indices":[3,0,5,1,1,0,2,1,2,0,2,5,6,6,4,6,6,6,2,0,2,4,2,3,1,6,5,1,0,0,6,3,0,5,0,1,0,3,3,3,3,0,0,0,0,0,0,0,0,0,0,0,0,0,0,0,0,0,0,0,0,0,0,0,0,0,0,0,0,0,0,0,0],"split_type":[0,0,0,0,0,0,0,0,0,0,0,0,0,0,0,0,0,0,0,0,0,0,0,0,0,0,0,0,0,0,0,0,0,0,0,0,0,0,0,0,0,0,0,0,0,0,0,0,0,0,0,0,0,0,0,0,0,0,0,0,0,0,0,0,0,0,0,0,0,0,0,0,0],"sum_hessian":[4.952E3,4.177E3,7.75E2,2.552E3,1.625E3,1E0,7.74E2,1.75E2,2.377E3,3E0,1.622E3,7E0,7.67E2,1.55E2,2E1,1.1E1,2.366E3,1.2E1,1.61E3,1E0,6E0,3E1,7.37E2,1.46E2,9E0,1.3E1,7E0,6E0,5E0,2.199E3,1.67E2,8E0,4E0,1.3E1,1.597E3,3E0,3E0,1.3E1,1.7E1,1.9E1,7.18E2,1.41E2,5E0,3E0,6E0,5E0,8E0,3E0,4E0,3E0,3E0,2.134E3,6.5E1,7E1,9.7E1,6E0,2E0,2E0,2E0,1E1,3E0,1.595E3,2E0,1E0,2E0,7E0,6E0,4E0,1.3E1,1.8E1,1E0,2.1E1,6.97E2],"tree_param":{"num_deleted":"0","num_feature":"7","num_nodes":"73","size_leaf_vector":"1"}},{"base_weights":[4.526331E-6,-1.506995E-4,3.111529E-4,-1.4423672E-4,-2.2554218E-3,2.1005119E-4,7.1644963E-4,-1.52858E-4,3.908668E-3,-9.6670905E-4,5.811453E-7,2.644953E-4,-7.0741016E-4,3.011012E-3,4.0075355E-4,-4.7147193E-4,-1.12348236E-4,-7.104874E-5,5.5147647E-3,2.2584201E-4,-1.5032888E-4,2.132383E-4,2.8953452E-3,-1.506385E-3,1.7267466E-3,-7.0140915E-5,4.334011E-3,-2.3183369E-3,6.084464E-4,-4.2945764E-4,-5.4540634E-3,1.5249848E-3,-1.2765922E-4,-1.8077195E-4,1.4880003E-4,2.4608374E-4,1.944995E-3,2.6624303E-4,-2.3670816E-3,4.8029283E-3,-1.5201867E-3,-9.1518677E-4,-4.5577553E-3,3.3991337E-3,-1.6257933E-3,-1.7961945E-3,1.6659328E-3,2.59969E-3,1.8261044E-3,-4.0662023E-3,-9.299425E-4,2.447849E-3,4.4544917E-4,-5.6590125E-5,-2.497151E-4,-2.0304592E-3,-4.238695E-4,6.1983906E-4,-2.1401346E-4,-5.9586565E-4,-3.3009528E-5,6.27689E-5,9.620905E-4,-1.1885636E-3,2.7249655E-4,4.3686034E-4,2.1000053E-3,4.2175056E-4,-8.1894995E-4,-5.7026115E-4,2.66395E-4,-1.8290316E-3,1.6576052E-4,1.3965011E-3,1.3762237E-4,-8.161724E-4,7.414341E-4,-8.243442E-4,5.870283E-4,1.4360279E-3,-5.614132E-4,2.4884866E-4,1.6068042E-3,-1.4605165E-3,-2.5171044E-4,1.0675788E-3,-6.208648E-4,1.6395227E-4,1.9332239E-3,-1.1532719E-3,1.915783E-4],"categories":[],"categories_nodes":[],"categories_segments":[],"categories_sizes":[],"default_left":[0,0,0,0,0,0,0,0,0,0,0,0,0,0,0,0,0,0,0,0,0,0,0,0,0,0,0,0,0,0,0,0,0,0,0,0,0,0,0,0,0,0,0,0,0,0,0,0,0,0,0,0,0,0,0,0,0,0,0,0,0,0,0,0,0,0,0,0,0,0,0,0,0,0,0,0,0,0,0,0,0,0,0,0,0,0,0,0,0,0,0],"id":18,"left_children":[1,3,5,7,9,11,13,15,17,-1,19,21,23,25,27,29,31,33,35,-1,-1,37,39,41,43,45,47,49,51,53,55,57,59,-1,-1,-1,-1,61,63,65,67,69,71,73,75,77,79,-1,81,83,85,87,89,-1,-1,-1,-1,-1,-1,-1,-1,-1,-1,-1,-1,-1,-1,-1,-1,-1,-1,-1,-1,-1,-1,-1,-1,-1,-1,-1,-1,-1,-1,-1,-1,-1,-1,-1,-1,-1,-1],"loss_changes":[2.3579168E-4,4.4412853E-5,6.807488E-5,1.1520481E-4,2.18161E-5,6.682087E-5,2.3928891E-4,4.2204476E-5,4.5134482E-5,0E0,1.8867267E-6,1.692929E-4,1.4846341E-4,1.6335852E-4,1.6687813E-4,7.49042E-5,7.304574E-5,1.2030771E-6,1.741614E-5,0E0,0E0,1.6981372E-4,2.0945318E-4,9.86548E-5,1.1205443E-4,4.1947573E-5,2.8834818E-4,4.717992E-5,8.075979E-5,3.545455E-5,6.3691114E-6,3.417847E-5,9.41351E-5,0E0,0E0,0E0,0E0,2.0270138E-4,1.3418877E-4,1.1480853E-4,3.2153308E-5,8.8778346E-5,7.415209E-5,4.5870314E-5,3.812283E-5,3.037651E-5,8.623316E-5,0E0,6.239806E-5,1.9214363E-5,7.386188E-5,1.6363866E-4,2.1124512E-4,0E0,0E0,0E0,0E0,0E0,0E0,0E0,0E0,0E0,0E0,0E0,0E0,0E0,0E0,0E0,0E0,0E0,0E0,0E0,0E0,0E0,0E0,0E0,0E0,0E0,0E0,0E0,0E0,0E0,0E0,0E0,0E0,0E0,0E0,0E0,0E0,0E0,0E0],"parents":[2147483647,0,0,1,1,2,2,3,3,4,4,5,5,6,6,7,7,8,8,10,10,11,11,12,12,13,13,14,14,15,15,16,16,17,17,18,18,21,21,22,22,23,23,24,24,25,25,26,26,27,27,28,28,29,29,30,30,31,31,32,32,37,37,38,38,39,39,40,40,41,41,42,42,43,43,44,44,45,45,46,46,48,48,49,49,50,50,51,51,52,52],"right_children":[2,4,6,8,10,12,14,16,18,-1,20,22,24,26,28,30,32,34,36,-1,-1,38,40,42,44,46,48,50,52,54,56,58,60,-1,-1,-1,-1,62,64,66,68,70,72,74,76,78,80,-1,82,84,86,88,90,-1,-1,-1,-1,-1,-1,-1,-1,-1,-1,-1,-1,-1,-1,-1,-1,-1,-1,-1,-1,-1,-1,-1,-1,-1,-1,-1,-1,-1,-1,-1,-1,-1,-1,-1,-1,-1,-1],"split_conditions":[8.781E-1,8.895E-1,1.1077E0,8.884E-1,8.925E-1,1.0971E0,1.1154E0,6.969E-1,8.801E-1,-9.6670905E-4,8.884E-1,1.0927E0,1.1198E0,1.0971E0,1.1198E0,7.136E-1,6.918E-1,8.908E-1,8.829E-1,2.2584201E-4,-1.5032888E-4,1.0793E0,1.0971E0,1.112E0,1.1254E0,1.1041E0,1.1154E0,1.1198E0,1.1198E0,6.819E-1,6.957E-1,6.918E-1,6.993E-1,-1.8077195E-4,1.4880003E-4,2.4608374E-4,1.944995E-3,1.0738E0,1.0927E0,1.0971E0,1.0927E0,1.1077E0,1.1254E0,1.112E0,1.1041E0,1.0971E0,1.1154E0,2.59969E-3,1.1198E0,1.1292E0,1.112E0,1.1225E0,1.1154E0,-5.6590125E-5,-2.497151E-4,-2.0304592E-3,-4.238695E-4,6.1983906E-4,-2.1401346E-4,-5.9586565E-4,-3.3009528E-5,6.27689E-5,9.620905E-4,-1.1885636E-3,2.7249655E-4,4.3686034E-4,2.1000053E-3,4.2175056E-4,-8.1894995E-4,-5.7026115E-4,2.66395E-4,-1.8290316E-3,1.6576052E-4,1.3965011E-3,1.3762237E-4,-8.161724E-4,7.414341E-4,-8.243442E-4,5.870283E-4,1.4360279E-3,-5.614132E-4,2.4884866E-4,1.6068042E-3,-1.4605165E-3,-2.5171044E-4,1.0675788E-3,-6.208648E-4,1.6395227E-4,1.9332239E-3,-1.1532719E-3,1.915783E-4],"split_indices":[6,1,0,0,2,6,0,0,4,0,0,3,5,6,0,6,4,0,3,0,0,3,5,4,6,3,4,1,1,4,0,5,3,0,0,0,0,1,1,2,0,6,6,1,0,5,2,0,1,6,2,2,2,0,0,0,0,0,0,0,0,0,0,0,0,0,0,0,0,0,0,0,0,0,0,0,0,0,0,0,0,0,0,0,0,0,0,0,0,0,0],"split_type":[0,0,0,0,0,0,0,0,0,0,0,0,0,0,0,0,0,0,0,0,0,0,0,0,0,0,0,0,0,0,0,0,0,0,0,0,0,0,0,0,0,0,0,0,0,0,0,0,0,0,0,0,0,0,0,0,0,0,0,0,0,0,0,0,0,0,0,0,0,0,0,0,0,0,0,0,0,0,0,0,0,0,0,0,0,0,0,0,0,0,0],"sum_hessian":[4.952E3,3.288E3,1.664E3,3.279E3,9E0,1.333E3,3.31E2,3.273E3,6E0,6E0,3E0,1.259E3,7.4E1,3.9E1,2.92E2,3.68E2,2.905E3,2E0,4E0,1E0,2E0,1.236E3,2.3E1,5.6E1,1.8E1,1.2E1,2.7E1,2E1,2.72E2,3.66E2,2E0,2.6E1,2.879E3,1E0,1E0,1E0,3E0,1.212E3,2.4E1,1.6E1,7E0,4.8E1,8E0,1.2E1,6E0,6E0,6E0,9E0,1.8E1,8E0,1.2E1,2.1E1,2.51E2,2.3E2,1.36E2,1E0,1E0,2.1E1,5E0,2.6E1,2.853E3,1.19E3,2.2E1,1.6E1,8E0,7E0,9E0,2E0,5E0,3.1E1,1.7E1,6E0,2E0,8E0,4E0,5E0,1E0,5E0,1E0,3E0,3E0,1.5E1,3E0,6E0,2E0,2E0,1E1,1.5E1,6E0,1E1,2.41E2],"tree_param":{"num_deleted":"0","num_feature":"7","num_nodes":"91","size_leaf_vector":"1"}},{"base_weights":[4.18052E-6,-1.261637E-4,2.0061822E-4,-9.9104254E-5,-6.2172714E-4,1.8417808E-4,1.6524304E-3,-1.268431E-4,1.2747475E-3,-3.30473E-3,-2.6467768E-4,1.9547148E-4,-2.2794274E-3,-4.246831E-5,5.290423E-3,-8.947253E-4,-1.1009092E-4,2.5351543E-3,3.194592E-4,-3.714011E-3,5.4795743E-4,-1.4392437E-3,-1.6198821E-4,1.812401E-4,2.2987218E-3,2.4380386E-3,-4.5960546E-3,3.1009435E-3,-1.3486842E-3,3.7110567E-3,-4.656315E-6,-6.831853E-4,-1.3847232E-3,1.0793632E-3,-1.20666155E-4,1.7599763E-5,2.886145E-3,2.6942391E-3,-2.0083146E-4,2.8501154E-4,-4.0648915E-3,1.921308E-3,-3.2604355E-4,1.9173662E-4,-2.3710728E-3,6.125314E-4,3.6565235E-3,-1.8285692E-3,-2.477503E-3,3.908873E-5,3.8110316E-3,-1.1126756E-3,-5.057454E-4,-2.8773758E-4,4.2744962E-4,3.6450798E-5,1.751487E-3,-4.0206523E-5,2.4437654E-4,1.4525891E-3,5.916987E-4,1.3522536E-3,-1.8646123E-4,-3.0827522E-4,4.9761334E-4,-1.7923083E-3,-6.9653214E-4,7.682562E-4,-5.751908E-4,-2.7615335E-4,4.8804202E-5,5.233369E-5,6.3755584E-4,7.738781E-4,-2.3899914E-3,-7.766247E-5,5.5820943E-4,-6.676913E-5,1.5758015E-3,7.130385E-4,-1.2855828E-3,2.6126506E-4,1.3502359E-3,3.9914847E-4,-5.854965E-4],"categories":[],"categories_nodes":[],"categories_segments":[],"categories_sizes":[],"default_left":[0,0,0,0,0,0,0,0,0,0,0,0,0,0,0,0,0,0,0,0,0,0,0,0,0,0,0,0,0,0,0,0,0,0,0,0,0,0,0,0,0,0,0,0,0,0,0,0,0,0,0,0,0,0,0,0,0,0,0,0,0,0,0,0,0,0,0,0,0,0,0,0,0,0,0,0,0,0,0,0,0,0,0,0,0],"id":19,"left_children":[1,3,5,7,9,11,13,15,17,19,21,23,25,27,29,31,33,35,37,39,-1,-1,41,43,45,-1,47,49,51,-1,-1,53,-1,55,57,-1,59,61,63,-1,65,67,69,71,73,75,77,-1,79,-1,81,-1,83,-1,-1,-1,-1,-1,-1,-1,-1,-1,-1,-1,-1,-1,-1,-1,-1,-1,-1,-1,-1,-1,-1,-1,-1,-1,-1,-1,-1,-1,-1,-1,-1],"loss_changes":[1.2684449E-4,3.9872393E-5,4.6858848E-5,1.07819775E-4,1.4665187E-4,5.4838558E-5,1.3587732E-4,3.553394E-5,6.661704E-5,4.4586006E-5,6.299239E-5,5.786129E-5,2.5431724E-4,6.987779E-5,2.631459E-4,4.3288113E-5,3.4243825E-5,2.0692052E-5,4.131509E-5,3.168269E-5,0E0,0E0,4.6766174E-5,5.2293988E-5,2.7523929E-5,0E0,1.0307704E-5,1.0050546E-5,2.199863E-5,0E0,0E0,3.45227E-5,0E0,1.0869193E-4,3.3697124E-5,0E0,2.7982489E-5,3.887603E-5,4.4751156E-5,0E0,3.938377E-5,2.9459618E-5,