{"learner":{"attributes":{},"feature_names":[],"feature_types":[],"gradient_booster":{"model":{"gbtree_model_param":{"num_parallel_tree":"1","num_trees":"100"},"iteration_indptr":[0,1,2,3,4,5,6,7,8,9,10,11,12,13,14,15,16,17,18,19,20,21,22,23,24,25,26,27,28,29,30,31,32,33,34,35,36,37,38,39,40,41,42,43,44,45,46,47,48,49,50,51,52,53,54,55,56,57,58,59,60,61,62,63,64,65,66,67,68,69,70,71,72,73,74,75,76,77,78,79,80,81,82,83,84,85,86,87,88,89,90,91,92,93,94,95,96,97,98,99,100],"tree_info":[0,0,0,0,0,0,0,0,0,0,0,0,0,0,0,0,0,0,0,0,0,0,0,0,0,0,0,0,0,0,0,0,0,0,0,0,0,0,0,0,0,0,0,0,0,0,0,0,0,0,0,0,0,0,0,0,0,0,0,0,0,0,0,0,0,0,0,0,0,0,0,0,0,0,0,0,0,0,0,0,0,0,0,0,0,0,0,0,0,0,0,0,0,0,0,0,0,0,0,0],"trees":[{"base_weights":[8.85706E-9,-1.01354405E-1,4.3796867E-1,-1.8401532E-1,6.9203E-2,2.6408416E-1,5.321146E-1,-2.3807944E-1,-1.499402E-1,8.313505E-3,1.0919683E-1,2.1284772E-1,1.00568905E-1,1.4769328E-1,1.7546023E-1,-2.810747E-1,-2.2113548E-1,-1.6553526E-1,-9.510045E-2,-1.9787652E-2,3.7589658E-2,8.683023E-2,1.4031473E-1,5.642196E-2,6.826346E-2,-1.01272546E-1,-7.959567E-2,-7.030286E-2,-6.241169E-2,-5.4307975E-2,-1.5215027E-1,-3.4291852E-2,-7.717987E-2,-4.089467E-2,-3.7935684E-3,2.0251984E-2,4.839334E-2,7.2201304E-2,2.9623577E-2,3.734624E-2,4.5271385E-2,-4.7635335E-2,-4.2660154E-2,-2.5840852E-2,-2.0343008E-2,-1.4154577E-2,-8.377959E-3,-4.148012E-3,7.4324105E-4,4.07192E-3,7.4563273E-3,1.1076701E-2,1.5523824E-2,1.8937178E-2,2.3042943E-2],"categories":[],"categories_nodes":[],"categories_segments":[],"categories_sizes":[],"default_left":[0,0,0,0,0,0,0,0,0,0,0,0,0,0,0,0,0,0,0,0,0,0,0,0,0,0,0,0,0,0,0,0,0,0,0,0,0,0,0,0,0,0,0,0,0,0,0,0,0,0,0,0,0,0,0],"id":0,"left_children":[1,3,5,7,9,11,13,15,17,19,21,23,-1,-1,-1,25,27,29,31,33,35,37,39,-1,-1,-1,-1,-1,-1,-1,41,-1,43,45,47,49,51,53,-1,-1,-1,-1,-1,-1,-1,-1,-1,-1,-1,-1,-1,-1,-1,-1,-1],"loss_changes":[2.1990834E2,5.673072E1,1.5100433E1,4.9567795E0,3.1989498E0,1.1279335E0,9.782257E-1,6.9986725E-1,1.4082108E0,4.3018997E-1,5.3974533E-1,2.7843475E-2,0E0,0E0,0E0,1.7037582E-1,8.1840515E-2,2.4097824E-1,1.18867874E-1,8.99807E-2,4.69715E-2,7.374716E-2,3.6524773E-2,0E0,0E0,0E0,0E0,0E0,0E0,0E0,2.3693085E-2,0E0,1.0523319E-2,8.058786E-3,9.6607385E-3,2.7365796E-3,4.1275024E-3,4.020095E-3,0E0,0E0,0E0,0E0,0E0,0E0,0E0,0E0,0E0,0E0,0E0,0E0,0E0,0E0,0E0,0E0,0E0],"parents":[2147483647,0,0,1,1,2,2,3,3,4,4,5,5,6,6,7,7,8,8,9,9,10,10,11,11,15,15,16,16,17,17,18,18,19,19,20,20,21,21,22,22,30,30,32,32,33,33,34,34,35,35,36,36,37,37],"right_children":[2,4,6,8,10,12,14,16,18,20,22,24,-1,-1,-1,26,28,30,32,34,36,38,40,-1,-1,-1,-1,-1,-1,-1,42,-1,44,46,48,50,52,54,-1,-1,-1,-1,-1,-1,-1,-1,-1,-1,-1,-1,-1,-1,-1,-1,-1],"split_conditions":[1.322E0,1.094E0,1.5638E0,9.568E-1,1.2115E0,1.4387E0,1.6897E0,9.008E-1,1.023E0,1.1634E0,1.2677E0,1.359E0,1.00568905E-1,1.4769328E-1,1.7546023E-1,8.438E-1,9.308E-1,9.848E-1,1.0551E0,1.1295E0,1.1856E0,1.2373E0,1.289E0,5.642196E-2,6.826346E-2,-1.01272546E-1,-7.959567E-2,-7.030286E-2,-6.241169E-2,-5.4307975E-2,1.0004E0,-3.4291852E-2,1.0743E0,1.1174E0,1.1442E0,1.1727E0,1.1949E0,1.2208E0,2.9623577E-2,3.734624E-2,4.5271385E-2,-4.7635335E-2,-4.2660154E-2,-2.5840852E-2,-2.0343008E-2,-1.4154577E-2,-8.377959E-3,-4.148012E-3,7.4324105E-4,4.07192E-3,7.4563273E-3,1.1076701E-2,1.5523824E-2,1.8937178E-2,2.3042943E-2],"split_indices":[0,0,0,0,0,0,0,0,0,0,0,0,0,0,0,0,0,0,0,0,0,0,0,0,0,0,0,0,0,0,0,0,0,0,0,0,0,0,0,0,0,0,0,0,0,0,0,0,0,0,0,0,0,0,0],"split_type":[0,0,0,0,0,0,0,0,0,0,0,0,0,0,0,0,0,0,0,0,0,0,0,0,0,0,0,0,0,0,0,0,0,0,0,0,0,0,0,0,0,0,0,0,0,0,0,0,0,0,0,0,0,0,0],"sum_hessian":[4.952E3,4.022E3,9.3E2,2.709E3,1.313E3,3.28E2,6.02E2,1.045E3,1.664E3,5.21E2,7.92E2,1.93E2,1.35E2,3.49E2,2.53E2,2.91E2,7.54E2,1.294E3,3.7E2,2.66E2,2.55E2,4.63E2,3.29E2,7.7E1,1.16E2,5.9E1,2.32E2,3.67E2,3.87E2,5.94E2,7E2,1.76E2,1.94E2,1.14E2,1.52E2,9.9E1,1.56E2,2.11E2,2.52E2,1.37E2,1.92E2,4.11E2,2.89E2,9.5E1,9.9E1,7.5E1,3.9E1,5.8E1,9.4E1,4.2E1,5.7E1,3.8E1,1.18E2,7.6E1,1.35E2],"tree_param":{"num_deleted":"0","num_feature":"7","num_nodes":"55","size_leaf_vector":"1"}},{"base_weights":[3.5561723E-5,-7.467903E-2,2.9251945E-1,-1.297308E-1,4.291734E-2,1.666953E-1,3.7033525E-1,-1.6117881E-1,-1.0124007E-1,-2.180719E-3,6.906224E-2,1.3613111E-1,2.2210322E-1,3.4456626E-1,1.2525418E-1,-1.8998246E-1,-1.465196E-1,-1.1082253E-1,-6.3750684E-2,-2.4559552E-2,1.4049961E-2,5.4117974E-2,9.004665E-2,3.504665E-2,4.5522463E-2,5.7088926E-2,6.987891E-2,8.9515075E-2,1.0734599E-1,-6.993616E-2,-5.3902E-2,-4.697126E-2,-4.1092783E-2,-1.1782342E-1,-9.999569E-2,-2.1846369E-2,-5.2796945E-2,-3.321139E-2,-1.1435187E-2,5.3626876E-3,2.5636723E-2,4.303569E-2,6.1945517E-2,2.4307625E-2,2.924396E-2,-3.7169326E-2,-3.4046806E-2,-3.1180248E-2,-2.7610118E-2,-2.743721E-3,-1.5916336E-2,-1.1836093E-2,-7.921872E-3,-4.7069737E-3,-2.1327313E-3,-1.6721588E-4,2.6724816E-3,6.227504E-3,9.021927E-3,1.15619E-2,1.3752875E-2,1.7078808E-2,1.9941872E-2],"categories":[],"categories_nodes":[],"categories_segments":[],"categories_sizes":[],"default_left":[0,0,0,0,0,0,0,0,0,0,0,0,0,0,0,0,0,0,0,0,0,0,0,0,0,0,0,0,0,0,0,0,0,0,0,0,0,0,0,0,0,0,0,0,0,0,0,0,0,0,0,0,0,0,0,0,0,0,0,0,0,0,0],"id":1,"left_children":[1,3,5,7,9,11,13,15,17,19,21,23,25,27,-1,29,31,33,35,37,39,41,43,-1,-1,-1,-1,-1,-1,-1,-1,-1,-1,45,47,-1,49,51,53,55,57,59,61,-1,-1,-1,-1,-1,-1,-1,-1,-1,-1,-1,-1,-1,-1,-1,-1,-1,-1,-1,-1],"loss_changes":[1.0825883E2,2.5551533E1,9.807709E0,2.392067E0,1.4846175E0,6.251488E-1,6.123352E-1,5.1094055E-1,5.005436E-1,1.6851763E-1,2.4506354E-1,5.8231354E-2,2.506733E-3,1.4296722E-1,0E0,1.480093E-1,6.009102E-2,7.341385E-2,2.4968505E-2,2.1762446E-2,2.6939351E-2,3.79318E-2,1.4230251E-2,0E0,0E0,0E0,0E0,0E0,0E0,0E0,0E0,0E0,0E0,3.7622452E-3,4.483223E-3,0E0,1.0322034E-3,3.928274E-3,1.3425555E-3,3.2584341E-3,1.8645972E-3,7.196367E-4,2.392888E-3,0E0,0E0,0E0,0E0,0E0,0E0,0E0,0E0,0E0,0E0,0E0,0E0,0E0,0E0,0E0,0E0,0E0,0E0,0E0,0E0],"parents":[2147483647,0,0,1,1,2,2,3,3,4,4,5,5,6,6,7,7,8,8,9,9,10,10,11,11,12,12,13,13,15,15,16,16,17,17,18,18,19,19,20,20,21,21,22,22,33,33,34,34,36,36,37,37,38,38,39,39,40,40,41,41,42,42],"right_children":[2,4,6,8,10,12,14,16,18,20,22,24,26,28,-1,30,32,34,36,38,40,42,44,-1,-1,-1,-1,-1,-1,-1,-1,-1,-1,46,48,-1,50,52,54,56,58,60,62,-1,-1,-1,-1,-1,-1,-1,-1,-1,-1,-1,-1,-1,-1,-1,-1,-1,-1,-1,-1],"split_conditions":[1.3081E0,1.088E0,1.513E0,9.678E-1,1.2015E0,1.4E0,1.7045E0,9.13E-1,1.0324E0,1.1442E0,1.256E0,1.3463E0,1.4615E0,1.6278E0,1.2525418E-1,8.666E-1,9.414E-1,9.964E-1,1.0624E0,1.1232E0,1.176E0,1.2262E0,1.2784E0,3.504665E-2,4.5522463E-2,5.7088926E-2,6.987891E-2,8.9515075E-2,1.0734599E-1,-6.993616E-2,-5.3902E-2,-4.697126E-2,-4.1092783E-2,9.794E-1,1.0132E0,-2.1846369E-2,1.0424E0,1.1048E0,1.1342E0,1.1575E0,1.1893E0,1.2115E0,1.2419E0,2.4307625E-2,2.924396E-2,-3.7169326E-2,-3.4046806E-2,-3.1180248E-2,-2.7610118E-2,-2.743721E-3,-1.5916336E-2,-1.1836093E-2,-7.921872E-3,-4.7069737E-3,-2.1327313E-3,-1.6721588E-4,2.6724816E-3,6.227504E-3,9.021927E-3,1.15619E-2,1.3752875E-2,1.7078808E-2,1.9941872E-2],"split_indices":[0,0,0,0,0,0,0,0,0,0,0,0,0,0,0,0,0,0,0,0,0,0,0,0,0,0,0,0,0,0,0,0,0,0,0,0,3,0,0,0,1,0,0,0,0,0,0,0,0,0,0,0,0,0,0,0,0,0,0,0,0,0,0],"split_type":[0,0,0,0,0,0,0,0,0,0,0,0,0,0,0,0,0,0,0,0,0,0,0,0,0,0,0,0,0,0,0,0,0,0,0,0,0,0,0,0,0,0,0,0,0,0,0,0,0,0,0,0,0,0,0,0,0,0,0,0,0,0,0],"sum_hessian":[4.952E3,3.945E3,1.007E3,2.687E3,1.258E3,3.86E2,6.21E2,1.275E3,1.412E3,4.62E2,7.96E2,2.51E2,1.35E2,4.07E2,2.14E2,4.26E2,8.49E2,1.123E3,2.89E2,1.94E2,2.68E2,4.67E2,3.29E2,1.16E2,1.35E2,3.9E1,9.6E1,9.6E1,3.11E2,7.8E1,3.48E2,4.06E2,4.43E2,6.76E2,4.47E2,1.55E2,1.34E2,1.16E2,7.8E1,1.54E2,1.14E2,1.96E2,2.71E2,1.54E2,1.75E2,2.7E2,4.06E2,2.91E2,1.56E2,1E0,1.33E2,5.8E1,5.8E1,3.8E1,4E1,5.8E1,9.6E1,5.7E1,5.7E1,8.1E1,1.15E2,1.35E2,1.36E2],"tree_param":{"num_deleted":"0","num_feature":"7","num_nodes":"63","size_leaf_vector":"1"}},{"base_weights":[7.623103E-5,-5.3034015E-2,2.0265897E-1,-9.136233E-2,2.848639E-2,1.1489379E-1,2.599026E-1,-1.1906348E-1,-7.553754E-2,-5.8905524E-3,4.6012487E-2,9.1869704E-2,1.5188232E-1,2.4770418E-1,9.65528E-2,-1.51897E-1,-1.12672985E-1,-8.3595954E-2,-5.392065E-2,-2.149902E-2,4.8057134E-3,3.5216473E-2,6.085277E-2,2.3783127E-2,3.0613597E-2,4.0502116E-2,5.004312E-2,2.2428319E-1,7.890713E-2,-5.4782405E-2,-4.1999258E-2,-3.619519E-2,-3.1574894E-2,-2.7472863E-2,-7.808347E-2,-6.270354E-2,-4.1328546E-2,-2.6986038E-2,-1.3969501E-2,-1.8317412E-4,1.2966531E-2,2.6651569E-2,4.0903337E-2,1.6158205E-2,1.98676E-2,5.9134167E-2,6.993631E-2,-2.4416704E-2,-2.2375587E-2,-1.9433519E-2,-1.6339397E-2,-1.3470084E-2,-1.0703271E-2,-1.2834013E-3,-8.152231E-3,-5.0867395E-3,-3.3238512E-3,8.8573426E-5,-7.499969E-3,3.9514834E-3,-9.774149E-4,7.0285103E-3,8.890712E-3,1.05859665E-2,1.3054305E-2],"categories":[],"categories_nodes":[],"categories_segments":[],"categories_sizes":[],"default_left":[0,0,0,0,0,0,0,0,0,0,0,0,0,0,0,0,0,0,0,0,0,0,0,0,0,0,0,0,0,0,0,0,0,0,0,0,0,0,0,0,0,0,0,0,0,0,0,0,0,0,0,0,0,0,0,0,0,0,0,0,0,0,0,0,0],"id":2,"left_children":[1,3,5,7,9,11,13,15,17,19,21,23,25,27,-1,29,31,33,35,37,39,41,43,-1,-1,-1,-1,45,-1,-1,-1,-1,-1,-1,47,49,51,53,55,57,59,61,63,-1,-1,-1,-1,-1,-1,-1,-1,-1,-1,-1,-1,-1,-1,-1,-1,-1,-1,-1,-1,-1,-1],"loss_changes":[5.3301155E1,1.226642E1,5.1398315E0,1.161438E0,7.570032E-1,3.335104E-1,3.9024353E-1,1.8620491E-1,2.9197788E-1,7.105805E-2,1.3115656E-1,2.4457216E-2,1.652646E-2,1.2901688E-1,0E0,3.1079054E-2,3.5565376E-2,4.7309875E-2,4.883516E-2,6.770447E-3,1.0302866E-2,2.2484303E-2,9.543419E-3,0E0,0E0,0E0,0E0,5.4340363E-3,0E0,0E0,0E0,0E0,0E0,0E0,2.4752617E-3,1.121521E-3,2.3137033E-3,3.065318E-4,4.5941677E-4,1.8832817E-3,3.6234036E-4,1.1909008E-3,2.7028322E-3,0E0,0E0,0E0,0E0,0E0,0E0,0E0,0E0,0E0,0E0,0E0,0E0,0E0,0E0,0E0,0E0,0E0,0E0,0E0,0E0,0E0,0E0],"parents":[2147483647,0,0,1,1,2,2,3,3,4,4,5,5,6,6,7,7,8,8,9,9,10,10,11,11,12,12,13,13,15,15,16,16,17,17,18,18,19,19,20,20,21,21,22,22,27,27,34,34,35,35,36,36,37,37,38,38,39,39,40,40,41,41,42,42],"right_children":[2,4,6,8,10,12,14,16,18,20,22,24,26,28,-1,30,32,34,36,38,40,42,44,-1,-1,-1,-1,46,-1,-1,-1,-1,-1,-1,48,50,52,54,56,58,60,62,64,-1,-1,-1,-1,-1,-1,-1,-1,-1,-1,-1,-1,-1,-1,-1,-1,-1,-1,-1,-1,-1,-1],"split_conditions":[1.3036E0,1.0856E0,1.514E0,9.514E-1,1.1891E0,1.3895E0,1.7415E0,8.851E-1,1.0094E0,1.1342E0,1.2504E0,1.331E0,1.4758E0,1.6551E0,9.65528E-2,8.335E-1,9.22E-1,9.758E-1,1.0457E0,1.1101E0,1.1674E0,1.2189E0,1.2726E0,2.3783127E-2,3.0613597E-2,4.0502116E-2,5.004312E-2,1.6076E0,7.890713E-2,-5.4782405E-2,-4.1999258E-2,-3.619519E-2,-3.1574894E-2,-2.7472863E-2,9.925E-1,1.0355E0,1.0692E0,1.0697E0,1.1232E0,1.199E0,1.2151E0,1.2062E0,1.2305E0,1.6158205E-2,1.98676E-2,5.9134167E-2,6.993631E-2,-2.4416704E-2,-2.2375587E-2,-1.9433519E-2,-1.6339397E-2,-1.3470084E-2,-1.0703271E-2,-1.2834013E-3,-8.152231E-3,-5.0867395E-3,-3.3238512E-3,8.8573426E-5,-7.499969E-3,3.9514834E-3,-9.774149E-4,7.0285103E-3,8.890712E-3,1.05859665E-2,1.3054305E-2],"split_indices":[0,0,1,0,0,1,0,0,0,0,0,0,0,0,0,0,0,0,0,0,0,0,0,0,0,0,0,0,0,0,0,0,0,0,0,0,0,1,1,5,5,0,0,0,0,0,0,0,0,0,0,0,0,0,0,0,0,0,0,0,0,0,0,0,0],"split_type":[0,0,0,0,0,0,0,0,0,0,0,0,0,0,0,0,0,0,0,0,0,0,0,0,0,0,0,0,0,0,0,0,0,0,0,0,0,0,0,0,0,0,0,0,0,0,0,0,0,0,0,0,0,0,0,0,0,0,0,0,0,0,0,0,0],"sum_hessian":[4.952E3,3.924E3,1.028E3,2.669E3,1.255E3,4.07E2,6.21E2,9.68E2,1.701E3,4.24E2,8.31E2,2.53E2,1.54E2,5.23E2,9.8E1,1.54E2,8.14E2,1.237E3,4.64E2,1.72E2,2.52E2,4.83E2,3.48E2,1.17E2,1.36E2,7.7E1,7.7E1,2.13E2,3.1E2,3.9E1,1.15E2,3.85E2,4.29E2,4.99E2,7.38E2,2.71E2,1.93E2,9.8E1,7.4E1,1.57E2,9.5E1,1.95E2,2.88E2,1.56E2,1.92E2,5.8E1,1.55E2,3.68E2,3.7E2,2.11E2,6E1,1.14E2,7.9E1,1E0,9.7E1,3.4E1,4E1,1.55E2,2E0,9.4E1,1E0,9.8E1,9.7E1,9.6E1,1.92E2],"tree_param":{"num_deleted":"0","num_feature":"7","num_nodes":"65","size_leaf_vector":"1"}},{"base_weights":[9.454559E-5,-3.8504906E-2,1.3757391E-1,-6.380782E-2,1.9118069E-2,7.7091634E-2,1.8239927E-1,-8.0397844E-2,-5.043515E-2,-2.470297E-3,3.1257655E-2,6.04325E-2,1.0450953E-1,1.7269006E-1,6.662084E-2,-1.0318239E-1,-7.536608E-2,-5.5349216E-2,-3.3046417E-2,-1.2118262E-2,5.6496314E-3,2.3978455E-2,3.9722983E-2,1.6604783E-2,2.1008506E-2,2.5946988E-2,3.3832118E-2,4.6385136E-2,5.4566495E-2,-4.2464063E-2,-2.95493E-2,-8.011195E-2,-2.0502798E-2,-1.7956836E-2,-5.1320035E-2,-1.1935597E-2,-2.8082421E-2,-1.7865693E-2,-7.6994896E-3,1.4783589E-3,9.880592E-3,1.958898E-2,2.7809843E-2,1.0293275E-2,4.299208E-2,-2.5194125E-2,-2.296991E-2,-1.5999377E-2,-1.4167989E-2,-8.869684E-3,-6.754317E-3,-5.538279E-3,-2.9710026E-3,-2.187814E-3,-7.927752E-3,3.2535198E-5,1.8274321E-3,2.2200886E-3,3.6571606E-3,4.982913E-3,6.212188E-3,4.340351E-4,8.37772E-3,3.7317218E-3,1.2923258E-2],"categories":[],"categories_nodes":[],"categories_segments":[],"categories_sizes":[],"default_left":[0,0,0,0,0,0,0,0,0,0,0,0,0,0,0,0,0,0,0,0,0,0,0,0,0,0,0,0,0,0,0,0,0,0,0,0,0,0,0,0,0,0,0,0,0,0,0,0,0,0,0,0,0,0,0,0,0,0,0,0,0,0,0,0,0],"id":3,"left_children":[1,3,5,7,9,11,13,15,17,19,21,23,25,27,-1,29,31,33,35,37,39,41,43,-1,-1,-1,-1,-1,-1,-1,-1,45,-1,-1,47,-1,49,51,53,55,57,59,61,-1,63,-1,-1,-1,-1,-1,-1,-1,-1,-1,-1,-1,-1,-1,-1,-1,-1,-1,-1,-1,-1],"loss_changes":[2.6289026E1,5.6408772E0,2.9302387E0,5.922861E-1,3.0958635E-1,2.0562029E-1,2.0161057E-1,1.2956953E-1,1.2557602E-1,3.344164E-2,4.563284E-2,1.03183985E-2,1.6157866E-2,5.5828094E-2,0E0,2.4519444E-2,2.7357578E-2,1.8010616E-2,9.955317E-3,4.8147775E-3,4.0798434E-3,6.3337088E-3,4.681945E-3,0E0,0E0,0E0,0E0,0E0,0E0,0E0,0E0,1.5525818E-3,0E0,0E0,2.5855303E-3,0E0,9.364933E-4,2.1528825E-4,6.6043716E-4,7.4504025E-4,5.6866184E-4,3.0242652E-4,6.195158E-4,0E0,2.0205975E-5,0E0,0E0,0E0,0E0,0E0,0E0,0E0,0E0,0E0,0E0,0E0,0E0,0E0,0E0,0E0,0E0,0E0,0E0,0E0,0E0],"parents":[2147483647,0,0,1,1,2,2,3,3,4,4,5,5,6,6,7,7,8,8,9,9,10,10,11,11,12,12,13,13,15,15,16,16,17,17,18,18,19,19,20,20,21,21,22,22,31,31,34,34,36,36,37,37,38,38,39,39,40,40,41,41,42,42,44,44],"right_children":[2,4,6,8,10,12,14,16,18,20,22,24,26,28,-1,30,32,34,36,38,40,42,44,-1,-1,-1,-1,-1,-1,-1,-1,46,-1,-1,48,-1,50,52,54,56,58,60,62,-1,64,-1,-1,-1,-1,-1,-1,-1,-1,-1,-1,-1,-1,-1,-1,-1,-1,-1,-1,-1,-1],"split_conditions":[1.2951E0,1.0883E0,1.514E0,9.64E-1,1.1949E0,1.3825E0,1.7327E0,8.928E-1,1.0262E0,1.1442E0,1.2456E0,1.3463E0,1.4421E0,1.6485E0,6.662084E-2,7.951E-1,9.387E-1,9.894E-1,1.0491E0,1.1101E0,1.1674E0,1.2208E0,1.2615E0,1.6604783E-2,2.1008506E-2,2.5946988E-2,3.3832118E-2,4.6385136E-2,5.4566495E-2,-4.2464063E-2,-2.95493E-2,9.174E-1,-2.0502798E-2,-1.7956836E-2,1.0062E0,-1.1935597E-2,1.0828E0,1.1177E0,1.1859E0,1.1681E0,1.1808E0,1.2036E0,1.198E0,1.0293275E-2,1.2286E0,-2.5194125E-2,-2.296991E-2,-1.5999377E-2,-1.4167989E-2,-8.869684E-3,-6.754317E-3,-5.538279E-3,-2.9710026E-3,-2.187814E-3,-7.927752E-3,3.2535198E-5,1.8274321E-3,2.2200886E-3,3.6571606E-3,4.982913E-3,6.212188E-3,4.340351E-4,8.37772E-3,3.7317218E-3,1.2923258E-2],"split_indices":[0,2,2,0,0,0,0,0,0,0,0,0,2,0,0,1,0,0,1,0,0,1,0,0,0,0,0,0,0,0,0,0,0,0,0,0,0,2,3,5,0,0,0,0,2,0,0,0,0,0,0,0,0,0,0,0,0,0,0,0,0,0,0,0,0],"split_type":[0,0,0,0,0,0,0,0,0,0,0,0,0,0,0,0,0,0,0,0,0,0,0,0,0,0,0,0,0,0,0,0,0,0,0,0,0,0,0,0,0,0,0,0,0,0,0,0,0,0,0,0,0,0,0,0,0,0,0,0,0,0,0,0,0],"sum_hessian":[4.952E3,3.867E3,1.085E3,2.687E3,1.18E3,4.63E2,6.22E2,1.197E3,1.49E3,4.25E2,7.55E2,2.9E2,1.73E2,5.04E2,1.18E2,2.13E2,9.84E2,1.16E3,3.3E2,1.94E2,2.31E2,4.08E2,3.47E2,1.94E2,9.6E1,5.8E1,1.15E2,1.76E2,3.28E2,2E1,1.93E2,5.81E2,4.03E2,5.41E2,6.19E2,1.37E2,1.93E2,8.3E1,1.11E2,1.17E2,1.14E2,1.93E2,2.15E2,1.35E2,2.12E2,2.67E2,3.14E2,4.07E2,2.12E2,1.49E2,4.4E1,7.6E1,7E0,1.1E2,1E0,9.1E1,2.6E1,5.7E1,5.7E1,5.7E1,1.36E2,1E0,2.14E2,1E0,2.11E2],"tree_param":{"num_deleted":"0","num_feature":"7","num_nodes":"65","size_leaf_vector":"1"}},{"base_weights":[8.328307E-5,-2.5766563E-2,1.0127714E-1,-4.474596E-2,1.4775443E-2,6.0943328E-2,1.3045624E-1,-5.895836E-2,-3.69814E-2,-1.2053538E-3,2.3513354E-2,4.7351465E-2,8.0277845E-2,1.2459437E-1,4.974859E-2,-8.191031E-2,-5.6245964E-2,-4.0662937E-2,-2.465743E-2,-7.5076506E-3,5.6621255E-3,1.8413167E-2,3.0937834E-2,4.3692302E-2,1.7499775E-2,2.1066252E-2,2.62612E-2,3.4905635E-2,3.9684355E-2,-2.827503E-2,-2.1646816E-2,-1.8569311E-2,-1.5964217E-2,-4.456145E-2,-3.7239235E-2,-2.9709319E-2,-1.9965827E-2,-1.1561082E-2,-3.3900514E-3,7.789983E-4,7.185196E-3,1.4825094E-2,2.1644818E-2,2.7644482E-2,1.0343335E-2,1.1833168E-2,1.3887114E-2,-1.3787584E-2,-1.2382052E-2,-1.1577324E-2,-1.0490692E-2,-8.937808E-3,-2.0677508E-3,-6.71901E-3,-5.3282995E-3,-4.1243136E-3,-2.653859E-3,-9.0960035E-4,-6.7385854E-3,4.7532815E-4,-6.0446803E-3,1.6708189E-3,3.004298E-3,3.969558E-3,5.0543817E-3,5.78484E-3,6.8969703E-3,7.4889245E-3,8.778241E-3],"categories":[],"categories_nodes":[],"categories_segments":[],"categories_sizes":[],"default_left":[0,0,0,0,0,0,0,0,0,0,0,0,0,0,0,0,0,0,0,0,0,0,0,0,0,0,0,0,0,0,0,0,0,0,0,0,0,0,0,0,0,0,0,0,0,0,0,0,0,0,0,0,0,0,0,0,0,0,0,0,0,0,0,0,0,0,0,0,0],"id":4,"left_children":[1,3,5,7,9,11,13,15,17,19,21,23,25,27,-1,29,31,33,35,37,39,41,43,45,-1,-1,-1,-1,-1,-1,-1,-1,-1,47,49,51,53,55,57,59,61,63,65,67,-1,-1,-1,-1,-1,-1,-1,-1,-1,-1,-1,-1,-1,-1,-1,-1,-1,-1,-1,-1,-1,-1,-1,-1,-1],"loss_changes":[1.2958893E1,3.0369616E0,1.1783686E0,2.9444885E-1,1.7583358E-1,1.0788548E-1,1.0043049E-1,5.441022E-2,7.7988625E-2,1.9345788E-2,3.025344E-2,7.5770617E-3,6.55663E-3,1.6603947E-2,0E0,4.9951077E-3,1.1288643E-2,1.6212702E-2,8.958489E-3,3.8496712E-3,1.5859953E-3,5.302891E-3,2.8941333E-3,3.0440092E-4,0E0,0E0,0E0,0E0,0E0,0E0,0E0,0E0,0E0,9.558201E-4,8.571744E-4,1.5990436E-4,7.384643E-4,5.7294965E-4,7.308535E-4,9.084342E-4,6.8935007E-4,5.2799657E-4,3.604889E-4,3.235042E-5,0E0,0E0,0E0,0E0,0E0,0E0,0E0,0E0,0E0,0E0,0E0,0E0,0E0,0E0,0E0,0E0,0E0,0E0,0E0,0E0,0E0,0E0,0E0,0E0,0E0],"parents":[2147483647,0,0,1,1,2,2,3,3,4,4,5,5,6,6,7,7,8,8,9,9,10,10,11,11,12,12,13,13,15,15,16,16,17,17,18,18,19,19,20,20,21,21,22,22,23,23,33,33,34,34,35,35,36,36,37,37,38,38,39,39,40,40,41,41,42,42,43,43],"right_children":[2,4,6,8,10,12,14,16,18,20,22,24,26,28,-1,30,32,34,36,38,40,42,44,46,-1,-1,-1,-1,-1,-1,-1,-1,-1,48,50,52,54,56,58,60,62,64,66,68,-1,-1,-1,-1,-1,-1,-1,-1,-1,-1,-1,-1,-1,-1,-1,-1,-1,-1,-1,-1,-1,-1,-1,-1,-1],"split_conditions":[1.3082E0,1.0883E0,1.592E0,9.496E-1,1.198E0,1.4E0,1.7637E0,8.753E-1,1.0164E0,1.1536E0,1.256E0,1.3724E0,1.4848E0,1.666E0,4.974859E-2,8.335E-1,9.098E-1,9.808E-1,1.0457E0,1.1232E0,1.1581E0,1.2284E0,1.2821E0,1.3245E0,1.7499775E-2,2.1066252E-2,2.62612E-2,3.4905635E-2,3.9684355E-2,-2.827503E-2,-2.1646816E-2,-1.8569311E-2,-1.5964217E-2,9.718E-1,9.988E-1,1.0586E0,1.0667E0,1.1048E0,1.1859E0,1.1762E0,1.1856E0,1.2169E0,1.2393E0,1.268E0,1.0343335E-2,1.1833168E-2,1.3887114E-2,-1.3787584E-2,-1.2382052E-2,-1.1577324E-2,-1.0490692E-2,-8.937808E-3,-2.0677508E-3,-6.71901E-3,-5.3282995E-3,-4.1243136E-3,-2.653859E-3,-9.0960035E-4,-6.7385854E-3,4.7532815E-4,-6.0446803E-3,1.6708189E-3,3.004298E-3,3.969558E-3,5.0543817E-3,5.78484E-3,6.8969703E-3,7.4889245E-3,8.778241E-3],"split_indices":[1,2,0,0,0,0,0,0,2,0,0,0,0,0,0,0,0,0,0,0,6,0,4,3,0,0,0,0,0,0,0,0,0,0,0,1,0,0,3,3,0,3,0,1,0,0,0,0,0,0,0,0,0,0,0,0,0,0,0,0,0,0,0,0,0,0,0,0,0],"split_type":[0,0,0,0,0,0,0,0,0,0,0,0,0,0,0,0,0,0,0,0,0,0,0,0,0,0,0,0,0,0,0,0,0,0,0,0,0,0,0,0,0,0,0,0,0,0,0,0,0,0,0,0,0,0,0,0,0,0,0,0,0,0,0,0,0,0,0,0,0],"sum_hessian":[4.952E3,3.945E3,1.007E3,2.687E3,1.258E3,4.24E2,5.83E2,9.47E2,1.74E3,4.45E2,8.13E2,2.51E2,1.73E2,5.04E2,7.9E1,9.7E1,8.5E2,1.338E3,4.02E2,2.32E2,2.13E2,4.84E2,3.29E2,1.92E2,5.9E1,7.7E1,9.6E1,2.51E2,2.53E2,3.9E1,5.8E1,2.9E2,5.6E2,6.2E2,7.18E2,1.91E2,2.11E2,1.16E2,1.16E2,5.1E1,1.62E2,2.32E2,2.52E2,1.75E2,1.54E2,7.9E1,1.13E2,4.26E2,1.94E2,4.4E2,2.78E2,1.9E2,1E0,9.6E1,1.15E2,6.2E1,5.4E1,1.15E2,1E0,5E1,1E0,1.05E2,5.7E1,1.34E2,9.8E1,9.7E1,1.55E2,7.2E1,1.03E2],"tree_param":{"num_deleted":"0","num_feature":"7","num_nodes":"69","size_leaf_vector":"1"}},{"base_weights":[7.6894816E-5,-1.9604051E-2,6.5622635E-2,-3.1660203E-2,7.999502E-3,3.5621267E-2,8.910949E-2,-4.1763976E-2,-2.6384626E-2,-2.8068144E-3,1.4214012E-2,2.8342929E-2,4.90244E-2,8.294799E-2,1.0757581E-1,-5.6257676E-2,-3.9549034E-2,-2.8579552E-2,-1.7617263E-2,-7.943524E-3,1.3979648E-3,1.0261085E-2,1.7675646E-2,2.5139956E-2,9.545828E-3,1.2991737E-2,1.6696235E-2,1.9453866E-2,2.5861599E-2,3.0079989E-2,3.756053E-2,-7.4946284E-2,-1.5503676E-2,-4.1830134E-2,-1.086046E-2,-3.123561E-2,-2.6035357E-2,-2.0954156E-2,-1.4885423E-2,-1.0071142E-2,-5.7778824E-3,-3.3737707E-4,3.809637E-3,8.238773E-3,1.1897403E-2,1.5829323E-2,5.840678E-3,1.6058335E-2,7.711964E-3,-2.3343762E-2,-9.543377E-3,-1.353224E-2,-1.2182422E-2,-9.75235E-3,-8.821305E-3,-8.034876E-3,-7.2374246E-3,-6.304125E-3,-1.7575801E-3,-4.507889E-3,1.9088567E-3,-7.9076533E-4,-3.1107005E-3,-8.457889E-4,-2.1989488E-3,-1.7724931E-5,-5.727804E-3,1.3714951E-3,-1.1442304E-4,2.5436392E-3,5.549567E-4,5.305886E-4,3.6489088E-3,1.1893809E-3,4.7608274E-3,5.320687E-3,1.366651E-3],"categories":[],"categories_nodes":[],"categories_segments":[],"categories_sizes":[],"default_left":[0,0,0,0,0,0,0,0,0,0,0,0,0,0,0,0,0,0,0,0,0,0,0,0,0,0,0,0,0,0,0,0,0,0,0,0,0,0,0,0,0,0,0,0,0,0,0,0,0,0,0,0,0,0,0,0,0,0,0,0,0,0,0,0,0,0,0,0,0,0,0,0,0,0,0,0,0],"id":5,"left_children":[1,3,5,7,9,11,13,15,17,19,21,23,25,27,29,31,33,35,37,39,41,43,45,47,-1,-1,-1,-1,-1,-1,-1,49,-1,51,-1,53,55,57,59,61,63,65,67,69,71,73,-1,75,-1,-1,-1,-1,-1,-1,-1,-1,-1,-1,-1,-1,-1,-1,-1,-1,-1,-1,-1,-1,-1,-1,-1,-1,-1,-1,-1,-1,-1],"loss_changes":[6.3906684E0,1.2681932E0,8.029313E-1,1.4025831E-1,7.787366E-2,4.7777057E-2,6.400967E-2,2.6924253E-2,3.3076763E-2,9.168966E-3,9.889737E-3,2.8635263E-3,4.262477E-3,2.3007393E-2,7.673025E-3,6.224215E-3,4.5257807E-3,8.606672E-3,2.8968751E-3,8.218726E-4,9.80593E-4,1.0469444E-3,9.864122E-4,4.928261E-4,0E0,0E0,0E0,0E0,0E0,0E0,0E0,1.2104213E-4,0E0,2.6643276E-5,0E0,6.21438E-4,3.7941337E-4,1.7233193E-5,6.852895E-4,1.8306077E-4,4.2471732E-4,7.1394176E-4,3.1471974E-4,2.2660755E-4,4.8698485E-4,3.129244E-5,0E0,1.7002155E-4,0E0,0E0,0E0,0E0,0E0,0E0,0E0,0E0,0E0,0E0,0E0,0E0,0E0,0E0,0E0,0E0,0E0,0E0,0E0,0E0,0E0,0E0,0E0,0E0,0E0,0E0,0E0,0E0,0E0],"parents":[2147483647,0,0,1,1,2,2,3,3,4,4,5,5,6,6,7,7,8,8,9,9,10,10,11,11,12,12,13,13,14,14,15,15,16,16,17,17,18,18,19,19,20,20,21,21,22,22,23,23,31,31,33,33,35,35,36,36,37,37,38,38,39,39,40,40,41,41,42,42,43,43,44,44,45,45,47,47],"right_children":[2,4,6,8,10,12,14,16,18,20,22,24,26,28,30,32,34,36,38,40,42,44,46,48,-1,-1,-1,-1,-1,-1,-1,50,-1,52,-1,54,56,58,60,62,64,66,68,70,72,74,-1,76,-1,-1,-1,-1,-1,-1,-1,-1,-1,-1,-1,-1,-1,-1,-1,-1,-1,-1,-1,-1,-1,-1,-1,-1,-1,-1,-1,-1,-1],"split_conditions":[1.2845E0,1.0828E0,1.5008E0,9.468E-1,1.1856E0,1.3724E0,1.721E0,8.803E-1,1.0181E0,1.1342E0,1.2345E0,1.314E0,1.4628E0,1.6076E0,1.7805E0,7.951E-1,9.252E-1,9.817E-1,1.0421E0,1.1048E0,1.1638E0,1.2125E0,1.256E0,1.2734E0,9.545828E-3,1.2991737E-2,1.6696235E-2,1.9453866E-2,2.5861599E-2,3.0079989E-2,3.756053E-2,7.951E-1,-1.5503676E-2,8.948E-1,-1.086046E-2,9.684E-1,1.0022E0,1.0586E0,1.1177E0,1.0744E0,1.1107E0,1.1859E0,1.1859E0,1.2235E0,1.2064E0,1.2044E0,5.840678E-3,1.2989E0,7.711964E-3,-2.3343762E-2,-9.543377E-3,-1.353224E-2,-1.2182422E-2,-9.75235E-3,-8.821305E-3,-8.034876E-3,-7.2374246E-3,-6.304125E-3,-1.7575801E-3,-4.507889E-3,1.9088567E-3,-7.9076533E-4,-3.1107005E-3,-8.457889E-4,-2.1989488E-3,-1.7724931E-5,-5.727804E-3,1.3714951E-3,-1.1442304E-4,2.5436392E-3,5.549567E-4,5.305886E-4,3.6489088E-3,1.1893809E-3,4.7608274E-3,5.320687E-3,1.366651E-3],"split_indices":[0,0,1,0,0,0,0,0,0,0,0,0,2,1,0,0,0,0,0,0,1,4,0,3,0,0,0,0,0,0,0,1,0,0,0,0,0,1,2,1,5,3,3,0,5,6,0,1,0,0,0,0,0,0,0,0,0,0,0,0,0,0,0,0,0,0,0,0,0,0,0,0,0,0,0,0,0],"split_type":[0,0,0,0,0,0,0,0,0,0,0,0,0,0,0,0,0,0,0,0,0,0,0,0,0,0,0,0,0,0,0,0,0,0,0,0,0,0,0,0,0,0,0,0,0,0,0,0,0,0,0,0,0,0,0,0,0,0,0,0,0,0,0,0,0,0,0,0,0,0,0,0,0,0,0,0,0],"sum_hessian":[4.952E3,3.809E3,1.143E3,2.651E3,1.158E3,5.03E2,6.4E2,9.07E2,1.744E3,4.23E2,7.35E2,3.28E2,1.75E2,4.84E2,1.56E2,1.17E2,7.9E2,1.393E3,3.51E2,1.9E2,2.33E2,3.45E2,3.9E2,1.75E2,1.53E2,9.8E1,7.7E1,7.7E1,4.07E2,1.15E2,4.1E1,2E1,9.7E1,4.63E2,3.27E2,6.76E2,7.17E2,1.55E2,1.96E2,9.4E1,9.6E1,1.36E2,9.7E1,1.57E2,1.88E2,1.97E2,1.93E2,1.2E1,1.63E2,1.8E1,2E0,1.16E2,3.47E2,3.89E2,2.87E2,5.06E2,2.11E2,1.54E2,1E0,1.95E2,1E0,4E0,9E1,3.4E1,6.2E1,1.35E2,1E0,8.2E1,1.5E1,1.51E2,6E0,5E0,1.83E2,1E0,1.96E2,1E1,2E0],"tree_param":{"num_deleted":"0","num_feature":"7","num_nodes":"77","size_leaf_vector":"1"}},{"base_weights":[6.285057E-5,-1.2842632E-2,4.934968E-2,-2.2027018E-2,7.09318E-3,2.961816E-2,6.430033E-2,-2.9974988E-2,-1.8564792E-2,-4.2030157E-4,1.1561196E-2,2.3003541E-2,3.978804E-2,6.1168987E-2,2.4978949E-2,-4.8335847E-2,-2.8988652E-2,-2.0310104E-2,-1.2139455E-2,-3.7320177E-3,2.921907E-3,9.143662E-3,1.4808149E-2,1.9680222E-2,7.854645E-3,1.045046E-2,1.3008247E-2,5.5480193E-2,1.9548554E-2,-1.5501288E-2,-8.560961E-3,-3.211544E-2,-2.7052809E-2,-2.2809234E-2,-1.8752249E-2,-1.5264042E-2,-1.0206613E-2,-5.6403833E-3,-1.7917544E-3,4.0359725E-4,3.8433957E-3,7.3642773E-3,1.0498404E-2,1.3383003E-2,1.6742675E-2,2.0129945E-2,8.4525E-3,1.6676333E-2,4.868764E-3,-1.025196E-2,-9.026835E-3,-8.125E-3,-1.8420072E-3,-2.275938E-3,-6.855038E-3,-5.898403E-3,-5.2204803E-3,-8.051187E-4,-4.6497975E-3,-3.0973009E-3,9.017587E-4,-5.292523E-3,-1.5834774E-3,-4.4979737E-5,-1.2201424E-3,3.3219586E-4,-4.211986E-3,-8.4338366E-4,1.23168E-3,1.8216654E-3,2.395043E-3,2.8906513E-3,3.4235108E-3,1.4974595E-3,4.0597823E-3,7.125646E-4,5.114668E-3,1.093328E-3,6.107185E-3,1.1477888E-3,3.2897743E-3],"categories":[],"categories_nodes":[],"categories_segments":[],"categories_sizes":[],"default_left":[0,0,0,0,0,0,0,0,0,0,0,0,0,0,0,0,0,0,0,0,0,0,0,0,0,0,0,0,0,0,0,0,0,0,0,0,0,0,0,0,0,0,0,0,0,0,0,0,0,0,0,0,0,0,0,0,0,0,0,0,0,0,0,0,0,0,0,0,0,0,0,0,0,0,0,0,0,0,0,0,0],"id":6,"left_children":[1,3,5,7,9,11,13,15,17,19,21,23,25,27,-1,29,31,33,35,37,39,41,43,45,-1,-1,-1,47,-1,-1,-1,49,51,53,55,57,59,61,63,65,67,69,71,73,75,77,79,-1,-1,-1,-1,-1,-1,-1,-1,-1,-1,-1,-1,-1,-1,-1,-1,-1,-1,-1,-1,-1,-1,-1,-1,-1,-1,-1,-1,-1,-1,-1,-1,-1,-1],"loss_changes":[3.1510901E0,7.189998E-1,3.013544E-1,7.341099E-2,4.159854E-2,2.9019892E-2,2.958417E-2,1.3340354E-2,2.0780087E-2,5.135595E-3,5.9637576E-3,2.3580045E-3,1.5687644E-3,7.855654E-3,0E0,1.1667982E-3,3.8222075E-3,5.307138E-3,2.278056E-3,8.5263024E-4,5.3450605E-4,1.0026395E-3,6.8573654E-4,5.2161515E-4,0E0,0E0,0E0,5.722046E-6,0E0,0E0,0E0,1.8492341E-4,1.4331937E-4,1.758635E-4,7.788539E-4,4.083179E-4,4.229974E-4,4.153645E-4,4.3647646E-4,6.5589434E-4,3.0642748E-4,1.0913052E-4,8.8637695E-5,1.7725676E-4,5.578473E-4,4.1677058E-4,3.9443607E-5,0E0,0E0,0E0,0E0,0E0,0E0,0E0,0E0,0E0,0E0,0E0,0E0,0E0,0E0,0E0,0E0,0E0,0E0,0E0,0E0,0E0,0E0,0E0,0E0,0E0,0E0,0E0,0E0,0E0,0E0,0E0,0E0,0E0,0E0],"parents":[2147483647,0,0,1,1,2,2,3,3,4,4,5,5,6,6,7,7,8,8,9,9,10,10,11,11,12,12,13,13,15,15,16,16,17,17,18,18,19,19,20,20,21,21,22,22,23,23,27,27,31,31,32,32,33,33,34,34,35,35,36,36,37,37,38,38,39,39,40,40,41,41,42,42,43,43,44,44,45,45,46,46],"right_children":[2,4,6,8,10,12,14,16,18,20,22,24,26,28,-1,30,32,34,36,38,40,42,44,46,-1,-1,-1,48,-1,-1,-1,50,52,54,56,58,60,62,64,66,68,70,72,74,76,78,80,-1,-1,-1,-1,-1,-1,-1,-1,-1,-1,-1,-1,-1,-1,-1,-1,-1,-1,-1,-1,-1,-1,-1,-1,-1,-1,-1,-1,-1,-1,-1,-1,-1,-1],"split_conditions":[1.3038E0,1.0882E0,1.592E0,9.401E-1,1.2015E0,1.4039E0,1.7637E0,8.335E-1,1.0169E0,1.1536E0,1.253E0,1.3465E0,1.4848E0,1.6604E0,2.4978949E-2,8.335E-1,9.048E-1,9.718E-1,1.0386E0,1.1232E0,1.1613E0,1.2262E0,1.2805E0,1.3681E0,7.854645E-3,1.045046E-2,1.3008247E-2,1.7045E0,1.9548554E-2,-1.5501288E-2,-8.560961E-3,8.876E-1,9.613E-1,9.33E-1,9.946E-1,1.0005E0,1.1052E0,1.0746E0,1.1517E0,1.1813E0,1.1575E0,1.2083E0,1.2419E0,1.2308E0,1.2567E0,1.2705E0,1.3468E0,1.6676333E-2,4.868764E-3,-1.025196E-2,-9.026835E-3,-8.125E-3,-1.8420072E-3,-2.275938E-3,-6.855038E-3,-5.898403E-3,-5.2204803E-3,-8.051187E-4,-4.6497975E-3,-3.0973009E-3,9.017587E-4,-5.292523E-3,-1.5834774E-3,-4.4979737E-5,-1.2201424E-3,3.3219586E-4,-4.211986E-3,-8.4338366E-4,1.23168E-3,1.8216654E-3,2.395043E-3,2.8906513E-3,3.4235108E-3,1.4974595E-3,4.0597823E-3,7.125646E-4,5.114668E-3,1.093328E-3,6.107185E-3,1.1477888E-3,3.2897743E-3],"split_indices":[1,1,3,0,0,3,1,0,3,0,0,1,0,0,0,6,0,0,2,0,5,0,1,6,0,0,0,6,0,0,0,0,2,1,0,5,2,2,6,2,0,1,0,3,6,3,2,0,0,0,0,0,0,0,0,0,0,0,0,0,0,0,0,0,0,0,0,0,0,0,0,0,0,0,0,0,0,0,0,0,0],"split_type":[0,0,0,0,0,0,0,0,0,0,0,0,0,0,0,0,0,0,0,0,0,0,0,0,0,0,0,0,0,0,0,0,0,0,0,0,0,0,0,0,0,0,0,0,0,0,0,0,0,0,0,0,0,0,0,0,0,0,0,0,0,0,0,0,0,0,0,0,0,0,0,0,0,0,0,0,0,0,0,0,0],"sum_hessian":[4.952E3,3.925E3,1.027E3,2.687E3,1.238E3,4.44E2,5.83E2,8.13E2,1.874E3,4.62E2,7.76E2,2.71E2,1.73E2,5.04E2,7.9E1,3.9E1,7.74E2,1.472E3,4.02E2,2.32E2,2.3E2,4.47E2,3.29E2,1.36E2,1.35E2,7.7E1,9.6E1,2.14E2,2.9E2,3.2E1,7E0,2.9E2,4.84E2,5.6E2,9.12E2,1.51E2,2.51E2,1.16E2,1.16E2,6.2E1,1.68E2,1.96E2,2.51E2,1.94E2,1.35E2,1.3E2,6E0,2.13E2,1E0,1.36E2,1.54E2,4.83E2,1E0,2E0,5.58E2,5.37E2,3.75E2,3E0,1.48E2,2.49E2,2E0,2E0,1.14E2,6.8E1,4.8E1,6E1,2E0,6E0,1.62E2,6.7E1,1.29E2,1.35E2,1.16E2,4E0,1.9E2,3E0,1.32E2,2E0,1.28E2,3E0,3E0],"tree_param":{"num_deleted":"0","num_feature":"7","num_nodes":"81","size_leaf_vector":"1"}},{"base_weights":[5.1682306E-5,-8.692549E-3,3.596608E-2,-1.5301351E-2,5.6404374E-3,2.2537133E-2,4.559306E-2,-1.9829674E-2,-1.2118598E-2,4.919368E-4,8.658799E-3,1.7498044E-2,2.9117534E-2,4.3535262E-2,1.8554326E-2,-2.9442165E-2,-1.8893108E-2,-1.3369558E-2,-7.2486224E-3,-1.7941294E-3,2.7857032E-3,6.886933E-3,1.113679E-2,1.5725665E-2,2.0754E-2,7.7445866E-3,3.1506814E-2,4.040297E-2,4.7004998E-2,-3.9265364E-2,-2.6419993E-2,-2.0748654E-2,-1.7207488E-2,-1.4454311E-2,-1.2140546E-2,-8.686838E-3,-5.548539E-3,-3.563831E-3,-5.151155E-4,7.795319E-3,2.4052465E-3,5.787043E-3,7.920637E-3,9.791809E-3,1.2222746E-2,9.500172E-3,1.599984E-2,1.6370238E-3,6.264048E-3,3.1691294E-2,2.0694674E-3,1.2140889E-2,3.350848E-3,1.6418654E-2,4.517016E-2,-1.2303603E-2,-4.534453E-3,-7.996793E-3,-1.2374193E-3,-6.2352098E-3,-5.491644E-4,-5.567687E-3,-5.0134533E-3,-4.518284E-3,-4.1517643E-3,-3.7995519E-3,-3.3397295E-3,-8.45136E-4,-2.6628957E-3,2.9588165E-3,-1.7141186E-3,-7.118602E-4,-2.14113E-3,4.8004987E-4,-4.912627E-4,1.1978388E-3,3.0927581E-3,-8.259364E-5,1.0789371E-3,-1.5139104E-4,1.7703414E-3,2.285559E-3,3.158025E-3,2.9667763E-3,4.9670937E-4,3.547391E-3,5.318567E-3,3.0380131E-3,6.7318085E-4,4.819941E-3,9.4081165E-4,2.2864223E-3,9.559331E-3,3.719008E-3,1.3582721E-2],"categories":[],"categories_nodes":[],"categories_segments":[],"categories_sizes":[],"default_left":[0,0,0,0,0,0,0,0,0,0,0,0,0,0,0,0,0,0,0,0,0,0,0,0,0,0,0,0,0,0,0,0,0,0,0,0,0,0,0,0,0,0,0,0,0,0,0,0,0,0,0,0,0,0,0,0,0,0,0,0,0,0,0,0,0,0,0,0,0,0,0,0,0,0,0,0,0,0,0,0,0,0,0,0,0,0,0,0,0,0,0,0,0,0,0],"id":7,"left_children":[1,3,5,7,9,11,13,15,17,19,21,23,25,27,-1,29,31,33,35,37,39,41,43,45,47,-1,49,51,53,55,57,59,61,63,65,67,69,71,73,75,77,79,81,83,85,87,89,-1,-1,91,-1,-1,-1,-1,93,-1,-1,-1,-1,-1,-1,-1,-1,-1,-1,-1,-1,-1,-1,-1,-1,-1,-1,-1,-1,-1,-1,-1,-1,-1,-1,-1,-1,-1,-1,-1,-1,-1,-1,-1,-1,-1,-1,-1,-1],"loss_changes":[1.5557716E0,3.7746617E-1,1.2437427E-1,3.906268E-2,1.9545104E-2,1.2986317E-2,1.6172647E-2,9.56282E-3,9.674877E-3,2.4485628E-3,3.4050979E-3,1.0182187E-3,5.673766E-4,3.5784245E-3,0E0,1.8719807E-3,2.8551817E-3,1.5243143E-3,7.5868145E-4,5.278168E-4,4.253349E-4,4.8284978E-4,3.6085024E-4,1.1256337E-4,3.8523227E-5,0E0,2.2175908E-4,7.799268E-5,8.299947E-4,2.659373E-4,3.0042976E-4,2.8589368E-4,5.4493546E-5,4.2319298E-5,1.7844886E-4,1.7185323E-4,4.4840248E-4,4.0011678E-4,3.278924E-4,1.11782516E-4,6.9708785E-4,1.6736519E-4,1.06398016E-4,1.0413304E-4,1.8052943E-4,1.8193095E-5,7.560849E-5,0E0,0E0,1.5722215E-4,0E0,0E0,0E0,0E0,1.1000037E-4,0E0,0E0,0E0,0E0,0E0,0E0,0E0,0E0,0E0,0E0,0E0,0E0,0E0,0E0,0E0,0E0,0E0,0E0,0E0,0E0,0E0,0E0,0E0,0E0,0E0,0E0,0E0,0E0,0E0,0E0,0E0,0E0,0E0,0E0,0E0,0E0,0E0,0E0,0E0,0E0],"parents":[2147483647,0,0,1,1,2,2,3,3,4,4,5,5,6,6,7,7,8,8,9,9,10,10,11,11,12,12,13,13,15,15,16,16,17,17,18,18,19,19,20,20,21,21,22,22,23,23,24,24,26,26,27,27,28,28,29,29,30,30,31,31,32,32,33,33,34,34,35,35,36,36,37,37,38,38,39,39,40,40,41,41,42,42,43,43,44,44,45,45,46,46,49,49,54,54],"right_children":[2,4,6,8,10,12,14,16,18,20,22,24,26,28,-1,30,32,34,36,38,40,42,44,46,48,-1,50,52,54,56,58,60,62,64,66,68,70,72,74,76,78,80,82,84,86,88,90,-1,-1,92,-1,-1,-1,-1,94,-1,-1,-1,-1,-1,-1,-1,-1,-1,-1,-1,-1,-1,-1,-1,-1,-1,-1,-1,-1,-1,-1,-1,-1,-1,-1,-1,-1,-1,-1,-1,-1,-1,-1,-1,-1,-1,-1,-1,-1],"split_conditions":[1.3142E0,1.1003E0,1.6076E0,9.613E-1,1.2062E0,1.449E0,1.7736E0,8.753E-1,1.0324E0,1.1612E0,1.2615E0,1.3724E0,1.4918E0,1.6757E0,1.8554326E-2,7.951E-1,9.252E-1,9.916E-1,1.0667E0,1.1296E0,1.154E0,1.2345E0,1.2845E0,1.2951E0,1.3468E0,7.7445866E-3,1.6485E0,1.721E0,1.6897E0,7.951E-1,8.851E-1,1.0172E0,9.339E-1,9.752E-1,1.0079E0,1.015E0,1.0424E0,1.1309E0,1.1395E0,1.1401E0,1.176E0,1.1911E0,1.2706E0,1.3088E0,1.3233E0,1.3112E0,1.3903E0,1.6370238E-3,6.264048E-3,1.4768E0,2.0694674E-3,1.2140889E-2,3.350848E-3,1.6418654E-2,1.6379E0,-1.2303603E-2,-4.534453E-3,-7.996793E-3,-1.2374193E-3,-6.2352098E-3,-5.491644E-4,-5.567687E-3,-5.0134533E-3,-4.518284E-3,-4.1517643E-3,-3.7995519E-3,-3.3397295E-3,-8.45136E-4,-2.6628957E-3,2.9588165E-3,-1.7141186E-3,-7.118602E-4,-2.14113E-3,4.8004987E-4,-4.912627E-4,1.1978388E-3,3.0927581E-3,-8.259364E-5,1.0789371E-3,-1.5139104E-4,1.7703414E-3,2.285559E-3,3.158025E-3,2.9667763E-3,4.9670937E-4,3.547391E-3,5.318567E-3,3.0380131E-3,6.7318085E-4,4.819941E-3,9.4081165E-4,2.2864223E-3,9.559331E-3,3.719008E-3,1.3582721E-2],"split_indices":[5,0,0,0,0,6,0,0,1,2,0,0,0,0,0,0,0,0,0,1,4,0,0,1,2,0,3,6,0,1,1,6,0,0,0,6,3,5,3,6,0,5,4,4,1,2,3,0,0,2,0,0,0,0,3,0,0,0,0,0,0,0,0,0,0,0,0,0,0,0,0,0,0,0,0,0,0,0,0,0,0,0,0,0,0,0,0,0,0,0,0,0,0,0,0],"split_type":[0,0,0,0,0,0,0,0,0,0,0,0,0,0,0,0,0,0,0,0,0,0,0,0,0,0,0,0,0,0,0,0,0,0,0,0,0,0,0,0,0,0,0,0,0,0,0,0,0,0,0,0,0,0,0,0,0,0,0,0,0,0,0,0,0,0,0,0,0,0,0,0,0,0,0,0,0,0,0,0,0,0,0,0,0,0,0,0,0,0,0,0,0,0,0],"sum_hessian":[4.952E3,3.983E3,9.69E2,2.726E3,1.257E3,4.06E2,5.63E2,1.123E3,1.603E3,4.65E2,7.92E2,2.32E2,1.74E2,5.03E2,6E1,9.7E1,1.026E3,1.274E3,3.29E2,2.33E2,2.32E2,4.64E2,3.28E2,1.54E2,7.8E1,7.8E1,9.6E1,2.71E2,2.32E2,2E1,7.7E1,4.83E2,5.43E2,6.71E2,6.03E2,1.76E2,1.53E2,9.7E1,1.36E2,1.5E1,2.17E2,2.28E2,2.36E2,1.51E2,1.77E2,8E0,1.46E2,1E0,7.7E1,9.5E1,1E0,2.7E2,1E0,3.9E1,1.93E2,1.8E1,2E0,7.6E1,1E0,4.82E2,1E0,1.36E2,4.07E2,3.26E2,3.45E2,3.89E2,2.14E2,6E0,1.7E2,1E0,1.52E2,7.4E1,2.3E1,4.7E1,8.9E1,7E0,8E0,6.7E1,1.5E2,4E0,2.24E2,2.15E2,2.1E1,1.49E2,2E0,1.68E2,9E0,7E0,1E0,1.45E2,1E0,1E0,9.4E1,1E0,1.92E2],"tree_param":{"num_deleted":"0","num_feature":"7","num_nodes":"95","size_leaf_vector":"1"}},{"base_weights":[4.97222E-5,-6.0947533E-3,2.5286362E-2,-1.0841686E-2,3.7478458E-3,1.6938968E-2,3.2939035E-2,-1.4497328E-2,-8.971859E-3,-4.6151067E-4,5.814348E-3,1.2618626E-2,2.196751E-2,3.140395E-2,4.3597594E-2,-2.2935666E-2,-1.3883903E-2,-9.82898E-3,-5.869283E-3,-2.0918117E-3,1.163354E-3,4.371686E-3,7.595253E-3,1.1069029E-2,1.49173E-2,1.8664192E-2,2.3104487E-2,2.9287381E-2,3.2908756E-2,1.1568544E-2,1.5231553E-2,-2.8287575E-2,-1.9552523E-2,-1.5801186E-2,-1.2962543E-2,-1.0753931E-2,-8.943157E-3,-7.202992E-3,-4.498445E-3,-1.8991828E-3,-4.502094E-3,-4.6759227E-4,1.7546929E-3,3.1237581E-3,5.0642933E-3,6.5446235E-3,8.6121475E-3,7.062448E-3,1.12390295E-2,7.3078074E-3,1.5244318E-2,1.9093417E-2,2.3645104E-3,2.3369592E-2,3.1432272E-3,8.858133E-3,4.296084E-3,3.304291E-2,1.0759632E-2,-8.806793E-3,-3.6275568E-3,-1.8576175E-3,-6.1405357E-3,-4.6903775E-3,-9.1172755E-3,2.2104979E-4,-3.8962557E-3,1.7335117E-4,-3.2314647E-3,-9.211801E-4,-2.698997E-3,-4.129379E-3,-2.0980532E-3,-1.2469287E-3,-3.5792293E-3,-6.8884867E-4,3.918484E-4,1.4335858E-5,-4.476625E-3,-1.19193E-3,6.259988E-4,1.835179E-3,7.386673E-4,1.5811194E-3,3.6423767E-4,3.2707874E-3,1.8597828E-3,3.3919716E-3,2.371542E-3,2.3483124E-3,8.7680825E-4,3.3838481E-3,7.996917E-4,6.5987115E-4,2.79361E-3,5.935506E-3,4.217772E-3,5.7787774E-3,1.442957E-3,7.2522354E-3,5.265999E-3,4.6810093E-3,9.957468E-3,5.5334154E-3,-6.915808E-4],"categories":[],"categories_nodes":[],"categories_segments":[],"categories_sizes":[],"default_left":[0,0,0,0,0,0,0,0,0,0,0,0,0,0,0,0,0,0,0,0,0,0,0,0,0,0,0,0,0,0,0,0,0,0,0,0,0,0,0,0,0,0,0,0,0,0,0,0,0,0,0,0,0,0,0,0,0,0,0,0,0,0,0,0,0,0,0,0,0,0,0,0,0,0,0,0,0,0,0,0,0,0,0,0,0,0,0,0,0,0,0,0,0,0,0,0,0,0,0,0,0,0,0,0,0],"id":8,"left_children":[1,3,5,7,9,11,13,15,17,19,21,23,25,27,29,31,33,35,37,39,41,43,45,47,49,51,53,55,57,-1,-1,59,61,63,65,67,69,71,73,75,-1,77,79,81,83,85,87,89,91,93,95,97,-1,99,-1,-1,-1,101,103,-1,-1,-1,-1,-1,-1,-1,-1,-1,-1,-1,-1,-1,-1,-1,-1,-1,-1,-1,-1,-1,-1,-1,-1,-1,-1,-1,-1,-1,-1,-1,-1,-1,-1,-1,-1,-1,-1,-1,-1,-1,-1,-1,-1,-1,-1],"loss_changes":[7.681956E-1,1.8618174E-1,6.14056E-2,1.8243521E-2,1.1284823E-2,9.846672E-3,6.893456E-3,4.381627E-3,4.6785027E-3,1.1362134E-3,2.2020414E-3,7.3606893E-4,3.7250668E-4,4.5356154E-4,2.4594367E-4,5.3328276E-4,1.2949407E-3,1.045987E-3,6.769784E-4,5.0389546E-4,2.0817551E-4,4.016487E-4,3.5816617E-4,2.6198104E-5,1.3495237E-4,1.2720004E-4,2.7401E-4,2.732426E-4,3.9324164E-4,0E0,0E0,8.404255E-6,3.6274735E-4,1.835376E-4,2.0767748E-4,1.4138222E-4,1.9795075E-4,1.717722E-4,4.435531E-4,2.727596E-4,0E0,4.3278598E-4,3.0872007E-4,3.3149135E-4,2.3880322E-4,2.2589229E-4,2.801856E-4,5.6338904E-6,2.0930544E-5,4.0945917E-5,2.2765994E-4,4.5083463E-5,0E0,2.822429E-4,0E0,0E0,0E0,1.3020635E-4,3.437347E-4,0E0,0E0,0E0,0E0,0E0,0E0,0E0,0E0,0E0,0E0,0E0,0E0,0E0,0E0,0E0,0E0,0E0,0E0,0E0,0E0,0E0,0E0,0E0,0E0,0E0,0E0,0E0,0E0,0E0,0E0,0E0,0E0,0E0,0E0,0E0,0E0,0E0,0E0,0E0,0E0,0E0,0E0,0E0,0E0,0E0,0E0],"parents":[2147483647,0,0,1,1,2,2,3,3,4,4,5,5,6,6,7,7,8,8,9,9,10,10,11,11,12,12,13,13,14,14,15,15,16,16,17,17,18,18,19,19,20,20,21,21,22,22,23,23,24,24,25,25,26,26,27,27,28,28,31,31,32,32,33,33,34,34,35,35,36,36,37,37,38,38,39,39,41,41,42,42,43,43,44,44,45,45,46,46,47,47,48,48,49,49,50,50,51,51,53,53,57,57,58,58],"right_children":[2,4,6,8,10,12,14,16,18,20,22,24,26,28,30,32,34,36,38,40,42,44,46,48,50,52,54,56,58,-1,-1,60,62,64,66,68,70,72,74,76,-1,78,80,82,84,86,88,90,92,94,96,98,-1,100,-1,-1,-1,102,104,-1,-1,-1,-1,-1,-1,-1,-1,-1,-1,-1,-1,-1,-1,-1,-1,-1,-1,-1,-1,-1,-1,-1,-1,-1,-1,-1,-1,-1,-1,-1,-1,-1,-1,-1,-1,-1,-1,-1,-1,-1,-1,-1,-1,-1,-1],"split_conditions":[1.3142E0,1.0883E0,1.6328E0,9.468E-1,1.1953E0,1.4615E0,1.7736E0,8.438E-1,1.0181E0,1.1501E0,1.2533E0,1.3724E0,1.4941E0,1.6698E0,1.7968E0,7.951E-1,9.048E-1,9.817E-1,1.0492E0,1.1911E0,1.1545E0,1.2189E0,1.2821E0,1.2951E0,1.3662E0,1.514E0,1.666E0,1.6897E0,1.7805E0,1.1568544E-2,1.5231553E-2,7.951E-1,7.951E-1,9.174E-1,8.803E-1,9.33E-1,9.684E-1,1.011E0,1.1008E0,1.1581E0,-4.502094E-3,1.1762E0,1.1507E0,1.196E0,1.2618E0,1.2424E0,1.2851E0,1.3018E0,1.3903E0,1.3668E0,1.3745E0,1.5146E0,2.3645104E-3,1.6278E0,3.1432272E-3,8.858133E-3,4.296084E-3,1.6379E0,1.7736E0,-8.806793E-3,-3.6275568E-3,-1.8576175E-3,-6.1405357E-3,-4.6903775E-3,-9.1172755E-3,2.2104979E-4,-3.8962557E-3,1.7335117E-4,-3.2314647E-3,-9.211801E-4,-2.698997E-3,-4.129379E-3,-2.0980532E-3,-1.2469287E-3,-3.5792293E-3,-6.8884867E-4,3.918484E-4,1.4335858E-5,-4.476625E-3,-1.19193E-3,6.259988E-4,1.835179E-3,7.386673E-4,1.5811194E-3,3.6423767E-4,3.2707874E-3,1.8597828E-3,3.3919716E-3,2.371542E-3,2.3483124E-3,8.7680825E-4,3.3838481E-3,7.996917E-4,6.5987115E-4,2.79361E-3,5.935506E-3,4.217772E-3,5.7787774E-3,1.442957E-3,7.2522354E-3,5.265999E-3,4.6810093E-3,9.957468E-3,5.5334154E-3,-6.915808E-4],"split_indices":[5,2,0,0,1,0,0,4,0,0,2,0,6,0,0,0,0,0,2,5,6,0,4,1,1,2,5,3,1,0,0,1,2,1,3,1,3,1,4,5,0,3,2,6,5,5,2,2,3,3,4,3,0,0,0,0,0,3,2,0,0,0,0,0,0,0,0,0,0,0,0,0,0,0,0,0,0,0,0,0,0,0,0,0,0,0,0,0,0,0,0,0,0,0,0,0,0,0,0,0,0,0,0,0,0],"split_type":[0,0,0,0,0,0,0,0,0,0,0,0,0,0,0,0,0,0,0,0,0,0,0,0,0,0,0,0,0,0,0,0,0,0,0,0,0,0,0,0,0,0,0,0,0,0,0,0,0,0,0,0,0,0,0,0,0,0,0,0,0,0,0,0,0,0,0,0,0,0,0,0,0,0,0,0,0,0,0,0,0,0,0,0,0,0,0,0,0,0,0,0,0,0,0,0,0,0,0,0,0,0,0,0,0],"sum_hessian":[4.952E3,3.983E3,9.69E2,2.687E3,1.296E3,4.65E2,5.04E2,9.07E2,1.78E3,4.27E2,8.69E2,2.52E2,2.13E2,4.44E2,6E1,5.9E1,8.48E2,1.393E3,3.87E2,2.13E2,2.14E2,4.82E2,3.87E2,1.54E2,9.8E1,5.9E1,1.54E2,1.93E2,2.51E2,3.9E1,2.1E1,2E1,3.9E1,2.7E2,5.78E2,6.76E2,7.17E2,1.94E2,1.93E2,2.11E2,2E0,5.7E1,1.57E2,1.74E2,3.08E2,1.94E2,1.93E2,8E0,1.46E2,5E0,9.3E1,5.6E1,3E0,1.5E2,4E0,1.89E2,4E0,2.49E2,2E0,1.8E1,2E0,3E0,3.6E1,2.69E2,1E0,1E0,5.77E2,1E0,6.75E2,7E0,7.1E2,4E0,1.9E2,1.86E2,7E0,1.88E2,2.3E1,5.6E1,1E0,8E0,1.49E2,3E1,1.44E2,2.92E2,1.6E1,1.2E1,1.82E2,3.7E1,1.56E2,6E0,2E0,1.45E2,1E0,2E0,3E0,1.6E1,7.7E1,5.5E1,1E0,1.29E2,2.1E1,3E0,2.46E2,1E0,1E0],"tree_param":{"num_deleted":"0","num_feature":"7","num_nodes":"105","size_leaf_vector":"1"}},{"base_weights":[4.6045257E-5,-4.761551E-3,1.6057318E-2,-7.836629E-3,1.6410453E-3,8.4468415E-3,2.1625537E-2,-1.0740116E-2,-6.711959E-3,-9.071907E-4,3.4904035E-3,7.1225353E-3,1.1758783E-2,1.9753246E-2,2.7498208E-2,-1.8064078E-2,-1.0292184E-2,-7.441393E-3,-5.454906E-3,-2.339095E-3,2.2378605E-4,2.674536E-3,4.439089E-3,6.5113828E-3,8.643144E-3,4.804536E-3,1.1297535E-2,1.673531E-2,2.1293806E-2,7.7649304E-3,1.0869774E-2,-5.924624E-3,-8.856811E-3,-1.2198608E-2,-9.703858E-3,-8.078779E-3,-6.881105E-3,-5.7542883E-3,-4.224357E-3,1.1185866E-3,-2.7662201E-3,3.7232126E-4,-4.48819E-3,2.5157353E-3,5.2020494E-3,1.0231103E-2,4.300252E-3,6.6831913E-3,-4.8119682E-4,1.0006989E-2,7.6353233E-3,5.1226616E-3,1.201723E-2,1.0766387E-3,1.679024E-2,2.143349E-2,-1.076142E-3,-3.0687244E-3,-9.48E-4,1.4042259E-4,-3.7350103E-3,-2.882051E-3,-6.995571E-3,-2.2905276E-3,-2.7071116E-3,-2.076148E-3,-1.6967297E-4,-1.6284833E-3,-1.980277E-3,7.796377E-4,-1.3185701E-3,-1.4404439E-4,2.3787904E-3,-1.6880772E-3,-6.5539486E-4,-8.222091E-5,3.520683E-4,-3.1855525E-3,1.0401607E-4,8.4032974E-4,3.0268193E-4,1.8669927E-3,-1.0021091E-3,3.5924006E-3,1.174438E-3,1.0324417E-3,1.4982099E-3,2.0248832E-3,-2.9063225E-4,-9.5632375E-4,7.0369546E-4,4.2283777E-3,2.2734914E-3,1.7461312E-3,2.743609E-3,6.6153647E-4,2.7394355E-3,3.6311194E-3,3.493667E-4,5.1927385E-3,4.1514924E-3,6.454824E-3,-8.360088E-4,1.9267381E-3,-2.411002E-3],"categories":[],"categories_nodes":[],"categories_segments":[],"categories_sizes":[],"default_left":[0,0,0,0,0,0,0,0,0,0,0,0,0,0,0,0,0,0,0,0,0,0,0,0,0,0,0,0,0,0,0,0,0,0,0,0,0,0,0,0,0,0,0,0,0,0,0,0,0,0,0,0,0,0,0,0,0,0,0,0,0,0,0,0,0,0,0,0,0,0,0,0,0,0,0,0,0,0,0,0,0,0,0,0,0,0,0,0,0,0,0,0,0,0,0,0,0,0,0,0,0,0,0,0,0],"id":9,"left_children":[1,3,5,7,9,11,13,15,17,19,21,23,25,27,29,31,33,35,37,39,41,43,45,47,49,-1,51,53,55,-1,-1,-1,57,59,61,63,65,67,69,71,73,75,77,79,81,83,85,87,89,91,93,95,97,-1,99,101,103,-1,-1,-1,-1,-1,-1,-1,-1,-1,-1,-1,-1,-1,-1,-1,-1,-1,-1,-1,-1,-1,-1,-1,-1,-1,-1,-1,-1,-1,-1,-1,-1,-1,-1,-1,-1,-1,-1,-1,-1,-1,-1,-1,-1,-1,-1,-1,-1],"loss_changes":[3.813373E-1,7.502598E-2,4.8296362E-2,8.333206E-3,5.8326544E-3,2.0434707E-3,6.713748E-3,2.166301E-3,1.6630813E-3,8.442573E-4,5.430868E-4,2.6805513E-4,8.8032335E-5,1.986906E-3,1.2769699E-3,4.4553634E-4,6.420687E-4,3.6331266E-4,2.2841804E-4,3.4277258E-4,2.0604019E-4,1.4264486E-4,2.2137165E-4,3.0716602E-4,5.692104E-5,0E0,5.028304E-4,6.611645E-5,1.0542125E-3,0E0,0E0,0E0,3.0216645E-5,5.0264597E-4,4.6681985E-4,1.5875697E-4,1.5305355E-4,1.156982E-4,1.7231796E-4,2.8690888E-4,3.2876595E-4,1.4740924E-4,2.7043745E-4,1.5497813E-4,2.1271658E-4,3.0211988E-5,1.7585419E-4,1.3207272E-4,6.103436E-5,2.7043163E-4,1.1120271E-4,1.5530115E-4,9.198673E-5,0E0,2.6993454E-5,7.160753E-4,2.0819798E-4,0E0,0E0,0E0,0E0,0E0,0E0,0E0,0E0,0E0,0E0,0E0,0E0,0E0,0E0,0E0,0E0,0E0,0E0,0E0,0E0,0E0,0E0,0E0,0E0,0E0,0E0,0E0,0E0,0E0,0E0,0E0,0E0,0E0,0E0,0E0,0E0,0E0,0E0,0E0,0E0,0E0,0E0,0E0,0E0,0E0,0E0,0E0,0E0],"parents":[2147483647,0,0,1,1,2,2,3,3,4,4,5,5,6,6,7,7,8,8,9,9,10,10,11,11,12,12,13,13,14,14,15,15,16,16,17,17,18,18,19,19,20,20,21,21,22,22,23,23,24,24,26,26,27,27,28,28,32,32,33,33,34,34,35,35,36,36,37,37,38,38,39,39,40,40,41,41,42,42,43,43,44,44,45,45,46,46,47,47,48,48,49,49,50,50,51,51,52,52,54,54,55,55,56,56],"right_children":[2,4,6,8,10,12,14,16,18,20,22,24,26,28,30,32,34,36,38,40,42,44,46,48,50,-1,52,54,56,-1,-1,-1,58,60,62,64,66,68,70,72,74,76,78,80,82,84,86,88,90,92,94,96,98,-1,100,102,104,-1,-1,-1,-1,-1,-1,-1,-1,-1,-1,-1,-1,-1,-1,-1,-1,-1,-1,-1,-1,-1,-1,-1,-1,-1,-1,-1,-1,-1,-1,-1,-1,-1,-1,-1,-1,-1,-1,-1,-1,-1,-1,-1,-1,-1,-1,-1,-1],"split_conditions":[1.2845E0,1.0673E0,1.4918E0,9.339E-1,1.1893E0,1.3825E0,1.721E0,8.335E-1,9.94E-1,1.1232E0,1.2419E0,1.3465E0,1.3745E0,1.6379E0,1.7968E0,8.335E-1,8.91E-1,9.67E-1,1.0385E0,1.0702E0,1.2044E0,1.242E0,1.2373E0,1.3681E0,1.359E0,4.804536E-3,1.3903E0,1.4768E0,1.7327E0,7.7649304E-3,1.0869774E-2,-5.924624E-3,8.335E-1,8.335E-1,9.626E-1,9.632E-1,1.0205E0,1.0169E0,1.0328E0,1.0842E0,1.0692E0,1.1612E0,1.1988E0,1.2402E0,1.2615E0,1.2373E0,1.2567E0,1.3593E0,1.3468E0,1.3538E0,1.3678E0,1.3904E0,1.514E0,1.0766387E-3,1.6485E0,1.7415E0,1.7152E0,-3.0687244E-3,-9.48E-4,1.4042259E-4,-3.7350103E-3,-2.882051E-3,-6.995571E-3,-2.2905276E-3,-2.7071116E-3,-2.076148E-3,-1.6967297E-4,-1.6284833E-3,-1.980277E-3,7.796377E-4,-1.3185701E-3,-1.4404439E-4,2.3787904E-3,-1.6880772E-3,-6.5539486E-4,-8.222091E-5,3.520683E-4,-3.1855525E-3,1.0401607E-4,8.4032974E-4,3.0268193E-4,1.8669927E-3,-1.0021091E-3,3.5924006E-3,1.174438E-3,1.0324417E-3,1.4982099E-3,2.0248832E-3,-2.9063225E-4,-9.5632375E-4,7.0369546E-4,4.2283777E-3,2.2734914E-3,1.7461312E-3,2.743609E-3,6.6153647E-4,2.7394355E-3,3.6311194E-3,3.493667E-4,5.1927385E-3,4.1514924E-3,6.454824E-3,-8.360088E-4,1.9267381E-3,-2.411002E-3],"split_indices":[0,5,0,0,1,0,3,0,0,1,0,1,4,0,0,6,0,0,1,4,5,1,1,6,1,0,3,2,4,0,0,0,1,2,5,6,5,4,2,6,0,2,4,6,2,2,6,3,2,3,5,4,2,0,5,0,0,0,0,0,0,0,0,0,0,0,0,0,0,0,0,0,0,0,0,0,0,0,0,0,0,0,0,0,0,0,0,0,0,0,0,0,0,0,0,0,0,0,0,0,0,0,0,0,0],"split_type":[0,0,0,0,0,0,0,0,0,0,0,0,0,0,0,0,0,0,0,0,0,0,0,0,0,0,0,0,0,0,0,0,0,0,0,0,0,0,0,0,0,0,0,0,0,0,0,0,0,0,0,0,0,0,0,0,0,0,0,0,0,0,0,0,0,0,0,0,0,0,0,0,0,0,0,0,0,0,0,0,0,0,0,0,0,0,0,0,0,0,0,0,0,0,0,0,0,0,0,0,0,0,0,0,0],"sum_hessian":[4.952E3,3.809E3,1.143E3,2.573E3,1.236E3,4.84E2,6.59E2,7.16E2,1.857E3,5.2E2,7.16E2,3.48E2,1.36E2,5.03E2,1.56E2,3.9E1,6.77E2,1.172E3,6.85E2,2.29E2,2.91E2,3.87E2,3.29E2,2.52E2,9.6E1,1E1,1.26E2,1.74E2,3.29E2,1.35E2,2.1E1,3.2E1,7E0,1.55E2,5.22E2,5.42E2,6.3E2,5.48E2,1.37E2,2.5E1,2.04E2,2.83E2,8E0,3.66E2,2.1E1,6E0,3.23E2,2.46E2,6E0,3.7E1,5.9E1,1.4E1,1.12E2,1E0,1.73E2,3.27E2,2E0,5E0,2E0,3E0,1.52E2,5.2E2,2E0,3.75E2,1.67E2,6.26E2,4E0,4.01E2,1.47E2,3E0,1.34E2,2.1E1,4E0,3.3E1,1.71E2,1.57E2,1.26E2,3E0,5E0,3.07E2,5.9E1,1.9E1,2E0,4E0,2E0,1.47E2,1.76E2,2.44E2,2E0,3E0,3E0,1.2E1,2.5E1,2.9E1,3E1,9E0,5E0,1.11E2,1E0,1.43E2,3E1,3.26E2,1E0,1E0,1E0],"tree_param":{"num_deleted":"0","num_feature":"7","num_nodes":"105","size_leaf_vector":"1"}},{"base_weights":[3.8384525E-5,-2.971135E-3,1.2722678E-2,-5.396556E-3,1.785101E-3,7.9570385E-3,1.597016E-2,-7.455751E-3,-4.547006E-3,1.1149255E-4,3.265087E-3,6.353179E-3,9.863695E-3,1.4894177E-2,2.0873565E-2,-1.0991686E-2,-6.938112E-3,-5.045777E-3,-3.2569047E-3,-1.1030813E-3,8.958128E-4,2.73012E-3,4.132238E-3,6.1589107E-3,4.4891955E-3,1.07559115E-2,6.5835686E-3,6.909622E-3,1.5018559E-2,5.7601184E-3,2.5856918E-2,-1.4750923E-2,-9.82369E-3,-6.9819093E-3,1.568675E-3,-5.015808E-3,-1.6869804E-2,-3.551982E-3,-1.784673E-3,-9.799243E-4,-3.2749057E-3,9.723444E-4,-5.145669E-3,2.8438251E-3,-7.890177E-3,3.962468E-3,7.8001996E-3,-1.3452531E-3,6.23129E-3,9.802442E-3,8.9342E-3,-9.010052E-3,8.566473E-3,1.1611283E-3,9.590347E-3,1.5052819E-2,-9.575487E-5,8.125209E-3,9.057204E-3,-4.619972E-3,-1.7171205E-3,-1.4473201E-4,-3.0986795E-3,-2.22446E-3,-1.9287419E-3,-5.4089232E-5,-1.5133371E-3,-6.7003462E-3,-8.9106563E-4,-1.0494206E-3,-2.55813E-3,-2.773624E-4,-1.3700384E-3,1.392305E-3,-3.3440415E-4,-1.2658027E-4,3.6674034E-4,-7.2026254E-5,-2.5008083E-3,-1.5859724E-3,8.733824E-4,4.6395065E-4,-3.1907917E-3,1.2614646E-3,4.801113E-4,3.4527795E-3,3.1424046E-4,1.2913228E-4,1.9027133E-3,2.8328984E-3,6.5973643E-3,-6.881297E-4,-3.034705E-3,1.4753133E-3,3.281566E-3,9.55236E-4,-7.36177E-4,3.186586E-3,6.6484814E-4,4.3931897E-3,5.2687963E-3,3.5003724E-3,5.7536963E-4],"categories":[],"categories_nodes":[],"categories_segments":[],"categories_sizes":[],"default_left":[0,0,0,0,0,0,0,0,0,0,0,0,0,0,0,0,0,0,0,0,0,0,0,0,0,0,0,0,0,0,0,0,0,0,0,0,0,0,0,0,0,0,0,0,0,0,0,0,0,0,0,0,0,0,0,0,0,0,0,0,0,0,0,0,0,0,0,0,0,0,0,0,0,0,0,0,0,0,0,0,0,0,0,0,0,0,0,0,0,0,0,0,0,0,0,0,0,0,0,0,0,0,0],"id":10,"left_children":[1,3,5,7,9,11,13,15,17,19,21,23,25,27,29,31,33,35,37,39,41,43,45,47,-1,49,51,53,55,-1,57,59,61,63,-1,65,67,69,71,73,-1,75,77,79,81,83,85,-1,87,89,-1,91,93,95,97,99,-1,-1,101,-1,-1,-1,-1,-1,-1,-1,-1,-1,-1,-1,-1,-1,-1,-1,-1,-1,-1,-1,-1,-1,-1,-1,-1,-1,-1,-1,-1,-1,-1,-1,-1,-1,-1,-1,-1,-1,-1,-1,-1,-1,-1,-1,-1],"loss_changes":[1.8911177E-1,4.6199277E-2,1.4575437E-2,4.6054795E-3,3.3509042E-3,1.1207834E-3,2.6647449E-3,1.3385899E-3,1.193285E-3,6.068512E-4,3.217971E-4,2.6414637E-4,4.413426E-4,3.5902858E-4,3.28999E-4,2.8099678E-4,3.9726496E-4,3.9517507E-4,2.2260146E-4,2.9144567E-4,1.8393827E-4,5.6222756E-4,1.384695E-4,1.897132E-4,0E0,2.175048E-3,1.3140105E-3,1.275556E-4,2.4546683E-4,0E0,2.0822696E-4,3.4882687E-5,3.5842462E-4,1.13874674E-4,0E0,1.8638372E-4,1.6153214E-4,8.7655615E-5,2.1114698E-4,1.930223E-4,0E0,1.3408385E-4,7.625144E-5,2.5832816E-4,1.4600449E-4,1.4329283E-4,2.6345404E-4,0E0,1.3194978E-4,3.66278E-4,0E0,1.3925659E-5,2.5779312E-4,3.7066464E-5,2.2103544E-5,2.1176785E-4,0E0,0E0,3.3537974E-5,0E0,0E0,0E0,0E0,0E0,0E0,0E0,0E0,0E0,0E0,0E0,0E0,0E0,0E0,0E0,0E0,0E0,0E0,0E0,0E0,0E0,0E0,0E0,0E0,0E0,0E0,0E0,0E0,0E0,0E0,0E0,0E0,0E0,0E0,0E0,0E0,0E0,0E0,0E0,0E0,0E0,0E0,0E0,0E0],"parents":[2147483647,0,0,1,1,2,2,3,3,4,4,5,5,6,6,7,7,8,8,9,9,10,10,11,11,12,12,13,13,14,14,15,15,16,16,17,17,18,18,19,19,20,20,21,21,22,22,23,23,25,25,26,26,27,27,28,28,30,30,31,31,32,32,33,33,35,35,36,36,37,37,38,38,39,39,41,41,42,42,43,43,44,44,45,45,46,46,48,48,49,49,51,51,52,52,53,53,54,54,55,55,58,58],"right_children":[2,4,6,8,10,12,14,16,18,20,22,24,26,28,30,32,34,36,38,40,42,44,46,48,-1,50,52,54,56,-1,58,60,62,64,-1,66,68,70,72,74,-1,76,78,80,82,84,86,-1,88,90,-1,92,94,96,98,100,-1,-1,102,-1,-1,-1,-1,-1,-1,-1,-1,-1,-1,-1,-1,-1,-1,-1,-1,-1,-1,-1,-1,-1,-1,-1,-1,-1,-1,-1,-1,-1,-1,-1,-1,-1,-1,-1,-1,-1,-1,-1,-1,-1,-1,-1,-1],"split_conditions":[1.3172E0,1.0828E0,1.6076E0,9.368E-1,1.2189E0,1.449E0,1.7415E0,8.753E-1,1.0046E0,1.1501E0,1.2729E0,1.4465E0,1.5638E0,1.6076E0,1.7968E0,7.951E-1,9.64E-1,1.0149E0,1.0673E0,1.1911E0,1.2336E0,1.281E0,1.3333E0,1.299E0,4.4891955E-3,1.5672E0,1.566E0,1.6328E0,1.7968E0,5.7601184E-3,1.7968E0,7.951E-1,7.951E-1,9.162E-1,1.568675E-3,9.292E-1,8.948E-1,1.0834E0,1.0856E0,1.0744E0,-3.2749057E-3,1.1545E0,1.2081E0,1.2118E0,1.2615E0,1.314E0,1.3239E0,-1.3452531E-3,1.302E0,1.566E0,8.9342E-3,1.5672E0,1.592E0,1.6076E0,1.6485E0,1.721E0,-9.575487E-5,8.125209E-3,1.7968E0,-4.619972E-3,-1.7171205E-3,-1.4473201E-4,-3.0986795E-3,-2.22446E-3,-1.9287419E-3,-5.4089232E-5,-1.5133371E-3,-6.7003462E-3,-8.9106563E-4,-1.0494206E-3,-2.55813E-3,-2.773624E-4,-1.3700384E-3,1.392305E-3,-3.3440415E-4,-1.2658027E-4,3.6674034E-4,-7.2026254E-5,-2.5008083E-3,-1.5859724E-3,8.733824E-4,4.6395065E-4,-3.1907917E-3,1.2614646E-3,4.801113E-4,3.4527795E-3,3.1424046E-4,1.2913228E-4,1.9027133E-3,2.8328984E-3,6.5973643E-3,-6.881297E-4,-3.034705E-3,1.4753133E-3,3.281566E-3,9.55236E-4,-7.36177E-4,3.186586E-3,6.6484814E-4,4.3931897E-3,5.2687963E-3,3.5003724E-3,5.7536963E-4],"split_indices":[0,0,1,2,2,6,1,0,0,0,1,5,0,0,0,0,6,1,6,5,6,2,6,2,0,6,1,5,5,0,6,1,3,5,0,0,0,2,3,1,0,6,0,3,0,1,2,0,6,5,0,6,0,3,3,5,0,0,1,0,0,0,0,0,0,0,0,0,0,0,0,0,0,0,0,0,0,0,0,0,0,0,0,0,0,0,0,0,0,0,0,0,0,0,0,0,0,0,0,0,0,0,0],"split_type":[0,0,0,0,0,0,0,0,0,0,0,0,0,0,0,0,0,0,0,0,0,0,0,0,0,0,0,0,0,0,0,0,0,0,0,0,0,0,0,0,0,0,0,0,0,0,0,0,0,0,0,0,0,0,0,0,0,0,0,0,0,0,0,0,0,0,0,0,0,0,0,0,0,0,0,0,0,0,0,0,0,0,0,0,0,0,0,0,0,0,0,0,0,0,0,0,0,0,0,0,0,0,0],"sum_hessian":[4.952E3,4.003E3,9.49E2,2.651E3,1.352E3,3.86E2,5.63E2,7.72E2,1.879E3,6.35E2,7.17E2,2.12E2,1.74E2,4.65E2,9.8E1,9.6E1,6.76E2,1.353E3,5.26E2,2.49E2,3.86E2,4.46E2,2.71E2,2.09E2,3E0,1.35E2,3.9E1,8E0,4.57E2,7.7E1,2.1E1,2E1,7.6E1,6.74E2,2E0,1.351E3,2E0,4.37E2,8.9E1,2.47E2,2E0,3.82E2,4E0,4.42E2,4E0,2.61E2,1E1,1E0,2.08E2,1.3E2,5E0,4E0,3.5E1,3E0,5E0,4.56E2,1E0,1.9E1,2E0,1.8E1,2E0,4E0,7.2E1,3.71E2,3.03E2,8E0,1.343E3,1E0,1E0,4.34E2,3E0,6.9E1,2E1,5E0,2.42E2,5.8E1,3.24E2,2E0,2E0,3E0,4.39E2,1E0,3E0,2.36E2,2.5E1,6E0,4E0,4E0,2.04E2,1.28E2,2E0,1E0,3E0,1.5E1,2E1,2E0,1E0,4E0,1E0,3.98E2,5.8E1,1E0,1E0],"tree_param":{"num_deleted":"0","num_feature":"7","num_nodes":"103","size_leaf_vector":"1"}},{"base_weights":[3.235361E-5,-2.1978102E-3,8.549465E-3,-3.8155303E-3,1.0917938E-3,5.12127E-3,1.1147063E-2,-4.9310327E-3,-2.9821042E-3,-9.251529E-5,2.0406875E-3,4.3588183E-3,7.2461655E-3,1.0653251E-2,1.726595E-2,-7.360074E-3,-4.589221E-3,-3.2317124E-3,-2.1369278E-3,4.770853E-3,-2.8478436E-4,3.510672E-3,2.010933E-3,-1.92351E-3,4.4810944E-3,8.540824E-3,6.0476066E-4,9.657052E-3,1.1617491E-2,5.132705E-3,1.806767E-2,-9.595336E-3,-6.437074E-3,-4.5470446E-3,-5.076432E-3,-3.132661E-3,-7.1349377E-3,2.0790934E-3,-2.3204214E-3,1.0822903E-3,7.754465E-3,-3.8199753E-3,7.2092174E-5,-1.0634685E-4,2.1627774E-3,2.8744538E-3,-4.417586E-3,4.732672E-3,1.2829208E-3,7.54834E-3,6.700635E-3,-4.3614423E-3,1.0450772E-2,9.951139E-3,4.3113306E-3,1.5950149E-2,1.0362823E-2,-2.3460389E-5,2.0687224E-3,1.160492E-2,1.9118741E-2,-3.132189E-3,5.9942904E-5,-1.0792807E-3,-2.2314023E-3,-1.4640521E-3,-1.2377995E-3,-9.842548E-4,-4.3652384E-4,-1.2328565E-2,-8.82607E-4,2.8020681E-3,-4.2312907E-4,-1.7433299E-3,-6.447027E-4,-7.003274E-4,1.69477E-3,8.10957E-4,2.7413608E-3,-1.2845439E-3,1.4990092E-3,4.3774653E-5,-1.8312514E-3,-6.5486773E-4,4.203077E-4,6.686328E-4,-1.5103468E-4,-9.7053056E-4,2.264035E-3,-1.6568721E-3,5.543232E-7,1.3088157E-3,3.3080021E-3,-2.070129E-3,1.102134E-3,3.681922E-3,1.7934071E-3,1.3837577E-3,-1.8724442E-3,3.7597897E-3,-3.0605795E-4,2.525506E-3,3.1741771E-3,-1.8425346E-3,1.6252972E-3,3.6055702E-3,6.9047413E-3,2.31986E-3,3.7486043E-3,5.687237E-4,4.357606E-3,6.568991E-3,4.012315E-3],"categories":[],"categories_nodes":[],"categories_segments":[],"categories_sizes":[],"default_left":[0,0,0,0,0,0,0,0,0,0,0,0,0,0,0,0,0,0,0,0,0,0,0,0,0,0,0,0,0,0,0,0,0,0,0,0,0,0,0,0,0,0,0,0,0,0,0,0,0,0,0,0,0,0,0,0,0,0,0,0,0,0,0,0,0,0,0,0,0,0,0,0,0,0,0,0,0,0,0,0,0,0,0,0,0,0,0,0,0,0,0,0,0,0,0,0,0,0,0,0,0,0,0,0,0,0,0,0,0,0,0,0,0],"id":11,"left_children":[1,3,5,7,9,11,13,15,17,19,21,23,25,27,29,31,33,35,37,39,41,-1,43,45,47,49,51,53,55,57,59,61,63,65,-1,67,69,71,73,75,77,79,81,83,85,87,89,91,93,95,-1,97,99,101,103,105,107,-1,-1,109,111,-1,-1,-1,-1,-1,-1,-1,-1,-1,-1,-1,-1,-1,-1,-1,-1,-1,-1,-1,-1,-1,-1,-1,-1,-1,-1,-1,-1,-1,-1,-1,-1,-1,-1,-1,-1,-1,-1,-1,-1,-1,-1,-1,-1,-1,-1,-1,-1,-1,-1,-1,-1],"loss_changes":[9.4098814E-2,2.0896995E-2,9.097338E-3,2.4322346E-3,1.4554883E-3,6.893724E-4,1.580663E-3,8.9945085E-4,3.1143706E-4,5.408971E-4,1.8316228E-4,2.6211888E-4,9.922441E-4,4.0939823E-4,3.1581614E-4,2.208855E-4,4.3694302E-4,4.272852E-4,2.732681E-4,2.3372273E-4,7.0173974E-4,0E0,2.3106509E-4,9.646357E-5,2.5461474E-4,1.1594263E-3,1.0235262E-3,3.862828E-4,1.3078824E-3,3.728732E-5,4.3048523E-5,3.1671696E-4,2.5745342E-4,1.18164346E-4,0E0,2.7763378E-4,3.866088E-3,3.932422E-4,1.8676103E-4,1.8483103E-4,5.9154E-5,2.2906036E-4,2.3160258E-4,1.5643454E-4,1.19019765E-4,1.1005216E-4,2.4434652E-5,6.504394E-4,5.144816E-4,6.0920976E-4,0E0,2.649886E-4,1.7995224E-4,1.5985034E-4,2.183069E-4,1.3623564E-3,1.0979716E-3,0E0,0E0,1.9930373E-4,2.1777675E-4,0E0,0E0,0E0,0E0,0E0,0E0,0E0,0E0,0E0,0E0,0E0,0E0,0E0,0E0,0E0,0E0,0E0,0E0,0E0,0E0,0E0,0E0,0E0,0E0,0E0,0E0,0E0,0E0,0E0,0E0,0E0,0E0,0E0,0E0,0E0,0E0,0E0,0E0,0E0,0E0,0E0,0E0,0E0,0E0,0E0,0E0,0E0,0E0,0E0,0E0,0E0,0E0],"parents":[2147483647,0,0,1,1,2,2,3,3,4,4,5,5,6,6,7,7,8,8,9,9,10,10,11,11,12,12,13,13,14,14,15,15,16,16,17,17,18,18,19,19,20,20,22,22,23,23,24,24,25,25,26,26,27,27,28,28,29,29,30,30,31,31,32,32,33,33,35,35,36,36,37,37,38,38,39,39,40,40,41,41,42,42,43,43,44,44,45,45,46,46,47,47,48,48,49,49,51,51,52,52,53,53,54,54,55,55,56,56,59,59,60,60],"right_children":[2,4,6,8,10,12,14,16,18,20,22,24,26,28,30,32,34,36,38,40,42,-1,44,46,48,50,52,54,56,58,60,62,64,66,-1,68,70,72,74,76,78,80,82,84,86,88,90,92,94,96,-1,98,100,102,104,106,108,-1,-1,110,112,-1,-1,-1,-1,-1,-1,-1,-1,-1,-1,-1,-1,-1,-1,-1,-1,-1,-1,-1,-1,-1,-1,-1,-1,-1,-1,-1,-1,-1,-1,-1,-1,-1,-1,-1,-1,-1,-1,-1,-1,-1,-1,-1,-1,-1,-1,-1,-1,-1,-1,-1,-1],"split_conditions":[1.3038E0,1.0788E0,1.592E0,9.613E-1,1.2083E0,1.4758E0,1.7805E0,8.828E-1,1.0169E0,1.0755E0,1.1911E0,1.2951E0,1.5638E0,1.6698E0,1.7637E0,8.335E-1,9.692E-1,1.0169E0,1.0114E0,1.0837E0,1.0882E0,3.510672E-3,1.2115E0,1.2761E0,1.4649E0,1.5672E0,1.592E0,1.6897E0,1.6897E0,1.7736E0,1.7805E0,8.438E-1,8.438E-1,9.317E-1,-5.076432E-3,1.0079E0,1.0064E0,1.0181E0,1.0079E0,1.0828E0,1.0753E0,1.1052E0,1.2235E0,1.2118E0,1.3114E0,1.299E0,1.314E0,1.4421E0,1.4635E0,1.486E0,6.700635E-3,1.5672E0,1.6076E0,1.6328E0,1.6379E0,1.6828E0,1.721E0,-2.3460389E-5,2.0687224E-3,1.7637E0,1.7805E0,-3.132189E-3,5.9942904E-5,-1.0792807E-3,-2.2314023E-3,-1.4640521E-3,-1.2377995E-3,-9.842548E-4,-4.3652384E-4,-1.2328565E-2,-8.82607E-4,2.8020681E-3,-4.2312907E-4,-1.7433299E-3,-6.447027E-4,-7.003274E-4,1.69477E-3,8.10957E-4,2.7413608E-3,-1.2845439E-3,1.4990092E-3,4.3774653E-5,-1.8312514E-3,-6.5486773E-4,4.203077E-4,6.686328E-4,-1.5103468E-4,-9.7053056E-4,2.264035E-3,-1.6568721E-3,5.543232E-7,1.3088157E-3,3.3080021E-3,-2.070129E-3,1.102134E-3,3.681922E-3,1.7934071E-3,1.3837577E-3,-1.8724442E-3,3.7597897E-3,-3.0605795E-4,2.525506E-3,3.1741771E-3,-1.8425346E-3,1.6252972E-3,3.6055702E-3,6.9047413E-3,2.31986E-3,3.7486043E-3,5.687237E-4,4.357606E-3,6.568991E-3,4.012315E-3],"split_indices":[1,3,1,0,4,0,0,1,3,6,6,0,0,0,3,6,1,4,6,4,1,0,0,5,5,6,0,6,0,1,1,1,0,5,0,1,6,0,0,0,5,2,0,3,4,2,3,2,3,2,0,6,4,2,2,0,0,0,0,5,6,0,0,0,0,0,0,0,0,0,0,0,0,0,0,0,0,0,0,0,0,0,0,0,0,0,0,0,0,0,0,0,0,0,0,0,0,0,0,0,0,0,0,0,0,0,0,0,0,0,0,0,0],"split_type":[0,0,0,0,0,0,0,0,0,0,0,0,0,0,0,0,0,0,0,0,0,0,0,0,0,0,0,0,0,0,0,0,0,0,0,0,0,0,0,0,0,0,0,0,0,0,0,0,0,0,0,0,0,0,0,0,0,0,0,0,0,0,0,0,0,0,0,0,0,0,0,0,0,0,0,0,0,0,0,0,0,0,0,0,0,0,0,0,0,0,0,0,0,0,0,0,0,0,0,0,0,0,0,0,0,0,0,0,0,0,0,0,0],"sum_hessian":[4.952E3,3.925E3,1.027E3,2.631E3,1.294E3,4.44E2,5.83E2,1.123E3,1.508E3,5.76E2,7.18E2,3.29E2,1.15E2,5.42E2,4.1E1,1.36E2,9.87E2,1.162E3,3.46E2,2.1E1,5.55E2,1E0,7.17E2,6E0,3.23E2,9.6E1,1.9E1,2.72E2,2.7E2,3E0,3.8E1,3.7E1,9.9E1,9.85E2,2E0,1.135E3,2.7E1,1.4E1,3.32E2,1E1,1.1E1,5E1,5.05E2,4.8E1,6.69E2,2E0,4E0,2.99E2,2.4E1,9.1E1,5E0,1.3E1,6E0,2.57E2,1.5E1,5.8E1,2.12E2,1E0,2E0,7E0,3.1E1,3.4E1,3E0,2.7E1,7.2E1,5.44E2,4.41E2,1.042E3,9.3E1,2E0,2.5E1,4E0,1E1,1.4E1,3.18E2,6E0,4E0,3E0,8E0,4.8E1,2E0,5E2,5E0,2E1,2.8E1,6.53E2,1.6E1,1E0,1E0,3E0,1E0,2.84E2,1.5E1,5E0,1.9E1,2.1E1,7E1,2E0,1.1E1,5E0,1E0,7.9E1,1.78E2,1E0,1.4E1,3.9E1,1.9E1,9.7E1,1.15E2,2E0,5E0,1.9E1,1.2E1],"tree_param":{"num_deleted":"0","num_feature":"7","num_nodes":"113","size_leaf_vector":"1"}},{"base_weights":[2.992276E-5,-1.625113E-3,5.788103E-3,-2.719713E-3,5.8596575E-4,3.0754278E-3,7.6165544E-3,-4.0682126E-3,-2.390228E-3,-5.9037673E-4,1.1283255E-3,2.5358126E-3,4.056018E-3,6.887265E-3,9.9092E-3,-6.3250046E-3,-3.7547841E-3,-2.8334116E-3,-1.9498541E-3,-5.102648E-4,-3.3305648E-3,4.6718214E-3,1.0735127E-3,6.3696057E-3,2.304376E-3,4.4543925E-3,1.9729403E-3,7.1811154E-3,1.6353385E-3,8.884254E-3,1.2504066E-2,-5.58828E-3,-1.1104737E-2,-3.6891592E-3,-4.933834E-3,-2.6709752E-3,-4.500292E-3,-1.9219768E-3,-7.3472024E-3,-6.743635E-4,2.6495338E-3,7.323158E-3,-3.1244755E-3,-3.4983668E-3,1.1863974E-3,3.312707E-3,9.82666E-3,-4.2356944E-4,2.4963396E-3,3.8906636E-3,8.0058295E-3,-2.109124E-3,5.3792E-3,7.0090867E-3,1.639019E-2,4.7258516E-3,-4.40017E-3,9.415388E-3,1.523508E-3,-1.9937754E-5,1.2812286E-2,-2.0978989E-3,-6.358813E-4,-1.7813767E-3,-4.804355E-3,-5.338912E-4,-1.1590499E-3,-8.715196E-4,-4.1912033E-4,-1.2331081E-3,-3.5568685E-3,-5.9194595E-4,3.803036E-4,3.332019E-4,-2.921802E-3,-1.6540894E-4,-1.558453E-3,4.191792E-3,3.9545362E-4,6.799668E-4,2.7499439E-3,-1.3433219E-3,1.4029742E-4,1.6825248E-3,-1.7913139E-3,2.1430792E-3,3.42667E-4,2.2403002E-3,4.0215257E-4,-6.78438E-4,3.665477E-3,-1.958406E-3,4.9184565E-4,1.9556761E-3,6.872412E-4,1.411187E-3,7.165075E-5,7.384539E-4,3.0332508E-3,2.3262068E-5,-2.8271556E-3,1.8790979E-3,-7.3957446E-5,2.1536117E-3,-1.8876792E-5,5.3615007E-3,9.029746E-4,4.628931E-4,3.4094753E-3,-2.6190449E-3,-1.7547607E-5,1.9504224E-3,3.0511671E-3,-1.4020622E-3,8.6469954E-4,4.2550494E-3,2.9349895E-3],"categories":[],"categories_nodes":[],"categories_segments":[],"categories_sizes":[],"default_left":[0,0,0,0,0,0,0,0,0,0,0,0,0,0,0,0,0,0,0,0,0,0,0,0,0,0,0,0,0,0,0,0,0,0,0,0,0,0,0,0,0,0,0,0,0,0,0,0,0,0,0,0,0,0,0,0,0,0,0,0,0,0,0,0,0,0,0,0,0,0,0,0,0,0,0,0,0,0,0,0,0,0,0,0,0,0,0,0,0,0,0,0,0,0,0,0,0,0,0,0,0,0,0,0,0,0,0,0,0,0,0,0,0,0,0,0,0],"id":12,"left_children":[1,3,5,7,9,11,13,15,17,19,21,23,25,27,29,31,33,35,37,39,-1,41,43,45,47,49,51,53,55,57,59,61,63,65,-1,67,69,71,73,75,77,79,81,83,85,87,89,91,93,95,97,99,101,103,105,107,109,111,113,-1,115,-1,-1,-1,-1,-1,-1,-1,-1,-1,-1,-1,-1,-1,-1,-1,-1,-1,-1,-1,-1,-1,-1,-1,-1,-1,-1,-1,-1,-1,-1,-1,-1,-1,-1,-1,-1,-1,-1,-1,-1,-1,-1,-1,-1,-1,-1,-1,-1,-1,-1,-1,-1,-1,-1,-1,-1],"loss_changes":[4.721147E-2,9.314703E-3,5.462326E-3,1.1339318E-3,8.1411726E-4,2.2624107E-4,1.0352768E-3,3.327513E-4,3.986666E-4,3.3370024E-4,1.6454642E-4,2.4352048E-4,1.2149755E-4,7.660724E-4,3.064666E-4,1.4922442E-4,3.0995347E-4,2.6686396E-4,1.4266139E-4,2.097128E-4,0E0,2.9159887E-4,4.4850807E-4,1.3653305E-4,1.4558912E-4,2.3112027E-4,3.8676884E-4,6.4079463E-4,5.4307346E-4,4.3916237E-4,1.6357936E-4,2.482928E-4,8.2482526E-5,1.4093472E-4,0E0,2.7655577E-4,2.0941463E-4,1.7193868E-4,1.1197923E-4,2.0953575E-4,2.8308306E-4,7.243309E-5,2.1538468E-5,5.063693E-4,2.1315331E-4,7.19336E-5,2.3000047E-4,2.4998508E-4,1.983766E-4,3.4042727E-4,1.7351599E-4,2.0866384E-4,7.618003E-5,5.642399E-4,1.0478869E-4,3.839591E-4,1.8748309E-4,1.7153565E-4,8.925696E-5,0E0,3.1527597E-5,0E0,0E0,0E0,0E0,0E0,0E0,0E0,0E0,0E0,0E0,0E0,0E0,0E0,0E0,0E0,0E0,0E0,0E0,0E0,0E0,0E0,0E0,0E0,0E0,0E0,0E0,0E0,0E0,0E0,0E0,0E0,0E0,0E0,0E0,0E0,0E0,0E0,0E0,0E0,0E0,0E0,0E0,0E0,0E0,0E0,0E0,0E0,0E0,0E0,0E0,0E0,0E0,0E0,0E0,0E0,0E0],"parents":[2147483647,0,0,1,1,2,2,3,3,4,4,5,5,6,6,7,7,8,8,9,9,10,10,11,11,12,12,13,13,14,14,15,15,16,16,17,17,18,18,19,19,21,21,22,22,23,23,24,24,25,25,26,26,27,27,28,28,29,29,30,30,31,31,32,32,33,33,35,35,36,36,37,37,38,38,39,39,40,40,41,41,42,42,43,43,44,44,45,45,46,46,47,47,48,48,49,49,50,50,51,51,52,52,53,53,54,54,55,55,56,56,57,57,58,58,60,60],"right_children":[2,4,6,8,10,12,14,16,18,20,22,24,26,28,30,32,34,36,38,40,-1,42,44,46,48,50,52,54,56,58,60,62,64,66,-1,68,70,72,74,76,78,80,82,84,86,88,90,92,94,96,98,100,102,104,106,108,110,112,114,-1,116,-1,-1,-1,-1,-1,-1,-1,-1,-1,-1,-1,-1,-1,-1,-1,-1,-1,-1,-1,-1,-1,-1,-1,-1,-1,-1,-1,-1,-1,-1,-1,-1,-1,-1,-1,-1,-1,-1,-1,-1,-1,-1,-1,-1,-1,-1,-1,-1,-1,-1,-1,-1,-1,-1,-1,-1],"split_conditions":[1.2916E0,1.0673E0,1.4918E0,9.186E-1,1.1634E0,1.3724E0,1.721E0,8.438E-1,9.781E-1,1.199E0,1.1607E0,1.2851E0,1.486E0,1.7152E0,1.7805E0,8.438E-1,9.317E-1,9.764E-1,1.0882E0,1.1681E0,-3.3305648E-3,1.1649E0,1.1613E0,1.2784E0,1.2889E0,1.4758E0,1.492E0,1.7327E0,1.7279E0,1.7968E0,1.7279E0,8.335E-1,8.438E-1,8.753E-1,-4.933834E-3,9.71E-1,9.848E-1,1.0743E0,1.0828E0,1.1647E0,1.154E0,1.1395E0,1.1674E0,1.1399E0,1.1613E0,1.2726E0,1.2897E0,1.289E0,1.2962E0,1.4649E0,1.4663E0,1.502E0,1.5008E0,1.709E0,1.7279E0,1.709E0,1.7152E0,1.721E0,1.7637E0,-1.9937754E-5,1.7805E0,-2.0978989E-3,-6.358813E-4,-1.7813767E-3,-4.804355E-3,-5.338912E-4,-1.1590499E-3,-8.715196E-4,-4.1912033E-4,-1.2331081E-3,-3.5568685E-3,-5.9194595E-4,3.803036E-4,3.332019E-4,-2.921802E-3,-1.6540894E-4,-1.558453E-3,4.191792E-3,3.9545362E-4,6.799668E-4,2.7499439E-3,-1.3433219E-3,1.4029742E-4,1.6825248E-3,-1.7913139E-3,2.1430792E-3,3.42667E-4,2.2403002E-3,4.0215257E-4,-6.78438E-4,3.665477E-3,-1.958406E-3,4.9184565E-4,1.9556761E-3,6.872412E-4,1.411187E-3,7.165075E-5,7.384539E-4,3.0332508E-3,2.3262068E-5,-2.8271556E-3,1.8790979E-3,-7.3957446E-5,2.1536117E-3,-1.8876792E-5,5.3615007E-3,9.029746E-4,4.628931E-4,3.4094753E-3,-2.6190449E-3,-1.7547607E-5,1.9504224E-3,3.0511671E-3,-1.4020622E-3,8.6469954E-4,4.2550494E-3,2.9349895E-3],"split_indices":[4,5,0,0,0,0,5,1,5,5,1,2,2,6,0,3,1,3,1,4,0,5,5,2,1,0,2,2,1,3,4,3,0,4,0,0,6,0,0,4,3,3,0,5,4,0,6,2,4,5,6,5,1,6,4,3,4,1,1,0,6,0,0,0,0,0,0,0,0,0,0,0,0,0,0,0,0,0,0,0,0,0,0,0,0,0,0,0,0,0,0,0,0,0,0,0,0,0,0,0,0,0,0,0,0,0,0,0,0,0,0,0,0,0,0,0,0],"split_type":[0,0,0,0,0,0,0,0,0,0,0,0,0,0,0,0,0,0,0,0,0,0,0,0,0,0,0,0,0,0,0,0,0,0,0,0,0,0,0,0,0,0,0,0,0,0,0,0,0,0,0,0,0,0,0,0,0,0,0,0,0,0,0,0,0,0,0,0,0,0,0,0,0,0,0,0,0,0,0,0,0,0,0,0,0,0,0,0,0,0,0,0,0,0,0,0,0,0,0,0,0,0,0,0,0,0,0,0,0,0,0,0,0,0,0,0,0],"sum_hessian":[4.952E3,3.847E3,1.105E3,2.573E3,1.274E3,4.46E2,6.59E2,5.03E2,2.07E3,4.02E2,8.72E2,2.9E2,1.56E2,5.03E2,1.56E2,5.9E1,4.44E2,1.029E3,1.041E3,4E2,2E0,1.2E1,8.6E2,1.5E1,2.75E2,1.3E2,2.6E1,4.76E2,2.7E1,1.15E2,4.1E1,5.3E1,6E0,4.43E2,1E0,9.4E2,8.9E1,1.037E3,4E0,3.81E2,1.9E1,9E0,3E0,2E1,8.4E2,9E0,6E0,1.8E1,2.57E2,1.14E2,1.6E1,1.2E1,1.4E1,4.69E2,7E0,1.8E1,9E0,1.07E2,8E0,1E0,4E1,3.7E1,1.6E1,4E0,2E0,3.8E1,4.05E2,7.93E2,1.47E2,8.6E1,3E0,1.021E3,1.6E1,1E0,3E0,3.72E2,9E0,1E0,1.8E1,3E0,6E0,2E0,1E0,4E0,1.6E1,5E0,8.35E2,2E0,7E0,1E0,5E0,4E0,1.4E1,1.1E1,2.46E2,9.3E1,2.1E1,5E0,1.1E1,1E1,2E0,1.2E1,2E0,4.58E2,1.1E1,6E0,1E0,1.3E1,5E0,4E0,5E0,2.4E1,8.3E1,1E0,7E0,2.5E1,1.5E1],"tree_param":{"num_deleted":"0","num_feature":"7","num_nodes":"117","size_leaf_vector":"1"}},{"base_weights":[2.3317029E-5,-1.3462555E-3,3.5139443E-3,-1.9760635E-3,2.2896365E-5,2.170287E-3,5.880337E-3,-4.01307E-3,-1.8539227E-3,-7.060814E-4,4.6840802E-4,1.5963804E-3,3.3440802E-3,1.1968613E-4,6.0443482E-3,-4.7209067E-3,-2.4096668E-3,6.152189E-3,-1.870543E-3,1.8300533E-3,-8.620448E-4,5.257677E-4,-7.575321E-3,8.466585E-3,1.5128715E-3,3.6734282E-3,-2.5667623E-3,-2.2943516E-3,2.1995634E-3,1.5061075E-2,5.8255782E-3,-4.29922E-3,-8.225812E-3,2.7809423E-4,-3.955462E-3,4.8920815E-4,2.062467E-3,-2.2729253E-3,-1.567792E-3,2.3500472E-3,-1.5974701E-3,-3.5397836E-3,-7.1258255E-4,-2.4363042E-3,5.7513197E-4,-3.0866684E-3,4.9184565E-4,-1.3625225E-3,3.8012194E-3,4.4427686E-3,1.4397934E-3,3.3167743E-3,6.852936E-3,5.7397187E-3,-4.9251593E-3,2.4430992E-3,-3.983595E-3,1.754929E-2,2.576073E-3,5.51662E-3,8.923579E-3,-1.3836888E-3,-4.3758453E-4,-3.4454018E-3,-3.8432033E-4,-6.0084165E-4,9.2833716E-4,-1.282276E-3,6.9778564E-4,-6.710177E-4,-3.1748146E-3,-4.5774982E-4,-1.223588E-3,4.4076508E-4,1.4243007E-3,1.0752678E-3,-1.3434968E-3,7.9474214E-4,-2.4023963E-4,1.0580901E-3,1.2927684E-4,-8.9823606E-4,2.8510095E-4,-3.2207073E-4,1.8134465E-3,1.4241209E-4,5.20753E-4,1.0229415E-3,-1.653111E-3,3.127709E-3,9.899044E-4,2.3870468E-3,-1.3673902E-4,-3.1021775E-3,-7.438213E-5,-6.9980265E-4,-3.0739189E-3,5.7658153E-3,6.282807E-4,9.546161E-4,2.046168E-4,4.7129E-4,1.7014437E-3,1.8271626E-3,3.1819267E-3],"categories":[],"categories_nodes":[],"categories_segments":[],"categories_sizes":[],"default_left":[0,0,0,0,0,0,0,0,0,0,0,0,0,0,0,0,0,0,0,0,0,0,0,0,0,0,0,0,0,0,0,0,0,0,0,0,0,0,0,0,0,0,0,0,0,0,0,0,0,0,0,0,0,0,0,0,0,0,0,0,0,0,0,0,0,0,0,0,0,0,0,0,0,0,0,0,0,0,0,0,0,0,0,0,0,0,0,0,0,0,0,0,0,0,0,0,0,0,0,0,0,0,0,0,0],"id":13,"left_children":[1,3,5,7,9,11,13,15,17,19,21,23,25,27,29,31,33,35,37,39,41,43,45,47,49,51,53,55,-1,57,59,61,63,65,67,-1,-1,69,71,73,-1,75,77,-1,79,-1,-1,81,-1,83,85,87,89,91,93,-1,95,97,99,101,103,-1,-1,-1,-1,-1,-1,-1,-1,-1,-1,-1,-1,-1,-1,-1,-1,-1,-1,-1,-1,-1,-1,-1,-1,-1,-1,-1,-1,-1,-1,-1,-1,-1,-1,-1,-1,-1,-1,-1,-1,-1,-1,-1,-1],"loss_changes":[2.3683377E-2,3.0681198E-3,4.4259876E-3,5.9888884E-4,3.6472053E-4,5.955552E-4,4.7640502E-4,1.4411216E-4,3.1768624E-4,1.7007942E-4,3.2556854E-4,3.3199892E-4,5.778724E-4,2.7797944E-4,8.8080205E-4,1.035647E-4,1.8390804E-4,5.1275856E-6,2.76261E-4,1.05527055E-4,1.5836634E-4,3.004723E-4,1.4189375E-4,3.0652527E-4,1.2099941E-4,2.9138383E-4,3.417087E-4,2.4402927E-4,0E0,2.9651076E-4,4.1116215E-4,6.9754315E-5,1.8897495E-4,1.15402894E-4,6.601057E-5,0E0,0E0,2.723299E-4,1.3221055E-4,4.3710214E-5,0E0,1.5646071E-4,1.1540676E-4,0E0,2.9220054E-4,0E0,0E0,1.4166388E-5,0E0,1.3021403E-4,1.6546133E-4,2.2490928E-4,3.083616E-4,5.857111E-5,3.2671526E-4,0E0,8.983168E-5,1.9205152E-4,1.2728724E-6,2.5993865E-4,1.3563852E-4,0E0,0E0,0E0,0E0,0E0,0E0,0E0,0E0,0E0,0E0,0E0,0E0,0E0,0E0,0E0,0E0,0E0,0E0,0E0,0E0,0E0,0E0,0E0,0E0,0E0,0E0,0E0,0E0,0E0,0E0,0E0,0E0,0E0,0E0,0E0,0E0,0E0,0E0,0E0,0E0,0E0,0E0,0E0,0E0],"parents":[2147483647,0,0,1,1,2,2,3,3,4,4,5,5,6,6,7,7,8,8,9,9,10,10,11,11,12,12,13,13,14,14,15,15,16,16,17,17,18,18,19,19,20,20,21,21,22,22,23,23,24,24,25,25,26,26,27,27,29,29,30,30,31,31,32,32,33,33,34,34,37,37,38,38,39,39,41,41,42,42,44,44,47,47,49,49,50,50,51,51,52,52,53,53,54,54,56,56,57,57,58,58,59,59,60,60],"right_children":[2,4,6,8,10,12,14,16,18,20,22,24,26,28,30,32,34,36,38,40,42,44,46,48,50,52,54,56,-1,58,60,62,64,66,68,-1,-1,70,72,74,-1,76,78,-1,80,-1,-1,82,-1,84,86,88,90,92,94,-1,96,98,100,102,104,-1,-1,-1,-1,-1,-1,-1,-1,-1,-1,-1,-1,-1,-1,-1,-1,-1,-1,-1,-1,-1,-1,-1,-1,-1,-1,-1,-1,-1,-1,-1,-1,-1,-1,-1,-1,-1,-1,-1,-1,-1,-1,-1,-1],"split_conditions":[1.2489E0,1.0386E0,1.6328E0,8.828E-1,1.1391E0,1.3825E0,1.6278E0,8.803E-1,8.666E-1,1.0391E0,1.2615E0,1.2424E0,1.6425E0,1.6551E0,1.6328E0,8.828E-1,8.753E-1,8.438E-1,9.613E-1,1.0556E0,1.0431E0,1.1059E0,1.2638E0,1.2534E0,1.244E0,1.6278E0,1.6076E0,1.6204E0,2.1995634E-3,1.6551E0,1.7805E0,8.753E-1,8.828E-1,8.803E-1,9.22E-1,4.8920815E-4,2.062467E-3,9.684E-1,1.0358E0,1.0472E0,-1.5974701E-3,1.0424E0,1.0424E0,-2.4363042E-3,1.1395E0,-3.0866684E-3,4.9184565E-4,1.2587E0,3.8012194E-3,1.2373E0,1.2706E0,1.652E0,1.6379E0,1.6076E0,1.6278E0,2.4430992E-3,1.6425E0,1.6551E0,1.663E0,1.6328E0,1.7805E0,-1.3836888E-3,-4.3758453E-4,-3.4454018E-3,-3.8432033E-4,-6.0084165E-4,9.2833716E-4,-1.282276E-3,6.9778564E-4,-6.710177E-4,-3.1748146E-3,-4.5774982E-4,-1.223588E-3,4.4076508E-4,1.4243007E-3,1.0752678E-3,-1.3434968E-3,7.9474214E-4,-2.4023963E-4,1.0580901E-3,1.2927684E-4,-8.9823606E-4,2.8510095E-4,-3.2207073E-4,1.8134465E-3,1.4241209E-4,5.20753E-4,1.0229415E-3,-1.653111E-3,3.127709E-3,9.899044E-4,2.3870468E-3,-1.3673902E-4,-3.1021775E-3,-7.438213E-5,-6.9980265E-4,-3.0739189E-3,5.7658153E-3,6.282807E-4,9.546161E-4,2.046168E-4,4.7129E-4,1.7014437E-3,1.8271626E-3,3.1819267E-3],"split_indices":[3,2,2,6,0,0,5,0,2,5,2,4,4,2,5,5,4,0,0,3,6,6,0,3,2,6,0,0,0,0,0,5,4,2,1,0,0,1,2,3,0,2,3,0,3,0,0,0,0,2,4,0,6,1,1,0,3,2,0,0,3,0,0,0,0,0,0,0,0,0,0,0,0,0,0,0,0,0,0,0,0,0,0,0,0,0,0,0,0,0,0,0,0,0,0,0,0,0,0,0,0,0,0,0,0],"split_type":[0,0,0,0,0,0,0,0,0,0,0,0,0,0,0,0,0,0,0,0,0,0,0,0,0,0,0,0,0,0,0,0,0,0,0,0,0,0,0,0,0,0,0,0,0,0,0,0,0,0,0,0,0,0,0,0,0,0,0,0,0,0,0,0,0,0,0,0,0,0,0,0,0,0,0,0,0,0,0,0,0,0,0,0,0,0,0,0,0,0,0,0,0,0,0,0,0,0,0,0,0,0,0,0,0],"sum_hessian":[4.952E3,3.557E3,1.395E3,2.436E3,1.121E3,8.91E2,5.04E2,1.36E2,2.3E3,4.25E2,6.96E2,6E2,2.91E2,1.4E1,4.9E2,9.3E1,4.3E1,4E0,2.296E3,2.4E1,4.01E2,6.92E2,4E0,6E0,5.94E2,2.76E2,1.5E1,1.1E1,3E0,1E1,4.8E2,8.5E1,8E0,1.6E1,2.7E1,1E0,3E0,9.83E2,1.313E3,2.3E1,1E0,2E1,3.81E2,3E0,6.89E2,3E0,1E0,2E0,4E0,1.3E1,5.81E2,2.5E2,2.6E1,3E0,1.2E1,1E0,1E1,8E0,2E0,4.39E2,4.1E1,7.6E1,9E0,5E0,3E0,9E0,7E0,2.6E1,1E0,9.8E2,3E0,1.293E3,2E1,1.8E1,5E0,2E0,1.8E1,9E0,3.72E2,3.1E1,6.58E2,1E0,1E0,3E0,1E1,1.37E2,4.44E2,2.48E2,2E0,1.2E1,1.4E1,2E0,1E0,5E0,7E0,9E0,1E0,7E0,1E0,1E0,1E0,1.7E1,4.22E2,1.7E1,2.4E1],"tree_param":{"num_deleted":"0","num_feature":"7","num_nodes":"105","size_leaf_vector":"1"}},{"base_weights":[1.862144E-5,-7.812971E-4,3.003591E-3,-1.2864742E-3,4.7378743E-4,1.9535962E-3,4.211602E-3,-2.6748735E-3,-1.1815266E-3,-2.5392948E-5,6.973242E-4,-1.6931893E-3,1.9908089E-3,7.1286825E-3,4.0177004E-3,-4.3286313E-3,-2.4611375E-3,-1.4357447E-3,-8.162615E-4,9.815518E-5,-4.689945E-3,8.349781E-4,-7.2323583E-4,1.6367411E-3,2.7604057E-3,2.0064455E-3,1.1165097E-2,1.2468471E-3,4.5657055E-3,-4.3606333E-4,-8.818954E-3,1.1919272E-3,-2.6348801E-3,-1.378956E-3,-7.474478E-3,-7.8014703E-4,-3.681522E-3,4.2646676E-3,-2.2359795E-6,1.0437568E-3,-6.477254E-3,7.166254E-4,6.642248E-3,-3.114435E-3,3.8779774E-4,1.7224437E-3,-4.07817E-3,1.2729955E-2,2.4527556E-3,8.450538E-3,-5.1926484E-4,1.413699E-2,1.7995357E-3,1.569988E-3,-5.04297E-3,8.150204E-3,4.3240134E-3,-3.5021098E-3,-5.094409E-5,1.9761892E-3,-8.1836316E-4,1.2111604E-3,-4.1879315E-4,-2.5340708E-3,-3.279865E-4,-3.1714246E-4,-1.540575E-4,-3.73258E-3,5.7238343E-5,-2.800584E-4,1.5421886E-3,-2.1418692E-3,2.5285159E-5,5.170763E-4,-4.7385696E-5,-2.4458098E-3,-4.5772793E-4,1.8098437E-4,1.017316E-3,2.1713872E-3,-1.6529561E-4,-2.3842827E-4,-2.3914883E-3,-7.77013E-4,4.703563E-4,1.5490055E-3,4.8185748E-4,-5.892348E-4,-2.1972656E-3,6.8702106E-4,4.430223E-3,9.1849867E-4,1.3422036E-4,2.9065611E-3,7.104814E-4,-1.7083168E-3,6.399617E-4,5.577125E-3,1.9755482E-3,-4.895747E-4,9.196133E-4,-1.770591E-4,8.693141E-4,2.4086238E-4,-2.177763E-3,-6.658316E-4,2.9449868E-3,-1.1624336E-3,1.3211294E-3],"categories":[],"categories_nodes":[],"categories_segments":[],"categories_sizes":[],"default_left":[0,0,0,0,0,0,0,0,0,0,0,0,0,0,0,0,0,0,0,0,0,0,0,0,0,0,0,0,0,0,0,0,0,0,0,0,0,0,0,0,0,0,0,0,0,0,0,0,0,0,0,0,0,0,0,0,0,0,0,0,0,0,0,0,0,0,0,0,0,0,0,0,0,0,0,0,0,0,0,0,0,0,0,0,0,0,0,0,0,0,0,0,0,0,0,0,0,0,0,0,0,0,0,0,0,0,0,0,0],"id":14,"left_children":[1,3,5,7,9,11,13,15,17,19,21,-1,23,25,27,29,31,33,35,37,39,41,43,45,47,49,51,53,55,-1,57,-1,59,61,63,65,67,69,71,73,75,77,79,81,83,85,87,89,91,93,95,97,99,101,103,105,107,-1,-1,-1,-1,-1,-1,-1,-1,-1,-1,-1,-1,-1,-1,-1,-1,-1,-1,-1,-1,-1,-1,-1,-1,-1,-1,-1,-1,-1,-1,-1,-1,-1,-1,-1,-1,-1,-1,-1,-1,-1,-1,-1,-1,-1,-1,-1,-1,-1,-1,-1,-1],"loss_changes":[1.1828785E-2,2.4778035E-3,1.3197921E-3,4.0278537E-4,1.2521623E-4,1.7012772E-4,2.462538E-4,5.827262E-5,2.3951335E-4,2.0101159E-4,1.521518E-4,0E0,1.4807587E-4,5.771867E-4,6.897538E-4,2.582927E-4,2.0610122E-4,5.133494E-4,1.0743475E-4,1.4222506E-4,9.899173E-5,4.8116525E-4,1.8452024E-4,1.9608065E-4,5.055246E-4,2.3225082E-4,4.1989493E-4,1.6441966E-4,2.9570237E-4,0E0,1.9554631E-4,0E0,1.6462477E-4,1.4520949E-4,7.763825E-5,7.729803E-5,4.4337398E-4,4.1226245E-5,2.0623606E-4,2.7231213E-6,4.5632652E-5,2.0832714E-4,6.397907E-5,2.415407E-4,1.727338E-4,1.4411181E-4,2.6788322E-5,7.2535535E-5,2.0743383E-4,7.174298E-6,1.631428E-4,2.8115767E-4,2.6720809E-5,2.1395205E-4,5.76514E-5,4.1923102E-4,2.52455E-4,0E0,0E0,0E0,0E0,0E0,0E0,0E0,0E0,0E0,0E0,0E0,0E0,0E0,0E0,0E0,0E0,0E0,0E0,0E0,0E0,0E0,0E0,0E0,0E0,0E0,0E0,0E0,0E0,0E0,0E0,0E0,0E0,0E0,0E0,0E0,0E0,0E0,0E0,0E0,0E0,0E0,0E0,0E0,0E0,0E0,0E0,0E0,0E0,0E0,0E0,0E0,0E0],"parents":[2147483647,0,0,1,1,2,2,3,3,4,4,5,5,6,6,7,7,8,8,9,9,10,10,12,12,13,13,14,14,15,15,16,16,17,17,18,18,19,19,20,20,21,21,22,22,23,23,24,24,25,25,26,26,27,27,28,28,30,30,32,32,33,33,34,34,35,35,36,36,37,37,38,38,39,39,40,40,41,41,42,42,43,43,44,44,45,45,46,46,47,47,48,48,49,49,50,50,51,51,52,52,53,53,54,54,55,55,56,56],"right_children":[2,4,6,8,10,12,14,16,18,20,22,-1,24,26,28,30,32,34,36,38,40,42,44,46,48,50,52,54,56,-1,58,-1,60,62,64,66,68,70,72,74,76,78,80,82,84,86,88,90,92,94,96,98,100,102,104,106,108,-1,-1,-1,-1,-1,-1,-1,-1,-1,-1,-1,-1,-1,-1,-1,-1,-1,-1,-1,-1,-1,-1,-1,-1,-1,-1,-1,-1,-1,-1,-1,-1,-1,-1,-1,-1,-1,-1,-1,-1,-1,-1,-1,-1,-1,-1,-1,-1,-1,-1,-1,-1],"split_conditions":[1.3018E0,1.1177E0,1.6379E0,8.91E-1,1.198E0,1.2857E0,1.6379E0,7.951E-1,9.888E-1,1.2125E0,1.2916E0,-1.6931893E-3,1.4941E0,1.6328E0,1.6551E0,7.951E-1,7.951E-1,9.936E-1,1.1356E0,1.1054E0,1.1986E0,1.289E0,1.2923E0,1.513E0,1.488E0,1.6076E0,1.6551E0,1.666E0,1.6582E0,-4.3606333E-4,7.951E-1,1.1919272E-3,7.951E-1,8.803E-1,1.0237E0,1.0114E0,1.1249E0,1.1003E0,1.1008E0,1.1808E0,1.222E0,1.2912E0,1.314E0,1.302E0,1.2962E0,1.2912E0,1.4933E0,1.4918E0,1.6328E0,1.6076E0,1.6328E0,1.6485E0,1.6485E0,1.6582E0,1.6582E0,1.6425E0,1.6379E0,-3.5021098E-3,-5.094409E-5,1.9761892E-3,-8.1836316E-4,1.2111604E-3,-4.1879315E-4,-2.5340708E-3,-3.279865E-4,-3.1714246E-4,-1.540575E-4,-3.73258E-3,5.7238343E-5,-2.800584E-4,1.5421886E-3,-2.1418692E-3,2.5285159E-5,5.170763E-4,-4.7385696E-5,-2.4458098E-3,-4.5772793E-4,1.8098437E-4,1.017316E-3,2.1713872E-3,-1.6529561E-4,-2.3842827E-4,-2.3914883E-3,-7.77013E-4,4.703563E-4,1.5490055E-3,4.8185748E-4,-5.892348E-4,-2.1972656E-3,6.8702106E-4,4.430223E-3,9.1849867E-4,1.3422036E-4,2.9065611E-3,7.104814E-4,-1.7083168E-3,6.399617E-4,5.577125E-3,1.9755482E-3,-4.895747E-4,9.196133E-4,-1.770591E-4,8.693141E-4,2.4086238E-4,-2.177763E-3,-6.658316E-4,2.9449868E-3,-1.1624336E-3,1.3211294E-3],"split_indices":[2,1,6,0,0,3,4,0,0,5,3,0,6,2,0,6,3,1,6,4,3,3,6,0,5,3,0,1,1,0,1,0,1,3,6,6,4,0,5,0,6,0,0,4,4,0,4,0,3,1,5,5,1,5,6,3,5,0,0,0,0,0,0,0,0,0,0,0,0,0,0,0,0,0,0,0,0,0,0,0,0,0,0,0,0,0,0,0,0,0,0,0,0,0,0,0,0,0,0,0,0,0,0,0,0,0,0,0,0],"split_type":[0,0,0,0,0,0,0,0,0,0,0,0,0,0,0,0,0,0,0,0,0,0,0,0,0,0,0,0,0,0,0,0,0,0,0,0,0,0,0,0,0,0,0,0,0,0,0,0,0,0,0,0,0,0,0,0,0,0,0,0,0,0,0,0,0,0,0,0,0,0,0,0,0,0,0,0,0,0,0,0,0,0,0,0,0,0,0,0,0,0,0,0,0,0,0,0,0,0,0,0,0,0,0,0,0,0,0,0,0],"sum_hessian":[4.952E3,3.906E3,1.046E3,2.785E3,1.121E3,5.61E2,4.85E2,1.94E2,2.591E3,3.47E2,7.74E2,2E0,5.59E2,2.8E1,4.57E2,2E1,1.74E2,1.526E3,1.065E3,3.39E2,8E0,7.06E2,6.8E1,3.85E2,1.74E2,1.3E1,1.5E1,7.6E1,3.81E2,1.3E1,7E0,4E0,1.7E2,1.513E3,1.3E1,1.053E3,1.2E1,7E0,3.32E2,2E0,6E0,6.93E2,1.3E1,2.1E1,4.7E1,3.8E2,5E0,4E0,1.7E2,3E0,1E1,1.1E1,4E0,7.3E1,3E0,2.2E1,3.59E2,5E0,2E0,1E0,1.69E2,4E0,1.509E3,1.1E1,2E0,5.15E2,5.38E2,3E0,9E0,1E0,6E0,3E0,3.29E2,1E0,1E0,4E0,2E0,6.66E2,2.7E1,1.2E1,1E0,1.5E1,6E0,1.3E1,3.4E1,1.1E1,3.69E2,4E0,1E0,1E0,3E0,1.3E2,4E1,2E0,1E0,3E0,7E0,6E0,5E0,1E0,3E0,2.8E1,4.5E1,1E0,2E0,3E0,1.9E1,3E0,3.56E2],"tree_param":{"num_deleted":"0","num_feature":"7","num_nodes":"109","size_leaf_vector":"1"}},{"base_weights":[1.3958173E-5,-4.9368653E-4,2.3870212E-3,-9.012872E-4,3.9997912E-4,1.8869612E-3,3.3704613E-3,-1.552576E-3,-7.660435E-4,6.163925E-3,3.8159688E-4,1.9780844E-3,-3.5139918E-3,8.421907E-3,2.5616884E-3,-1.5094575E-3,-3.3374191E-3,-9.5353456E-4,-5.0813117E-4,2.9795768E-3,-7.7100995E-4,-2.1406035E-3,4.193872E-4,1.8001382E-3,3.8831632E-3,-6.492093E-3,5.5989423E-3,5.0614276E-3,1.1529314E-2,-4.2748758E-5,3.6949336E-3,-1.3376708E-3,-2.8125786E-3,-9.085695E-4,-5.160319E-3,9.4745954E-4,-6.2806625E-4,6.9918897E-4,-4.26947E-3,7.3126894E-3,3.805114E-4,1.8473304E-3,-4.8084855E-3,7.403451E-3,1.8916614E-3,6.9624785E-4,-8.082628E-3,4.4469238E-4,2.0748319E-3,-1.3023445E-3,7.6937596E-3,1.4748473E-2,4.8570186E-3,1.2050398E-3,-4.268991E-3,2.5679083E-5,4.0594204E-3,-4.5343663E-4,2.1312518E-4,-5.093445E-4,-1.1480679E-3,-6.663607E-4,-2.5890677E-4,1.2390019E-4,-1.6862416E-3,6.6579746E-6,6.570278E-4,-7.2849763E-4,-1.6393664E-4,-4.4981926E-4,1.6788483E-3,-1.756688E-3,5.7364703E-4,2.5196732E-3,1.1930466E-4,-4.3220047E-4,1.344115E-4,5.350064E-4,1.7204584E-3,-2.3219348E-3,5.978108E-4,3.0202698E-3,-1.1315435E-3,1.1708719E-3,-4.0442214E-4,-2.7408958E-3,-2.6407244E-4,9.78756E-4,-1.6624868E-3,4.6450496E-3,1.036061E-3,1.1447133E-3,4.602468E-3,-2.0498754E-3,2.967745E-3,-8.52587E-4,8.121379E-4,-3.0240503E-3,-1.5701652E-4,-1.0685434E-3,1.6978486E-3,2.3684069E-3,1.0283219E-3],"categories":[],"categories_nodes":[],"categories_segments":[],"categories_sizes":[],"default_left":[0,0,0,0,0,0,0,0,0,0,0,0,0,0,0,0,0,0,0,0,0,0,0,0,0,0,0,0,0,0,0,0,0,0,0,0,0,0,0,0,0,0,0,0,0,0,0,0,0,0,0,0,0,0,0,0,0,0,0,0,0,0,0,0,0,0,0,0,0,0,0,0,0,0,0,0,0,0,0,0,0,0,0,0,0,0,0,0,0,0,0,0,0,0,0,0,0,0,0,0,0,0,0],"id":15,"left_children":[1,3,5,7,9,11,13,15,17,19,21,23,25,27,29,31,-1,33,35,-1,-1,37,39,41,43,45,47,49,51,53,55,57,59,61,63,65,67,69,71,73,75,77,79,81,83,-1,85,-1,-1,87,89,91,93,95,97,99,101,-1,-1,-1,-1,-1,-1,-1,-1,-1,-1,-1,-1,-1,-1,-1,-1,-1,-1,-1,-1,-1,-1,-1,-1,-1,-1,-1,-1,-1,-1,-1,-1,-1,-1,-1,-1,-1,-1,-1,-1,-1,-1,-1,-1,-1,-1],"loss_changes":[5.967924E-3,1.4869003E-3,4.2296294E-4,2.4570664E-4,1.331635E-4,2.9289164E-4,1.1754688E-3,1.8173421E-4,1.1184707E-4,1.571635E-4,1.2251933E-4,1.8691877E-4,3.0774128E-4,3.593401E-4,7.498303E-4,1.0368985E-4,0E0,2.4954043E-4,1.7167989E-4,0E0,0E0,1.178504E-4,3.3433962E-4,1.7261785E-4,3.2250676E-4,1.3089643E-4,6.0150487E-6,3.618027E-4,3.5794987E-4,4.164739E-4,2.366146E-4,1.5269831E-4,5.5692304E-5,7.765868E-5,3.8251514E-5,8.618388E-5,1.317831E-4,1.0528861E-4,1.1905217E-4,4.92385E-5,1.5461481E-4,1.19598466E-4,9.5168296E-5,5.4409984E-4,2.1377022E-4,0E0,4.5081455E-5,0E0,0E0,1.5354175E-4,4.4198072E-4,2.5754096E-5,5.3850864E-4,3.7850882E-4,3.8651854E-4,3.6374945E-4,3.6298833E-4,0E0,0E0,0E0,0E0,0E0,0E0,0E0,0E0,0E0,0E0,0E0,0E0,0E0,0E0,0E0,0E0,0E0,0E0,0E0,0E0,0E0,0E0,0E0,0E0,0E0,0E0,0E0,0E0,0E0,0E0,0E0,0E0,0E0,0E0,0E0,0E0,0E0,0E0,0E0,0E0,0E0,0E0,0E0,0E0,0E0,0E0],"parents":[2147483647,0,0,1,1,2,2,3,3,4,4,5,5,6,6,7,7,8,8,9,9,10,10,11,11,12,12,13,13,14,14,15,15,17,17,18,18,21,21,22,22,23,23,24,24,25,25,26,26,27,27,28,28,29,29,30,30,31,31,32,32,33,33,34,34,35,35,36,36,37,37,38,38,39,39,40,40,41,41,42,42,43,43,44,44,46,46,49,49,50,50,51,51,52,52,53,53,54,54,55,55,56,56],"right_children":[2,4,6,8,10,12,14,16,18,20,22,24,26,28,30,32,-1,34,36,-1,-1,38,40,42,44,46,48,50,52,54,56,58,60,62,64,66,68,70,72,74,76,78,80,82,84,-1,86,-1,-1,88,90,92,94,96,98,100,102,-1,-1,-1,-1,-1,-1,-1,-1,-1,-1,-1,-1,-1,-1,-1,-1,-1,-1,-1,-1,-1,-1,-1,-1,-1,-1,-1,-1,-1,-1,-1,-1,-1,-1,-1,-1,-1,-1,-1,-1,-1,-1,-1,-1,-1,-1],"split_conditions":[1.3532E0,1.1232E0,1.6757E0,9.174E-1,1.096E0,1.6828E0,1.6897E0,9.28E-1,9.922E-1,1.1342E0,1.1184E0,1.666E0,1.6897E0,1.6828E0,1.7152E0,9.13E-1,-3.3374191E-3,1.0014E0,9.916E-1,2.9795768E-3,-7.7100995E-4,1.1243E0,1.1249E0,1.6897E0,1.663E0,1.6698E0,1.6698E0,1.6582E0,1.7045E0,1.7152E0,1.709E0,9.114E-1,9.148E-1,9.162E-1,9.817E-1,9.878E-1,9.894E-1,1.1346E0,1.1507E0,1.1355E0,1.1391E0,1.6698E0,1.6485E0,1.6757E0,1.663E0,6.9624785E-4,1.7045E0,4.4469238E-4,2.0748319E-3,1.6485E0,1.6698E0,1.6582E0,1.7045E0,1.697E0,1.7152E0,1.709E0,1.7152E0,-4.5343663E-4,2.1312518E-4,-5.093445E-4,-1.1480679E-3,-6.663607E-4,-2.5890677E-4,1.2390019E-4,-1.6862416E-3,6.6579746E-6,6.570278E-4,-7.2849763E-4,-1.6393664E-4,-4.4981926E-4,1.6788483E-3,-1.756688E-3,5.7364703E-4,2.5196732E-3,1.1930466E-4,-4.3220047E-4,1.344115E-4,5.350064E-4,1.7204584E-3,-2.3219348E-3,5.978108E-4,3.0202698E-3,-1.1315435E-3,1.1708719E-3,-4.0442214E-4,-2.7408958E-3,-2.6407244E-4,9.78756E-4,-1.6624868E-3,4.6450496E-3,1.036061E-3,1.1447133E-3,4.602468E-3,-2.0498754E-3,2.967745E-3,-8.52587E-4,8.121379E-4,-3.0240503E-3,-1.5701652E-4,-1.0685434E-3,1.6978486E-3,2.3684069E-3,1.0283219E-3],"split_indices":[0,1,0,0,6,2,0,1,6,0,6,3,3,0,0,0,0,3,3,0,0,3,4,6,6,4,0,6,4,1,3,1,4,4,6,2,0,1,2,5,0,2,0,3,1,0,5,0,0,4,3,1,3,0,2,5,6,0,0,0,0,0,0,0,0,0,0,0,0,0,0,0,0,0,0,0,0,0,0,0,0,0,0,0,0,0,0,0,0,0,0,0,0,0,0,0,0,0,0,0,0,0,0],"split_type":[0,0,0,0,0,0,0,0,0,0,0,0,0,0,0,0,0,0,0,0,0,0,0,0,0,0,0,0,0,0,0,0,0,0,0,0,0,0,0,0,0,0,0,0,0,0,0,0,0,0,0,0,0,0,0,0,0,0,0,0,0,0,0,0,0,0,0,0,0,0,0,0,0,0,0,0,0,0,0,0,0,0,0,0,0,0,0,0,0,0,0,0,0,0,0,0,0,0,0,0,0,0,0],"sum_hessian":[4.952E3,4.08E3,8.72E2,2.802E3,1.278E3,5.8E2,2.92E2,4.8E2,2.322E3,3E0,1.275E3,5.71E2,9E0,3.9E1,2.53E2,4.79E2,1E0,1.343E3,9.79E2,2E0,1E0,1.8E1,1.257E3,5.24E2,4.7E1,7E0,2E0,2E1,1.9E1,7.7E1,1.76E2,4.25E2,5.4E1,1.33E3,1.3E1,7.4E1,9.05E2,8E0,1E1,6E0,1.251E3,5.21E2,3E0,1.6E1,3.1E1,1E0,6E0,1E0,1E0,6E0,1.4E1,1.2E1,7E0,6E1,1.7E1,1.6E1,1.6E2,3.92E2,3.3E1,2.7E1,2.7E1,4.3E1,1.287E3,1E0,1.2E1,4.3E1,3.1E1,3.8E1,8.67E2,6E0,2E0,8E0,2E0,5E0,1E0,4.4E1,1.207E3,5.14E2,7E0,2E0,1E0,1.3E1,3E0,1.9E1,1.2E1,5E0,1E0,3E0,3E0,4E0,1E1,1E0,1.1E1,2E0,5E0,1.6E1,4.4E1,6E0,1.1E1,1E1,6E0,2.1E1,1.39E2],"tree_param":{"num_deleted":"0","num_feature":"7","num_nodes":"103","size_leaf_vector":"1"}},{"base_weights":[1.2280121E-5,-5.0158333E-4,1.2266361E-3,-7.094812E-4,-7.4597796E-5,6.6810095E-4,2.0757278E-3,-6.389405E-4,-3.4270226E-3,5.377531E-3,-1.0815754E-4,7.742906E-4,-3.989863E-3,7.448289E-3,1.988178E-3,-6.999818E-4,1.3298349E-3,-3.803003E-2,-1.5456886E-3,-9.351174E-4,2.4268844E-3,-1.7558099E-3,-9.2851464E-5,6.8608025E-4,4.7745323E-3,-7.2455066E-3,3.0914035E-3,-4.303694E-4,8.737966E-3,1.8620077E-3,5.0807376E-3,-6.7532563E-4,-6.069136E-3,-5.2327635E-3,1.8141911E-3,-1.636262E-2,-7.508934E-4,-4.2970976E-4,-9.455578E-3,1.1764169E-4,-5.3844455E-4,-2.2783917E-5,-1.053482E-3,6.448104E-4,2.8286576E-3,1.0159612E-4,-9.2584975E-3,2.597189E-3,-8.664131E-4,3.3060766E-3,3.700614E-3,-1.1147198E-3,1.963862E-3,-2.392441E-3,6.3866316E-3,-2.0782703E-4,1.0970335E-3,-3.0639519E-3,-4.8127476E-4,4.8220754E-4,-2.20339E-3,1.538551E-3,4.3575707E-4,-4.05105E-4,1.4062576E-3,-3.8929726E-3,-1.3061763E-4,-3.4553308E-5,4.711815E-4,-1.1775703E-3,7.27084E-5,2.310174E-4,-7.907074E-4,1.7584742E-3,-1.1316777E-3,-3.479709E-3,-1.2390161E-3,9.509921E-4,-1.3841987E-3,1.0874272E-4,2.0572543E-3,-1.5045853E-3,4.7356487E-4,1.4375788E-3,5.30755E-4,5.720139E-4,-2.2934854E-3,2.963217E-3,4.231572E-4],"categories":[],"categories_nodes":[],"categories_segments":[],"categories_sizes":[],"default_left":[0,0,0,0,0,0,0,0,0,0,0,0,0,0,0,0,0,0,0,0,0,0,0,0,0,0,0,0,0,0,0,0,0,0,0,0,0,0,0,0,0,0,0,0,0,0,0,0,0,0,0,0,0,0,0,0,0,0,0,0,0,0,0,0,0,0,0,0,0,0,0,0,0,0,0,0,0,0,0,0,0,0,0,0,0,0,0,0,0],"id":16,"left_children":[1,3,5,7,9,11,13,15,17,19,21,23,25,27,29,31,33,35,37,39,-1,-1,41,43,-1,45,47,-1,49,51,53,55,57,59,61,-1,-1,63,65,-1,-1,67,69,71,-1,73,75,-1,77,-1,79,81,83,85,87,-1,-1,-1,-1,-1,-1,-1,-1,-1,-1,-1,-1,-1,-1,-1,-1,-1,-1,-1,-1,-1,-1,-1,-1,-1,-1,-1,-1,-1,-1,-1,-1,-1,-1],"loss_changes":[3.091352E-3,3.0895334E-4,6.9717993E-4,4.465736E-4,2.0935269E-4,4.4330786E-4,2.5988626E-4,2.7529412E-4,3.782106E-3,1.2740774E-4,9.925302E-5,1.1523683E-3,4.8348034E-4,1.156393E-4,2.1528848E-4,2.8912933E-4,2.2881909E-4,1.6233549E-3,4.990912E-4,4.1269345E-6,0E0,0E0,7.623711E-5,3.0674555E-4,0E0,2.0799576E-4,1.617023E-4,0E0,5.1191833E-5,1.7046125E-4,2.2998155E-4,1.6911572E-4,1.6864209E-4,8.40327E-5,7.0464914E-5,0E0,0E0,2.4659754E-4,2.1667045E-4,0E0,0E0,1.5579161E-4,2.8749456E-4,3.5702556E-4,0E0,1.11364774E-4,8.413155E-5,0E0,9.02597E-5,0E0,3.9667E-5,2.0751699E-4,2.8717564E-4,1.0490214E-4,3.1610497E-4,0E0,0E0,0E0,0E0,0E0,0E0,0E0,0E0,0E0,0E0,0E0,0E0,0E0,0E0,0E0,0E0,0E0,0E0,0E0,0E0,0E0,0E0,0E0,0E0,0E0,0E0,0E0,0E0,0E0,0E0,0E0,0E0,0E0,0E0],"parents":[2147483647,0,0,1,1,2,2,3,3,4,4,5,5,6,6,7,7,8,8,9,9,10,10,11,11,12,12,13,13,14,14,15,15,16,16,17,17,18,18,19,19,22,22,23,23,25,25,26,26,28,28,29,29,30,30,31,31,32,32,33,33,34,34,37,37,38,38,41,41,42,42,43,43,45,45,46,46,48,48,50,50,51,51,52,52,53,53,54,54],"right_children":[2,4,6,8,10,12,14,16,18,20,22,24,26,28,30,32,34,36,38,40,-1,-1,42,44,-1,46,48,-1,50,52,54,56,58,60,62,-1,-1,64,66,-1,-1,68,70,72,-1,74,76,-1,78,-1,80,82,84,86,88,-1,-1,-1,-1,-1,-1,-1,-1,-1,-1,-1,-1,-1,-1,-1,-1,-1,-1,-1,-1,-1,-1,-1,-1,-1,-1,-1,-1,-1,-1,-1,-1,-1,-1],"split_conditions":[1.2419E0,1.0237E0,1.592E0,1.0169E0,1.015E0,1.5638E0,1.592E0,1.0132E0,1.0064E0,1.029E0,9.997E-1,1.566E0,1.592E0,1.566E0,1.7968E0,1.0162E0,9.981E-1,1.0181E0,1.0268E0,1.0262E0,2.4268844E-3,-1.7558099E-3,1.2402E0,1.5672E0,4.7745323E-3,1.5672E0,1.592E0,-4.303694E-4,1.6076E0,1.6076E0,1.7805E0,1.0169E0,1.0136E0,9.879E-1,1.0072E0,-1.636262E-2,-7.508934E-4,1.0237E0,1.0296E0,1.1764169E-4,-5.3844455E-4,1.2287E0,1.246E0,1.502E0,2.8286576E-3,1.566E0,1.592E0,2.597189E-3,1.592E0,3.3060766E-3,1.6278E0,1.6204E0,1.6278E0,1.7736E0,1.7805E0,-2.0782703E-4,1.0970335E-3,-3.0639519E-3,-4.8127476E-4,4.8220754E-4,-2.20339E-3,1.538551E-3,4.3575707E-4,-4.05105E-4,1.4062576E-3,-3.8929726E-3,-1.3061763E-4,-3.4553308E-5,4.711815E-4,-1.1775703E-3,7.27084E-5,2.310174E-4,-7.907074E-4,1.7584742E-3,-1.1316777E-3,-3.479709E-3,-1.2390161E-3,9.509921E-4,-1.3841987E-3,1.0874272E-4,2.0572543E-3,-1.5045853E-3,4.7356487E-4,1.4375788E-3,5.30755E-4,5.720139E-4,-2.2934854E-3,2.963217E-3,4.231572E-4],"split_indices":[0,4,2,4,6,0,5,0,6,0,2,5,1,5,1,1,4,0,3,0,0,0,6,6,0,6,0,0,0,0,3,3,4,6,1,0,0,5,6,0,0,4,6,5,0,2,6,0,4,0,0,5,0,3,6,0,0,0,0,0,0,0,0,0,0,0,0,0,0,0,0,0,0,0,0,0,0,0,0,0,0,0,0,0,0,0,0,0,0],"split_type":[0,0,0,0,0,0,0,0,0,0,0,0,0,0,0,0,0,0,0,0,0,0,0,0,0,0,0,0,0,0,0,0,0,0,0,0,0,0,0,0,0,0,0,0,0,0,0,0,0,0,0,0,0,0,0,0,0,0,0,0,0,0,0,0,0,0,0,0,0,0,0,0,0,0,0,0,0,0,0,0,0,0,0,0,0,0,0,0,0],"sum_hessian":[4.952E3,3.48E3,1.472E3,2.34E3,1.14E3,8.89E2,5.83E2,2.282E3,5.8E1,6E0,1.134E3,8.7E2,1.9E1,8E0,5.75E2,2.214E3,6.8E1,2E0,5.6E1,2E0,4E0,2E0,1.132E3,8.66E2,4E0,1.3E1,6E0,1E0,7E0,5.54E2,2.1E1,2.205E3,9E0,4E0,6.4E1,1E0,1E0,5E1,6E0,1E0,1E0,1.056E3,7.6E1,8.63E2,3E0,3E0,1E1,2E0,4E0,4E0,3E0,1.8E1,5.36E2,3E0,1.8E1,2.197E3,8E0,4E0,5E0,1E0,3E0,5E0,5.9E1,4.3E1,7E0,4E0,2E0,9.99E2,5.7E1,2.3E1,5.3E1,8.32E2,3.1E1,1E0,2E0,6E0,4E0,2E0,2E0,2E0,1E0,7E0,1.1E1,3.3E1,5.03E2,2E0,1E0,1E1,8E0],"tree_param":{"num_deleted":"0","num_feature":"7","num_nodes":"89","size_leaf_vector":"1"}},{"base_weights":[6.546619E-6,-2.3503635E-4,1.3866378E-3,-4.323958E-4,2.8465834E-4,2.8312684E-3,1.3299058E-3,-1.4810379E-3,-3.8304774E-4,2.6344575E-4,1.9063622E-3,8.424163E-3,1.2892671E-3,-1.9426111E-3,-4.6128983E-4,1.8120111E-3,-3.939299E-4,3.149333E-4,-3.210804E-3,3.1945945E-3,2.6260616E-4,-2.8622309E-3,1.3743204E-3,-1.0528109E-3,-3.3469333E-3,5.694114E-4,-2.3006052E-3,-3.82614E-4,-5.0418377E-3,1.3835498E-3,2.4386361E-4,5.7787553E-4,-5.3298906E-3,-1.6915797E-5,-2.1382153E-3,1.0645866E-3,1.9971374E-3,-7.939437E-4,2.8019946E-4,1.5015319E-3,-1.277364E-3,2.7421805E-5,1.0602281E-3,-8.4113603E-4,7.8706746E-4,-1.7467079E-4,-6.698893E-5,-2.4688125E-3,-1.7815233E-4,1.859865E-4,1.4228005E-3,-1.291591E-3,8.076485E-5,1.021874E-3,-3.7041664E-4,-2.6329458E-3,-1.2322748E-3,-7.567253E-4,1.3115824E-3,3.635433E-4,-1.6008237E-3,3.1009594E-3,4.8678456E-4],"categories":[],"categories_nodes":[],"categories_segments":[],"categories_sizes":[],"default_left":[0,0,0,0,0,0,0,0,0,0,0,0,0,0,0,0,0,0,0,0,0,0,0,0,0,0,0,0,0,0,0,0,0,0,0,0,0,0,0,0,0,0,0,0,0,0,0,0,0,0,0,0,0,0,0,0,0,0,0,0,0,0,0],"id":17,"left_children":[1,3,5,7,9,-1,11,13,15,17,-1,19,21,23,25,-1,27,29,31,-1,-1,33,35,37,39,41,43,45,47,49,51,53,55,57,-1,59,61,-1,-1,-1,-1,-1,-1,-1,-1,-1,-1,-1,-1,-1,-1,-1,-1,-1,-1,-1,-1,-1,-1,-1,-1,-1,-1],"loss_changes":[1.6516884E-3,4.3254418E-4,3.2452669E-4,1.57576E-4,1.4781392E-4,0E0,2.007524E-4,6.35882E-5,2.0647861E-4,2.0815499E-4,0E0,5.78475E-5,2.6204868E-4,1.1393553E-4,8.472451E-5,0E0,1.5143881E-4,8.6393215E-5,1.3956519E-4,0E0,0E0,1.8191499E-4,1.3618846E-4,1.892843E-4,2.9520848E-4,4.0773848E-5,4.699985E-5,9.2417555E-5,9.436013E-5,1.7917513E-4,1.2479584E-4,4.009266E-5,1.0290678E-5,1.2099074E-4,0E0,4.597293E-4,7.23447E-4,0E0,0E0,0E0,0E0,0E0,0E0,0E0,0E0,0E0,0E0,0E0,0E0,0E0,0E0,0E0,0E0,0E0,0E0,0E0,0E0,0E0,0E0,0E0,0E0,0E0,0E0],"parents":[2147483647,0,0,1,1,2,2,3,3,4,4,6,6,7,7,8,8,9,9,11,11,12,12,13,13,14,14,16,16,17,17,18,18,21,21,22,22,23,23,24,24,25,25,26,26,27,27,28,28,29,29,30,30,31,31,32,32,33,33,35,35,36,36],"right_children":[2,4,6,8,10,-1,12,14,16,18,-1,20,22,24,26,-1,28,30,32,-1,-1,34,36,38,40,42,44,46,48,50,52,54,56,58,-1,60,62,-1,-1,-1,-1,-1,-1,-1,-1,-1,-1,-1,-1,-1,-1,-1,-1,-1,-1,-1,-1,-1,-1,-1,-1,-1,-1],"split_conditions":[1.449E0,1.1808E0,1.4408E0,8.828E-1,1.4465E0,2.8312684E-3,1.4448E0,8.803E-1,8.666E-1,1.4015E0,1.9063622E-3,1.4663E0,1.4635E0,8.438E-1,8.828E-1,1.8120111E-3,1.2025E0,1.196E0,1.409E0,3.1945945E-3,2.6260616E-4,1.4649E0,1.697E0,8.335E-1,8.335E-1,9.008E-1,9.22E-1,9.744E-1,1.1606E0,1.1988E0,1.1911E0,1.4039E0,1.4039E0,1.4621E0,-2.1382153E-3,1.7045E0,1.6897E0,-7.939437E-4,2.8019946E-4,1.5015319E-3,-1.277364E-3,2.7421805E-5,1.0602281E-3,-8.4113603E-4,7.8706746E-4,-1.7467079E-4,-6.698893E-5,-2.4688125E-3,-1.7815233E-4,1.859865E-4,1.4228005E-3,-1.291591E-3,8.076485E-5,1.021874E-3,-3.7041664E-4,-2.6329458E-3,-1.2322748E-3,-7.567253E-4,1.3115824E-3,3.635433E-4,-1.6008237E-3,3.1009594E-3,4.8678456E-4],"split_indices":[6,0,1,6,5,0,4,0,2,2,0,6,3,0,4,0,6,6,5,0,0,5,2,6,5,1,1,1,0,4,5,3,3,1,0,0,0,0,0,0,0,0,0,0,0,0,0,0,0,0,0,0,0,0,0,0,0,0,0,0,0,0,0],"split_type":[0,0,0,0,0,0,0,0,0,0,0,0,0,0,0,0,0,0,0,0,0,0,0,0,0,0,0,0,0,0,0,0,0,0,0,0,0,0,0,0,0,0,0,0,0,0,0,0,0,0,0,0,0,0,0,0,0,0,0,0,0,0,0],"sum_hessian":[4.952E3,4.215E3,7.37E2,3.055E3,1.16E3,4E0,7.33E2,1.36E2,2.919E3,1.157E3,3E0,3E0,7.3E2,9.3E1,4.3E1,4E0,2.915E3,1.141E3,1.6E1,2E0,1E0,1.4E1,7.16E2,5.8E1,3.5E1,2.8E1,1.5E1,2.909E3,6E0,7E1,1.071E3,6E0,1E1,9E0,5E0,4.8E2,2.36E2,3.2E1,2.6E1,3E0,3.2E1,2.5E1,3E0,1.4E1,1E0,1.29E3,1.619E3,3E0,3E0,5.8E1,1.2E1,5E0,1.066E3,2E0,4E0,1E0,9E0,6E0,3E0,4.7E2,1E1,9E0,2.27E2],"tree_param":{"num_deleted":"0","num_feature":"7","num_nodes":"63","size_leaf_vector":"1"}},{"base_weights":[5.736908E-6,-1.9406302E-4,8.690982E-4,-3.4725922E-4,8.3065665E-5,2.8673357E-3,7.691077E-4,-3.337894E-4,-1.828462E-3,2.5746482E-3,3.3387587E-5,1.9694157E-3,5.7233213E-3,-1.0258378E-3,9.311407E-4,-1.4513105E-3,-2.984553E-4,-1.6671078E-3,3.8072683E-3,-3.7016934E-3,8.176633E-5,3.8877588E-3,-3.2152175E-3,2.9826462E-3,3.3372047E-3,-4.5982003E-4,-6.377748E-3,8.173906E-4,2.3237662E-3,-7.456814E-4,-3.3646822E-3,5.813867E-3,-3.1298804E-4,8.9800364E-4,-2.942741E-3,-1.0528564E-3,4.3459237E-3,-1.4685118E-3,-2.3769916E-3,2.7657426E-3,3.0545547E-5,-1.4987256E-4,5.6905877E-3,1.1719645E-3,-4.4405856E-3,-3.052354E-5,3.4378085E-3,-2.9849145E-3,4.4040586E-4,-2.5282933E-3,-8.3533925E-4,8.975066E-4,-2.9390603E-3,4.0366426E-3,-3.0424117E-4,-5.6298106E-4,1.9925238E-4,-2.0308793E-3,1.03834005E-4,3.6596062E-4,1.946608E-3,-1.00095924E-4,4.3843698E-4,-9.6488E-5,-1.0207916E-3,-6.622911E-4,1.8850566E-4,1.8229635E-3,8.8398735E-4,-1.3993583E-3,1.3734055E-3,2.2726259E-4,1.9424519E-3,-1.2909702E-3,2.262977E-5,1.0065973E-3,-1.61106E-3,3.8366856E-3,1.3562238E-3,-8.6397084E-4,-2.5389076E-3,2.3782254E-6,1.2024404E-3,-1.1311161E-3,1.5552164E-3,4.5329545E-4,-4.8187972E-4,-5.8967475E-4,2.1377207E-4,2.3719002E-4,2.5860572E-3,-3.1717212E-3,1.2518088E-3,4.536398E-4,1.7067499E-3,-8.3843357E-4,3.814079E-4],"categories":[],"categories_nodes":[],"categories_segments":[],"categories_sizes":[],"default_left":[0,0,0,0,0,0,0,0,0,0,0,0,0,0,0,0,0,0,0,0,0,0,0,0,0,0,0,0,0,0,0,0,0,0,0,0,0,0,0,0,0,0,0,0,0,0,0,0,0,0,0,0,0,0,0,0,0,0,0,0,0,0,0,0,0,0,0,0,0,0,0,0,0,0,0,0,0,0,0,0,0,0,0,0,0,0,0,0,0,0,0,0,0,0,0,0,0],"id":18,"left_children":[1,3,5,7,9,11,13,15,-1,17,19,21,23,25,27,29,31,33,35,37,39,41,43,45,-1,47,49,51,53,55,57,59,61,-1,63,65,67,69,-1,71,73,75,77,-1,79,-1,81,83,85,-1,87,89,91,93,95,-1,-1,-1,-1,-1,-1,-1,-1,-1,-1,-1,-1,-1,-1,-1,-1,-1,-1,-1,-1,-1,-1,-1,-1,-1,-1,-1,-1,-1,-1,-1,-1,-1,-1,-1,-1,-1,-1,-1,-1,-1,-1],"loss_changes":[8.545588E-4,1.7082556E-4,1.8381292E-4,1.9855899E-4,1.7728652E-4,1.01564015E-4,2.5922142E-4,1.0167924E-4,0E0,1.5274441E-4,2.543648E-4,3.6060667E-4,1.1483647E-4,2.2123386E-4,1.2720574E-4,1.0415133E-4,2.2460245E-4,5.0423834E-5,6.217015E-5,1.580618E-4,1.9086881E-4,1.9011102E-4,1.0461521E-4,1.1580967E-5,0E0,1.5588914E-4,7.248958E-5,2.2985635E-4,2.7581665E-4,9.531819E-5,2.6767692E-4,1.0685544E-5,9.226991E-5,0E0,6.1382852E-6,7.2114544E-6,3.0527823E-5,2.725767E-4,0E0,1.887589E-4,2.6566416E-4,1.8270322E-4,9.165576E-5,0E0,3.2127078E-5,0E0,1.36612725E-5,1.3504282E-4,1.1417433E-4,0E0,6.649175E-6,6.0394243E-4,9.1269915E-4,1.4575425E-4,1.01655474E-4,0E0,0E0,0E0,0E0,0E0,0E0,0E0,0E0,0E0,0E0,0E0,0E0,0E0,0E0,0E0,0E0,0E0,0E0,0E0,0E0,0E0,0E0,0E0,0E0,0E0,0E0,0E0,0E0,0E0,0E0,0E0,0E0,0E0,0E0,0E0,0E0,0E0,0E0,0E0,0E0,0E0,0E0],"parents":[2147483647,0,0,1,1,2,2,3,3,4,4,5,5,6,6,7,7,9,9,10,10,11,11,12,12,13,13,14,14,15,15,16,16,17,17,18,18,19,19,20,20,21,21,22,22,23,23,25,25,26,26,27,27,28,28,29,29,30,30,31,31,32,32,34,34,35,35,36,36,37,37,39,39,40,40,41,41,42,42,44,44,46,46,47,47,48,48,50,50,51,51,52,52,53,53,54,54],"right_children":[2,4,6,8,10,12,14,16,-1,18,20,22,24,26,28,30,32,34,36,38,40,42,44,46,-1,48,50,52,54,56,58,60,62,-1,64,66,68,70,-1,72,74,76,78,-1,80,-1,82,84,86,-1,88,90,92,94,96,-1,-1,-1,-1,-1,-1,-1,-1,-1,-1,-1,-1,-1,-1,-1,-1,-1,-1,-1,-1,-1,-1,-1,-1,-1,-1,-1,-1,-1,-1,-1,-1,-1,-1,-1,-1,-1,-1,-1,-1,-1,-1],"split_conditions":[1.3233E0,1.0692E0,1.3479E0,1.0834E0,1.0744E0,1.3662E0,1.376E0,8.666E-1,-1.828462E-3,1.0559E0,1.0746E0,1.3468E0,1.3541E0,1.3759E0,1.7736E0,8.438E-1,8.666E-1,1.0556E0,1.0624E0,1.088E0,1.0755E0,1.312E0,1.3463E0,1.3538E0,3.3372047E-3,1.3463E0,1.3901E0,1.7736E0,1.7805E0,8.335E-1,8.666E-1,8.438E-1,1.0755E0,8.9800364E-4,1.0586E0,1.0586E0,1.0671E0,1.0828E0,-2.3769916E-3,1.0837E0,1.0827E0,1.3092E0,1.3091E0,1.1719645E-3,1.3736E0,-3.052354E-5,1.3532E0,1.3537E0,1.3668E0,-2.5282933E-3,1.389E0,1.7637E0,1.7805E0,1.7805E0,1.7805E0,-5.6298106E-4,1.9925238E-4,-2.0308793E-3,1.03834005E-4,3.6596062E-4,1.946608E-3,-1.00095924E-4,4.3843698E-4,-9.6488E-5,-1.0207916E-3,-6.622911E-4,1.8850566E-4,1.8229635E-3,8.8398735E-4,-1.3993583E-3,1.3734055E-3,2.2726259E-4,1.9424519E-3,-1.2909702E-3,2.262977E-5,1.0065973E-3,-1.61106E-3,3.8366856E-3,1.3562238E-3,-8.6397084E-4,-2.5389076E-3,2.3782254E-6,1.2024404E-3,-1.1311161E-3,1.5552164E-3,4.5329545E-4,-4.8187972E-4,-5.8967475E-4,2.1377207E-4,2.3719002E-4,2.5860572E-3,-3.1717212E-3,1.2518088E-3,4.536398E-4,1.7067499E-3,-8.3843357E-4,3.814079E-4],"split_indices":[1,0,6,2,1,1,6,3,0,6,2,2,5,5,0,0,2,3,1,0,6,6,0,2,0,0,2,2,6,6,0,0,6,0,1,1,3,0,0,4,1,6,5,0,2,0,0,1,3,0,0,1,5,1,0,0,0,0,0,0,0,0,0,0,0,0,0,0,0,0,0,0,0,0,0,0,0,0,0,0,0,0,0,0,0,0,0,0,0,0,0,0,0,0,0,0,0],"split_type":[0,0,0,0,0,0,0,0,0,0,0,0,0,0,0,0,0,0,0,0,0,0,0,0,0,0,0,0,0,0,0,0,0,0,0,0,0,0,0,0,0,0,0,0,0,0,0,0,0,0,0,0,0,0,0,0,0,0,0,0,0,0,0,0,0,0,0,0,0,0,0,0,0,0,0,0,0,0,0,0,0,0,0,0,0,0,0,0,0,0,0,0,0,0,0,0,0],"sum_hessian":[4.952E3,4.022E3,9.3E2,2.59E3,1.432E3,4.3E1,8.87E2,2.585E3,5E0,2.7E1,1.405E3,3.4E1,9E0,7.3E1,8.14E2,7.8E1,2.507E3,6E0,2.1E1,1.7E1,1.388E3,2.5E1,9E0,7E0,2E0,6.7E1,6E0,7.54E2,6E1,5.8E1,2E1,5E0,2.502E3,1E0,5E0,2E0,1.9E1,1.2E1,5E0,2.5E1,1.363E3,8E0,1.7E1,1E0,8E0,1E0,6E0,1.7E1,5E1,4E0,2E0,7.39E2,1.5E1,3.6E1,2.4E1,3.2E1,2.6E1,1E1,1E1,1E0,4E0,2.474E3,2.8E1,1E0,4E0,1E0,1E0,7E0,1.2E1,8E0,4E0,1.7E1,8E0,1.3E1,1.35E3,5E0,3E0,1E0,1.6E1,7E0,1E0,1E0,5E0,1.6E1,1E0,3.3E1,1.7E1,1E0,1E0,7.3E2,9E0,7E0,8E0,1.5E1,2.1E1,9E0,1.5E1],"tree_param":{"num_deleted":"0","num_feature":"7","num_nodes":"97","size_leaf_vector":"1"}},{"base_weights":[5.2147625E-6,-1.792248E-4,4.9410487E-4,-1.6641953E-4,-4.3386114E-3,8.921122E-3,4.6259767E-4,-1.8941441E-4,1.2609728E-3,-4.7308444E-3,-6.244183E-5,4.1255952E-4,3.1391412E-3,-9.7565237E-4,5.19684E-4,-1.8063912E-4,-6.341624E-3,4.7671795E-3,8.5525735E-6,-2.689171E-3,-5.643765E-3,4.4198832E-4,-6.2997667E-3,4.221571E-4,1.2282581E-3,-1.9212368E-4,7.947517E-3,-2.538398E-3,3.2057764E-4,-8.6098915E-4,5.517687E-3,1.1314461E-3,-2.6697745E-3,1.701057E-4,-1.0934919E-3,-2.1742703E-3,-1.6241074E-3,1.6113616E-3,-6.842812E-3,-8.4547205E-3,2.2650163E-3,4.9732765E-4,-4.3161577E-3,6.390393E-3,8.711662E-4,-5.16125E-5,-4.2307E-4,2.8438033E-3,2.73031E-4,1.960987E-3,-1.1918545E-4,-4.615188E-5,6.2047644E-4,-2.6698261E-3,2.6718379E-5,-1.1119545E-3,3.8110616E-4,5.4637716E-5,2.689618E-3,4.2791964E-4,-2.6345802E-3,-1.0395407E-3,-2.8155888E-3,1.1308194E-4,9.061754E-4,1.329716E-4,1.9516684E-3,-1.7353514E-3,3.0968608E-3,2.7876429E-3,-8.558035E-5,-5.417705E-4,3.9107E-4],"categories":[],"categories_nodes":[],"categories_segments":[],"categories_sizes":[],"default_left":[0,0,0,0,0,0,0,0,0,0,0,0,0,0,0,0,0,0,0,0,0,0,0,0,0,0,0,0,0,0,0,0,0,0,0,0,0,0,0,0,0,0,0,0,0,0,0,0,0,0,0,0,0,0,0,0,0,0,0,0,0,0,0,0,0,0,0,0,0,0,0,0,0],"id":19,"left_children":[1,3,5,7,9,11,13,15,17,19,-1,-1,-1,21,23,25,27,29,31,33,35,37,39,41,43,45,47,-1,-1,-1,49,51,53,-1,-1,-1,55,57,59,61,63,65,67,69,71,-1,-1,-1,-1,-1,-1,-1,-1,-1,-1,-1,-1,-1,-1,-1,-1,-1,-1,-1,-1,-1,-1,-1,-1,-1,-1,-1,-1],"loss_changes":[4.4670387E-4,1.908615E-4,3.5617218E-4,1.1797396E-4,1.6836508E-5,4.3814944E-5,1.1159433E-4,1.8948416E-4,2.5026017E-4,3.4618133E-6,0E0,0E0,0E0,3.9526384E-4,8.945621E-5,3.307666E-4,8.757894E-5,1.0181154E-4,1.3234219E-4,1.7628136E-5,2.6909576E-5,3.688096E-4,2.221739E-4,4.1033066E-4,2.8383988E-4,8.593737E-5,4.5273337E-5,0E0,0E0,0E0,8.6974556E-5,3.7644244E-5,2.24218E-4,0E0,0E0,0E0,2.2790926E-5,3.8726104E-4,1.08736596E-4,9.267358E-6,3.1411328E-6,3.6401805E-4,4.4662567E-4,1.9636168E-4,1.7367376E-4,0E0,0E0,0E0,0E0,0E0,0E0,0E0,0E0,0E0,0E0,0E0,0E0,0E0,0E0,0E0,0E0,0E0,0E0,0E0,0E0,0E0,0E0,0E0,0E0,0E0,0E0,0E0,0E0],"parents":[2147483647,0,0,1,1,2,2,3,3,4,4,5,5,6,6,7,7,8,8,9,9,13,13,14,14,15,15,16,16,17,17,18,18,19,19,20,20,21,21,22,22,23,23,24,24,25,25,26,26,30,30,31,31,32,32,36,36,37,37,38,38,39,39,40,40,41,41,42,42,43,43,44,44],"right_children":[2,4,6,8,10,12,14,16,18,20,-1,-1,-1,22,24,26,28,30,32,34,36,38,40,42,44,46,48,-1,-1,-1,50,52,54,-1,-1,-1,56,58,60,62,64,66,68,70,72,-1,-1,-1,-1,-1,-1,-1,-1,-1,-1,-1,-1,-1,-1,-1,-1,-1,-1,-1,-1,-1,-1,-1,-1,-1,-1,-1,-1],"split_conditions":[1.254E0,1.2595E0,1.2424E0,1.2489E0,1.2758E0,1.2262E0,1.2595E0,1.2615E0,1.2476E0,1.2618E0,-6.244183E-5,4.1255952E-4,3.1391412E-3,1.2684E0,1.721E0,1.2564E0,1.2638E0,1.2375E0,1.2565E0,1.2443E0,1.249E0,1.2615E0,1.2762E0,1.7279E0,1.7152E0,1.2421E0,1.2587E0,-2.538398E-3,3.2057764E-4,-8.6098915E-4,1.2565E0,1.2443E0,1.2533E0,1.701057E-4,-1.0934919E-3,-2.1742703E-3,1.256E0,1.2615E0,1.2472E0,1.2474E0,1.2419E0,1.721E0,1.7415E0,1.7152E0,1.721E0,-5.16125E-5,-4.2307E-4,2.8438033E-3,2.73031E-4,1.960987E-3,-1.1918545E-4,-4.615188E-5,6.2047644E-4,-2.6698261E-3,2.6718379E-5,-1.1119545E-3,3.8110616E-4,5.4637716E-5,2.689618E-3,4.2791964E-4,-2.6345802E-3,-1.0395407E-3,-2.8155888E-3,1.1308194E-4,9.061754E-4,1.329716E-4,1.9516684E-3,-1.7353514E-3,3.0968608E-3,2.7876429E-3,-8.558035E-5,-5.417705E-4,3.9107E-4],"split_indices":[6,5,5,3,2,0,4,2,2,5,0,0,0,6,5,2,0,4,4,6,6,3,6,1,4,3,0,0,0,0,3,6,2,0,0,0,0,2,0,1,0,3,1,2,1,0,0,0,0,0,0,0,0,0,0,0,0,0,0,0,0,