{"learner":{"attributes":{},"feature_names":[],"feature_types":[],"gradient_booster":{"model":{"gbtree_model_param":{"num_parallel_tree":"1","num_trees":"100"},"iteration_indptr":[0,1,2,3,4,5,6,7,8,9,10,11,12,13,14,15,16,17,18,19,20,21,22,23,24,25,26,27,28,29,30,31,32,33,34,35,36,37,38,39,40,41,42,43,44,45,46,47,48,49,50,51,52,53,54,55,56,57,58,59,60,61,62,63,64,65,66,67,68,69,70,71,72,73,74,75,76,77,78,79,80,81,82,83,84,85,86,87,88,89,90,91,92,93,94,95,96,97,98,99,100],"tree_info":[0,0,0,0,0,0,0,0,0,0,0,0,0,0,0,0,0,0,0,0,0,0,0,0,0,0,0,0,0,0,0,0,0,0,0,0,0,0,0,0,0,0,0,0,0,0,0,0,0,0,0,0,0,0,0,0,0,0,0,0,0,0,0,0,0,0,0,0,0,0,0,0,0,0,0,0,0,0,0,0,0,0,0,0,0,0,0,0,0,0,0,0,0,0,0,0,0,0,0,0],"trees":[{"base_weights":[1.7606295E-6,-2.9739032E0,5.666991E0,-4.1212797E0,-1.0087292E0,3.8384335E0,7.6544294E0,-4.999739E0,-3.3330235E0,-1.9262497E0,-2.0162798E-1,2.8218536E0,4.848672E0,6.64255E0,8.635375E0,-1.6870234E0,-4.611222E0,-1.1468053E0,-3.0199592E0,-2.2564013E0,-1.451803E0,-5.653458E-1,2.8806463E-1,2.2200727E0,3.3673754E0,1.233083E0,1.5936115E0,1.8241059E0,2.1385E0,2.4213264E0,2.8490672E0,-1.4454012E0,-1.2920802E0,-9.485623E-1,-8.2333505E-1,-7.112905E-1,-6.0767806E-1,-4.7296497E-1,-3.5357833E-1,-7.3157734E-1,-3.332642E-1,1.050041E-1,7.362765E-1,5.749748E-1,7.373692E-1,8.535203E-1,1.0575382E0,-2.867798E-1,-1.9243734E-1,-1.3316971E-1,-7.876056E-2,6.7411633E-3,9.13284E-2,1.7904395E-1,3.3535585E-1],"categories":[],"categories_nodes":[],"categories_segments":[],"categories_sizes":[],"default_left":[0,0,0,0,0,0,0,0,0,0,0,0,0,0,0,0,0,0,0,0,0,0,0,0,0,0,0,0,0,0,0,0,0,0,0,0,0,0,0,0,0,0,0,0,0,0,0,0,0,0,0,0,0,0,0],"id":0,"left_children":[1,3,5,7,9,11,13,15,17,19,21,23,25,27,29,-1,31,-1,33,35,37,39,41,43,45,-1,-1,-1,-1,-1,-1,-1,-1,-1,-1,-1,-1,-1,-1,47,49,51,53,-1,-1,-1,-1,-1,-1,-1,-1,-1,-1,-1,-1],"loss_changes":[8.3490195E4,7.321668E3,6.16684E3,1.4035547E3,8.875094E2,9.003369E2,7.5259766E2,2.0862305E2,1.5462793E2,8.459888E1,1.13975105E2,1.3893921E2,1.304209E2,6.753711E1,1.2315234E2,0E0,1.712793E1,0E0,1.7362305E1,3.8972168E0,6.0829773E0,1.3914787E1,2.2322311E1,1.0807373E1,9.086426E0,0E0,0E0,0E0,0E0,0E0,0E0,0E0,0E0,0E0,0E0,0E0,0E0,0E0,0E0,3.6934204E0,1.0963497E0,3.202696E0,3.5369072E0,0E0,0E0,0E0,0E0,0E0,0E0,0E0,0E0,0E0,0E0,0E0,0E0],"parents":[2147483647,0,0,1,1,2,2,3,3,4,4,5,5,6,6,7,7,8,8,9,9,10,10,11,11,12,12,13,13,14,14,16,16,18,18,19,19,20,20,21,21,22,22,23,23,24,24,39,39,40,40,41,41,42,42],"right_children":[2,4,6,8,10,12,14,16,18,20,22,24,26,28,30,-1,32,-1,34,36,38,40,42,44,46,-1,-1,-1,-1,-1,-1,-1,-1,-1,-1,-1,-1,-1,-1,48,50,52,54,-1,-1,-1,-1,-1,-1,-1,-1,-1,-1,-1,-1],"split_conditions":[3.727E1,3.304E1,4.133E1,3.145E1,3.455E1,3.94E1,4.323E1,3.048E1,3.216E1,3.376E1,3.544E1,3.837E1,4.019E1,4.22E1,4.435E1,-1.6870234E0,3.104E1,-1.1468053E0,3.265E1,3.339E1,3.418E1,3.507E1,3.604E1,3.779E1,3.87E1,1.233083E0,1.5936115E0,1.8241059E0,2.1385E0,2.4213264E0,2.8490672E0,-1.4454012E0,-1.2920802E0,-9.485623E-1,-8.2333505E-1,-7.112905E-1,-6.0767806E-1,-4.7296497E-1,-3.5357833E-1,3.475E1,3.521E1,3.581E1,3.657E1,5.749748E-1,7.373692E-1,8.535203E-1,1.0575382E0,-2.867798E-1,-1.9243734E-1,-1.3316971E-1,-7.876056E-2,6.7411633E-3,9.13284E-2,1.7904395E-1,3.3535585E-1],"split_indices":[1,0,0,0,0,0,0,0,0,0,0,0,0,0,0,0,0,0,0,0,0,0,0,0,0,0,0,0,0,0,0,0,0,0,0,0,0,0,0,0,0,0,0,0,0,0,0,0,0,0,0,0,0,0,0],"split_type":[0,0,0,0,0,0,0,0,0,0,0,0,0,0,0,0,0,0,0,0,0,0,0,0,0,0,0,0,0,0,0,0,0,0,0,0,0,0,0,0,0,0,0,0,0,0,0,0,0,0,0,0,0,0,0],"sum_hessian":[4.952E3,3.248E3,1.704E3,2.05E3,1.198E3,8.89E2,8.15E2,9.67E2,1.083E3,5.6E2,6.38E2,4.45E2,4.44E2,4.05E2,4.1E2,3.66E2,6.01E2,4.18E2,6.65E2,3.28E2,2.32E2,3.66E2,2.72E2,2.14E2,2.31E2,1.75E2,2.69E2,1.94E2,2.11E2,2.54E2,1.56E2,3.49E2,2.52E2,4.32E2,2.33E2,2.13E2,1.15E2,1.56E2,7.6E1,2.12E2,1.54E2,1.94E2,7.8E1,9.8E1,1.16E2,5.8E1,1.73E2,5.8E1,1.54E2,5.8E1,9.6E1,1.38E2,5.6E1,5.9E1,1.9E1],"tree_param":{"num_deleted":"0","num_feature":"7","num_nodes":"55","size_leaf_vector":"1"}},{"base_weights":[1.1552509E-3,-2.0838988E0,3.97793E0,-2.900686E0,-7.260055E-1,2.7522016E0,5.440203E0,-3.443799E0,-2.2765129E0,-1.4117448E0,-1.7553693E-1,2.1165974E0,3.6329882E0,4.898697E0,6.3113165E0,-1.2216772E0,-3.22904E0,-2.513696E0,-2.0603507E0,-1.6306931E0,-1.1102684E0,-4.6196732E-1,1.6689785E-1,1.6288201E0,2.5286367E0,9.518854E-1,1.1452546E0,1.3291383E0,1.5745931E0,1.785564E0,2.08177E0,-1.032069E0,-9.0281314E-1,-8.036832E-1,-7.1291864E-1,-6.3716805E-1,-5.70582E-1,-5.184303E-1,-4.5686957E-1,-3.7071532E-1,-1.0174445E0,-6.430875E-1,-3.313015E-1,1.8411674E-2,4.73979E-1,4.2424953E-1,5.5877316E-1,6.7368215E-1,7.8692025E-1,-6.714478E-2,-3.0647206E-1,-2.116356E-1,-1.5737465E-1,-1.144555E-1,-7.1625516E-2,-2.2279967E-2,2.7814122E-2,9.400439E-2,2.050071E-1],"categories":[],"categories_nodes":[],"categories_segments":[],"categories_sizes":[],"default_left":[0,0,0,0,0,0,0,0,0,0,0,0,0,0,0,0,0,0,0,0,0,0,0,0,0,0,0,0,0,0,0,0,0,0,0,0,0,0,0,0,0,0,0,0,0,0,0,0,0,0,0,0,0,0,0,0,0,0,0],"id":1,"left_children":[1,3,5,7,9,11,13,15,17,19,21,23,25,27,29,-1,31,33,35,37,39,41,43,45,47,-1,-1,-1,-1,-1,-1,-1,-1,-1,-1,-1,-1,-1,-1,-1,49,51,53,55,57,-1,-1,-1,-1,-1,-1,-1,-1,-1,-1,-1,-1,-1,-1],"loss_changes":[4.1077527E4,3.602502E3,3.0391895E3,6.799824E2,4.6103015E2,5.1239453E2,3.3513086E2,1.3301953E2,4.3373535E1,3.4097656E1,6.667595E1,1.0481421E2,2.0824219E1,5.5890625E1,2.5052734E1,0E0,2.7316406E1,3.775879E0,1.003418E0,6.5478516E-1,1.4443054E0,8.543442E0,1.4126437E1,9.96051E0,1.9138184E0,0E0,0E0,0E0,0E0,0E0,0E0,0E0,0E0,0E0,0E0,0E0,0E0,0E0,0E0,0E0,2.2685242E-1,7.6807404E-1,9.174328E-1,1.4529842E0,3.182764E0,0E0,0E0,0E0,0E0,0E0,0E0,0E0,0E0,0E0,0E0,0E0,0E0,0E0,0E0],"parents":[2147483647,0,0,1,1,2,2,3,3,4,4,5,5,6,6,7,7,8,8,9,9,10,10,11,11,12,12,13,13,14,14,16,16,17,17,18,18,19,19,20,20,21,21,22,22,23,23,24,24,40,40,41,41,42,42,43,43,44,44],"right_children":[2,4,6,8,10,12,14,16,18,20,22,24,26,28,30,-1,32,34,36,38,40,42,44,46,48,-1,-1,-1,-1,-1,-1,-1,-1,-1,-1,-1,-1,-1,-1,-1,50,52,54,56,58,-1,-1,-1,-1,-1,-1,-1,-1,-1,-1,-1,-1,-1,-1],"split_conditions":[3.727E1,3.3E1,4.147E1,3.159E1,3.439E1,3.975E1,4.362E1,3.02E1,3.235E1,3.361E1,3.534E1,3.851E1,4.067E1,4.255E1,4.488E1,-1.2216772E0,3.093E1,3.192E1,3.276E1,3.324E1,3.399E1,3.49E1,3.594E1,3.797E1,3.906E1,9.518854E-1,1.1452546E0,1.3291383E0,1.5745931E0,1.785564E0,2.08177E0,-1.032069E0,-9.0281314E-1,-8.036832E-1,-7.1291864E-1,-6.3716805E-1,-5.70582E-1,-5.184303E-1,-4.5686957E-1,-3.7071532E-1,3.343E1,3.475E1,3.517E1,3.56E1,3.629E1,4.2424953E-1,5.5877316E-1,6.7368215E-1,7.8692025E-1,-6.714478E-2,-3.0647206E-1,-2.116356E-1,-1.5737465E-1,-1.144555E-1,-7.1625516E-2,-2.2279967E-2,2.7814122E-2,9.400439E-2,2.050071E-1],"split_indices":[0,0,0,0,0,0,0,0,0,0,0,0,0,0,0,0,0,0,0,0,0,0,0,0,0,0,0,0,0,0,0,0,0,0,0,0,0,0,0,0,2,0,0,0,0,0,0,0,0,0,0,0,0,0,0,0,0,0,0],"split_type":[0,0,0,0,0,0,0,0,0,0,0,0,0,0,0,0,0,0,0,0,0,0,0,0,0,0,0,0,0,0,0,0,0,0,0,0,0,0,0,0,0,0,0,0,0,0,0,0,0,0,0,0,0,0,0,0,0,0,0],"sum_hessian":[4.952E3,3.249E3,1.703E3,2.028E3,1.221E3,9.28E2,7.75E2,1.082E3,9.46E2,5.43E2,6.78E2,5.41E2,3.87E2,4.82E2,2.93E2,2.71E2,8.11E2,4.46E2,5E2,3.12E2,2.31E2,3.69E2,3.09E2,2.5E2,2.91E2,1.16E2,2.71E2,2.12E2,2.7E2,1.93E2,1E2,4.06E2,4.05E2,1.94E2,2.52E2,3.48E2,1.52E2,1.56E2,1.56E2,9.3E1,1.38E2,1.53E2,2.16E2,2.09E2,1E2,1.34E2,1.16E2,7.9E1,2.12E2,1E0,1.37E2,9.7E1,5.6E1,1.38E2,7.8E1,9.3E1,1.16E2,5.8E1,4.2E1],"tree_param":{"num_deleted":"0","num_feature":"7","num_nodes":"59","size_leaf_vector":"1"}},{"base_weights":[1.5075248E-3,-1.462517E0,2.7888172E0,-2.0039256E0,-4.5962852E-1,1.9981182E0,3.9223104E0,-2.5194619E0,-1.6545526E0,-8.993451E-1,-8.676216E-2,1.4834869E0,2.5971725E0,3.5939023E0,4.5568457E0,-2.9635723E0,-2.3836067E0,-1.9359099E0,-1.4771633E0,-1.0698406E0,-6.825489E-1,-2.6720953E-1,1.4225452E-1,1.0508078E0,1.7203125E0,6.976095E-1,8.346502E-1,9.8719126E-1,1.1377704E0,1.2837164E0,1.46491E0,-1.0134587E0,-8.5147846E-1,-7.5697213E-1,-6.8065625E-1,-5.9976834E-1,-5.2775717E-1,-4.8406407E-1,-1.3610034E0,-1.1300164E0,-2.8308138E-1,-7.5137097E-1,-1.6246039E-1,-3.5916373E-1,-1.7738228E-1,3.527067E-2,3.329372E-1,2.6696965E-1,3.4581625E-1,4.3597612E-1,5.450876E-1,-4.2114693E-1,-3.7781242E-1,-3.3996832E-1,-7.749882E-2,-5.7072833E-2,-2.2613852E-1,-1.18305944E-1,-8.5882805E-2,-6.338717E-2,-3.283115E-2,-1.3873265E-3,3.6252823E-2,8.171602E-2,1.7607537E-1],"categories":[],"categories_nodes":[],"categories_segments":[],"categories_sizes":[],"default_left":[0,0,0,0,0,0,0,0,0,0,0,0,0,0,0,0,0,0,0,0,0,0,0,0,0,0,0,0,0,0,0,0,0,0,0,0,0,0,0,0,0,0,0,0,0,0,0,0,0,0,0,0,0,0,0,0,0,0,0,0,0,0,0,0,0],"id":2,"left_children":[1,3,5,7,9,11,13,15,17,19,21,23,25,27,29,31,33,35,37,39,41,43,45,47,49,-1,-1,-1,-1,-1,-1,-1,-1,-1,-1,-1,-1,-1,51,53,-1,55,-1,57,59,61,63,-1,-1,-1,-1,-1,-1,-1,-1,-1,-1,-1,-1,-1,-1,-1,-1,-1,-1],"loss_changes":[2.0215734E4,1.7626538E3,1.521169E3,3.7569238E2,1.8683127E2,3.0659717E2,1.2949316E2,4.4220703E1,6.002661E1,1.8601318E1,2.5577145E1,5.393579E1,1.6861816E1,1.5595703E1,3.9892578E-1,5.4333496E-1,4.786377E0,1.8988037E0,1.0113281E1,1.1442566E0,1.8543472E0,2.7942486E0,5.557448E0,2.171936E0,6.3930664E0,0E0,0E0,0E0,0E0,0E0,0E0,0E0,0E0,0E0,0E0,0E0,0E0,0E0,8.5876465E-2,2.447052E-1,0E0,6.607056E-2,0E0,3.2313347E-1,3.846674E-1,6.0140616E-1,1.3472385E0,0E0,0E0,0E0,0E0,0E0,0E0,0E0,0E0,0E0,0E0,0E0,0E0,0E0,0E0,0E0,0E0,0E0,0E0],"parents":[2147483647,0,0,1,1,2,2,3,3,4,4,5,5,6,6,7,7,8,8,9,9,10,10,11,11,12,12,13,13,14,14,15,15,16,16,17,17,18,18,19,19,20,20,21,21,22,22,23,23,24,24,38,38,39,39,41,41,43,43,44,44,45,45,46,46],"right_children":[2,4,6,8,10,12,14,16,18,20,22,24,26,28,30,32,34,36,38,40,42,44,46,48,50,-1,-1,-1,-1,-1,-1,-1,-1,-1,-1,-1,-1,-1,52,54,-1,56,-1,58,60,62,64,-1,-1,-1,-1,-1,-1,-1,-1,-1,-1,-1,-1,-1,-1,-1,-1,-1,-1],"split_conditions":[3.727E1,3.314E1,4.171E1,3.127E1,3.46E1,3.975E1,4.385E1,2.998E1,3.205E1,3.388E1,3.544E1,3.824E1,4.089E1,4.28E1,4.488E1,2.95E1,3.068E1,3.179E1,3.25E1,3.346E1,3.432E1,3.503E1,3.594E1,3.763E1,3.89E1,6.976095E-1,8.346502E-1,9.8719126E-1,1.1377704E0,1.2837164E0,1.46491E0,-1.0134587E0,-8.5147846E-1,-7.5697213E-1,-6.8065625E-1,-5.9976834E-1,-5.2775717E-1,-4.8406407E-1,3.289E1,3.369E1,-2.8308138E-1,3.343E1,-1.6246039E-1,3.494E1,3.528E1,3.574E1,3.667E1,2.6696965E-1,3.4581625E-1,4.3597612E-1,5.450876E-1,-4.2114693E-1,-3.7781242E-1,-3.3996832E-1,-7.749882E-2,-5.7072833E-2,-2.2613852E-1,-1.18305944E-1,-8.5882805E-2,-6.338717E-2,-3.283115E-2,-1.3873265E-3,3.6252823E-2,8.171602E-2,1.7607537E-1],"split_indices":[2,0,0,0,0,0,0,0,0,0,1,0,0,0,2,0,0,0,0,0,0,0,0,0,0,0,0,0,0,0,0,0,0,0,0,0,0,0,0,1,0,2,0,0,0,0,6,0,0,0,0,0,0,0,0,0,0,0,0,0,0,0,0,0,0],"split_type":[0,0,0,0,0,0,0,0,0,0,0,0,0,0,0,0,0,0,0,0,0,0,0,0,0,0,0,0,0,0,0,0,0,0,0,0,0,0,0,0,0,0,0,0,0,0,0,0,0,0,0,0,0,0,0,0,0,0,0,0,0,0,0,0,0],"sum_hessian":[4.952E3,3.247E3,1.705E3,2.108E3,1.139E3,1.006E3,6.99E2,8.49E2,1.259E3,5.22E2,6.17E2,5.43E2,4.63E2,4.65E2,2.34E2,1.94E2,6.55E2,4.83E2,7.76E2,2.9E2,2.32E2,3.45E2,2.72E2,1.94E2,3.49E2,1.93E2,2.7E2,1.91E2,2.74E2,1.34E2,1E2,3.9E1,1.55E2,2.86E2,3.69E2,3.48E2,1.35E2,3.51E2,4.25E2,1.91E2,9.9E1,1.53E2,7.9E1,1.69E2,1.76E2,1.75E2,9.7E1,7.9E1,1.15E2,9.7E1,2.52E2,2.9E2,1.35E2,1.9E2,1E0,1E0,1.52E2,1.11E2,5.8E1,1.16E2,6E1,1.2E2,5.5E1,8E1,1.7E1],"tree_param":{"num_deleted":"0","num_feature":"7","num_nodes":"65","size_leaf_vector":"1"}},{"base_weights":[1.2839213E-3,-1.0250952E0,1.9588726E0,-1.3989078E0,-3.0904245E-1,1.2603486E0,2.5933356E0,-1.6797503E0,-1.0772669E0,-6.090154E-1,-5.098076E-2,9.369382E-1,1.5806623E0,2.2633245E0,3.0485575E0,-1.9173802E0,-1.524393E0,-1.1885194E0,-9.532605E-1,-7.500044E-1,-4.7878546E-1,-1.7070082E-1,1.1549941E-1,7.416273E-1,1.107906E0,4.1445145E-1,5.256267E-1,6.0629237E-1,7.3482007E-1,8.597988E-1,1.0224161E0,-2.2246273E0,-5.4870343E-1,-1.6179001E0,-4.286022E-1,-1.2371478E0,-1.110981E0,-2.9920042E-1,-2.6713136E-1,-2.3369026E-1,-6.493957E-1,-1.6100678E-1,-1.11829154E-1,-2.3437221E-1,-1.071442E-1,6.787718E-2,3.4538704E-1,1.8054682E-1,2.3873901E-1,3.0053747E-1,3.48654E-1,-6.7148477E-1,-1.4115459E-1,-1.3696204E-1,-4.8598832E-1,-9.464207E-2,-3.717291E-1,-7.671204E-2,-3.3415082E-1,-1.9643754E-1,-4.884453E-2,-7.942082E-2,-5.9123095E-2,-3.3468906E-2,1.0058499E-1,5.066133E-3,3.9186437E-2,-2.6545716E-2,1.0734725E-1],"categories":[],"categories_nodes":[],"categories_segments":[],"categories_sizes":[],"default_left":[0,0,0,0,0,0,0,0,0,0,0,0,0,0,0,0,0,0,0,0,0,0,0,0,0,0,0,0,0,0,0,0,0,0,0,0,0,0,0,0,0,0,0,0,0,0,0,0,0,0,0,0,0,0,0,0,0,0,0,0,0,0,0,0,0,0,0,0,0],"id":3,"left_children":[1,3,5,7,9,11,13,15,17,19,21,23,25,27,29,31,33,35,37,39,41,43,45,47,49,-1,-1,-1,-1,-1,-1,51,-1,53,-1,55,57,-1,-1,-1,59,-1,-1,61,63,65,67,-1,-1,-1,-1,-1,-1,-1,-1,-1,-1,-1,-1,-1,-1,-1,-1,-1,-1,-1,-1,-1,-1],"loss_changes":[9.953716E3,8.694939E2,7.519238E2,1.9104541E2,8.636022E1,8.273999E1,1.27103516E2,3.9089355E1,1.2635498E1,9.115173E0,1.1998257E1,1.2768829E1,1.14747925E1,1.8544434E1,1.4646973E1,8.040527E0,3.8913574E0,5.9375E-1,4.326477E-1,2.1096802E-1,1.4636269E0,1.3912468E0,2.7353919E0,9.826813E-1,7.397461E-2,0E0,0E0,0E0,0E0,0E0,0E0,1.2224121E0,0E0,8.129883E-2,0E0,1.696167E-1,2.3040771E-1,0E0,0E0,0E0,5.3552628E-2,0E0,0E0,1.4486885E-1,3.8344073E-1,6.6965437E-1,2.6369524E-1,0E0,0E0,0E0,0E0,0E0,0E0,0E0,0E0,0E0,0E0,0E0,0E0,0E0,0E0,0E0,0E0,0E0,0E0,0E0,0E0,0E0,0E0],"parents":[2147483647,0,0,1,1,2,2,3,3,4,4,5,5,6,6,7,7,8,8,9,9,10,10,11,11,12,12,13,13,14,14,15,15,16,16,17,17,18,18,19,19,20,20,21,21,22,22,23,23,24,24,31,31,33,33,35,35,36,36,40,40,43,43,44,44,45,45,46,46],"right_children":[2,4,6,8,10,12,14,16,18,20,22,24,26,28,30,32,34,36,38,40,42,44,46,48,50,-1,-1,-1,-1,-1,-1,52,-1,54,-1,56,58,-1,-1,-1,60,-1,-1,62,64,66,68,-1,-1,-1,-1,-1,-1,-1,-1,-1,-1,-1,-1,-1,-1,-1,-1,-1,-1,-1,-1,-1,-1],"split_conditions":[3.728E1,3.317E1,4.108E1,3.168E1,3.464E1,3.925E1,4.336E1,3.063E1,3.247E1,3.377E1,3.551E1,3.824E1,4.001E1,4.197E1,4.47E1,2.979E1,3.119E1,3.224E1,3.283E1,3.354E1,3.432E1,3.507E1,3.629E1,3.755E1,3.87E1,4.1445145E-1,5.256267E-1,6.0629237E-1,7.3482007E-1,8.597988E-1,1.0224161E0,3.026E1,-5.4870343E-1,2.968E1,-4.286022E-1,3.129E1,3.175E1,-2.9920042E-1,-2.6713136E-1,-2.3369026E-1,3.395E1,-1.6100678E-1,-1.11829154E-1,3.494E1,3.596E1,3.581E1,3.522E1,1.8054682E-1,2.3873901E-1,3.0053747E-1,3.48654E-1,-6.7148477E-1,-1.4115459E-1,-1.3696204E-1,-4.8598832E-1,-9.464207E-2,-3.717291E-1,-7.671204E-2,-3.3415082E-1,-1.9643754E-1,-4.884453E-2,-7.942082E-2,-5.9123095E-2,-3.3468906E-2,1.0058499E-1,5.066133E-3,3.9186437E-2,-2.6545716E-2,1.0734725E-1],"split_indices":[3,0,0,0,0,0,0,0,0,1,0,1,0,0,0,0,0,0,0,0,0,0,0,0,0,0,0,0,0,0,0,3,0,1,0,1,1,0,0,0,0,0,0,0,3,0,6,0,0,0,0,0,0,0,0,0,0,0,0,0,0,0,0,0,0,0,0,0,0],"split_type":[0,0,0,0,0,0,0,0,0,0,0,0,0,0,0,0,0,0,0,0,0,0,0,0,0,0,0,0,0,0,0,0,0,0,0,0,0,0,0,0,0,0,0,0,0,0,0,0,0,0,0,0,0,0,0,0,0,0,0,0,0,0,0,0,0,0,0,0,0],"sum_hessian":[4.952E3,3.249E3,1.703E3,2.134E3,1.115E3,8.12E2,8.91E2,1.137E3,9.97E2,5.15E2,6E2,4.06E2,4.06E2,5.2E2,3.71E2,4.45E2,6.92E2,5.21E2,4.76E2,2.45E2,2.7E2,3.49E2,2.51E2,1.92E2,2.14E2,1.92E2,2.14E2,2.31E2,2.89E2,2.52E2,1.19E2,9.4E1,3.51E2,3.42E2,3.5E2,3.11E2,2.1E2,2.71E2,2.05E2,1.85E2,6E1,1.72E2,9.8E1,1.73E2,1.76E2,2.09E2,4.2E1,5.7E1,1.35E2,7.9E1,1.35E2,9.3E1,1E0,1E0,3.41E2,1E0,3.1E2,1E0,2.09E2,5.9E1,1E0,9.2E1,8.1E1,1.75E2,1E0,1.16E2,9.3E1,1E0,4.1E1],"tree_param":{"num_deleted":"0","num_feature":"7","num_nodes":"69","size_leaf_vector":"1"}},{"base_weights":[1.0356656E-3,-7.189838E-1,1.3743117E0,-9.814806E-1,-2.1684681E-1,9.0628576E-1,1.8401778E0,-1.231979E0,-8.023113E-1,-4.204443E-1,-2.8968627E-2,6.6725534E-1,1.1404177E0,1.5556009E0,2.0939682E0,-1.4589905E0,-1.1499416E0,-9.516325E-1,-7.231158E-1,-5.1351553E-1,-3.1509152E-1,-1.2082898E-1,7.4020304E-2,5.0774854E-1,7.7517134E-1,2.9840362E-1,3.8465694E-1,4.2547727E-1,4.9574864E-1,5.749238E-1,6.931397E-1,-5.2294904E-1,-4.1776052E-1,-1.2021711E0,-3.213337E-1,-2.9283082E-1,-2.5734478E-1,-7.8143555E-1,-6.5402013E-1,-5.343301E-1,-4.2900467E-1,-3.5503155E-1,-7.4367225E-2,-1.4608467E-1,-6.4385325E-2,2.5973363E-2,1.9289659E-1,1.1777406E-1,1.6175926E-1,2.0820613E-1,2.467843E-1,-8.502503E-2,-3.611451E-1,-2.347863E-1,-3.933163E-2,-1.9644578E-1,-5.255356E-2,-1.6064523E-1,-4.172287E-2,-1.9200899E-2,-1.302064E-1,-1.0411223E-1,-1.9486351E-1,-4.5045376E-2,-1.4677278E-2,-5.822496E-3,-2.5270384E-2,2.436173E-4,1.9552574E-2,4.5510013E-2,8.983612E-2],"categories":[],"categories_nodes":[],"categories_segments":[],"categories_sizes":[],"default_left":[0,0,0,0,0,0,0,0,0,0,0,0,0,0,0,0,0,0,0,0,0,0,0,0,0,0,0,0,0,0,0,0,0,0,0,0,0,0,0,0,0,0,0,0,0,0,0,0,0,0,0,0,0,0,0,0,0,0,0,0,0,0,0,0,0,0,0,0,0,0,0],"id":4,"left_children":[1,3,5,7,9,11,13,15,17,19,21,23,25,27,29,31,33,35,37,39,41,43,45,47,49,-1,-1,-1,-1,-1,-1,-1,-1,51,-1,-1,-1,53,55,57,59,61,-1,63,65,67,69,-1,-1,-1,-1,-1,-1,-1,-1,-1,-1,-1,-1,-1,-1,-1,-1,-1,-1,-1,-1,-1,-1,-1,-1],"loss_changes":[4.898443E3,4.281676E2,3.6986792E2,9.478906E1,4.271478E1,4.692096E1,5.8348633E1,1.4859863E1,1.405835E1,5.0938416E0,5.515012E0,6.9048615E0,7.588562E0,3.0593262E0,1.2793457E1,1.9538879E0,1.4172974E0,1.4755249E-1,2.789215E0,2.685852E-1,5.937271E-1,4.2965555E-1,1.5656914E0,4.1853333E-1,3.9546204E-1,0E0,0E0,0E0,0E0,0E0,0E0,0E0,0E0,2.4407959E-1,0E0,0E0,0E0,2.3580933E-1,3.1066895E-2,2.7240753E-2,8.391762E-2,1.4406586E-1,0E0,7.6417446E-2,8.4962994E-2,1.9426203E-1,3.0136585E-1,0E0,0E0,0E0,0E0,0E0,0E0,0E0,0E0,0E0,0E0,0E0,0E0,0E0,0E0,0E0,0E0,0E0,0E0,0E0,0E0,0E0,0E0,0E0,0E0],"parents":[2147483647,0,0,1,1,2,2,3,3,4,4,5,5,6,6,7,7,8,8,9,9,10,10,11,11,12,12,13,13,14,14,15,15,16,16,17,17,18,18,19,19,20,20,21,21,22,22,23,23,24,24,33,33,37,37,38,38,39,39,40,40,41,41,43,43,44,44,45,45,46,46],"right_children":[2,4,6,8,10,12,14,16,18,20,22,24,26,28,30,32,34,36,38,40,42,44,46,48,50,-1,-1,-1,-1,-1,-1,-1,-1,52,-1,-1,-1,54,56,58,60,62,-1,64,66,68,70,-1,-1,-1,-1,-1,-1,-1,-1,-1,-1,-1,-1,-1,-1,-1,-1,-1,-1,-1,-1,-1,-1,-1,-1],"split_conditions":[3.728E1,3.317E1,4.119E1,3.132E1,3.475E1,3.931E1,4.303E1,3.01E1,3.2E1,3.395E1,3.544E1,3.812E1,4.049E1,4.182E1,4.407E1,2.95E1,3.083E1,3.183E1,3.258E1,3.368E1,3.439E1,3.521E1,3.604E1,3.749E1,3.87E1,2.9840362E-1,3.8465694E-1,4.2547727E-1,4.9574864E-1,5.749238E-1,6.931397E-1,-5.2294904E-1,-4.1776052E-1,2.968E1,-3.213337E-1,-2.9283082E-1,-2.5734478E-1,3.284E1,3.392E1,3.433E1,3.325E1,3.505E1,-7.4367225E-2,3.545E1,3.525E1,3.574E1,3.657E1,1.1777406E-1,1.6175926E-1,2.0820613E-1,2.467843E-1,-8.502503E-2,-3.611451E-1,-2.347863E-1,-3.933163E-2,-1.9644578E-1,-5.255356E-2,-1.6064523E-1,-4.172287E-2,-1.9200899E-2,-1.302064E-1,-1.0411223E-1,-1.9486351E-1,-4.5045376E-2,-1.4677278E-2,-5.822496E-3,-2.5270384E-2,2.436173E-4,1.9552574E-2,4.5510013E-2,8.983612E-2],"split_indices":[4,1,0,0,0,0,0,0,0,0,1,0,0,0,0,2,0,0,0,0,0,0,0,0,1,0,0,0,0,0,0,0,0,1,0,0,0,2,6,2,5,5,0,4,1,0,0,0,0,0,0,0,0,0,0,0,0,0,0,0,0,0,0,0,0,0,0,0,0,0,0],"split_type":[0,0,0,0,0,0,0,0,0,0,0,0,0,0,0,0,0,0,0,0,0,0,0,0,0,0,0,0,0,0,0,0,0,0,0,0,0,0,0,0,0,0,0,0,0,0,0,0,0,0,0,0,0,0,0,0,0,0,0,0,0,0,0,0,0,0,0,0,0,0,0],"sum_hessian":[4.952E3,3.249E3,1.703E3,2.133E3,1.116E3,8.51E2,8.52E2,8.87E2,1.246E3,5.35E2,5.81E2,4.23E2,4.28E2,4.05E2,4.47E2,2.31E2,6.56E2,4.28E2,8.18E2,2.82E2,2.53E2,3.07E2,2.74E2,1.73E2,2.5E2,2.15E2,2.13E2,1.74E2,2.31E2,2.51E2,1.96E2,3.9E1,1.92E2,3.86E2,2.7E2,3.32E2,9.6E1,4.38E2,3.8E2,2.22E2,6E1,1.56E2,9.7E1,2.11E2,9.6E1,1.96E2,7.8E1,4E1,1.33E2,9.8E1,1.52E2,1E0,3.85E2,4.37E2,1E0,3.79E2,1E0,2.21E2,1E0,1E0,5.9E1,1.54E2,2E0,2.02E2,9E0,3E1,6.6E1,1.2E2,7.6E1,5.8E1,2E1],"tree_param":{"num_deleted":"0","num_feature":"7","num_nodes":"71","size_leaf_vector":"1"}},{"base_weights":[7.579175E-4,-5.0441545E-1,9.642631E-1,-7.023767E-1,-1.7530932E-1,6.1211795E-1,1.2701236E0,-8.711592E-1,-5.8020085E-1,-3.3579165E-1,-3.8147394E-2,4.5198673E-1,7.6099205E-1,1.0637878E0,1.4614648E0,-1.0589652E0,-8.212521E-1,-6.709776E-1,-5.2001464E-1,-3.8843358E-1,-2.6120546E-1,-1.071597E-1,4.708111E-2,3.6610156E-1,1.60659E-1,1.9653215E-1,8.386166E-1,2.991476E-1,1.1606811E0,1.3870758E0,5.420319E-1,-4.1659364E-1,-3.029731E-1,-8.607929E-1,-2.2989161E-1,-2.0241086E-1,-1.21930696E-1,-5.716333E-1,-4.8809016E-1,-4.1408765E-1,-3.472041E-1,-2.8605738E-1,-2.0719704E-1,-1.5999402E-1,-8.221593E-2,2.5702994E-2,1.7226623E-1,3.2358432E-1,1.273916E-1,2.2717172E-1,8.739297E-1,3.4919757E-1,8.8190466E-2,3.9758468E-1,4.4150004E-1,-7.227116E-2,-2.5853395E-1,-1.7193066E-1,-2.7135659E-2,-2.9986955E-2,-1.4662045E-1,-3.420868E-2,-1.2451104E-1,-2.1884538E-2,-1.0462224E-1,-1.6320992E-2,-8.6153775E-2,-6.4067654E-2,4.2399216E-2,2.1206476E-2,-4.8784394E-2,-2.5450265E-2,8.546048E-2,1.7077856E-3,2.0746322E-2,-2.9390145E-2,5.4309875E-2,7.641102E-2,1.013642E-1,2.6291808E-1,7.3804095E-2],"categories":[],"categories_nodes":[],"categories_segments":[],"categories_sizes":[],"default_left":[0,0,0,0,0,0,0,0,0,0,0,0,0,0,0,0,0,0,0,0,0,0,0,0,0,0,0,0,0,0,0,0,0,0,0,0,0,0,0,0,0,0,0,0,0,0,0,0,0,0,0,0,0,0,0,0,0,0,0,0,0,0,0,0,0,0,0,0,0,0,0,0,0,0,0,0,0,0,0,0,0],"id":5,"left_children":[1,3,5,7,9,11,13,15,17,19,21,23,25,27,29,31,33,35,37,39,41,43,45,47,-1,-1,49,-1,51,53,-1,-1,-1,55,-1,-1,-1,57,59,61,63,65,67,69,71,73,75,77,-1,-1,79,-1,-1,-1,-1,-1,-1,-1,-1,-1,-1,-1,-1,-1,-1,-1,-1,-1,-1,-1,-1,-1,-1,-1,-1,-1,-1,-1,-1,-1,-1],"loss_changes":[2.4112957E3,2.1161523E2,1.8275574E2,4.1334778E1,2.6885933E1,1.8584503E1,3.4411987E1,7.09729E0,6.097992E0,2.1090813E0,3.887043E0,2.566368E0,2.8205109E0,1.6961365E0,9.5668335E0,1.4277649E0,8.0908203E-1,1.8600464E-1,8.976135E-1,2.0315552E-1,2.5749207E-1,4.6787453E-1,7.87734E-1,3.4293747E-1,0E0,0E0,7.797241E-3,0E0,1.5710449E-1,9.3444824E-2,0E0,0E0,0E0,2.7923584E-2,0E0,0E0,0E0,1.3687897E-1,6.325531E-2,8.777618E-3,3.0191422E-2,2.5696754E-2,2.0312929E-1,8.162022E-2,2.6444924E-1,2.20454E-1,1.1960423E-1,2.817154E-2,0E0,0E0,2.5741577E-2,0E0,0E0,0E0,0E0,0E0,0E0,0E0,0E0,0E0,0E0,0E0,0E0,0E0,0E0,0E0,0E0,0E0,0E0,0E0,0E0,0E0,0E0,0E0,0E0,0E0,0E0,0E0,0E0,0E0,0E0],"parents":[2147483647,0,0,1,1,2,2,3,3,4,4,5,5,6,6,7,7,8,8,9,9,10,10,11,11,12,12,13,13,14,14,15,15,16,16,17,17,18,18,19,19,20,20,21,21,22,22,23,23,26,26,28,28,29,29,33,33,37,37,38,38,39,39,40,40,41,41,42,42,43,43,44,44,45,45,46,46,47,47,50,50],"right_children":[2,4,6,8,10,12,14,16,18,20,22,24,26,28,30,32,34,36,38,40,42,44,46,48,-1,-1,50,-1,52,54,-1,-1,-1,56,-1,-1,-1,58,60,62,64,66,68,70,72,74,76,78,-1,-1,80,-1,-1,-1,-1,-1,-1,-1,-1,-1,-1,-1,-1,-1,-1,-1,-1,-1,-1,-1,-1,-1,-1,-1,-1,-1,-1,-1,-1,-1,-1],"split_conditions":[3.728E1,3.3E1,4.103E1,3.127E1,3.447E1,3.919E1,4.294E1,2.994E1,3.2E1,3.368E1,3.539E1,3.824E1,3.991E1,4.206E1,4.528E1,2.926E1,3.077E1,3.244E1,3.239E1,3.331E1,3.41E1,3.486E1,3.629E1,3.787E1,1.60659E-1,1.9653215E-1,4.049E1,2.991476E-1,4.357E1,4.385E1,5.420319E-1,-4.1659364E-1,-3.029731E-1,2.95E1,-2.2989161E-1,-2.0241086E-1,-1.21930696E-1,3.281E1,3.175E1,3.242E1,3.311E1,3.325E1,3.46E1,3.432E1,3.596E1,3.586E1,3.522E1,3.74E1,1.273916E-1,2.2717172E-1,4.147E1,3.4919757E-1,8.8190466E-2,3.9758468E-1,4.4150004E-1,-7.227116E-2,-2.5853395E-1,-1.7193066E-1,-2.7135659E-2,-2.9986955E-2,-1.4662045E-1,-3.420868E-2,-1.2451104E-1,-2.1884538E-2,-1.0462224E-1,-1.6320992E-2,-8.6153775E-2,-6.4067654E-2,4.2399216E-2,2.1206476E-2,-4.8784394E-2,-2.5450265E-2,8.546048E-2,1.7077856E-3,2.0746322E-2,-2.9390145E-2,5.4309875E-2,7.641102E-2,1.013642E-1,2.6291808E-1,7.3804095E-2],"split_indices":[3,0,0,0,0,0,0,0,0,0,0,1,0,1,0,0,0,6,0,1,0,0,0,0,0,0,0,0,6,1,0,0,0,4,0,0,0,4,1,1,0,5,1,1,3,0,6,0,0,0,5,0,0,0,0,0,0,0,0,0,0,0,0,0,0,0,0,0,0,0,0,0,0,0,0,0,0,0,0,0,0],"split_type":[0,0,0,0,0,0,0,0,0,0,0,0,0,0,0,0,0,0,0,0,0,0,0,0,0,0,0,0,0,0,0,0,0,0,0,0,0,0,0,0,0,0,0,0,0,0,0,0,0,0,0,0,0,0,0,0,0,0,0,0,0,0,0,0,0,0,0,0,0,0,0,0,0,0,0,0,0,0,0,0,0],"sum_hessian":[4.952E3,3.249E3,1.703E3,2.028E3,1.221E3,7.93E2,9.1E2,8.49E2,1.179E3,5.62E2,6.59E2,3.84E2,4.09E2,4.41E2,4.69E2,1.74E2,6.75E2,4.66E2,7.13E2,3.27E2,2.35E2,3.64E2,2.95E2,1.92E2,1.92E2,1.77E2,2.32E2,2.68E2,1.73E2,3.9E2,7.9E1,1.9E1,1.55E2,3.84E2,2.91E2,4.58E2,8E0,2.66E2,4.47E2,1.96E2,1.31E2,1.58E2,7.7E1,1.15E2,2.49E2,2.53E2,4.2E1,1.15E2,7.7E1,7.7E1,1.55E2,1.72E2,1E0,2.35E2,1.55E2,1E0,3.83E2,2.65E2,1E0,1E0,4.46E2,1E0,1.95E2,1E0,1.3E2,1E0,1.57E2,7.6E1,1E0,1E0,1.14E2,2.48E2,1E0,1.74E2,7.9E1,1E0,4.1E1,2.3E1,9.2E1,1.54E2,1E0],"tree_param":{"num_deleted":"0","num_feature":"7","num_nodes":"81","size_leaf_vector":"1"}},{"base_weights":[7.395495E-4,-3.5384074E-1,6.770219E-1,-5.04258E-1,-1.3960795E-1,4.748319E-1,9.4166636E-1,-6.196935E-1,-4.229116E-1,-2.5794548E-1,-3.578499E-2,3.46839E-1,6.125385E-1,8.281135E-1,1.0776929E0,-7.25294E-1,-5.7451546E-1,-4.883713E-1,-3.8112548E-1,-2.8766593E-1,-1.9924349E-1,-8.943082E-2,2.688291E-2,2.7573654E-1,4.1573614E-1,5.393061E-1,1.9821985E-1,2.2823946E-1,8.8380384E-1,3.0586365E-1,3.9579183E-1,-2.9786447E-1,-2.0902899E-1,-3.9068046E-1,-5.778525E-1,-2.8694773E-1,-4.9100134E-1,-3.9963743E-1,-3.4736404E-1,-9.105562E-2,-2.544718E-1,-2.1843848E-1,-1.6693652E-1,-1.2562898E-1,-6.53806E-2,-3.6406744E-4,7.356309E-2,2.2915074E-1,9.403321E-2,2.659035E-2,4.166787E-1,1.6246408E-1,6.573372E-2,1.0569001E-1,2.6613748E-1,-1.267992E-1,-4.2954255E-2,-3.373404E-2,-1.7355075E-1,-1.3525964E-2,-1.0801611E-1,-6.297112E-4,-1.4764322E-1,-3.6140062E-2,-1.20191835E-1,-1.0444369E-1,-2.2677042E-2,-7.688399E-2,-2.594185E-2,-2.156394E-2,-6.746948E-2,-4.735868E-2,-1.07796095E-1,1.802559E-2,-3.8173825E-2,-2.0321894E-2,7.264137E-2,1.6690289E-3,-1.9169936E-2,1.706937E-2,4.5301605E-2,5.3556103E-2,7.253812E-2,1.2528025E-1,2.7647782E-2],"categories":[],"categories_nodes":[],"categories_segments":[],"categories_sizes":[],"default_left":[0,0,0,0,0,0,0,0,0,0,0,0,0,0,0,0,0,0,0,0,0,0,0,0,0,0,0,0,0,0,0,0,0,0,0,0,0,0,0,0,0,0,0,0,0,0,0,0,0,0,0,0,0,0,0,0,0,0,0,0,0,0,0,0,0,0,0,0,0,0,0,0,0,0,0,0,0,0,0,0,0,0,0,0,0],"id":6,"left_children":[1,3,5,7,9,11,13,15,17,19,21,23,25,27,29,31,33,35,37,39,41,43,45,47,49,51,-1,-1,53,-1,-1,-1,-1,55,57,59,61,63,65,-1,67,69,71,73,75,77,79,81,-1,-1,83,-1,-1,-1,-1,-1,-1,-1,-1,-1,-1,-1,-1,-1,-1,-1,-1,-1,-1,-1,-1,-1,-1,-1,-1,-1,-1,-1,-1,-1,-1,-1,-1,-1,-1],"loss_changes":[1.1879512E3,1.0465863E2,9.073132E1,1.766394E1,1.6478785E1,1.6848999E1,1.0491333E1,3.3379517E0,2.88562E0,1.0365791E0,2.409504E0,2.3543396E0,1.2848206E0,8.496399E-1,3.3192139E0,1.0793839E0,1.1532593E-1,8.9012146E-2,2.924118E-1,1.4062119E-1,9.6242905E-2,3.2782745E-1,4.210236E-1,3.6908913E-1,4.137802E-2,1.7665863E-2,0E0,0E0,6.8740845E-2,0E0,0E0,0E0,0E0,4.2389274E-2,9.951782E-2,1.2521845E-1,2.3753357E-1,7.4539185E-2,2.721405E-2,0E0,2.0365715E-2,1.0785723E-1,8.991861E-2,5.359435E-2,1.8615735E-1,7.944313E-2,1.4886022E-1,3.1089306E-2,0E0,0E0,3.722E-2,0E0,0E0,0E0,0E0,0E0,0E0,0E0,0E0,0E0,0E0,0E0,0E0,0E0,0E0,0E0,0E0,0E0,0E0,0E0,0E0,0E0,0E0,0E0,0E0,0E0,0E0,0E0,0E0,0E0,0E0,0E0,0E0,0E0,0E0],"parents":[2147483647,0,0,1,1,2,2,3,3,4,4,5,5,6,6,7,7,8,8,9,9,10,10,11,11,12,12,13,13,14,14,15,15,16,16,17,17,18,18,19,19,20,20,21,21,22,22,23,23,24,24,25,25,28,28,33,33,34,34,35,35,36,36,37,37,38,38,40,40,41,41,42,42,43,43,44,44,45,45,46,46,47,47,50,50],"right_children":[2,4,6,8,10,12,14,16,18,20,22,24,26,28,30,32,34,36,38,40,42,44,46,48,50,52,-1,-1,54,-1,-1,-1,-1,56,58,60,62,64,66,-1,68,70,72,74,76,78,80,82,-1,-1,84,-1,-1,-1,-1,-1,-1,-1,-1,-1,-1,-1,-1,-1,-1,-1,-1,-1,-1,-1,-1,-1,-1,-1,-1,-1,-1,-1,-1,-1,-1,-1,-1,-1,-1],"split_conditions":[3.728E1,3.281E1,4.161E1,3.119E1,3.418E1,3.96E1,4.349E1,3.01E1,3.183E1,3.357E1,3.528E1,3.851E1,4.08E1,4.268E1,4.542E1,2.926E1,2.994E1,3.084E1,3.247E1,3.324E1,3.401E1,3.482E1,3.586E1,3.787E1,3.824E1,4.089E1,1.9821985E-1,2.2823946E-1,4.206E1,3.0586365E-1,3.9579183E-1,-2.9786447E-1,-2.0902899E-1,3.066E1,2.968E1,3.004E1,3.104E1,3.094E1,3.324E1,-9.105562E-2,3.378E1,3.343E1,3.46E1,3.343E1,3.569E1,3.597E1,3.664E1,3.74E1,9.403321E-2,2.659035E-2,3.975E1,1.6246408E-1,6.573372E-2,1.0569001E-1,2.6613748E-1,-1.267992E-1,-4.2954255E-2,-3.373404E-2,-1.7355075E-1,-1.3525964E-2,-1.0801611E-1,-6.297112E-4,-1.4764322E-1,-3.6140062E-2,-1.20191835E-1,-1.0444369E-1,-2.2677042E-2,-7.688399E-2,-2.594185E-2,-2.156394E-2,-6.746948E-2,-4.735868E-2,-1.07796095E-1,1.802559E-2,-3.8173825E-2,-2.0321894E-2,7.264137E-2,1.6690289E-3,-1.9169936E-2,1.706937E-2,4.5301605E-2,5.3556103E-2,7.253812E-2,1.2528025E-1,2.7647782E-2],"split_indices":[6,1,0,1,0,0,0,0,0,6,0,2,0,0,0,0,4,4,0,0,0,0,0,0,3,1,0,0,6,0,0,0,0,1,1,6,2,5,3,0,2,3,6,3,1,4,4,0,0,0,1,0,0,0,0,0,0,0,0,0,0,0,0,0,0,0,0,0,0,0,0,0,0,0,0,0,0,0,0,0,0,0,0,0,0],"split_type":[0,0,0,0,0,0,0,0,0,0,0,0,0,0,0,0,0,0,0,0,0,0,0,0,0,0,0,0,0,0,0,0,0,0,0,0,0,0,0,0,0,0,0,0,0,0,0,0,0,0,0,0,0,0,0,0,0,0,0,0,0,0,0,0,0,0,0,0,0,0,0,0,0,0,0,0,0,0,0,0,0,0,0,0,0],"sum_hessian":[4.952E3,3.249E3,1.703E3,1.908E3,1.341E3,9.67E2,7.36E2,7.86E2,1.122E3,6.26E2,7.15E2,5.03E2,4.64E2,4.05E2,3.31E2,2.31E2,5.55E2,4.33E2,6.89E2,4.13E2,2.13E2,3.85E2,3.3E2,2.5E2,2.53E2,1.89E2,2.75E2,1.9E2,2.15E2,2.71E2,6E1,1.9E1,2.12E2,1.2E1,5.43E2,7E0,4.26E2,4.38E2,2.51E2,2.74E2,1.39E2,1.3E2,8.3E1,1.52E2,2.33E2,2.09E2,1.21E2,1.15E2,1.35E2,1E0,2.52E2,1.87E2,2E0,2E0,2.13E2,1E1,2E0,1E0,5.42E2,2E0,5E0,1E0,4.25E2,2E0,4.36E2,2.5E2,1E0,1.37E2,2E0,6E0,1.24E2,8.1E1,2E0,1E0,1.51E2,2.32E2,1E0,1.92E2,1.7E1,1.01E2,2E1,2.6E1,8.9E1,2.51E2,1E0],"tree_param":{"num_deleted":"0","num_feature":"7","num_nodes":"85","size_leaf_vector":"1"}},{"base_weights":[5.846861E-4,-2.503757E-1,4.711897E-1,-3.5493585E-1,-1.0198984E-1,2.922166E-1,6.2312794E-1,-4.5153603E-1,-3.0566254E-1,-1.752278E-1,-2.2194445E-2,2.0776948E-1,3.6448026E-1,5.541889E-1,7.7061075E-1,-6.0702777E-1,-4.3005836E-1,-3.5318094E-1,-2.7148074E-1,-2.033088E-1,-1.3558361E-1,-5.1129077E-2,2.1805154E-2,1.6307119E-1,2.4616252E-1,3.2001254E-1,4.0744558E-1,4.9559137E-1,6.149753E-1,7.257663E-1,2.790013E-1,-6.1334187E-1,-2.096758E-2,-4.6081036E-1,-4.031892E-1,-3.5412213E-1,-4.2759564E-2,-2.9372254E-1,-2.528802E-1,-2.0438655E-1,-4.3898582E-2,-1.3215432E-1,-3.4945393E-1,-9.498969E-2,-4.823027E-2,-1.9759197E-2,3.1538717E-2,1.1102476E-1,1.7641452E-1,2.4092202E-1,5.029933E-1,3.352573E-1,2.897176E-1,2.8882029E-2,1.22537784E-1,3.5420038E-2,4.9638E-1,3.540001E-2,1.8486173E-1,6.685715E-2,2.1874234E-1,-1.853612E-1,-4.241066E-2,-4.5234684E-2,-1.3879737E-1,-1.2122214E-1,-1.9610597E-2,-2.867403E-2,-1.0633084E-1,-2.3561383E-2,-8.863855E-2,-2.8582003E-2,-7.602658E-2,-6.311477E-2,-5.3504635E-2,2.0851135E-2,-3.1460192E-2,-4.4848867E-2,-2.8719783E-2,-1.2627183E-1,-2.0264626E-2,-1.9540982E-2,-8.489574E-3,-2.6391295E-3,-5.547371E-2,7.083588E-2,8.517302E-3,3.7439387E-2,1.3132668E-2,5.349758E-2,-1.2230301E-2,7.427382E-2,5.5034976E-2,3.916626E-2,1.8718071E-1,7.7476665E-2,1.0389213E-1,6.871072E-2,9.7240925E-2,2.2359009E-1,1.4754094E-1],"categories":[],"categories_nodes":[],"categories_segments":[],"categories_sizes":[],"default_left":[0,0,0,0,0,0,0,0,0,0,0,0,0,0,0,0,0,0,0,0,0,0,0,0,0,0,0,0,0,0,0,0,0,0,0,0,0,0,0,0,0,0,0,0,0,0,0,0,0,0,0,0,0,0,0,0,0,0,0,0,0,0,0,0,0,0,0,0,0,0,0,0,0,0,0,0,0,0,0,0,0,0,0,0,0,0,0,0,0,0,0,0,0,0,0,0,0,0,0,0,0],"id":7,"left_children":[1,3,5,7,9,11,13,15,17,19,21,23,25,27,29,31,33,35,37,39,41,43,45,47,49,51,53,55,57,59,-1,61,-1,63,65,67,-1,69,71,73,75,77,79,-1,81,83,85,87,89,91,93,95,97,-1,-1,-1,99,-1,-1,-1,-1,-1,-1,-1,-1,-1,-1,-1,-1,-1,-1,-1,-1,-1,-1,-1,-1,-1,-1,-1,-1,-1,-1,-1,-1,-1,-1,-1,-1,-1,-1,-1,-1,-1,-1,-1,-1,-1,-1,-1,-1],"loss_changes":[5.850832E2,5.0093582E1,4.6671204E1,8.881821E0,7.8096085E0,4.7635193E0,9.038696E0,1.8696136E0,1.9474487E0,7.483692E-1,8.1717974E-1,5.91383E-1,6.8351746E-1,1.9677277E0,1.4265137E0,2.1149445E-1,2.8022003E-1,5.3207397E-2,2.3021698E-1,6.077957E-2,1.6797781E-1,2.825805E-1,1.0378836E-1,1.0055733E-1,1.4261818E-1,1.7032623E-3,2.7858734E-2,3.9642334E-2,1.16241455E-1,2.3465729E-1,0E0,7.0827484E-2,0E0,7.6869965E-2,6.59256E-2,8.346558E-3,0E0,9.993172E-2,1.0690689E-2,2.539444E-2,3.494466E-2,1.6822672E-1,5.2139193E-2,0E0,1.2755388E-1,8.708415E-2,1.2659648E-1,2.9733837E-2,6.370735E-2,2.8808594E-2,5.3673625E-2,2.6281357E-2,9.076023E-2,0E0,0E0,0E0,8.285522E-3,0E0,0E0,0E0,0E0,0E0,0E0,0E0,0E0,0E0,0E0,0E0,0E0,0E0,0E0,0E0,0E0,0E0,0E0,0E0,0E0,0E0,0E0,0E0,0E0,0E0,0E0,0E0,0E0,0E0,0E0,0E0,0E0,0E0,0E0,0E0,0E0,0E0,0E0,0E0,0E0,0E0,0E0,0E0,0E0],"parents":[2147483647,0,0,1,1,2,2,3,3,4,4,5,5,6,6,7,7,8,8,9,9,10,10,11,11,12,12,13,13,14,14,15,15,16,16,17,17,18,18,19,19,20,20,21,21,22,22,23,23,24,24,25,25,26,26,27,27,28,28,29,29,31,31,33,33,34,34,35,35,37,37,38,38,39,39,40,40,41,41,42,42,44,44,45,45,46,46,47,47,48,48,49,49,50,50,51,51,52,52,56,56],"right_children":[2,4,6,8,10,12,14,16,18,20,22,24,26,28,30,32,34,36,38,40,42,44,46,48,50,52,54,56,58,60,-1,62,-1,64,66,68,-1,70,72,74,76,78,80,-1,82,84,86,88,90,92,94,96,98,-1,-1,-1,100,-1,-1,-1,-1,-1,-1,-1,-1,-1,-1,-1,-1,-1,-1,-1,-1,-1,-1,-1,-1,-1,-1,-1,-1,-1,-1,-1,-1,-1,-1,-1,-1,-1,-1,-1,-1,-1,-1,-1,-1,-1,-1,-1,-1],"split_conditions":[3.667E1,3.279E1,4.097E1,3.087E1,3.447E1,3.911E1,4.362E1,2.974E1,3.172E1,3.346E1,3.544E1,3.805E1,3.991E1,4.236E1,4.542E1,3.01E1,3.037E1,3.201E1,3.229E1,3.422E1,3.505E1,3.402E1,3.556E1,3.74E1,3.96E1,3.951E1,3.911E1,4.019E1,4.113E1,4.336E1,2.790013E-1,3.01E1,-2.096758E-2,2.95E1,3.124E1,2.968E1,-4.2759564E-2,3.127E1,3.13E1,3.33E1,3.324E1,3.407E1,3.432E1,-9.498969E-2,3.503E1,3.597E1,3.522E1,3.749E1,3.824E1,3.911E1,3.906E1,3.906E1,3.96E1,2.8882029E-2,1.22537784E-1,3.5420038E-2,4.049E1,3.540001E-2,1.8486173E-1,6.685715E-2,2.1874234E-1,-1.853612E-1,-4.241066E-2,-4.5234684E-2,-1.3879737E-1,-1.2122214E-1,-1.9610597E-2,-2.867403E-2,-1.0633084E-1,-2.3561383E-2,-8.863855E-2,-2.8582003E-2,-7.602658E-2,-6.311477E-2,-5.3504635E-2,2.0851135E-2,-3.1460192E-2,-4.4848867E-2,-2.8719783E-2,-1.2627183E-1,-2.0264626E-2,-1.9540982E-2,-8.489574E-3,-2.6391295E-3,-5.547371E-2,7.083588E-2,8.517302E-3,3.7439387E-2,1.3132668E-2,5.349758E-2,-1.2230301E-2,7.427382E-2,5.5034976E-2,3.916626E-2,1.8718071E-1,7.7476665E-2,1.0389213E-1,6.871072E-2,9.7240925E-2,2.2359009E-1,1.4754094E-1],"split_indices":[6,0,0,0,0,0,2,1,0,0,0,2,0,0,0,4,0,2,0,6,5,5,1,0,4,5,1,5,2,5,0,0,0,4,1,1,0,3,5,0,0,0,0,0,0,4,3,3,4,2,0,3,2,0,0,0,4,0,0,0,0,0,0,0,0,0,0,0,0,0,0,0,0,0,0,0,0,0,0,0,0,0,0,0,0,0,0,0,0,0,0,0,0,0,0,0,0,0,0,0,0],"split_type":[0,0,0,0,0,0,0,0,0,0,0,0,0,0,0,0,0,0,0,0,0,0,0,0,0,0,0,0,0,0,0,0,0,0,0,0,0,0,0,0,0,0,0,0,0,0,0,0,0,0,0,0,0,0,0,0,0,0,0,0,0,0,0,0,0,0,0,0,0,0,0,0,0,0,0,0,0,0,0,0,0,0,0,0,0,0,0,0,0,0,0,0,0,0,0,0,0,0,0,0,0],"sum_hessian":[4.952E3,3.23E3,1.722E3,1.894E3,1.336E3,7.92E2,9.3E2,6.37E2,1.257E3,6.96E2,6.4E2,3.67E2,4.25E2,6.37E2,2.93E2,7.4E1,5.63E2,5.22E2,7.35E2,4.05E2,2.91E2,3.86E2,2.54E2,1.72E2,1.95E2,2.13E2,2.12E2,3.29E2,3.08E2,2.33E2,6E1,7.3E1,1E0,2.55E2,3.08E2,5.19E2,3E0,3.28E2,4.07E2,4.02E2,3E0,2.88E2,3E0,3E0,3.83E2,4.8E1,2.06E2,3.7E1,1.35E2,1.93E2,2E0,1.35E2,7.8E1,1E0,2.11E2,1E0,3.28E2,1E0,3.07E2,2E0,2.31E2,7.2E1,1E0,2E0,2.53E2,3.07E2,1E0,1E0,5.18E2,3E0,3.25E2,2E0,4.05E2,3.21E2,8.1E1,1E0,2E0,1.93E2,9.5E1,2E0,1E0,2.06E2,1.77E2,4.6E1,2E0,2E0,2.04E2,3E1,7E0,1.34E2,1E0,1.7E2,2.3E1,1E0,1E0,2E1,1.15E2,3.1E1,4.7E1,3E0,3.25E2],"tree_param":{"num_deleted":"0","num_feature":"7","num_nodes":"101","size_leaf_vector":"1"}},{"base_weights":[5.5472535E-4,-1.7426243E-1,3.3397916E-1,-2.4739683E-1,-6.728013E-2,2.3514909E-1,4.6775112E-1,-2.933076E-1,-1.9386563E-1,-1.181113E-1,-9.617615E-3,1.681981E-1,2.9909167E-1,4.236965E-1,5.698724E-1,-3.514669E-1,-2.6836738E-1,-2.0738716E-1,-1.6990048E-1,-1.3504557E-1,-7.989463E-2,-2.6774406E-2,3.34741E-2,1.2603226E-1,1.956802E-1,2.5040722E-1,3.205831E-1,3.8088828E-1,4.4972584E-1,5.3774774E-1,2.0792715E-1,-5.3930235E-1,-3.3725175E-1,-2.8392094E-1,-2.548259E-1,-2.0905304E-1,-8.087412E-2,-3.1735897E-2,-1.7281453E-1,-2.8434372E-1,-1.335264E-1,-7.6444924E-2,-9.049263E-2,-3.021564E-2,6.716704E-2,1.459749E-1,2.7284859E-2,1.022559E-1,1.4126965E-1,1.971109E-1,-6.8944297E-3,7.657556E-2,5.111084E-2,1.7116357E-2,9.635552E-2,3.8237438E-1,1.2996484E-2,3.116169E-2,4.5050642E-1,6.56498E-2,1.620509E-1,-1.6580923E-1,-4.2719364E-2,-1.1427644E-1,-9.7607896E-2,-1.153822E-2,-8.536447E-2,-4.2118836E-2,-7.713023E-2,-6.285791E-2,8.259201E-3,-2.8917095E-2,-5.313492E-3,2.0504951E-2,-3.163719E-2,-4.8140723E-2,-5.734014E-2,-3.943634E-3,-1.111084E-1,-4.0186524E-2,1.0899926E-2,-2.486881E-2,-1.5641714E-2,-6.2820055E-2,-8.665791E-3,4.1042328E-2,6.9225314E-3,2.0683136E-2,5.814331E-2,4.363155E-3,1.9284228E-2,3.7339363E-2,1.9156007E-2,5.466716E-2,3.8177416E-2,5.1490486E-2,6.398835E-2,-2.765236E-2,2.4549866E-2,-2.3339843E-2,4.8895266E-2,3.0089952E-2,1.1498913E-1,1.35359E-1,3.5583116E-2],"categories":[],"categories_nodes":[],"categories_segments":[],"categories_sizes":[],"default_left":[0,0,0,0,0,0,0,0,0,0,0,0,0,0,0,0,0,0,0,0,0,0,0,0,0,0,0,0,0,0,0,0,0,0,0,0,0,0,0,0,0,0,0,0,0,0,0,0,0,0,0,0,0,0,0,0,0,0,0,0,0,0,0,0,0,0,0,0,0,0,0,0,0,0,0,0,0,0,0,0,0,0,0,0,0,0,0,0,0,0,0,0,0,0,0,0,0,0,0,0,0,0,0,0,0],"id":8,"left_children":[1,3,5,7,9,11,13,15,17,19,21,23,25,27,29,31,33,35,37,39,41,43,45,47,49,51,53,55,57,59,-1,61,63,65,67,69,71,73,75,77,79,81,-1,83,85,87,89,91,93,95,97,-1,99,-1,-1,101,-1,-1,103,-1,-1,-1,-1,-1,-1,-1,-1,-1,-1,-1,-1,-1,-1,-1,-1,-1,-1,-1,-1,-1,-1,-1,-1,-1,-1,-1,-1,-1,-1,-1,-1,-1,-1,-1,-1,-1,-1,-1,-1,-1,-1,-1,-1,-1,-1],"loss_changes":[2.887602E2,2.5411636E1,2.241806E1,4.6864166E0,3.8707852E0,4.153656E0,3.011261E0,1.4098587E0,2.544632E-1,4.4352436E-1,4.5927185E-1,5.338831E-1,4.4392014E-1,3.958664E-1,4.7833252E-1,6.405144E-1,8.139801E-2,1.0259247E-1,1.2657452E-1,7.2034836E-2,1.4370322E-1,1.4556333E-1,1.1926119E-1,5.547619E-2,8.540821E-2,1.3950539E-1,3.6247253E-2,8.3265305E-2,3.7166595E-2,1.6960144E-2,0E0,2.7628899E-2,2.6145935E-2,4.001808E-2,6.80294E-2,6.8367004E-2,7.1131364E-3,6.623568E-2,4.1926384E-2,8.844271E-2,3.9963722E-2,2.9546738E-2,0E0,9.616324E-2,4.597266E-2,1.980178E-2,7.8725815E-2,5.942917E-2,4.280162E-2,8.2131386E-2,3.024293E-2,0E0,8.478825E-2,0E0,0E0,1.3090134E-2,0E0,0E0,1.7501831E-2,0E0,0E0,0E0,0E0,0E0,0E0,0E0,0E0,0E0,0E0,0E0,0E0,0E0,0E0,0E0,0E0,0E0,0E0,0E0,0E0,0E0,0E0,0E0,0E0,0E0,0E0,0E0,0E0,0E0,0E0,0E0,0E0,0E0,0E0,0E0,0E0,0E0,0E0,0E0,0E0,0E0,0E0,0E0,0E0,0E0,0E0],"parents":[2147483647,0,0,1,1,2,2,3,3,4,4,5,5,6,6,7,7,8,8,9,9,10,10,11,11,12,12,13,13,14,14,15,15,16,16,17,17,18,18,19,19,20,20,21,21,22,22,23,23,24,24,25,25,26,26,27,27,28,28,29,29,31,31,32,32,33,33,34,34,35,35,36,36,37,37,38,38,39,39,40,40,41,41,43,43,44,44,45,45,46,46,47,47,48,48,49,49,50,50,52,52,55,55,58,58],"right_children":[2,4,6,8,10,12,14,16,18,20,22,24,26,28,30,32,34,36,38,40,42,44,46,48,50,52,54,56,58,60,-1,62,64,66,68,70,72,74,76,78,80,82,-1,84,86,88,90,92,94,96,98,-1,100,-1,-1,102,-1,-1,104,-1,-1,-1,-1,-1,-1,-1,-1,-1,-1,-1,-1,-1,-1,-1,-1,-1,-1,-1,-1,-1,-1,-1,-1,-1,-1,-1,-1,-1,-1,-1,-1,-1,-1,-1,-1,-1,-1,-1,-1,-1,-1,-1,-1,-1,-1],"split_conditions":[3.728E1,3.283E1,4.165E1,3.153E1,3.46E1,3.951E1,4.394E1,3.03E1,3.242E1,3.395E1,3.569E1,3.824E1,4.049E1,4.274E1,4.552E1,2.926E1,3.087E1,3.26E1,3.222E1,3.176E1,3.487E1,3.574E1,3.557E1,3.763E1,3.975E1,4.089E1,3.991E1,4.357E1,4.246E1,4.357E1,2.0792715E-1,2.95E1,2.974E1,2.968E1,3.037E1,3.262E1,3.238E1,3.236E1,3.27E1,3.242E1,3.434E1,3.448E1,-9.049263E-2,3.402E1,3.558E1,3.565E1,3.629E1,3.755E1,3.779E1,3.9E1,3.991E1,7.657556E-2,4.049E1,1.7116357E-2,9.635552E-2,4.113E1,1.2996484E-2,3.116169E-2,4.435E1,6.56498E-2,1.620509E-1,-1.6580923E-1,-4.2719364E-2,-1.1427644E-1,-9.7607896E-2,-1.153822E-2,-8.536447E-2,-4.2118836E-2,-7.713023E-2,-6.285791E-2,8.259201E-3,-2.8917095E-2,-5.313492E-3,2.0504951E-2,-3.163719E-2,-4.8140723E-2,-5.734014E-2,-3.943634E-3,-1.111084E-1,-4.0186524E-2,1.0899926E-2,-2.486881E-2,-1.5641714E-2,-6.2820055E-2,-8.665791E-3,4.1042328E-2,6.9225314E-3,2.0683136E-2,5.814331E-2,4.363155E-3,1.9284228E-2,3.7339363E-2,1.9156007E-2,5.466716E-2,3.8177416E-2,5.1490486E-2,6.398835E-2,-2.765236E-2,2.4549866E-2,-2.3339843E-2,4.8895266E-2,3.0089952E-2,1.1498913E-1,1.35359E-1,3.5583116E-2],"split_indices":[6,0,0,0,0,1,0,0,2,2,2,0,0,0,0,1,0,0,1,5,1,0,3,0,0,4,4,6,1,6,0,3,1,3,5,3,5,4,4,1,4,2,0,4,5,1,0,3,6,0,0,0,1,0,0,2,0,0,3,0,0,0,0,0,0,0,0,0,0,0,0,0,0,0,0,0,0,0,0,0,0,0,0,0,0,0,0,0,0,0,0,0,0,0,0,0,0,0,0,0,0,0,0,0,0],"split_type":[0,0,0,0,0,0,0,0,0,0,0,0,0,0,0,0,0,0,0,0,0,0,0,0,0,0,0,0,0,0,0,0,0,0,0,0,0,0,0,0,0,0,0,0,0,0,0,0,0,0,0,0,0,0,0,0,0,0,0,0,0,0,0,0,0,0,0,0,0,0,0,0,0,0,0,0,0,0,0,0,0,0,0,0,0,0,0,0,0,0,0,0,0,0,0,0,0,0,0,0,0,0,0,0,0],"sum_hessian":[4.952E3,3.249E3,1.703E3,1.929E3,1.32E3,9.81E2,7.22E2,1.036E3,8.93E2,7.01E2,6.19E2,4.81E2,5E2,5.08E2,2.14E2,3.07E2,7.29E2,5.66E2,3.27E2,4.84E2,2.17E2,4.43E2,1.76E2,1.92E2,2.89E2,1.57E2,3.43E2,1.98E2,3.1E2,1.74E2,4E1,1.9E1,2.88E2,3.3E2,3.99E2,5.58E2,8E0,7E0,3.2E2,3E0,4.81E2,2.15E2,2E0,4.28E2,1.5E1,8E0,1.68E2,7.8E1,1.14E2,2.87E2,2E0,1.53E2,4E0,1E0,3.42E2,1.97E2,1E0,1E0,3.09E2,2E0,1.72E2,1.8E1,1E0,5.5E1,2.33E2,1E0,3.29E2,9E0,3.9E2,5.57E2,1E0,6E0,2E0,3E0,4E0,1.97E2,1.23E2,1E0,2E0,4.8E2,1E0,1.68E2,4.7E1,2E0,4.26E2,5E0,1E1,4E0,4E0,1.26E2,4.2E1,4.8E1,3E1,2.6E1,8.8E1,1.16E2,1.71E2,1E0,1E0,2E0,2E0,1E0,1.96E2,3.08E2,1E0],"tree_param":{"num_deleted":"0","num_feature":"7","num_nodes":"105","size_leaf_vector":"1"}},{"base_weights":[4.357562E-4,-1.2233908E-1,2.3460113E-1,-1.719134E-1,-4.3703184E-2,1.5343352E-1,3.1539854E-1,-2.0592907E-1,-1.3487457E-1,-7.46682E-2,-4.6923678E-4,1.12364456E-1,1.9366626E-1,2.9292405E-1,4.2971975E-1,-2.929307E-1,-1.9694595E-1,-1.496797E-1,-1.21438675E-1,-9.494046E-2,-5.619821E-2,-1.2510812E-2,2.3344439E-2,8.066002E-2,1.2673596E-1,1.6801709E-1,2.1084507E-1,2.575285E-1,3.2218233E-1,4.0406072E-1,1.6213407E-1,-1.16381325E-1,-2.640745E-1,-2.2047408E-1,-1.8397978E-1,-1.0221002E-1,-1.5379989E-1,-1.1811711E-1,-1.5726504E-1,-9.2853956E-2,-9.118119E-2,-5.2375525E-2,-1.3144112E-1,-6.48243E-2,-1.0719946E-2,6.2121946E-2,8.847017E-3,6.451149E-2,7.597689E-2,1.16846964E-1,1.4999105E-1,1.7170332E-1,6.87027E-3,2.1186805E-1,-7.04155E-3,1.1548833E-1,2.5980946E-1,3.2707086E-1,2.1587983E-1,2.9902268E-2,1.21752255E-1,-8.07931E-2,-1.4069748E-2,-6.517108E-2,-1.2899795E-1,-3.0298779E-2,-5.6024455E-2,-1.1171532E-2,-3.5332695E-2,-5.4965176E-2,-4.4051386E-2,-3.8451985E-2,-3.0483095E-2,-8.205076E-2,-3.4408804E-2,1.518345E-2,-2.8276894E-2,-2.1825254E-2,-1.1133361E-2,-4.25523E-2,6.803513E-3,-1.9601164E-3,-1.7498752E-2,1.3325082E-2,4.3528464E-2,-5.4255012E-2,4.4256197E-3,1.9983858E-2,3.061513E-2,3.616582E-2,1.1856288E-2,4.5795266E-2,-1.0217286E-2,-2.1494865E-2,5.2060418E-2,1.632576E-2,-1.2890626E-2,6.209999E-2,8.563289E-2,4.236969E-2,1.0225678E-2,9.881058E-2,7.616459E-2,9.588524E-2,1.2903105E-1,8.869553E-3,7.048168E-2],"categories":[],"categories_nodes":[],"categories_segments":[],"categories_sizes":[],"default_left":[0,0,0,0,0,0,0,0,0,0,0,0,0,0,0,0,0,0,0,0,0,0,0,0,0,0,0,0,0,0,0,0,0,0,0,0,0,0,0,0,0,0,0,0,0,0,0,0,0,0,0,0,0,0,0,0,0,0,0,0,0,0,0,0,0,0,0,0,0,0,0,0,0,0,0,0,0,0,0,0,0,0,0,0,0,0,0,0,0,0,0,0,0,0,0,0,0,0,0,0,0,0,0,0,0,0,0],"id":9,"left_children":[1,3,5,7,9,11,13,15,17,19,21,23,25,27,29,31,33,35,37,39,41,43,45,47,49,51,53,55,57,59,-1,-1,61,63,65,67,69,71,73,75,-1,77,79,-1,81,83,85,-1,87,89,91,93,95,97,-1,99,101,103,105,-1,-1,-1,-1,-1,-1,-1,-1,-1,-1,-1,-1,-1,-1,-1,-1,-1,-1,-1,-1,-1,-1,-1,-1,-1,-1,-1,-1,-1,-1,-1,-1,-1,-1,-1,-1,-1,-1,-1,-1,-1,-1,-1,-1,-1,-1,-1,-1],"loss_changes":[1.4242554E2,1.2662029E1,1.1126663E1,2.483204E0,1.6840994E0,1.3860168E0,2.0657501E0,7.527771E-1,1.7218971E-1,2.691207E-1,1.5112475E-1,1.829691E-1,1.536007E-1,6.585274E-1,1.7370415E-1,1.5800285E-1,2.4711609E-1,7.248783E-2,4.1757584E-2,1.2353182E-1,1.0414076E-1,1.2528202E-1,9.895519E-2,6.861907E-2,4.9164772E-2,1.0396242E-1,6.5615654E-2,7.658577E-2,1.3101959E-1,2.240181E-2,0E0,0E0,7.3788166E-2,1.3041115E-1,1.2219429E-1,3.5055816E-2,5.768013E-2,6.466198E-2,1.6655505E-1,7.438207E-2,0E0,1.1206472E-1,3.2067567E-2,0E0,6.897632E-2,6.406909E-2,1.4829005E-1,0E0,2.5430381E-2,5.483818E-2,4.5830607E-2,8.953619E-2,1.4187286E-2,3.1172752E-2,0E0,9.855419E-3,4.9556732E-2,1.4590836E-1,6.407374E-2,0E0,0E0,0E0,0E0,0E0,0E0,0E0,0E0,0E0,0E0,0E0,0E0,0E0,0E0,0E0,0E0,0E0,0E0,0E0,0E0,0E0,0E0,0E0,0E0,0E0,0E0,0E0,0E0,0E0,0E0,0E0,0E0,0E0,0E0,0E0,0E0,0E0,0E0,0E0,0E0,0E0,0E0,0E0,0E0,0E0,0E0,0E0,0E0],"parents":[2147483647,0,0,1,1,2,2,3,3,4,4,5,5,6,6,7,7,8,8,9,9,10,10,11,11,12,12,13,13,14,14,15,15,16,16,17,17,18,18,19,19,20,20,21,21,22,22,23,23,24,24,25,25,26,26,27,27,28,28,29,29,32,32,33,33,34,34,35,35,36,36,37,37,38,38,39,39,41,41,42,42,44,44,45,45,46,46,48,48,49,49,50,50,51,51,52,52,53,53,55,55,56,56,57,57,58,58],"right_children":[2,4,6,8,10,12,14,16,18,20,22,24,26,28,30,32,34,36,38,40,42,44,46,48,50,52,54,56,58,60,-1,-1,62,64,66,68,70,72,74,76,-1,78,80,-1,82,84,86,-1,88,90,92,94,96,98,-1,100,102,104,106,-1,-1,-1,-1,-1,-1,-1,-1,-1,-1,-1,-1,-1,-1,-1,-1,-1,-1,-1,-1,-1,-1,-1,-1,-1,-1,-1,-1,-1,-1,-1,-1,-1,-1,-1,-1,-1,-1,-1,-1,-1,-1,-1,-1,-1,-1,-1,-1],"split_conditions":[3.728E1,3.293E1,4.119E1,3.153E1,3.49E1,3.931E1,4.45E1,2.979E1,3.229E1,3.363E1,3.569E1,3.797E1,4.001E1,4.274E1,4.565E1,2.926E1,3.06E1,3.143E1,3.289E1,3.39E1,3.522E1,3.441E1,3.581E1,3.727E1,3.911E1,4.019E1,4.133E1,4.049E1,4.435E1,4.418E1,1.6213407E-1,-1.16381325E-1,2.994E1,3.127E1,3.042E1,3.146E1,3.166E1,3.26E1,3.279E1,3.256E1,-9.118119E-2,3.407E1,3.545E1,-6.48243E-2,3.575E1,3.582E1,3.553E1,6.451149E-2,3.787E1,3.914E1,3.975E1,3.9E1,3.975E1,4.119E1,-7.04155E-3,4.113E1,4.125E1,4.418E1,4.394E1,2.9902268E-2,1.21752255E-1,-8.07931E-2,-1.4069748E-2,-6.517108E-2,-1.2899795E-1,-3.0298779E-2,-5.6024455E-2,-1.1171532E-2,-3.5332695E-2,-5.4965176E-2,-4.4051386E-2,-3.8451985E-2,-3.0483095E-2,-8.205076E-2,-3.4408804E-2,1.518345E-2,-2.8276894E-2,-2.1825254E-2,-1.1133361E-2,-4.25523E-2,6.803513E-3,-1.9601164E-3,-1.7498752E-2,1.3325082E-2,4.3528464E-2,-5.4255012E-2,4.4256197E-3,1.9983858E-2,3.061513E-2,3.616582E-2,1.1856288E-2,4.5795266E-2,-1.0217286E-2,-2.1494865E-2,5.2060418E-2,1.632576E-2,-1.2890626E-2,6.209999E-2,8.563289E-2,4.236969E-2,1.0225678E-2,9.881058E-2,7.616459E-2,9.588524E-2,1.2903105E-1,8.869553E-3,7.048168E-2],"split_indices":[3,4,0,0,0,3,0,2,0,6,2,4,2,0,0,1,0,5,3,4,6,6,4,2,0,5,1,6,0,5,0,0,3,4,5,1,4,1,0,1,0,0,5,0,6,5,6,0,0,1,5,4,0,1,0,3,1,0,3,0,0,0,0,0,0,0,0,0,0,0,0,0,0,0,0,0,0,0,0,0,0,0,0,0,0,0,0,0,0,0,0,0,0,0,0,0,0,0,0,0,0,0,0,0,0,0,0],"split_type":[0,0,0,0,0,0,0,0,0,0,0,0,0,0,0,0,0,0,0,0,0,0,0,0,0,0,0,0,0,0,0,0,0,0,0,0,0,0,0,0,0,0,0,0,0,0,0,0,0,0,0,0,0,0,0,0,0,0,0,0,0,0,0,0,0,0,0,0,0,0,0,0,0,0,0,0,0,0,0,0,0,0,0,0,0,0,0,0,0,0,0,0,0,0,0,0,0,0,0,0,0,0,0,0,0,0,0],"sum_hessian":[4.952E3,3.249E3,1.703E3,1.992E3,1.257E3,8.51E2,8.52E2,1.036E3,9.56E2,7.32E2,5.25E2,4.23E2,4.28E2,7.15E2,1.37E2,9.4E1,9.42E2,4.5E2,5.06E2,3.47E2,3.85E2,3.49E2,1.76E2,1.34E2,2.89E2,1.76E2,2.52E2,3.28E2,3.87E2,1.15E2,2.2E1,1.9E1,7.5E1,3.29E2,6.13E2,3.8E1,4.12E2,4.67E2,3.9E1,3.45E2,2E0,3.68E2,1.7E1,2E0,3.47E2,4.7E1,1.29E2,3E0,1.31E2,2.07E2,8.2E1,1.72E2,4E0,2.51E2,1E0,6E0,3.22E2,3.68E2,1.9E1,1E0,1.14E2,7.3E1,2E0,3.26E2,3E0,2.1E1,5.92E2,8E0,3E1,7.4E1,3.38E2,2.86E2,1.81E2,9E0,3E1,3E0,3.42E2,1.56E2,2.12E2,1.6E1,1E0,3.2E2,2.7E1,4E1,7E0,3E0,1.26E2,9.9E1,3.2E1,1.97E2,1E1,8.1E1,1E0,1E0,1.71E2,2E0,2E0,2.39E2,1.2E1,4E0,2E0,2.1E1,3.01E2,3.47E2,2.1E1,2E0,1.7E1],"tree_param":{"num_deleted":"0","num_feature":"7","num_nodes":"107","size_leaf_vector":"1"}},{"base_weights":[3.346571E-4,-8.754579E-2,1.6223012E-1,-1.221701E-1,-3.5080247E-2,1.13871336E-1,2.3412201E-1,-1.5245132E-1,-1.012601E-1,-5.934398E-2,-9.1527095E-3,7.8642815E-2,1.4648004E-1,2.1371138E-1,2.927773E-1,-2.2746687E-1,-1.4606808E-1,-1.1590442E-1,-9.092224E-2,-2.1834755E-1,-5.7305124E-2,-2.6117746E-2,2.2581979E-3,6.277491E-2,9.968026E-2,1.2624446E-1,1.6081698E-1,1.9533986E-1,2.2746602E-1,2.7016953E-1,3.617309E-1,-2.4145626E-1,-6.1319668E-2,-1.4493883E-1,-3.1451035E-1,-1.18409745E-1,-2.5665691E-2,-8.840618E-2,-1.8934119E-1,-6.723976E-3,-2.4313627E-1,-6.590031E-2,-4.502326E-2,-1.9454421E-2,-7.5996265E-2,6.1785947E-3,-9.815325E-2,-5.059433E-2,6.413624E-2,1.0357887E-1,4.471755E-2,1.3130572E-1,2.2720336E-3,3.150757E-1,1.5780045E-1,2.0535268E-1,1.5288782E-1,2.2848861E-1,-1.0669899E-2,3.6721576E-2,2.7366692E-1,3.0091096E-2,1.097277E-1,-7.383125E-2,1.4296533E-3,-2.0315094E-2,-4.3999674E-3,-4.6200715E-2,-3.7921026E-2,-1.7331134E-1,-1.0263253E-2,-3.4445204E-2,-5.861107E-2,4.6372893E-3,-2.0699175E-2,-6.1673604E-2,-2.6106333E-2,-1.4039993E-2,-6.1908413E-2,-7.7373507E-3,-8.2518585E-2,-1.942377E-2,-7.586002E-2,2.1221925E-2,-1.4370118E-2,1.08678825E-2,-6.7630606E-3,-5.52285E-2,-1.5401001E-2,2.2423656E-3,-6.847172E-2,1.3453674E-3,-4.189705E-2,-2.3574257E-2,-4.521561E-3,1.58493E-2,2.2067042E-2,2.9596964E-2,5.6171264E-2,7.7114697E-3,2.8598787E-2,3.9981976E-2,6.014328E-3,-2.3360826E-2,2.9396212E-2,6.468201E-3,1.5106966E-1,8.53157E-3,4.769273E-2,5.9650928E-2,1.3466263E-1,-7.6828008E-3,4.836159E-2,7.478142E-3,6.873075E-2,8.583931E-2,6.4102426E-2],"categories":[],"categories_nodes":[],"categories_segments":[],"categories_sizes":[],"default_left":[0,0,0,0,0,0,0,0,0,0,0,0,0,0,0,0,0,0,0,0,0,0,0,0,0,0,0,0,0,0,0,0,0,0,0,0,0,0,0,0,0,0,0,0,0,0,0,0,0,0,0,0,0,0,0,0,0,0,0,0,0,0,0,0,0,0,0,0,0,0,0,0,0,0,0,0,0,0,0,0,0,0,0,0,0,0,0,0,0,0,0,0,0,0,0,0,0,0,0,0,0,0,0,0,0,0,0,0,0,0,0,0,0,0,0,0,0],"id":10,"left_children":[1,3,5,7,9,11,13,15,17,19,21,23,25,27,29,31,33,35,37,39,41,43,45,47,49,51,53,55,57,59,61,63,65,67,69,71,73,75,77,-1,79,81,83,85,87,89,91,93,95,97,99,101,103,105,107,109,111,113,-1,-1,115,-1,-1,-1,-1,-1,-1,-1,-1,-1,-1,-1,-1,-1,-1,-1,-1,-1,-1,-1,-1,-1,-1,-1,-1,-1,-1,-1,-1,-1,-1,-1,-1,-1,-1,-1,-1,-1,-1,-1,-1,-1,-1,-1,-1,-1,-1,-1,-1,-1,-1,-1,-1,-1,-1,-1,-1],"loss_changes":[7.0482735E1,5.828762E0,6.033062E0,1.2091331E0,8.034451E-1,1.1877813E0,7.754631E-1,3.4410286E-1,1.6310692E-1,2.0144963E-1,1.19889E-1,1.6198802E-1,1.3665104E-1,8.772278E-2,1.7975521E-1,1.2465191E-1,9.308052E-2,1.03443146E-1,1.5090418E-1,3.3406198E-2,6.596708E-2,8.127837E-2,1.4665161E-1,4.800141E-2,4.1438103E-2,1.433897E-1,9.592819E-2,6.6794395E-2,8.693695E-2,3.7817955E-2,6.488323E-3,6.411576E-2,7.975511E-4,1.0249901E-1,2.7532893E-1,1.04192734E-1,2.6013657E-2,8.9549065E-2,2.9159486E-2,0E0,4.1478038E-2,6.607771E-2,9.398234E-2,3.882955E-2,6.785366E-2,1.1046469E-1,6.0264006E-2,2.792241E-3,2.6679993E-2,6.388688E-2,1.2945782E-2,4.5486927E-2,8.433787E-2,2.6576567E-1,4.245901E-2,2.0273018E-1,7.539129E-2,3.0777931E-2,0E0,0E0,3.905964E-2,0E0,0E0,0E0,0E0,0E0,0E0,0E0,0E0,0E0,0E0,0E0,0E0,0E0,0E0,0E0,0E0,0E0,0E0,0E0,0E0,0E0,0E0,0E0,0E0,0E0,0E0,0E0,0E0,0E0,0E0,0E0,0E0,0E0,0E0,0E0,0E0,0E0,0E0,0E0,0E0,0E0,0E0,0E0,0E0,0E0,0E0,0E0,0E0,0E0,0E0,0E0,0E0,0E0,0E0,0E0,0E0],"parents":[2147483647,0,0,1,1,2,2,3,3,4,4,5,5,6,6,7,7,8,8,9,9,10,10,11,11,12,12,13,13,14,14,15,15,16,16,17,17,18,18,19,19,20,20,21,21,22,22,23,23,24,24,25,25,26,26,27,27,28,28,29,29,30,30,31,31,32,32,33,33,34,34,35,35,36,36,37,37,38,38,40,40,41,41,42,42,43,43,44,44,45,45,46,46,47,47,48,48,49,49,50,50,51,51,52,52,53,53,54,54,55,55,56,56,57,57,60,60],"right_children":[2,4,6,8,10,12,14,16,18,20,22,24,26,28,30,32,34,36,38,40,42,44,46,48,50,52,54,56,58,60,62,64,66,68,70,72,74,76,78,-1,80,82,84,86,88,90,92,94,96,98,100,102,104,106,108,110,112,114,-1,-1,116,-1,-1,-1,-1,-1,-1,-1,-1,-1,-1,-1,-1,-1,-1,-1,-1,-1,-1,-1,-1,-1,-1,-1,-1,-1,-1,-1,-1,-1,-1,-1,-1,-1,-1,-1,-1,-1,-1,-1,-1,-1,-1,-1,-1,-1,-1,-1,-1,-1,-1,-1,-1,-1,-1,-1,-1],"split_conditions":[3.631E1,3.284E1,4.171E1,3.119E1,3.448E1,3.945E1,4.418E1,2.968E1,3.189E1,3.255E1,3.512E1,3.851E1,4.08E1,4.294E1,4.552E1,2.979E1,3.192E1,3.196E1,3.289E1,3.242E1,3.357E1,3.509E1,3.633E1,3.615E1,3.965E1,4.092E1,4.049E1,4.28E1,4.45E1,4.394E1,4.528E1,2.982E1,3.015E1,3.074E1,3.119E1,3.207E1,3.192E1,3.145E1,3.256E1,-6.723976E-3,3.269E1,3.39E1,3.343E1,3.448E1,3.494E1,3.633E1,3.586E1,3.614E1,3.779E1,3.96E1,3.965E1,4.103E1,4.073E1,4.08E1,4.049E1,4.323E1,4.268E1,4.22E1,-1.0669899E-2,3.6721576E-2,4.542E1,3.0091096E-2,1.097277E-1,-7.383125E-2,1.4296533E-3,-2.0315094E-2,-4.3999674E-3,-4.6200715E-2,-3.7921026E-2,-1.7331134E-1,-1.0263253E-2,-3.4445204E-2,-5.861107E-2,4.6372893E-3,-2.0699175E-2,-6.1673604E-2,-2.6106333E-2,-1.4039993E-2,-6.1908413E-2,-7.7373507E-3,-8.2518585E-2,-1.942377E-2,-7.586002E-2,2.1221925E-2,-1.4370118E-2,1.08678825E-2,-6.7630606E-3,-5.52285E-2,-1.5401001E-2,2.2423656E-3,-6.847172E-2,1.3453674E-3,-4.189705E-2,-2.3574257E-2,-4.521561E-3,1.58493E-2,2.2067042E-2,2.9596964E-2,5.6171264E-2,7.7114697E-3,2.8598787E-2,3.9981976E-2,6.014328E-3,-2.3360826E-2,2.9396212E-2,6.468201E-3,1.5106966E-1,8.53157E-3,4.769273E-2,5.9650928E-2,1.3466263E-1,-7.6828008E-3,4.836159E-2,7.478142E-3,6.873075E-2,8.583931E-2,6.4102426E-2],"split_indices":[1,2,0,0,2,0,6,1,0,5,0,3,2,0,3,2,6,2,3,3,6,1,5,5,5,4,4,2,1,4,2,3,0,1,1,6,1,4,0,0,0,4,3,3,0,3,0,2,2,4,2,0,0,0,6,6,3,6,0,0,5,0,0,0,0,0,0,0,0,0,0,0,0,0,0,0,0,0,0,0,0,0,0,0,0,0,0,0,0,0,0,0,0,0,0,0,0,0,0,0,0,0,0,0,0,0,0,0,0,0,0,0,0,0,0,0,0],"split_type":[0,0,0,0,0,0,0,0,0,0,0,0,0,0,0,0,0,0,0,0,0,0,0,0,0,0,0,0,0,0,0,0,0,0,0,0,0,0,0,0,0,0,0,0,0,0,0,0,0,0,0,0,0,0,0,0,0,0,0,0,0,0,0,0,0,0,0,0,0,0,0,0,0,0,0,0,0,0,0,0,0,0,0,0,0,0,0,0,0,0,0,0,0,0,0,0,0,0,0,0,0,0,0,0,0,0,0,0,0,0,0,0,0,0,0,0,0],"sum_hessian":[4.952E3,3.21E3,1.742E3,1.933E3,1.277E3,1.043E3,6.99E2,7.87E2,1.146E3,6.59E2,6.18E2,5.03E2,5.4E2,5.22E2,1.77E2,5.9E1,7.28E2,4.7E2,6.76E2,7E0,6.52E2,2.48E2,3.7E2,2.89E2,2.14E2,2.28E2,3.12E2,2.3E2,2.92E2,1.37E2,4E1,5.4E1,5E0,7.25E2,3E0,4.57E2,1.3E1,6.61E2,1.5E1,1E0,6E0,3.81E2,2.71E2,2.2E2,2.8E1,3.57E2,1.3E1,3E0,2.86E2,1.99E2,1.5E1,2.19E2,9E0,4E0,3.08E2,1.83E2,4.7E1,2.91E2,1E0,4E0,1.33E2,1E0,3.9E1,5.3E1,1E0,4E0,1E0,4.82E2,2.43E2,1E0,2E0,4.39E2,1.8E1,7E0,6E0,6E0,6.55E2,2E0,1.3E1,1E0,5E0,3.8E2,1E0,6E0,2.65E2,1.1E1,2.09E2,4E0,2.4E1,3.56E2,1E0,4E0,9E0,1E0,2E0,1.33E2,1.53E2,1.9E2,9E0,1.2E1,3E0,2.15E2,4E0,5E0,4E0,2E0,2E0,3E0,3.05E2,1.8E2,3E0,2E0,4.5E1,1E0,2.9E2,1.07E2,2.6E1],"tree_param":{"num_deleted":"0","num_feature":"7","num_nodes":"117","size_leaf_vector":"1"}},{"base_weights":[2.4020347E-4,-6.008792E-2,1.17175E-1,-8.93904E-2,-2.6620338E-2,8.4546335E-2,1.6764374E-1,-1.1478154E-1,-7.794918E-2,-4.131157E-2,1.7436455E-3,6.0139064E-2,1.0631599E-1,1.5792537E-1,2.3624945E-1,-2.1046181E-1,-1.108808E-1,7.164946E-2,-7.841104E-2,-5.316831E-2,-3.0562555E-2,-8.064627E-3,1.3849829E-2,5.0151333E-2,7.249498E-2,3.288854E-1,1.0487995E-1,1.5914242E-1,1.4564514E-2,2.1168143E-1,8.637956E-2,-6.7905344E-2,-3.5257075E-2,-1.31796E-1,-1.0327864E-1,-8.916449E-2,-6.8969816E-2,-3.090296E-3,-5.749604E-2,-1.00087486E-1,-2.9709771E-2,-9.513087E-3,6.1363794E-2,3.8408615E-2,3.7669109E-3,5.525239E-2,-2.068128E-2,8.057941E-2,1.9955063E-2,1.47274025E-2,1.3327104E-1,7.968272E-2,1.1145125E-1,1.4601657E-1,1.7859374E-1,-4.346752E-2,6.669541E-2,6.650577E-2,1.4878187E-1,-2.4323056E-2,-4.197351E-2,-1.948912E-2,-3.320768E-2,-2.6306873E-2,-7.051426E-2,-6.890774E-2,-2.03583E-2,1.0275269E-2,-7.61142E-3,-1.6797632E-2,-6.2115386E-2,9.384156E-4,-3.6406863E-2,-8.421955E-3,-1.7656794E-2,3.9349482E-3,-7.455347E-3,5.255959E-3,2.2090942E-2,-3.454542E-2,2.906785E-3,1.4870738E-2,2.9291233E-2,-1.9297354E-2,1.3229371E-3,2.1071192E-2,3.0657718E-2,2.1530015E-3,3.977051E-2,4.6356585E-2,2.2020383E-2,6.319272E-2,3.1732168E-2,4.4758704E-2,2.5830518E-2,-1.2479783E-2,5.3924102E-2,9.4419485E-3,4.7209624E-2],"categories":[],"categories_nodes":[],"categories_segments":[],"categories_sizes":[],"default_left":[0,0,0,0,0,0,0,0,0,0,0,0,0,0,0,0,0,0,0,0,0,0,0,0,0,0,0,0,0,0,0,0,0,0,0,0,0,0,0,0,0,0,0,0,0,0,0,0,0,0,0,0,0,0,0,0,0,0,0,0,0,0,0,0,0,0,0,0,0,0,0,0,0,0,0,0,0,0,0,0,0,0,0,0,0,0,0,0,0,0,0,0,0,0,0,0,0,0,0],"id":11,"left_children":[1,3,5,7,9,11,13,15,17,19,21,23,25,27,29,31,33,-1,35,37,39,41,43,45,47,49,51,53,55,57,-1,-1,-1,59,61,63,65,67,69,71,73,75,-1,77,79,81,83,85,87,-1,-1,89,91,93,95,-1,-1,-1,97,-1,-1,-1,-1,-1,-1,-1,-1,-1,-1,-1,-1,-1,-1,-1,-1,-1,-1,-1,-1,-1,-1,-1,-1,-1,-1,-1,-1,-1,-1,-1,-1,-1,-1,-1,-1,-1,-1,-1,-1],"loss_changes":[3.4947765E1,3.2024927E0,2.762209E0,4.9711323E-1,6.3637567E-1,5.3875875E-1,4.0340424E-1,1.7783165E-1,1.9488001E-1,1.265881E-1,6.2094364E-2,5.6340456E-2,1.384201E-1,9.9227905E-2,4.062891E-2,2.9329062E-3,6.906891E-2,0E0,1.1598587E-1,1.0319972E-1,2.8449982E-2,9.094573E-2,5.7799384E-2,9.942204E-2,8.971429E-2,7.501572E-2,8.036566E-2,1.2123966E-1,2.3097761E-1,3.515005E-3,0E0,0E0,0E0,4.4225216E-2,1.02452755E-1,9.966612E-2,9.935975E-2,3.3317108E-2,8.7147355E-2,1.3551183E-2,2.3390412E-2,1.00289054E-1,0E0,4.874879E-2,1.18730254E-1,5.6345165E-2,2.1089712E-2,3.439772E-2,4.2219102E-2,0E0,0E0,4.2719305E-2,2.1705627E-1,5.3820133E-2,6.5375805E-2,0E0,0E0,0E0,6.1234087E-3,0E0,0E0,0E0,0E0,0E0,0E0,0E0,0E0,0E0,0E0,0E0,0E0,0E0,0E0,0E0,0E0,0E0,0E0,0E0,0E0,0E0,0E0,0E0,0E0,0E0,0E0,0E0,0E0,0E0,0E0,0E0,0E0,0E0,0E0,0E0,0E0,0E0,0E0,0E0,0E0],"parents":[2147483647,0,0,1,1,2,2,3,3,4,4,5,5,6,6,7,7,8,8,9,9,10,10,11,11,12,12,13,13,14,14,15,15,16,16,18,18,19,19,20,20,21,21,22,22,23,23,24,24,25,25,26,26,27,27,28,28,29,29,33,33,34,34,35,35,36,36,37,37,38,38,39,39,40,40,41,41,43,43,44,44,45,45,46,46,47,47,48,48,51,51,52,52,53,53,54,54,58,58],"right_children":[2,4,6,8,10,12,14,16,18,20,22,24,26,28,30,32,34,-1,36,38,40,42,44,46,48,50,52,54,56,58,-1,-1,-1,60,62,64,66,68,70,72,74,76,-1,78,80,82,84,86,88,-1,-1,90,92,94,96,-1,-1,-1,98,-1,-1,-1,-1,-1,-1,-1,-1,-1,-1,-1,-1,-1,-1,-1,-1,-1,-1,-1,-1,-1,-1,-1,-1,-1,-1,-1,-1,-1,-1,-1,-1,-1,-1,-1,-1,-1,-1,-1,-1],"split_conditions":[3.74E1,3.257E1,4.197E1,3.074E1,3.495E1,3.96E1,4.528E1,2.926E1,2.968E1,3.33E1,3.56E1,3.89E1,3.911E1,4.542E1,4.565E1,2.926E1,2.99E1,7.164946E-2,3.162E1,3.258E1,3.314E1,3.633E1,3.57E1,3.87E1,3.951E1,3.906E1,4.019E1,4.357E1,4.552E1,4.565E1,8.637956E-2,-6.7905344E-2,-3.5257075E-2,2.95E1,2.998E1,3.192E1,3.133E1,3.24E1,3.339E1,3.334E1,3.498E1,3.518E1,6.1363794E-2,3.574E1,3.553E1,3.851E1,3.89E1,3.931E1,3.965E1,1.47274025E-2,1.3327104E-1,3.951E1,4.049E1,4.357E1,4.323E1,-4.346752E-2,6.669541E-2,6.650577E-2,4.552E1,-2.4323056E-2,-4.197351E-2,-1.948912E-2,-3.320768E-2,-2.6306873E-2,-7.051426E-2,-6.890774E-2,-2.03583E-2,1.0275269E-2,-7.61142E-3,-1.6797632E-2,-6.2115386E-2,9.384156E-4,-3.6406863E-2,-8.421955E-3,-1.7656794E-2,3.9349482E-3,-7.455347E-3,5.255959E-3,2.2090942E-2,-3.454542E-2,2.906785E-3,1.4870738E-2,2.9291233E-2,-1.9297354E-2,1.3229371E-3,2.1071192E-2,3.0657718E-2,2.1530015E-3,3.977051E-2,4.6356585E-2,2.2020383E-2,6.319272E-2,3.1732168E-2,4.4758704E-2,2.5830518E-2,-1.2479783E-2,5.3924102E-2,9.4419485E-3,4.7209624E-2],"split_indices":[0,2,1,4,3,4,0,0,0,0,0,6,0,4,0,2,0,0,2,3,3,4,4,6,5,0,1,1,6,6,0,0,0,1,6,6,4,6,1,0,1,5,0,0,6,1,2,3,1,0,0,5,4,3,2,0,0,0,5,0,0,0,0,0,0,0,0,0,0,0,0,0,0,0,0,0,0,0,0,0,0,0,0,0,0,0,0,0,0,0,0,0,0,0,0,0,0,0,0],"split_type":[0,0,0,0,0,0,0,0,0,0,0,0,0,0,0,0,0,0,0,0,0,0,0,0,0,0,0,0,0,0,0,0,0,0,0,0,0,0,0,0,0,0,0,0,0,0,0,0,0,0,0,0,0,0,0,0,0,0,0,0,0,0,0,0,0,0,0,0,0,0,0,0,0,0,0,0,0,0,0,0,0,0,0,0,0,0,0,0,0,0,0,0,0,0,0,0,0,0,0],"sum_hessian":[4.952E3,3.267E3,1.685E3,1.741E3,1.526E3,1.025E3,6.6E2,5.38E2,1.203E3,1.005E3,5.21E2,4.85E2,5.4E2,5.81E2,7.9E1,1.9E1,5.19E2,1E0,1.202E3,4.76E2,5.29E2,2.88E2,2.33E2,2.71E2,2.14E2,2E0,5.38E2,5.76E2,5E0,5.7E1,2.2E1,1.5E1,4E0,1.34E2,3.85E2,5.58E2,6.44E2,3.8E1,4.38E2,5E0,5.24E2,2.87E2,1E0,6.7E1,1.66E2,2.53E2,1.8E1,1.85E2,2.9E1,1E0,1E0,1.14E2,4.24E2,3.49E2,2.27E2,3E0,2E0,4.7E1,1E1,2E1,1.14E2,6.4E1,3.21E2,5.54E2,4E0,3E0,6.41E2,1.4E1,2.4E1,4.35E2,3E0,1E0,4E0,4.98E2,2.6E1,1.16E2,1.71E2,4.3E1,2.4E1,7E0,1.59E2,2.25E2,2.8E1,6E0,1.2E1,1.28E2,5.7E1,2.7E1,2E0,7E0,1.07E2,2.1E1,4.03E2,3.3E2,1.9E1,1E0,2.26E2,1E0,9E0],"tree_param":{"num_deleted":"0","num_feature":"7","num_nodes":"99","size_leaf_vector":"1"}},{"base_weights":[2.3977217E-4,-4.334888E-2,8.0539785E-2,-6.0420677E-2,-1.6901277E-2,4.8770808E-2,1.0819568E-1,-8.944654E-2,-5.447804E-2,-2.6593788E-2,-4.21035E-4,3.5182346E-2,6.1911073E-2,9.6488975E-2,1.4245686E-1,-1.5248127E-1,-8.510525E-2,-6.395668E-2,-4.6935394E-2,-2.5635669E-2,-9.914665E-2,1.8304259E-3,-7.356344E-2,3.6192123E-2,-5.2232362E-2,5.9192598E-2,1.07411645E-1,9.746425E-2,-9.6842766E-2,1.3191202E-1,1.8913464E-1,-5.3239014E-2,-3.0668832E-2,-7.778505E-2,-1.1569533E-1,-6.283034E-2,-3.107071E-1,1.0324557E-2,-4.843687E-2,-3.211236E-2,-1.4347381E-2,-6.7776494E-2,-5.995814E-2,2.6955036E-3,-5.863724E-2,3.1539917E-3,-1.04565814E-1,3.4281287E-2,3.7518024E-2,3.2787325E-3,-7.0755005E-2,6.5380655E-2,-3.6446254E-3,1.9035128E-1,4.642105E-2,2.6173553E-1,9.613262E-2,-8.9836125E-5,-3.867722E-2,6.989937E-2,1.2857515E-1,1.1216899E-1,5.9737183E-2,-2.6354004E-2,-1.713249E-2,6.0902026E-2,-3.7454434E-2,-1.7728115E-2,-2.8304556E-2,-1.3673745E-1,-3.0807497E-3,1.3062821E-2,-1.216055E-2,-4.8498917E-2,-1.4243697E-2,-9.1280835E-3,-3.6091745E-2,-4.741173E-2,-3.6840942E-3,-2.381581E-2,1.607895E-3,1.6856065E-4,2.6571518E-2,-2.1109773E-2,1.17376335E-2,-6.084099E-2,-1.639681E-2,1.0626206E-2,-1.8229295E-2,-2.8083803E-2,-9.5794685E-3,1.8602561E-2,4.2998236E-2,-2.9206086E-2,1.2444443E-2,3.935051E-3,6.3259795E-2,3.3971407E-2,7.754517E-3,1.714058E-2,1.137272E-1,2.4850596E-2,3.271138E-2,-4.3361667E-3,3.904955E-2,3.8635254E-2,1.4126207E-2],"categories":[],"categories_nodes":[],"categories_segments":[],"categories_sizes":[],"default_left":[0,0,0,0,0,0,0,0,0,0,0,0,0,0,0,0,0,0,0,0,0,0,0,0,0,0,0,0,0,0,0,0,0,0,0,0,0,0,0,0,0,0,0,0,0,0,0,0,0,0,0,0,0,0,0,0,0,0,0,0,0,0,0,0,0,0,0,0,0,0,0,0,0,0,0,0,0,0,0,0,0,0,0,0,0,0,0,0,0,0,0,0,0,0,0,0,0,0,0,0,0,0,0,0,0,0,0],"id":12,"left_children":[1,3,5,7,9,11,13,15,17,19,21,23,25,27,29,31,33,35,37,39,41,43,45,47,49,51,53,55,57,59,61,-1,-1,63,65,67,69,71,73,75,77,-1,79,81,-1,83,85,87,-1,-1,89,91,93,95,97,99,101,-1,-1,-1,103,105,-1,-1,-1,-1,-1,-1,-1,-1,-1,-1,-1,-1,-1,-1,-1,-1,-1,-1,-1,-1,-1,-1,-1,-1,-1,-1,-1,-1,-1,-1,-1,-1,-1,-1,-1,-1,-1,-1,-1,-1,-1,-1,-1,-1,-1],"loss_changes":[1.733983E1,1.448771E0,1.526123E0,3.316555E-1,2.0141453E-1,1.4298773E-1,3.5966396E-1,7.7328205E-2,1.1296129E-1,5.2652538E-2,7.720361E-2,3.7374705E-2,4.460323E-2,1.4085913E-1,9.072065E-2,6.965965E-3,6.064129E-2,1.7947245E-1,7.847893E-2,5.6931198E-2,3.613539E-2,7.818143E-2,3.362771E-2,6.329793E-2,6.622875E-3,1.5227473E-1,1.0245153E-1,1.2664938E-1,1.2350325E-2,3.5817623E-2,9.186506E-3,0E0,0E0,4.7825813E-2,1.9453168E-1,7.851362E-2,1.2608597E-1,4.2312223E-2,8.820057E-2,7.036346E-2,8.360111E-2,0E0,1.1846364E-2,8.313597E-2,0E0,1.5976185E-2,3.7945688E-2,4.4495523E-2,0E0,0E0,5.60455E-4,8.4685445E-2,1.5627235E-1,2.9957294E-2,1.6317418E-2,9.839496E-2,1.0937548E-1,0E0,0E0,0E0,4.5318127E-2,1.505293E-3,0E0,0E0,0E0,0E0,0E0,0E0,0E0,0E0,0E0,0E0,0E0,0E0,0E0,0E0,0E0,0E0,0E0,0E0,0E0,0E0,0E0,0E0,0E0,0E0,0E0,0E0,0E0,0E0,0E0,0E0,0E0,0E0,0E0,0E0,0E0,0E0,0E0,0E0,0E0,0E0,0E0,0E0,0E0,0E0,0E0],"parents":[2147483647,0,0,1,1,2,2,3,3,4,4,5,5,6,6,7,7,8,8,9,9,10,10,11,11,12,12,13,13,14,14,15,15,16,16,17,17,18,18,19,19,20,20,21,21,22,22,23,23,24,24,25,25,26,26,27,27,28,28,29,29,30,30,33,33,34,34,35,35,36,36,37,37,38,38,39,39,40,40,42,42,43,43,45,45,46,46,47,47,50,50,51,51,52,52,53,53,54,54,55,55,56,56,60,60,61,61],"right_children":[2,4,6,8,10,12,14,16,18,20,22,24,26,28,30,32,34,36,38,40,42,44,46,48,50,52,54,56,58,60,62,-1,-1,64,66,68,70,72,74,76,78,-1,80,82,-1,84,86,88,-1,-1,90,92,94,96,98,100,102,-1,-1,-1,104,106,-1,-1,-1,-1,-1,-1,-1,-1,-1,-1,-1,-1,-1,-1,-1,-1,-1,-1,-1,-1,-1,-1,-1,-1,-1,-1,-1,-1,-1,-1,-1,-1,-1,-1,-1,-1,-1,-1,-1,-1,-1,-1,-1,-1,-1],"split_conditions":[3.631E1,3.286E1,4.097E1,3.037E1,3.495E1,3.914E1,4.385E1,2.926E1,3.154E1,3.501E1,3.633E1,3.931E1,4.108E1,4.418E1,4.552E1,2.926E1,3.03E1,3.19E1,3.146E1,3.401E1,3.432E1,3.633E1,3.586E1,3.931E1,3.906E1,4.092E1,4.113E1,4.049E1,4.385E1,4.362E1,4.542E1,-5.3239014E-2,-3.0668832E-2,2.998E1,2.968E1,3.15E1,3.119E1,3.176E1,3.133E1,3.411E1,3.363E1,-6.7776494E-2,3.503E1,3.615E1,-5.863724E-2,3.581E1,3.587E1,3.925E1,3.7518024E-2,3.2787325E-3,3.9E1,4.092E1,4.08E1,4.073E1,4.067E1,4.103E1,4.246E1,-8.9836125E-5,-3.867722E-2,6.989937E-2,4.37E1,4.552E1,5.9737183E-2,-2.6354004E-2,-1.713249E-2,6.0902026E-2,-3.7454434E-2,-1.7728115E-2,-2.8304556E-2,-1.3673745E-1,-3.0807497E-3,1.3062821E-2,-1.216055E-2,-4.8498917E-2,-1.4243697E-2,-9.1280835E-3,-3.6091745E-2,-4.741173E-2,-3.6840942E-3,-2.381581E-2,1.607895E-3,1.6856065E-4,2.6571518E-2,-2.1109773E-2,1.17376335E-2,-6.084099E-2,-1.639681E-2,1.0626206E-2,-1.8229295E-2,-2.8083803E-2,-9.5794685E-3,1.8602561E-2,4.2998236E-2,-2.9206086E-2,1.2444443E-2,3.935051E-3,6.3259795E-2,3.3971407E-2,7.754517E-3,1.714058E-2,1.137272E-1,2.4850596E-2,3.271138E-2,-4.3361667E-3,3.904955E-2,3.8635254E-2,1.4126207E-2],"split_indices":[1,4,0,0,6,3,4,0,2,5,5,4,4,1,2,6,5,6,0,0,0,3,0,6,6,4,6,4,0,0,4,0,0,1,0,5,1,4,4,3,6,0,0,3,0,1,1,2,0,0,2,3,0,5,0,1,6,0,0,0,0,3,0,0,0,0,0,0,0,0,0,0,0,0,0,0,0,0,0,0,0,0,0,0,0,0,0,0,0,0,0,0,0,0,0,0,0,0,0,0,0,0,0,0,0,0,0],"split_type":[0,0,0,0,0,0,0,0,0,0,0,0,0,0,0,0,0,0,0,0,0,0,0,0,0,0,0,0,0,0,0,0,0,0,0,0,0,0,0,0,0,0,0,0,0,0,0,0,0,0,0,0,0,0,0,0,0,0,0,0,0,0,0,0,0,0,0,0,0,0,0,0,0,0,0,0,0,0,0,0,0,0,0,0,0,0,0,0,0,0,0,0,0,0,0,0,0,0,0,0,0,0,0,0,0,0,0],"sum_hessian":[4.952E3,3.21E3,1.742E3,1.95E3,1.26E3,8.12E2,9.3E2,3.29E2,1.621E3,7.93E2,4.67E2,4.01E2,4.11E2,6.96E2,2.34E2,1.9E1,3.1E2,7.15E2,9.06E2,7.84E2,9E0,4.54E2,1.3E1,3.97E2,4E0,3.9E2,2.1E1,6.93E2,3E0,1.94E2,4E1,1.1E1,8E0,2.53E2,5.7E1,7.13E2,2E0,2.3E1,8.83E2,4.97E2,2.87E2,1E0,8E0,4.53E2,1E0,4E0,9E0,3.9E2,7E0,1E0,3E0,3.55E2,3.5E1,8E0,1.3E1,4E0,6.89E2,1E0,2E0,4E0,1.9E2,6E0,3.4E1,1.68E2,8.5E1,1E0,5.6E1,6.4E2,7.3E1,1E0,1E0,1.4E1,9E0,6E0,8.77E2,4.89E2,8E0,3E0,2.84E2,6E0,2E0,4.43E2,1E1,1E0,3E0,2E0,7E0,3.86E2,4E0,1E0,2E0,3.42E2,1.3E1,1.1E1,2.4E1,1E0,7E0,2E0,1.1E1,2E0,2E0,3.43E2,3.46E2,2E0,1.88E2,4E0,2E0],"tree_param":{"num_deleted":"0","num_feature":"7","num_nodes":"107","size_leaf_vector":"1"}},{"base_weights":[1.3963849E-4,-2.979854E-2,5.816919E-2,-4.7233842E-2,-1.5570429E-2,3.770366E-2,7.811067E-2,-6.598585E-2,-4.2933274E-2,-2.4776898E-2,-2.7535183E-3,2.9650511E-2,4.9791094E-2,7.148124E-2,1.1194082E-1,-6.1113328E-2,-1.5141419E-1,4.4484712E-2,-4.337739E-2,-7.7641584E-2,-2.430619E-2,1.11611046E-1,-3.6659802E-3,3.132737E-2,-4.1571617E-2,-3.9022066E-2,5.0727464E-2,7.34078E-2,7.6675415E-4,1.8354924E-1,1.0237577E-1,-9.339074E-2,-5.1334817E-2,5.176678E-2,-1.896085E-1,-4.24666E-2,-1.4705905E-1,5.4484684E-2,-2.4736553E-2,1.0047341E-2,3.6161043E-2,-1.2923001E-2,4.1025667E-3,5.318699E-2,3.0669017E-2,-7.795982E-2,2.8073885E-2,5.4080002E-2,1.1813424E-3,7.084189E-2,1.4891434E-1,4.530473E-2,-4.8301697E-2,-1.4053346E-3,5.9198737E-2,6.75422E-2,1.2136271E-1,-3.111603E-2,1.1673088E-2,-1.410936E-2,-2.8544595E-2,-7.238922E-2,-1.7594034E-2,8.0696745E-3,-1.3049505E-2,1.8585206E-3,-4.9432695E-2,-5.670357E-3,2.8770877E-2,-4.442749E-2,-7.199693E-3,-2.938967E-3,-1.6185609E-1,8.994203E-3,-1.863601E-4,5.3772097E-3,1.09319845E-2,-1.33350855E-2,-4.2399596E-2,1.5807603E-2,7.244568E-2,1.6379215E-2,-8.215791E-3,4.2047884E-2,2.0813424E-2,-2.5597573E-3,5.2267037E-2,-5.162048E-3,3.0079652E-2,-2.6707567E-2,1.0511971E-2,2.369622E-2,-6.5771104E-3,3.2416496E-2,4.471983E-2],"categories":[],"categories_nodes":[],"categories_segments":[],"categories_sizes":[],"default_left":[0,0,0,0,0,0,0,0,0,0,0,0,0,0,0,0,0,0,0,0,0,0,0,0,0,0,0,0,0,0,0,0,0,0,0,0,0,0,0,0,0,0,0,0,0,0,0,0,0,0,0,0,0,0,0,0,0,0,0,0,0,0,0,0,0,0,0,0,0,0,0,0,0,0,0,0,0,0,0,0,0,0,0,0,0,0,0,0,0,0,0,0,0,0,0],"id":13,"left_children":[1,3,5,7,9,11,13,15,17,19,21,23,25,27,29,31,33,-1,35,-1,37,39,41,43,45,-1,47,49,51,53,55,57,59,-1,61,63,65,67,69,-1,-1,71,73,-1,75,77,-1,79,81,83,85,87,89,-1,-1,91,93,-1,-1,-1,-1,-1,-1,-1,-1,-1,-1,-1,-1,-1,-1,-1,-1,-1,-1,-1,-1,-1,-1,-1,-1,-1,-1,-1,-1,-1,-1,-1,-1,-1,-1,-1,-1,-1,-1],"loss_changes":[8.606575E0,8.0996203E-1,6.8513393E-1,1.155529E-1,2.124471E-1,7.970691E-2,1.8330431E-1,1.0396707E-1,1.0808253E-1,1.0915661E-1,7.909155E-2,6.137541E-2,6.251359E-2,9.7488165E-2,7.573056E-2,7.6952696E-2,2.0595145E-1,0E0,1.0660124E-1,0E0,3.6850214E-2,1.4675409E-4,5.39163E-2,4.1841537E-2,6.631038E-2,0E0,5.4917037E-2,1.2448931E-1,4.5896485E-2,3.9831877E-2,7.381427E-2,8.4664166E-2,3.342527E-2,0E0,7.384917E-2,8.604932E-2,2.8172165E-2,2.004976E-2,9.1251075E-2,0E0,0E0,5.577755E-1,4.9893424E-2,0E0,3.5460114E-2,1.4953472E-2,0E0,6.791234E-2,3.5066154E-2,5.886841E-2,8.915305E-2,3.9517768E-2,3.7059076E-2,0E0,0E0,4.8833624E-2,1.3017535E-2,0E0,0E0,0E0,0E0,0E0,0E0,0E0,0E0,0E0,0E0,0E0,0E0,0E0,0E0,0E0,0E0,0E0,0E0,0E0,0E0,0E0,0E0,0E0,0E0,0E0,0E0,0E0,0E0,0E0,0E0,0E0,0E0,0E0,0E0,0E0,0E0,0E0,0E0],"parents":[2147483647,0,0,1,1,2,2,3,3,4,4,5,5,6,6,7,7,8,8,9,9,10,10,11,11,12,12,13,13,14,14,15,15,16,16,18,18,20,20,21,21,22,22,23,23,24,24,26,26,27,27,28,28,29,29,30,30,31,31,32,32,34,34,35,35,36,36,37,37,38,38,41,41,42,42,44,44,45,45,47,47,48,48,49,49,50,50,51,51,52,52,55,55,56,56],"right_children":[2,4,6,8,10,12,14,16,18,20,22,24,26,28,30,32,34,-1,36,-1,38,40,42,44,46,-1,48,50,52,54,56,58,60,-1,62,64,66,68,70,-1,-1,72,74,-1,76,78,-1,80,82,84,86,88,90,-1,-1,92,94,-1,-1,-1,-1,-1,-1,-1,-1,-1,-1,-1,-1,-1,-1,-1,-1,-1,-1,-1,-1,-1,-1,-1,-1,-1,-1,-1,-1,-1,-1,-1,-1,-1,-1,-1,-1,-1,-1],"split_conditions":[3.74E1,3.227E1,4.119E1,3.02E1,3.412E1,3.965E1,4.45E1,3.048E1,2.994E1,3.183E1,3.402E1,3.975E1,3.94E1,4.435E1,4.45E1,2.968E1,2.968E1,4.4484712E-2,3.24E1,-7.7641584E-2,3.206E1,3.273E1,3.517E1,3.727E1,3.965E1,-3.9022066E-2,4.133E1,4.418E1,4.435E1,4.418E1,4.528E1,2.979E1,3.02E1,5.176678E-2,3.091E1,3.004E1,3.211E1,3.238E1,3.21E1,1.0047341E-2,3.6161043E-2,3.553E1,3.529E1,5.318699E-2,3.812E1,3.945E1,2.8073885E-2,4.14E1,4.108E1,4.097E1,4.379E1,4.418E1,4.47E1,-1.4053346E-3,5.9198737E-2,4.542E1,4.565E1,-3.111603E-2,1.1673088E-2,-1.410936E-2,-2.8544595E-2,-7.238922E-2,-1.7594034E-2,8.0696745E-3,-1.3049505E-2,1.8585206E-3,-4.9432695E-2,-5.670357E-3,2.8770877E-2,-4.442749E-2,-7.199693E-3,-2.938967E-3,-1.6185609E-1,8.994203E-3,-1.863601E-4,5.3772097E-3,1.09319845E-2,-1.33350855E-2,-4.2399596E-2,1.5807603E-2,7.244568E-2,1.6379215E-2,-8.215791E-3,4.2047884E-2,2.0813424E-2,-2.5597573E-3,5.2267037E-2,-5.162048E-3,3.0079652E-2,-2.6707567E-2,1.0511971E-2,2.369622E-2,-6.5771104E-3,3.2416496E-2,4.471983E-2],"split_indices":[0,4,0,1,6,2,0,6,0,2,5,6,1,0,6,0,0,0,5,0,1,0,2,2,1,0,6,0,4,5,0,1,4,0,6,6,6,4,0,0,0,5,3,0,4,0,0,5,1,4,4,4,6,0,0,4,0,0,0,0,0,0,0,0,0,0,0,0,0,0,0,0,0,0,0,0,0,0,0,0,0,0,0,0,0,0,0,0,0,0,0,0,0,0,0],"split_type":[0,0,0,0,0,0,0,0,0,0,0,0,0,0,0,0,0,0,0,0,0,0,0,0,0,0,0,0,0,0,0,0,0,0,0,0,0,0,0,0,0,0,0,0,0,0,0,0,0,0,0,0,0,0,0,0,0,0,0,0,0,0,0,0,0,0,0,0,0,0,0,0,0,0,0,0,0,0,0,0,0,0,0,0,0,0,0,0,0,0,0,0,0,0,0],"sum_hessian":[4.952E3,3.267E3,1.685E3,1.467E3,1.8E3,8.33E2,8.52E2,2.71E2,1.196E3,1.047E3,7.53E2,5.02E2,3.31E2,7.15E2,1.37E2,2.58E2,1.3E1,2E0,1.194E3,1E0,1.046E3,5E0,7.48E2,4.91E2,1.1E1,1E0,3.3E2,6.96E2,1.9E1,1.4E1,1.23E2,5.8E1,2E2,1E0,1.2E1,1.185E3,9E0,5E0,1.041E3,1E0,4E0,3.41E2,4.07E2,1E0,4.9E2,9E0,2E0,3.09E2,2.1E1,6.75E2,2.1E1,1E1,9E0,1E0,1.3E1,4.5E1,7.8E1,5.4E1,4E0,1.84E2,1.6E1,8E0,4E0,1.7E1,1.168E3,1E0,8E0,2E0,3E0,5E0,1.036E3,3.4E2,1E0,6.2E1,3.45E2,1.54E2,3.36E2,7E0,2E0,3.08E2,1E0,7E0,1.4E1,1.2E1,6.63E2,3E0,1.8E1,5E0,5E0,6E0,3E0,4E1,5E0,5.6E1,2.2E1],"tree_param":{"num_deleted":"0","num_feature":"7","num_nodes":"95","size_leaf_vector":"1"}},{"base_weights":[1.07133455E-4,-2.1770855E-2,3.970586E-2,-3.1974785E-2,-1.0727904E-2,2.8671551E-2,6.1933216E-2,-4.093226E-2,-2.6346143E-2,-5.1108938E-2,-1.0408299E-2,1.9266864E-2,3.719286E-2,1.16853826E-1,5.8431886E-2,-3.9428767E-2,-1.5440392E-1,-2.7089115E-2,6.0206942E-2,4.360511E-2,-1.118784E-2,2.0161394E-2,-5.466461E-2,2.59861E-1,3.604806E-2,1.12576485E-2,1.4381367E-1,8.904705E-2,5.7458766E-2,-4.0479366E-2,4.0611792E-2,-6.9034316E-2,-2.1164894E-2,-2.668113E-2,-6.599551E-2,4.213486E-2,3.262043E-2,7.7606626E-2,1.8632343E-2,-2.057134E-2,-5.8877426E-3,2.0638578E-2,-2.2451403E-2,8.50296E-3,-7.3223114E-2,8.08754E-3,1.0884991E-1,3.447149E-2,1.0137831E-1,-3.9721172E-2,3.283882E-2,2.1052381E-1,1.0464498E-1,4.0222537E-2,7.0478E-2,-1.9007035E-2,-1.1192752E-2,-9.732914E-3,-1.9773485E-3,-3.8797762E-2,-7.843654E-3,-1.5541078E-3,2.920456E-2,2.4507523E-3,2.557955E-2,-2.8355026E-3,2.1322174E-2,9.09599E-4,-7.0492774E-3,2.3585701E-2,-1.9226075E-3,4.8989416E-3,9.617562E-3,-5.2734376E-3,-2.8995324E-2,1.112034E-2,-6.0508186E-3,4.3769646E-2,1.8130112E-2,3.3370974E-3,-2.8282167E-2,2.1452237E-2,8.043423E-2,1.8736513E-2,5.56942E-2,1.1425607E-2,5.8695603E-2,8.720169E-2,2.0650603E-2],"categories":[],"categories_nodes":[],"categories_segments":[],"categories_sizes":[],"default_left":[0,0,0,0,0,0,0,0,0,0,0,0,0,0,0,0,0,0,0,0,0,0,0,0,0,0,0,0,0,0,0,0,0,0,0,0,0,0,0,0,0,0,0,0,0,0,0,0,0,0,0,0,0,0,0,0,0,0,0,0,0,0,0,0,0,0,0,0,0,0,0,0,0,0,0,0,0,0,0,0,0,0,0,0,0,0,0,0,0],"id":14,"left_children":[1,3,5,7,9,11,13,15,17,-1,19,21,23,25,27,29,31,33,35,37,39,41,43,45,47,49,51,-1,53,55,-1,-1,57,59,-1,-1,61,63,65,67,69,71,-1,-1,73,-1,-1,75,77,79,-1,81,83,85,87,-1,-1,-1,-1,-1,-1,-1,-1,-1,-1,-1,-1,-1,-1,-1,-1,-1,-1,-1,-1,-1,-1,-1,-1,-1,-1,-1,-1,-1,-1,-1,-1,-1,-1],"loss_changes":[4.2918487E0,3.5922384E-1,4.3062377E-1,8.251524E-2,7.649158E-2,9.3848884E-2,1.054728E-1,1.02757454E-1,6.728798E-2,0E0,6.4993754E-2,3.8335517E-2,1.4816725E-1,9.5174104E-2,1.107676E-1,1.2136072E-1,7.583031E-2,7.385224E-2,1.5340995E-2,1.723447E-2,7.5026125E-2,2.6794553E-2,1.2858883E-2,6.21659E-2,5.995196E-2,4.4399023E-2,4.8519373E-2,0E0,1.2058663E-1,4.3182373E-2,0E0,0E0,4.436219E-4,5.225706E-2,0E0,0E0,2.0078484E-2,4.0895566E-3,2.1290548E-2,3.771399E-2,4.3074753E-2,2.6785806E-2,0E0,0E0,6.1229467E-3,0E0,0E0,8.629191E-2,1.670304E-2,1.7691012E-2,0E0,5.2881747E-2,5.3337574E-2,7.193962E-2,9.2843056E-2,0E0,0E0,0E0,0E0,0E0,0E0,0E0,0E0,0E0,0E0,0E0,0E0,0E0,0E0,0E0,0E0,0E0,0E0,0E0,0E0,0E0,0E0,0E0,0E0,0E0,0E0,0E0,0E0,0E0,0E0,0E0,0E0,0E0,0E0],"parents":[2147483647,0,0,1,1,2,2,3,3,4,4,5,5,6,6,7,7,8,8,10,10,11,11,12,12,13,13,14,14,15,15,16,16,17,17,18,18,19,19,20,20,21,21,22,22,23,23,24,24,25,25,26,26,28,28,29,29,32,32,33,33,36,36,37,37,38,38,39,39,40,40,41,41,44,44,47,47,48,48,49,49,51,51,52,52,53,53,54,54],"right_children":[2,4,6,8,10,12,14,16,18,-1,20,22,24,26,28,30,32,34,36,38,40,42,44,46,48,50,52,-1,54,56,-1,-1,58,60,-1,-1,62,64,66,68,70,72,-1,-1,74,-1,-1,76,78,80,-1,82,84,86,88,-1,-1,-1,-1,-1,-1,-1,-1,-1,-1,-1,-1,-1,-1,-1,-1,-1,-1,-1,-1,-1,-1,-1,-1,-1,-1,-1,-1,-1,-1,-1,-1,-1,-1],"split_conditions":[3.613E1,3.247E1,4.246E1,3.087E1,3.13E1,3.96E1,4.255E1,3.127E1,3.257E1,-5.1108938E-2,3.233E1,3.965E1,3.911E1,4.22E1,4.22E1,3.145E1,3.079E1,3.282E1,3.26E1,3.245E1,3.331E1,3.975E1,3.919E1,3.906E1,4.268E1,4.246E1,4.236E1,8.904705E-2,4.357E1,2.974E1,4.0611792E-2,-6.9034316E-2,3.084E1,3.066E1,-6.599551E-2,4.213486E-2,3.273E1,3.219E1,3.248E1,3.253E1,3.321E1,3.911E1,-2.2451403E-2,8.50296E-3,3.925E1,8.08754E-3,1.0884991E-1,4.22E1,4.236E1,4.206E1,3.283882E-2,4.236E1,4.255E1,4.379E1,4.303E1,-1.9007035E-2,-1.1192752E-2,-9.732914E-3,-1.9773485E-3,-3.8797762E-2,-7.843654E-3,-1.5541078E-3,2.920456E-2,2.4507523E-3,2.557955E-2,-2.8355026E-3,2.1322174E-2,9.09599E-4,-7.0492774E-3,2.3585701E-2,-1.9226075E-3,4.8989416E-3,9.617562E-3,-5.2734376E-3,-2.8995324E-2,1.112034E-2,-6.0508186E-3,4.3769646E-2,1.8130112E-2,3.3370974E-3,-2.8282167E-2,2.1452237E-2,8.043423E-2,1.8736513E-2,5.56942E-2,1.1425607E-2,5.8695603E-2,8.720169E-2,2.0650603E-2],"split_indices":[1,1,0,0,6,4,3,4,2,0,5,5,0,3,2,6,0,5,2,2,1,6,3,0,5,1,5,0,5,0,0,0,1,1,0,0,2,2,4,4,3,0,0,0,0,0,0,0,0,6,0,3,4,4,2,0,0,0,0,0,0,0,0,0,0,0,0,0,0,0,0,0,0,0,0,0,0,0,0,0,0,0,0,0,0,0,0,0,0],"split_type":[0,0,0,0,0,0,0,0,0,0,0,0,0,0,0,0,0,0,0,0,0,0,0,0,0,0,0,0,0,0,0,0,0,0,0,0,0,0,0,0,0,0,0,0,0,0,0,0,0,0,0,0,0,0,0,0,0,0,0,0,0,0,0,0,0,0,0,0,0,0,0,0,0,0,0,0,0,0,0,0,0,0,0,0,0,0,0,0,0],"sum_hessian":[4.952E3,3.19E3,1.762E3,1.657E3,1.533E3,1.179E3,5.83E2,6.37E2,1.02E3,2E0,1.531E3,5.62E2,6.17E2,3.3E1,5.5E2,6.3E2,7E0,1.012E3,8E0,2.1E1,1.51E3,5.56E2,6E0,2E0,6.15E2,7E0,2.6E1,1E0,5.49E2,6.27E2,3E0,4E0,3E0,1.011E3,1E0,1E0,7E0,8E0,1.3E1,5.44E2,9.66E2,5.54E2,2E0,1E0,5E0,1E0,1E0,6.02E2,1.3E1,5E0,2E0,8E0,1.8E1,2.38E2,3.11E2,7.4E1,5.53E2,1E0,2E0,4E0,1.007E3,5E0,2E0,1E0,7E0,9E0,4E0,6E1,4.84E2,5E0,9.61E2,4.04E2,1.5E2,2E0,3E0,5.75E2,2.7E1,5E0,8E0,3E0,2E0,3E0,5E0,1.3E1,5E0,2.36E2,2E0,1E0,3.1E2],"tree_param":{"num_deleted":"0","num_feature":"7","num_nodes":"89","size_leaf_vector":"1"}},{"base_weights":[1.7591161E-4,-1.6824633E-2,2.5797088E-2,-2.5378933E-2,-1.1360194E-2,1.3069422E-2,3.7908155E-2,-2.3896344E-2,-9.455911E-2,-1.0962038E-2,-1.5361862E-1,1.7328136E-1,1.2054483E-2,1.6558902E-1,3.710975E-2,-2.953977E-2,-1.622135E-2,-3.2044125E-1,-1.8251117E-2,-1.12711685E-2,1.0319748E-1,-1.3728905E-1,3.67918E-2,7.818146E-2,6.4468384E-2,1.2636603E-2,-5.879736E-2,2.5061494E-1,-3.8931087E-2,3.0118473E-2,4.9977105E-2,-2.6055166E-2,-7.111267E-2,3.241024E-2,-1.7220935E-2,5.5704117E-3,-1.1758702E-1,-7.942891E-2,2.4055004E-2,-1.0439413E-2,-4.226644E-2,4.0553287E-2,-3.708458E-3,-4.4025425E-3,1.765175E-2,3.7668229E-3,2.3276139E-2,1.184792E-2,7.9099484E-2,-1.5651321E-1,3.1134795E-2,1.40745165E-2,8.694334E-2,3.33723E-2,-3.3163298E-3,8.973798E-2,4.5733847E-2,-8.63541E-3,6.189453E-3,2.8431417E-2,-2.2929652E-2,-3.811175E-2,-4.528489E-3,-3.130026E-2,-9.426118E-4,-2.3256684E-2,1.2101036E-2,-3.7105773E-3,1.8916647E-3,-4.4263624E-2,-6.978328E-3,3.93123E-3,-1.4979533E-2,6.0597155E-2,-5.993925E-3,-7.0581056E-2,1.1963654E-2,-9.664536E-4,1.2158776E-2,8.742892E-3,4.4396702E-2,-2.5790446E-3,4.5442775E-2,-1.2361622E-2,3.126175E-2,-1.3768312E-2,1.5018548E-2],"categories":[],"categories_nodes":[],"categories_segments":[],"categories_sizes":[],"default_left":[0,0,0,0,0,0,0,0,0,0,0,0,0,0,0,0,0,0,0,0,0,0,0,0,0,0,0,0,0,0,0,0,0,0,0,0,0,0,0,0,0,0,0,0,0,0,0,0,0,0,0,0,0,0,0,0,0,0,0,0,0,0,0,0,0,0,0,0,0,0,0,0,0,0,0,0,0,0,0,0,0,0,0,0,0,0,0],"id":15,"left_children":[1,3,5,7,9,11,13,15,17,19,21,23,25,27,29,31,33,35,37,39,41,-1,43,-1,45,47,49,51,-1,53,55,57,59,-1,61,-1,-1,63,65,67,69,-1,-1,-1,-1,-1,-1,71,73,75,77,-1,-1,79,81,83,85,-1,-1,-1,-1,-1,-1,-1,-1,-1,-1,-1,-1,-1,-1,-1,-1,-1,-1,-1,-1,-1,-1,-1,-1,-1,-1,-1,-1,-1,-1],"loss_changes":[2.1578317E0,1.3891667E-1,3.0409622E-1,1.1671668E-1,1.01345986E-1,1.5482527E-1,9.7019434E-2,4.8768044E-2,4.0783024E-1,6.521487E-2,3.0627185E-1,4.02108E-2,4.0337488E-2,1.8320152E-1,8.908367E-2,9.288889E-2,6.1975166E-2,1.5274435E-1,5.108637E-2,4.624726E-2,2.0148966E-2,0E0,5.4023145E-3,0E0,1.7499086E-3,4.901734E-2,7.517539E-2,2.6324809E-2,0E0,7.136881E-2,5.5452526E-2,7.769072E-2,5.136457E-2,0E0,1.1038168E-1,0E0,0E0,1.487175E-2,2.2973303E-2,5.7094574E-2,9.060851E-2,0E0,0E0,0E0,0E0,0E0,0E0,7.3837146E-2,1.3797115E-1,7.1251266E-2,1.7443597E-3,0E0,0E0,2.8508395E-1,4.952752E-2,6.681132E-2,1.2959486E-1,0E0,0E0,0E0,0E0,0E0,0E0,0E0,0E0,0E0,0E0,0E0,0E0,0E0,0E0,0E0,0E0,0E0,0E0,0E0,0E0,0E0,0E0,0E0,0E0,0E0,0E0,0E0,0E0,0E0,0E0],"parents":[2147483647,0,0,1,1,2,2,3,3,4,4,5,5,6,6,7,7,8,8,9,9,10,10,11,11,12,12,13,13,14,14,15,15,16,16,17,17,18,18,19,19,20,20,22,22,24,24,25,25,26,26,27,27,29,29,30,30,31,31,32,32,34,34,37,37,38,38,39,39,40,40,47,47,48,48,49,49,50,50,53,53,54,54,55,55,56,56],"right_children":[2,4,6,8,10,12,14,16,18,20,22,24,26,28,30,32,34,36,38,40,42,-1,44,-1,46,48,50,52,-1,54,56,58,60,-1,62,-1,-1,64,66,68,70,-1,-1,-1,-1,-1,-1,72,74,76,78,-1,-1,80,82,84,86,-1,-1,-1,-1,-1,-1,-1,-1,-1,-1,-1,-1,-1,-1,-1,-1,-1,-1,-1,-1,-1,-1,-1,-1,-1,-1,-1,-1,-1,-1],"split_conditions":[3.545E1,3.172E1,4.08E1,3.192E1,3.575E1,3.534E1,4.049E1,3.091E1,3.166E1,3.574E1,3.521E1,3.521E1,4.085E1,4.067E1,4.343E1,3.087E1,2.994E1,3.11E1,3.197E1,3.535E1,3.613E1,-1.3728905E-1,3.534E1,7.818146E-2,3.528E1,4.097E1,4.067E1,4.067E1,-3.8931087E-2,4.323E1,4.343E1,3.084E1,3.058E1,3.241024E-2,3.048E1,5.5704117E-3,-1.1758702E-1,3.162E1,3.132E1,3.495E1,3.513E1,4.0553287E-2,-3.708458E-3,-4.4025425E-3,1.765175E-2,3.7668229E-3,2.3276139E-2,4.08E1,4.049E1,4.103E1,4.049E1,1.40745165E-2,8.694334E-2,4.31E1,4.362E1,4.255E1,4.343E1,-8.63541E-3,6.189453E-3,2.8431417E-2,-2.2929652E-2,-3.811175E-2,-4.528489E-3,-3.130026E-2,-9.426118E-4,-2.3256684E-2,1.2101036E-2,-3.7105773E-3,1.8916647E-3,-4.4263624E-2,-6.978328E-3,3.93123E-3,-1.4979533E-2,6.0597155E-2,-5.993925E-3,-7.0581056E-2,1.1963654E-2,-9.664536E-4,1.2158776E-2,8.742892E-3,4.4396702E-2,-2.5790446E-3,4.5442775E-2,-1.2361622E-2,3.126175E-2,-1.3768312E-2,1.5018548E-2],"split_indices":[4,0,2,6,6,3,4,6,4,0,0,0,3,5,0,4,1,0,6,6,0,0,2,0,1,6,1,0,0,0,4,3,1,0,0,0,0,0,0,6,3,0,0,0,0,0,0,6,1,3,0,0,0,0,1,5,6,0,0,0,0,0,0,0,0,0,0,0,0,0,0,0,0,0,0,0,0,0,0,0,0,0,0,0,0,0,0],"split_type":[0,0,0,0,0,0,0,0,0,0,0,0,0,0,0,0,0,0,0,0,0,0,0,0,0,0,0,0,0,0,0,0,0,0,0,0,0,0,0,0,0,0,0,0,0,0,0,0,0,0,0,0,0,0,0,0,0,0,0,0,0,0,0,0,0,0,0,0,0,0,0,0,0,0,0,0,0,0,0,0,0,0,0,0,0,0,0],"sum_hessian":[4.952E3,2.977E3,1.975E3,1.159E3,1.818E3,9.64E2,1.011E3,1.136E3,2.3E1,1.814E3,4E0,5E0,9.59E2,5E0,1.006E3,6.53E2,4.83E2,5E0,1.8E1,1.81E3,4E0,1E0,3E0,2E0,3E0,9.52E2,7E0,4E0,1E0,6.54E2,3.52E2,6.04E2,4.9E1,3E0,4.8E2,1E0,4E0,7E0,1.1E1,1.764E3,4.6E1,3E0,1E0,1E0,2E0,1E0,2E0,9.42E2,1E1,3E0,4E0,1E0,3E0,5.96E2,5.8E1,3.2E1,3.2E2,5.71E2,3.3E1,1E0,4.8E1,8E0,4.72E2,5E0,2E0,1E0,1E1,1.582E3,1.82E2,6E0,4E1,9.24E2,1.8E1,4E0,6E0,2E0,1E0,1E0,3E0,5.76E2,2E1,5.7E1,1E0,3E0,2.9E1,1.4E1,3.06E2],"tree_param":{"num_deleted":"0","num_feature":"7","num_nodes":"87","size_leaf_vector":"1"}},{"base_weights":[1.1822404E-4,-1.031326E-2,2.184446E-2,-1.5553053E-2,-3.3633735E-3,1.5530483E-2,3.0857306E-2,-1.4980019E-2,-9.793135E-2,-1.2812805E-1,-2.5768892E-3,1.662305E-2,-3.8707733E-2,2.8444115E-2,6.6655695E-2,-2.4610132E-2,-1.294242E-2,-4.4433277E-2,-1.1098624E-1,7.7304844E-4,-1.4478827E-1,-1.5413602E-3,-3.5208095E-2,1.5637316E-2,9.7465515E-2,-1.01493515E-1,6.030941E-2,4.287074E-2,2.3677126E-2,4.055252E-2,5.9675854E-2,-2.1203153E-2,-6.916403E-2,2.7177904E-2,-1.4011177E-2,3.7303502E-3,-1.4169312E-1,-2.1806718E-3,-4.9018648E-2,-2.6880498E-3,5.2327123E-2,-1.3825689E-2,-6.835511E-2,1.5159573E-2,7.5714655E-2,1.7105103E-1,-2.5047302E-2,-5.115613E-2,-9.828072E-2,2.2525787E-2,4.8719216E-2,2.5621766E-2,7.68663E-2,7.437859E-2,2.2668194E-2,3.454891E-2,7.956804E-2,-5.6508123E-3,-2.5020843E-2,-4.698137E-2,-3.6266327E-3,1.1617779E-2,-3.960171E-2,-4.3301727E-3,9.811511E-3,-7.153244E-3,9.167633E-3,-1.2245751E-2,-4.8513416E-2,1.1975447E-2,-1.0253667E-3,-8.557402E-3,2.239773E-2,-9.211848E-3,1.5956117E-2,-2.2792483E-2,8.034325E-3,4.9321633E-3,-6.1862827E-3,3.603287E-2,1.0180435E-2,5.9127998E-2,2.2195817E-3,-9.641934E-3,4.9839023E-4,-1.907692E-2,9.590149E-4,-6.902886E-3,4.4360735E-2,1.1157032E-2,-9.3217855E-3,2.7631015E-2,-1.5828704E-2,4.5723745E-4,9.3975095E-3,2.1970369E-2,1.7638208E-3,2.9314842E-2,1.734419E-2],"categories":[],"categories_nodes":[],"categories_segments":[],"categories_sizes":[],"default_left":[0,0,0,0,0,0,0,0,0,0,0,0,0,0,0,0,0,0,0,0,0,0,0,0,0,0,0,0,0,0,0,0,0,0,0,0,0,0,0,0,0,0,0,0,0,0,0,0,0,0,0,0,0,0,0,0,0,0,0,0,0,0,0,0,0,0,0,0,0,0,0,0,0,0,0,0,0,0,0,0,0,0,0,0,0,0,0,0,0,0,0,0,0,0,0,0,0,0,0],"id":16,"left_children":[1,3,5,7,9,11,13,15,17,19,21,23,25,27,29,31,33,35,-1,-1,37,39,41,43,45,47,49,51,53,-1,55,57,59,61,63,65,67,-1,-1,69,71,73,75,77,79,81,83,85,-1,87,-1,89,91,-1,93,95,97,-1,-1,-1,-1,-1,-1,-1,-1,-1,-1,-1,-1,-1,-1,-1,-1,-1,-1,-1,-1,-1,-1,-1,-1,-1,-1,-1,-1,-1,-1,-1,-1,-1,-1,-1,-1,-1,-1,-1,-1,-1,-1],"loss_changes":[1.1227578E0,1.2183192E-1,9.097016E-2,8.860105E-2,1.4097048E-1,5.6761652E-2,5.5206716E-2,3.688535E-2,1.7274676E-1,1.9971237E-2,4.833382E-2,7.250717E-2,1.2424152E-1,4.169202E-2,1.1541754E-2,4.8625603E-2,6.757197E-2,5.6741193E-2,0E0,0E0,1.9283116E-2,8.5939795E-2,3.0240513E-2,2.5228843E-2,1.0345123E-1,1.1982189E-1,2.7199902E-2,8.774802E-2,1.0049328E-1,0E0,1.6744375E-2,4.3776944E-2,1.1289272E-1,8.048053E-2,3.0627906E-2,7.3866714E-3,1.4763623E-3,0E0,0E0,4.2457648E-2,5.449146E-2,3.330695E-2,1.4358357E-2,4.2185307E-2,8.907799E-3,2.8374985E-2,1.0005448E-3,7.637093E-3,0E0,4.3355323E-2,0E0,6.870916E-2,1.0559282E-1,0E0,8.561534E-2,2.0642294E-2,2.6413351E-3,0E0,0E0,0E0,0E0,0E0,0E0,0E0,0E0,0E0,0E0,0E0,0E0,0E0,0E0,0E0,0E0,0E0,0E0,0E0,0E0,0E0,0E0,0E0,0E0,0E0,0E0,0E0,0E0,0E0,0E0,0E0,0E0,0E0,0E0,0E0,0E0,0E0,0E0,0E0,0E0,0E0,0E0],"parents":[2147483647,0,0,1,1,2,2,3,3,4,4,5,5,6,6,7,7,8,8,9,9,10,10,11,11,12,12,13,13,14,14,15,15,16,16,17,17,20,20,21,21,22,22,23,23,24,24,25,25,26,26,27,27,28,28,30,30,31,31,32,32,33,33,34,34,35,35,36,36,39,39,40,40,41,41,42,42,43,43,44,44,45,45,46,46,47,47,49,49,51,51,52,52,54,54,55,55,56,56],"right_children":[2,4,6,8,10,12,14,16,18,20,22,24,26,28,30,32,34,36,-1,-1,38,40,42,44,46,48,50,52,54,-1,56,58,60,62,64,66,68,-1,-1,70,72,74,76,78,80,82,84,86,-1,88,-1,90,92,-1,94,96,98,-1,-1,-1,-1,-1,-1,-1,-1,-1,-1,-1,-1,-1,-1,-1,-1,-1,-1,-1,-1,-1,-1,-1,-1,-1,-1,-1,-1,-1,-1,-1,-1,-1,-1,-1,-1,-1,-1,-1,-1,-1,-1],"split_conditions":[3.779E1,3.281E1,4.197E1,3.286E1,3.255E1,4.182E1,4.552E1,3.037E1,3.286E1,3.269E1,3.755E1,4.182E1,4.206E1,4.28E1,4.542E1,3.048E1,3.048E1,3.305E1,-1.1098624E-1,7.7304844E-4,3.242E1,3.749E1,3.763E1,4.197E1,4.182E1,4.206E1,4.197E1,4.274E1,4.22E1,4.055252E-2,4.565E1,3.042E1,3.048E1,3.104E1,3.286E1,3.285E1,3.276E1,-2.1806718E-3,-4.9018648E-2,3.262E1,3.74E1,3.763E1,3.787E1,4.165E1,4.182E1,4.206E1,4.197E1,4.197E1,-9.828072E-2,4.246E1,4.8719216E-2,4.255E1,4.349E1,7.437859E-2,4.336E1,4.552E1,4.565E1,-5.6508123E-3,-2.5020843E-2,-4.698137E-2,-3.6266327E-3,1.1617779E-2,-3.960171E-2,-4.3301727E-3,9.811511E-3,-7.153244E-3,9.167633E-3,-1.2245751E-2,-4.8513416E-2,1.1975447E-2,-1.0253667E-3,-8.557402E-3,2.239773E-2,-9.211848E-3,1.5956117E-2,-2.2792483E-2,8.034325E-3,4.9321633E-3,-6.1862827E-3,3.603287E-2,1.0180435E-2,5.9127998E-2,2.2195817E-3,-9.641934E-3,4.9839023E-4,-1.907692E-2,9.590149E-4,-6.902886E-3,4.4360735E-2,1.1157032E-2,-9.3217855E-3,2.7631015E-2,-1.5828704E-2,4.5723745E-4,9.3975095E-3,2.1970369E-2,1.7638208E-3,2.9314842E-2,1.734419E-2],"split_indices":[2,2,1,3,5,1,1,2,1,0,3,0,6,6,0,6,3,5,0,0,3,0,5,5,2,0,0,0,2,0,0,0,5,0,4,5,0,0,0,6,2,6,1,1,4,0,2,0,0,6,0,0,1,0,5,6,6,0,0,0,0,0,0,0,0,0,0,0,0,0,0,0,0,0,0,0,0,0,0,0,0,0,0,0,0,0,0,0,0,0,0,0,0,0,0,0,0,0,0],"split_type":[0,0,0,0,0,0,0,0,0,0,0,0,0,0,0,0,0,0,0,0,0,0,0,0,0,0,0,0,0,0,0,0,0,0,0,0,0,0,0,0,0,0,0,0,0,0,0,0,0,0,0,0,0,0,0,0,0,0,0,0,0,0,0,0,0,0,0,0,0,0,0,0,0,0,0,0,0,0,0,0,0,0,0,0,0,0,0,0,0,0,0,0,0,0,0,0,0,0,0],"sum_hessian":[4.952E3,3.346E3,1.606E3,1.907E3,1.439E3,9.46E2,6.6E2,1.895E3,1.2E1,8E0,1.431E3,9.28E2,1.8E1,6.2E2,4E1,3.29E2,1.566E3,1.1E1,1E0,1E0,7E0,1.388E3,4.3E1,9.18E2,1E1,1.1E1,7E0,1.52E2,4.68E2,2E0,3.8E1,3.07E2,2.2E1,4E1,1.526E3,8E0,3E0,1E0,6E0,1.36E3,2.8E1,2.7E1,1.6E1,9.12E2,6E0,6E0,4E0,1E1,1E0,6E0,1E0,1.02E2,5E1,1E0,4.67E2,1.8E1,2E1,2.97E2,1E1,8E0,1.4E1,3.8E1,2E0,1.513E3,1.3E1,4E0,4E0,1E0,2E0,2.2E1,1.338E3,6E0,2.2E1,2.2E1,5E0,1.5E1,1E0,8.81E2,3.1E1,2E0,4E0,5E0,1E0,3E0,1E0,8E0,2E0,5E0,1E0,8.5E1,1.7E1,4.5E1,5E0,1.36E2,3.31E2,7E0,1.1E1,9E0,1.1E1],"tree_param":{"num_deleted":"0","num_feature":"7","num_nodes":"99","size_leaf_vector":"1"}},{"base_weights":[7.6355944E-5,-8.394426E-3,1.3703614E-2,-8.196872E-3,-4.7109034E-2,6.0649603E-3,1.917503E-2,-1.4154751E-2,-5.3636385E-3,6.7075803E-3,-9.6681975E-2,7.874992E-2,1.8559612E-2,-1.2254194E-2,-1.282537E-1,5.456755E-2,-5.886482E-3,5.685272E-2,5.729636E-3,2.0816803E-3,-3.7296582E-2,7.6001487E-3,1.367747E-1,-4.0945437E-2,1.8967815E-2,-1.1330641E-2,-1.21664286E-1,-3.1323928E-1,-4.048856E-2,-3.129959E-3,8.3677135E-2,-6.250119E-2,-5.439121E-3,8.806922E-2,-2.3194123E-2,-2.5712637E-2,6.940995E-3,3.9898682E-2,-2.3083879E-2,1.7124939E-1,-5.3398134E-3,1.0851364E-1,1.8539652E-2,-3.7845552E-3,1.1180168E-2,-6.242695E-2,-8.457298E-3,-1.2773037E-1,2.0531274E-2,-4.6695903E-2,1.0965086E-2,1.5250111E-2,-1.689334E-2,3.519924E-2,3.928757E-3,-5.9290803E-3,-3.913098E-2,1.4930207E-2,-1.803277E-3,5.1426482E-3,5.092598E-2,2.1305084E-3,-1.372757E-2,-2.780533E-3,-1.836764E-2,2.01252E-2,1.7856945E-3,1.6134262E-2,3.8150789E-3,6.739426E-3,6.084881E-2,4.1268256E-2,-1.1512757E-3,5.195502E-3,1.4809492E-2],"categories":[],"categories_nodes":[],"categories_segments":[],"categories_sizes":[],"default_left":[0,0,0,0,0,0,0,0,0,0,0,0,0,0,0,0,0,0,0,0,0,0,0,0,0,0,0,0,0,0,0,0,0,0,0,0,0,0,0,0,0,0,0,0,0,0,0,0,0,0,0,0,0,0,0,0,0,0,0,0,0,0,0,0,0,0,0,0,0,0,0,0,0,0,0],"id":17,"left_children":[1,3,5,7,-1,9,11,13,15,17,19,21,23,25,27,29,31,33,35,-1,-1,37,39,-1,41,43,45,47,49,51,53,55,57,59,61,63,65,67,-1,69,-1,71,73,-1,-1,-1,-1,-1,-1,-1,-1,-1,-1,-1,-1,-1,-1,-1,-1,-1,-1,-1,-1,-1,-1,-1,-1,-1,-1,-1,-1,-1,-1,-1,-1],"loss_changes":[5.7185733E-1,8.84189E-2,7.925102E-2,5.1442012E-2,0E0,5.307412E-2,3.908825E-2,2.115933E-1,6.518389E-2,3.8415186E-2,1.5183054E-2,4.4373438E-2,7.195413E-2,9.643407E-2,2.4708194E-1,3.0493814E-2,5.165682E-2,3.9524425E-2,2.9734658E-2,0E0,0E0,1.9454405E-2,3.502149E-2,0E0,3.993231E-2,6.0461514E-2,5.876158E-2,2.4388638E-1,1.1215477E-1,2.2951458E-2,2.6967272E-2,4.3876417E-2,6.463307E-2,6.0819753E-2,3.743005E-3,1.636795E-2,4.4078395E-2,1.2027845E-3,0E0,1.893656E-2,0E0,1.684535E-2,4.0180653E-2,0E0,0E0,0E0,0E0,0E0,0E0,0E0,0E0,0E0,0E0,0E0,0E0,0E0,0E0,0E0,0E0,0E0,0E0,0E0,0E0,0E0,0E0,0E0,0E0,0E0,0E0,0E0,0E0,0E0,0E0,0E0,0E0],"parents":[2147483647,0,0,1,1,2,2,3,3,5,5,6,6,7,7,8,8,9,9,10,10,11,11,12,12,13,13,14,14,15,15,16,16,17,17,18,18,21,21,22,22,24,24,25,25,26,26,27,27,28,28,29,29,30,30,31,31,32,32,33,33,34,34,35,35,36,36,37,37,39,39,41,41,42,42],"right_children":[2,4,6,8,-1,10,12,14,16,18,20,22,24,26,28,30,32,34,36,-1,-1,38,40,-1,42,44,46,48,50,52,54,56,58,60,62,64,66,68,-1,70,-1,72,74,-1,-1,-1,-1,-1,-1,-1,-1,-1,-1,-1,-1,-1,-1,-1,-1,-1,-1,-1,-1,-1,-1,-1,-1,-1,-1,-1,-1,-1,-1,-1,-1],"split_conditions":[3.565E1,3.607E1,4.001E1,3.146E1,-4.7109034E-2,4.019E1,3.991E1,3.159E1,3.138E1,3.54E1,3.945E1,4.001E1,4.001E1,3.154E1,3.127E1,3.152E1,3.135E1,3.57E1,3.569E1,2.0816803E-3,-3.7296582E-2,4.001E1,3.995E1,-4.0945437E-2,4.001E1,3.151E1,3.138E1,3.154E1,3.166E1,3.133E1,3.166E1,3.172E1,3.138E1,3.561E1,3.594E1,3.565E1,3.565E1,3.965E1,-2.3083879E-2,3.991E1,-5.3398134E-3,4.067E1,4.552E1,-3.7845552E-3,1.1180168E-2,-6.242695E-2,-8.457298E-3,-1.2773037E-1,2.0531274E-2,-4.6695903E-2,1.0965086E-2,1.5250111E-2,-1.689334E-2,3.519924E-2,3.928757E-3,-5.9290803E-3,-3.913098E-2,1.4930207E-2,-1.803277E-3,5.1426482E-3,5.092598E-2,2.1305084E-3,-1.372757E-2,-2.780533E-3,-1.836764E-2,2.01252E-2,1.7856945E-3,1.6134262E-2,3.8150789E-3,6.739426E-3,6.084881E-2,4.1268256E-2,-1.1512757E-3,5.195502E-3,1.4809492E-2],"split_indices":[1,5,2,2,0,5,5,4,1,6,0,0,3,3,0,5,4,3,2,0,0,3,4,0,6,0,1,3,4,1,3,1,5,2,0,2,0,5,0,3,0,2,1,0,0,0,0,0,0,0,0,0,0,0,0,0,0,0,0,0,0,0,0,0,0,0,0,0,0,0,0,0,0,0,0],"split_type":[0,0,0,0,0,0,0,0,0,0,0,0,0,0,0,0,0,0,0,0,0,0,0,0,0,0,0,0,0,0,0,0,0,0,0,0,0,0,0,0,0,0,0,0,0,0,0,0,0,0,0,0,0,0,0,0,0,0,0,0,0,0,0,0,0,0,0,0,0,0,0,0,0,0,0],"sum_hessian":[4.952E3,3.054E3,1.898E3,3.051E3,3E0,7.93E2,1.105E3,9.82E2,2.069E3,7.89E2,4E0,1E1,1.095E3,9.67E2,1.5E1,1.7E1,2.052E3,1.4E1,7.75E2,1E0,3E0,5E0,5E0,2E0,1.093E3,9.6E2,7E0,4E0,1.1E1,6E0,1.1E1,1.5E1,2.037E3,1E1,4E0,2.8E1,7.47E2,4E0,1E0,4E0,1E0,4E0,1.089E3,9.36E2,2.4E1,3E0,4E0,3E0,1E0,4E0,7E0,3E0,3E0,7E0,4E0,1E1,5E0,2E1,2.017E3,6E0,4E0,2E0,2E0,2E1,8E0,1.1E1,7.36E2,2E0,2E0,1E0,3E0,3E0,1E0,1.049E3,4E1],"tree_param":{"num_deleted":"0","num_feature":"7","num_nodes":"75","size_leaf_vector":"1"}},{"base_weights":[2.1508407E-5,-5.1871426E-3,1.144963E-2,-7.757294E-3,1.7203801E-4,5.273978E-2,1.0793601E-2,-7.379728E-3,-6.478119E-2,-4.182072E-2,4.249635E-4,-1.5654564E-3,1.4342244E-1,-4.6434704E-2,1.1506544E-2,-4.61483E-2,-7.0344475E-3,-1.2717819E-1,-3.0529715E-2,4.8395284E-2,-2.3617495E-4,3.9744906E-2,-4.7843933E-2,1.5932083E-2,2.0451228E-1,-1.46865845E-2,-8.007855E-2,8.042744E-3,1.698503E-2,-1.9844867E-2,-1.4352375E-2,3.0140558E-2,-7.3787468E-3,-1.0058085E-3,-6.3287355E-2,2.555593E-2,-4.583274E-2,6.849501E-3,9.489768E-2,-2.1034017E-2,7.849281E-4,9.154968E-2,-2.000885E-2,-9.336662E-2,-1.8569946E-3,5.5152895E-3,1.286316E-3,8.670044E-3,7.015641E-2,-8.4560394E-2,3.7321363E-2,-1.24147795E-1,-1.9993592E-2,8.416225E-3,-8.024216E-2,1.0577986E-1,1.5568124E-2,-1.2077809E-3,-1.4544583E-2,-4.115531E-3,5.1969912E-2,-1.8207878E-2,-2.0618087E-3,-1.1031533E-2,1.0578919E-2,1.9357682E-3,9.5644E-3,-2.5851822E-2,-6.5989904E-3,1.746483E-2,-2.157383E-2,4.310417E-2,6.71711E-3,-2.9928873E-3,-5.8389667E-2,6.636094E-3,-1.4280176E-4,3.2316685E-2,4.0288926E-3,2.7477266E-3,-1.2752152E-2,1.7326355E-3,-3.850174E-2,-1.8348314E-2,8.477784E-3,-3.1936742E-2,4.5318605E-4,2.4375916E-3,1.4212418E-2,-7.0467E-3,-4.3032076E-2,-1.5004922E-2,4.8637394E-6,2.3614264E-3,5.1914215E-2,-2.753296E-2,-6.845856E-3,-2.846718E-2,4.28175E-2,4.156952E-2,4.3397276E-3],"categories":[],"categories_nodes":[],"categories_segments":[],"categories_sizes":[],"default_left":[0,0,0,0,0,0,0,0,0,0,0,0,0,0,0,0,0,0,0,0,0,0,0,0,0,0,0,0,0,0,0,0,0,0,0,0,0,0,0,0,0,0,0,0,0,0,0,0,0,0,0,0,0,0,0,0,0,0,0,0,0,0,0,0,0,0,0,0,0,0,0,0,0,0,0,0,0,0,0,0,0,0,0,0,0,0,0,0,0,0,0,0,0,0,0,0,0,0,0,0,0],"id":18,"left_children":[1,3,5,7,9,11,13,15,17,-1,19,21,23,25,27,29,31,33,35,37,39,41,43,45,47,49,51,53,55,-1,57,59,61,63,-1,65,67,69,71,73,75,77,79,81,83,-1,-1,-1,-1,85,87,89,91,93,95,97,99,-1,-1,-1,-1,-1,-1,-1,-1,-1,-1,-1,-1,-1,-1,-1,-1,-1,-1,-1,-1,-1,-1,-1,-1,-1,-1,-1,-1,-1,-1,-1,-1,-1,-1,-1,-1,-1,-1,-1,-1,-1,-1,-1,-1],"loss_changes":[2.948872E-1,4.6873942E-2,4.1443557E-2,4.9041554E-2,3.9032575E-2,1.1841355E-1,6.2877506E-2,3.0275851E-2,2.8175123E-2,0E0,3.4993105E-2,3.2490045E-2,6.683698E-2,1.9118365E-2,2.8517738E-2,1.1769764E-2,2.92385E-2,5.2641213E-2,1.0612378E-2,2.8329674E-2,2.3143321E-2,2.9691573E-2,1.6574211E-2,3.539119E-5,2.4158895E-2,4.312984E-2,2.1348923E-2,3.1241093E-2,7.1828604E-2,0E0,2.9767468E-3,1.3417022E-1,6.020628E-2,5.1882584E-3,0E0,1.5679351E-4,6.7584254E-3,4.0598225E-2,2.1542758E-2,9.5957965E-2,2.7962236E-2,4.8703477E-3,3.670475E-3,1.4610205E-2,1.065845E-2,0E0,0E0,0E0,0E0,9.583611E-3,1.6696956E-3,6.340511E-3,3.004564E-3,8.151308E-2,5.5503845E-4,8.026744E-2,7.609397E-2,0E0,0E0,0E0,0E0,0E0,0E0,0E0,0E0,0E0,0E0,0E0,0E0,0E0,0E0,0E0,0E0,0E0,0E0,0E0,0E0,0E0,0E0,0E0,0E0,0E0,0E0,0E0,0E0,0E0,0E0,0E0,0E0,0E0,0E0,0E0,0E0,0E0,0E0,0E0,0E0,0E0,0E0,0E0,0E0],"parents":[2147483647,0,0,1,1,2,2,3,3,4,4,5,5,6,6,7,7,8,8,10,10,11,11,12,12,13,13,14,14,15,15,16,16,17,17,18,18,19,19,20,20,21,21,22,22,23,23,24,24,25,25,26,26,27,27,28,28,30,30,31,31,32,32,33,33,35,35,36,36,37,37,38,38,39,39,40,40,41,41,42,42,43,43,44,44,49,49,50,50,51,51,52,52,53,53,54,54,55,55,56,56],"right_children":[2,4,6,8,10,12,14,16,18,-1,20,22,24,26,28,30,32,34,36,38,40,42,44,46,48,50,52,54,56,-1,58,60,62,64,-1,66,68,70,72,74,76,78,80,82,84,-1,-1,-1,-1,86,88,90,92,94,96,98,100,-1,-1,-1,-1,-1,-1,-1,-1,-1,-1,-1,-1,-1,-1,-1,-1,-1,-1,-1,-1,-1,-1,-1,-1,-1,-1,-1,-1,-1,-1,-1,-1,-1,-1,-1,-1,-1,-1,-1,-1,-1,-1,-1,-1],"split_conditions":[3.805E1,3.346E1,3.805E1,3.363E1,3.324E1,3.797E1,3.824E1,2.926E1,3.314E1,-4.182072E-2,3.34E1,3.812E1,3.805E1,3.812E1,4.246E1,2.926E1,2.95E1,3.273E1,3.355E1,3.333E1,3.369E1,3.779E1,3.779E1,3.805E1,3.812E1,3.805E1,3.851E1,4.288E1,4.236E1,-1.9844867E-2,2.95E1,2.968E1,2.968E1,3.269E1,-6.3287355E-2,3.334E1,3.347E1,3.329E1,3.361E1,3.39E1,3.396E1,3.812E1,3.805E1,3.755E1,3.797E1,5.5152895E-3,1.286316E-3,8.670044E-3,7.015641E-2,3.812E1,3.824E1,3.812E1,3.824E1,4.268E1,4.357E1,4.206E1,4.22E1,-1.2077809E-3,-1.4544583E-2,-4.115531E-3,5.1969912E-2,-1.8207878E-2,-2.0618087E-3,-1.1031533E-2,1.0578919E-2,1.9357682E-3,9.5644E-3,-2.5851822E-2,-6.5989904E-3,1.746483E-2,-2.157383E-2,4.310417E-2,6.71711E-3,-2.9928873E-3,-5.8389667E-2,6.636094E-3,-1.4280176E-4,3.2316685E-2,4.0288926E-3,2.7477266E-3,-1.2752152E-2,1.7326355E-3,-3.850174E-2,-1.8348314E-2,8.477784E-3,-3.1936742E-2,4.5318605E-4,2.4375916E-3,1.4212418E-2,-7.0467E-3,-4.3032076E-2,-1.5004922E-2,4.8637394E-6,2.3614264E-3,5.1914215E-2,-2.753296E-2,-6.845856E-3,-2.846718E-2,4.28175E-2,4.156952E-2,4.3397276E-3],"split_indices":[0,0,5,5,3,4,0,0,0,0,4,0,2,1,6,6,1,0,3,6,5,5,4,1,0,3,4,3,3,0,2,4,1,0,0,0,2,6,0,3,5,2,1,4,1,0,0,0,0,4,6,0,2,4,0,4,2,0,0,0,0,0,0,0,0,0,0,0,0,0,0,0,0,0,0,0,0,0,0,0,0,0,0,0,0,0,0,0,0,0,0,0,0,0,0,0,0,0,0,0,0],"split_type":[0,0,0,0,0,0,0,0,0,0,0,0,0,0,0,0,0,0,0,0,0,0,0,0,0,0,0,0,0,0,0,0,0,0,0,0,0,0,0,0,0,0,0,0,0,0,0,0,0,0,0,0,0,0,0,0,0,0,0,0,0,0,0,0,0,0,0,0,0,0,0,0,0,0,0,0,0,0,0,0,0,0,0,0,0,0,0,0,0,0,0,0,0,0,0,0,0,0,0,0,0],"sum_hessian":[4.952E3,3.402E3,1.55E3,2.299E3,1.103E3,2.3E1,1.527E3,2.285E3,1.4E1,1E0,1.102E3,1.5E1,8E0,1.8E1,1.509E3,1.9E1,2.266E3,4E0,1E1,1.4E1,1.088E3,8E0,7E0,3E0,5E0,1E1,8E0,9.26E2,5.83E2,1.1E1,8E0,2E1,2.246E3,2E0,2E0,2E0,8E0,8E0,6E0,5E1,1.038E3,4E0,4E0,3E0,4E0,2E0,1E0,1E0,4E0,4E0,6E0,4E0,4E0,9.23E2,3E0,8E0,5.75E2,7E0,1E0,1.6E1,4E0,2E1,2.226E3,1E0,1E0,1E0,1E0,2E0,6E0,5E0,3E0,3E0,3E0,4.8E1,2E0,5.7E1,9.81E2,3E0,1E0,2E0,2E0,1E0,2E0,1E0,3E0,3E0,1E0,2E0,4E0,1E0,3E0,1E0,3E0,9.21E2,2E0,2E0,1E0,1E0,7E0,4E0,5.71E2],"tree_param":{"num_deleted":"0","num_feature":"7","num_nodes":"101","size_leaf_vector":"1"}},{"base_weights":[-1.5368925E-6,-4.4508595E-3,6.9285654E-3,-4.6572927E-3,1.2083588E-1,6.361433E-3,3.299983E-2,-4.2028483E-3,-1.0170555E-1,5.4520037E-2,1.9659678E-2,-2.6565172E-2,6.5083327E-3,1.4088917E-1,2.077464E-2,-4.4237296E-3,6.2282942E-2,-5.3268434E-3,-1.3972434E-1,9.724045E-3,-8.771897E-4,2.760596E-2,5.6237564E-3,5.0880816E-2,8.21228E-3,2.6506234E-2,1.656022E-2,-4.0299976E-3,-4.315071E-2,7.285479E-2,-4.9295425E-3,-5.8624268E-2,1.4923859E-2,-5.0979804E-2,-7.552948E-2,6.380081E-3,5.2288275E-2,-7.3724955E-2,6.014769E-3,-3.970899E-3,3.6219746E-2,-1.3168151E-3,1.8724896E-2,-1.0268822E-1,-2.8675627E-3,-2.9600144E-3,2.5328495E-2,-2.2238731E-2,-4.1421894E-3,-2.846203E-2,2.7694704E-4,6.1625508E-3,-2.4604226E-2,3.1738423E-2,7.996171E-3,-4.5802977E-2,-2.640915E-3,1.114961E-2,1.6408478E-3,-6.716061E-3,7.244826E-3,2.1798708E-3,1.3036881E-2],"categories":[],"categories_nodes":[],"categories_segments":[],"categories_sizes":[],"default_left":[0,0,0,0,0,0,0,0,0,0,0,0,0,0,0,0,0,0,0,0,0,0,0,0,0,0,0,0,0,0,0,0,0,0,0,0,0,0,0,0,0,0,0,0,0,0,0,0,0,0,0,0,0,0,0,0,0,0,0,0,0,0,0],"id":19,"left_children":[1,3,5,7,9,11,13,15,17,-1,19,-1,21,23,25,27,29,31,33,-1,-1,35,37,-1,-1,-1,39,41,43,45,-1,47,-1,-1,49,51,53,55,57,59,61,-1,-1,-1,-1,-1,-1,-1,-1,-1,-1,-1,-1,-1,-1,-1,-1,-1,-1,-1,-1,-1,-1],"loss_changes":[1.5275294E-1,7.859242E-2,2.8430298E-2,1.3245496E-1,2.72341E-2,2.7025282E-2,5.1150743E-2,4.4331864E-2,5.0554544E-2,0E0,9.5885794E-4,0E0,3.5210095E-2,8.394912E-3,9.359553E-3,4.5432977E-2,9.518731E-3,1.759259E-2,6.557271E-3,0E0,0E0,3.948308E-2,5.691137E-2,0E0,0E0,0E0,1.5078213E-2,7.1006194E-2,2.9819438E-1,9.449445E-3,0E0,1.0611163E-3,0E0,0E0,7.482065E-3,5.426101E-2,4.518632E-2,4.4787187E-2,3.0574813E-2,1.0380025E-2,3.6651678E-3,0E0,0E0,0E0,0E0,0E0,0E0,0E0,0E0,0E0,0E0,0E0,0E0,0E0,0E0,0E0,0E0,0E0,0E0,0E0,0E0,0E0,0E0],"parents":[2147483647,0,0,1,1,2,2,3,3,4,4,5,5,6,6,7,7,8,8,10,10,12,12,13,13,14,14,15,15,16,16,17,17,18,18,21,21,22,22,26,26,27,27,28,28,29,29,31,31,34,34,35,35,36,36,37,37,38,38,39,39,40,40],"right_children":[2,4,6,8,10,12,14,16,18,-1,20,-1,22,24,26,28,30,32,34,-1,-1,36,38,-1,-1,-1,40,42,44,46,-1,48,-1,-1,50,52,54,56,58,60,62,-1,-1,-1,-1,-1,-1,-1,-1,-1,-1,-1,-1,-1,-1,-1,-1,-1,-1,-1,-1,-1,-1],"split_conditions":[3.556E1,3.597E1,4.552E1,3.57E1,3.615E1,3.518E1,4.542E1,3.582E1,3.539E1,5.4520037E-2,3.581E1,-2.6565172E-2,3.566E1,4.542E1,4.528E1,3.558E1,3.565E1,3.581E1,3.56E1,9.724045E-3,-8.771897E-4,3.553E1,3.561E1,5.0880816E-2,8.21228E-3,2.6506234E-2,4.565E1,3.553E1,3.518E1,3.517E1,-4.9295425E-3,3.521E1,1.4923859E-2,-5.0979804E-2,3.551E1,3.57E1,3.561E1,3.565E1,3.581E1,4.565E1,4.552E1,-1.3168151E-3,1.8724896E-2,-1.0268822E-1,-2.8675627E-3,-2.9600144E-3,2.5328495E-2,-2.2238731E-2,-4.1421894E-3,-2.846203E-2,2.7694704E-4,6.1625508E-3,-2.4604226E-2,3.1738423E-2,7.996171E-3,-4.5802977E-2,-2.640915E-3,1.114961E-2,1.6408478E-3,-6.716061E-3,7.244826E-3,2.1798708E-3,1.3036881E-2],"split_indices":[0,4,3,3,5,3,0,6,1,0,1,0,5,1,5,6,3,3,1,0,0,5,4,0,0,0,5,5,3,2,0,0,0,0,0,4,2,0,3,0,1,0,0,0,0,0,0,0,0,0,0,0,0,0,0,0,0,0,0,0,0,0,0],"split_type":[0,0,0,0,0,0,0,0,0,0,0,0,0,0,0,0,0,0,0,0,0,0,0,0,0,0,0,0,0,0,0,0,0,0,0,0,0,0,0,0,0,0,0,0,0,0,0,0,0,0,0,0,0,0,0,0,0,0,0,0,0,0,0],"sum_hessian":[4.952E3,3.016E3,1.936E3,3.012E3,4E0,1.896E3,4E1,2.999E3,1.3E1,2E0,2E0,2E0,1.894E3,3E0,3.7E1,2.99E3,9E0,4E0,9E0,1E0,1E0,7.5E1,1.819E3,2E0,1E0,1E0,3.6E1,2.961E3,2.9E1,8E0,1E0,2E0,2E0,5E0,4E0,4.1E1,3.4E1,8E0,1.811E3,1.8E1,1.8E1,2.946E3,1.5E1,2E0,2.7E1,1E0,7E0,1E0,1E0,3E0,1E0,3.6E1,5E0,1E1,2.4E1,3E0,5E0,3E1,1.781E3,1.1E1,7E0,4E0,1.4E1],"tree_param":{"num_deleted":"0","num_feature":"7","num_nodes":"63","size_leaf_vector":"1"}},{"base_weights":[-8.8967245E-6,-2.582062E-3,7.5349775E-3,-2.273182E-3,-3.6780156E-2,6.38831E-2,6.5746186E-3,-2.7357615E-3,2.7030945E-2,-1.520244E-1,-5.539788E-3,1.09215476E-1,1.2743169E-2,6.156413E-2,6.0323495E-3,-2.4783497E-3,-3.6765344E-2,-4.8389435E-2,3.8557585E-2,-2.4936676E-3,-5.237732E-2,3.8331985E-2,-4.901586E-2,3.8375854E-3,1.292216E-1,-1.7626021E-2,2.9880907E-2,1.0542679E-2,2.1111424E-1,-2.4330929E-2,7.5298217E-3,-2.5612286E-3,9.719467E-2,3.4517765E-2,-6.344032E-2,3.5650253E-2,-3.1782992E-2,1.8774033E-2,6.984791E-2,9.446398E-2,-3.3484565E-3,-1.4237824E-1,2.5669099E-3,5.819693E-2,6.45059E-2,1.1642075E-2,-3.929356E-2,9.009298E-2,-2.0606518E-2,4.6766284E-3,9.032479E-2,-3.7082035E-2,3.3522174E-2,3.4073997E-2,6.7308475E-3,-2.6889965E-3,-4.2758347E-4,-1.2737847E-2,5.647545E-2,1.271455E-2,-3.0796053E-3,-3.49926E-2,-9.692411E-3,-1.0002137E-3,2.2890473E-2,1.4222874E-2,-1.2061137E-2,-7.69043E-4,2.6798556E-2,3.9593983E-2,3.8864138E-3,-5.640078E-3,1.8039895E-2,-7.855988E-3,-6.333313E-2,1.1945671E-2,-1.8979741E-2,6.102276E-3,3.0567171E-2,-1.746048E-2,1.5953064E-3,3.309975E-2,7.442093E-3,-1.418953E-2,1.4604949E-3,-6.9405152E-3,-3.463996E-2,2.1143962E-2,-1.463213E-2,2.2484208E-3,2.0172425E-2,-7.3618153E-3,2.2450131E-3],"categories":[],"categories_nodes":[],"categories_segments":[],"categories_sizes":[],"default_left":[0,0,0,0,0,0,0,0,0,0,0,0,0,0,0,0,0,0,0,0,0,0,0,0,0,0,0,0,0,0,0,0,0,0,0,0,0,0,0,0,0,0,0,0,0,0,0,0,0,0,0,0,0,0,0,0,0,0,0,0,0,0,0,0,0,0,0,0,0,0,0,0,0,0,0,0,0,0,0,0,0,0,0,